<?xml version="1.0"?>
<opencv_storage>
<opencv_ml_svm>
  <format>3</format>
  <svmType>C_SVC</svmType>
  <kernel>
    <type>RBF</type>
    <gamma>1.5000000000000001e-004</gamma></kernel>
  <C>3.1250000000000000e+002</C>
  <term_criteria><epsilon>1.1920928955078125e-007</epsilon>
    <iterations>1000</iterations></term_criteria>
  <var_count>4</var_count>
  <class_count>4</class_count>
  <class_labels type_id="opencv-matrix">
    <rows>4</rows>
    <cols>1</cols>
    <dt>i</dt>
    <data>
      0 1 2 3</data></class_labels>
  <sv_total>160</sv_total>
  <support_vectors>
    <_>
      389. 8. 402. 11.</_>
    <_>
      215. 4. 1242. 32.</_>
    <_>
      291. 5. 932. 15.</_>
    <_>
      221. 2. 459. 11.</_>
    <_>
      0. 0. 86. 3.</_>
    <_>
      51. 1. 74. 2.</_>
    <_>
      182. 5. 127. 3.</_>
    <_>
      276. 6. 652. 13.</_>
    <_>
      112. 3. 894. 14.</_>
    <_>
      141. 4. 517. 12.</_>
    <_>
      63. 2. 1034. 21.</_>
    <_>
      69. 1. 228. 5.</_>
    <_>
      234. 4. 1940. 20.</_>
    <_>
      300. 6. 192. 6.</_>
    <_>
      357. 5. 1022. 16.</_>
    <_>
      69. 2. 603. 15.</_>
    <_>
      350. 6. 0. 0.</_>
    <_>
      1049. 13. 310. 6.</_>
    <_>
      130. 3. 0. 0.</_>
    <_>
      118. 3. 1248. 32.</_>
    <_>
      191. 4. 1108. 22.</_>
    <_>
      255. 5. 597. 9.</_>
    <_>
      0. 0. 70. 3.</_>
    <_>
      120. 1. 820. 12.</_>
    <_>
      208. 5. 411. 13.</_>
    <_>
      153. 4. 825. 22.</_>
    <_>
      704. 6. 100. 2.</_>
    <_>
      183. 3. 790. 24.</_>
    <_>
      97. 2. 220. 8.</_>
    <_>
      142. 3. 434. 9.</_>
    <_>
      172. 5. 220. 5.</_>
    <_>
      207. 3. 0. 0.</_>
    <_>
      0. 0. 427. 6.</_>
    <_>
      261. 4. 0. 0.</_>
    <_>
      40. 1. 164. 5.</_>
    <_>
      0. 0. 127. 1.</_>
    <_>
      30. 1. 0. 0.</_>
    <_>
      93. 2. 219. 1.</_>
    <_>
      461. 7. 854. 14.</_>
    <_>
      99. 2. 381. 10.</_>
    <_>
      80. 2. 600. 12.</_>
    <_>
      90. 3. 244. 8.</_>
    <_>
      90. 3. 1089. 24.</_>
    <_>
      71. 2. 361. 10.</_>
    <_>
      259. 4. 0. 0.</_>
    <_>
      71. 1. 432. 6.</_>
    <_>
      1200. 15. 1080. 11.</_>
    <_>
      119. 1. 78. 3.</_>
    <_>
      1939. 15. 3456. 55.</_>
    <_>
      324. 5. 233. 5.</_>
    <_>
      275. 5. 1107. 5.</_>
    <_>
      198. 5. 1261. 24.</_>
    <_>
      447. 9. 2142. 35.</_>
    <_>
      0. 0. 837. 28.</_>
    <_>
      0. 0. 776. 23.</_>
    <_>
      322. 6. 1003. 14.</_>
    <_>
      212. 5. 110. 3.</_>
    <_>
      353. 5. 1553. 4.</_>
    <_>
      329. 7. 2405. 43.</_>
    <_>
      35. 1. 659. 15.</_>
    <_>
      309. 7. 1482. 40.</_>
    <_>
      592. 7. 373. 7.</_>
    <_>
      287. 6. 0. 0.</_>
    <_>
      331. 4. 175. 4.</_>
    <_>
      275. 5. 208. 2.</_>
    <_>
      292. 3. 0. 0.</_>
    <_>
      594. 9. 609. 7.</_>
    <_>
      205. 4. 443. 3.</_>
    <_>
      365. 9. 527. 13.</_>
    <_>
      174. 3. 786. 21.</_>
    <_>
      119. 3. 668. 8.</_>
    <_>
      226. 4. 334. 7.</_>
    <_>
      172. 4. 65. 1.</_>
    <_>
      174. 4. 358. 6.</_>
    <_>
      109. 2. 562. 11.</_>
    <_>
      222. 2. 3171. 14.</_>
    <_>
      94. 3. 2047. 18.</_>
    <_>
      730. 9. 3074. 19.</_>
    <_>
      199. 4. 1009. 11.</_>
    <_>
      0. 0. 1154. 15.</_>
    <_>
      41. 1. 2462. 21.</_>
    <_>
      256. 5. 2954. 47.</_>
    <_>
      74. 2. 1772. 37.</_>
    <_>
      0. 0. 161. 4.</_>
    <_>
      437. 5. 1019. 11.</_>
    <_>
      204. 5. 817. 9.</_>
    <_>
      276. 5. 501. 17.</_>
    <_>
      71. 2. 1164. 14.</_>
    <_>
      95. 3. 221. 5.</_>
    <_>
      268. 6. 0. 0.</_>
    <_>
      252. 5. 228. 8.</_>
    <_>
      68. 2. 1368. 18.</_>
    <_>
      414. 5. 876. 17.</_>
    <_>
      0. 0. 187. 5.</_>
    <_>
      30. 1. 415. 4.</_>
    <_>
      244. 4. 307. 7.</_>
    <_>
      236. 4. 56. 3.</_>
    <_>
      402. 7. 1040. 24.</_>
    <_>
      197. 5. 421. 10.</_>
    <_>
      2023. 14. 2001. 16.</_>
    <_>
      1725. 13. 28. 1.</_>
    <_>
      808. 11. 1148. 22.</_>
    <_>
      540. 5. 400. 7.</_>
    <_>
      281. 5. 550. 11.</_>
    <_>
      49. 1. 233. 8.</_>
    <_>
      258. 3. 343. 5.</_>
    <_>
      513. 8. 484. 8.</_>
    <_>
      536. 2. 0. 0.</_>
    <_>
      208. 4. 368. 10.</_>
    <_>
      213. 4. 24. 1.</_>
    <_>
      348. 5. 915. 11.</_>
    <_>
      293. 4. 734. 19.</_>
    <_>
      241. 5. 1733. 33.</_>
    <_>
      631. 9. 445. 14.</_>
    <_>
      328. 6. 572. 9.</_>
    <_>
      275. 7. 844. 22.</_>
    <_>
      104. 2. 232. 6.</_>
    <_>
      0. 0. 200. 4.</_>
    <_>
      261. 3. 391. 4.</_>
    <_>
      172. 2. 266. 7.</_>
    <_>
      408. 7. 762. 16.</_>
    <_>
      714. 13. 1710. 21.</_>
    <_>
      718. 9. 212. 5.</_>
    <_>
      171. 4. 138. 2.</_>
    <_>
      418. 5. 1359. 13.</_>
    <_>
      4771. 31. 1499. 27.</_>
    <_>
      1340. 22. 2161. 28.</_>
    <_>
      3083. 30. 1589. 31.</_>
    <_>
      5023. 42. 3116. 31.</_>
    <_>
      5084. 45. 6755. 62.</_>
    <_>
      467. 9. 646. 15.</_>
    <_>
      830. 11. 4463. 81.</_>
    <_>
      2159. 28. 10003. 105.</_>
    <_>
      78. 2. 2431. 33.</_>
    <_>
      3892. 42. 3130. 55.</_>
    <_>
      3257. 36. 3071. 35.</_>
    <_>
      752. 14. 3262. 58.</_>
    <_>
      1848. 16. 5367. 75.</_>
    <_>
      561. 8. 68. 2.</_>
    <_>
      291. 3. 56. 2.</_>
    <_>
      852. 14. 2779. 51.</_>
    <_>
      619. 10. 798. 16.</_>
    <_>
      364. 7. 0. 0.</_>
    <_>
      1167. 11. 898. 14.</_>
    <_>
      1460. 10. 562. 9.</_>
    <_>
      1355. 17. 1709. 17.</_>
    <_>
      605. 8. 829. 10.</_>
    <_>
      269. 5. 607. 12.</_>
    <_>
      173. 3. 170. 4.</_>
    <_>
      105. 3. 1144. 17.</_>
    <_>
      72. 2. 183. 4.</_>
    <_>
      30. 1. 177. 5.</_>
    <_>
      133. 1. 0. 0.</_>
    <_>
      31. 1. 32. 1.</_>
    <_>
      649. 8. 254. 3.</_>
    <_>
      868. 6. 0. 0.</_>
    <_>
      593. 8. 5924. 40.</_>
    <_>
      1353. 14. 931. 17.</_>
    <_>
      960. 4. 562. 7.</_>
    <_>
      628. 13. 2499. 47.</_></support_vectors>
  <decision_functions>
    <_>
      <sv_count>80</sv_count>
      <rho>-8.7406795281588579e-010</rho>
      <alpha>
        1. 1. 1. 1. 1. 1. 1. 1. 1. 1. 1. 1. 1. 1.1520655731877152e+000
        1.0000000225588601e+000 1. 1. 9.9999998326304529e-001 1. 1. 1.
        1. 1. 1. 1. 1. 1. 1. 1. 1. 1. 1. 1. 1. 1. 1. 1. 1. 1. 1. -1. -1.
        -1. -1. -1. -1. -1. -1. -9.9999998326304529e-001 -1. -1. -1. -1.
        -1. -1. -1. -1. -1. -1. -1. -1. -1. -1. -1.
        -1.1520655957465753e+000 -1. -1. -1. -1. -1. -1. -1. -1. -1. -1.
        -1. -1. -1. -1. -1.</alpha>
      <index>
        31 21 22 23 24 25 26 27 28 29 30 20 32 33 34 35 36 37 38 39 0 10
        1 2 3 4 5 6 7 8 9 11 12 13 14 15 16 17 18 19 66 67 69 68 61 65
        64 63 62 40 70 71 72 73 74 75 76 77 78 79 60 41 42 43 44 45 46
        47 48 49 50 51 52 53 54 55 56 57 58 59</index></_>
    <_>
      <sv_count>80</sv_count>
      <rho>-4.0294754492048505e-011</rho>
      <alpha>
        1. 1. 1. 1. 1. 1. 1. 1. 1.0005038377128945e+000
        9.9999999341092349e-001 1. 1. 1. 1. 1.0000000000011124e+000 1.
        1. 1.0000031699719909e+000 1. 1. 1. 1. 1. 1. 1. 1. 1. 1. 1. 1.
        1. 1. 1. 1. 1. 1. 1. 1. 1. 1. -1. -1. -1. -1. -1. -1. -1. -1.
        -1. -9.9999995157175181e-001 -1. -1. -1. -1. -1. -1. -1. -1. -1.
        -1. -1. -1. -1. -1. -1. -1. -1. -1. -1. -1.0005070495240569e+000
        -1.0000000000011124e+000 -1. -1. -1. -1. -1. -1. -1. -1. -1.</alpha>
      <index>
        31 21 22 23 24 25 26 27 28 29 30 20 32 33 34 35 36 37 38 39 0 10
        1 2 3 4 5 6 7 8 9 11 12 13 14 15 16 17 18 19 106 107 109 108 101
        105 104 103 102 80 110 111 112 113 114 115 116 117 118 119 90
        100 81 82 83 84 85 86 87 88 89 91 92 93 94 95 96 97 98 99</index></_>
    <_>
      <sv_count>80</sv_count>
      <rho>-3.6334511065833848e-013</rho>
      <alpha>
        1. 1. 1. 1. 1. 1. 1. 1. 1. 1. 1. 1. 1. 1. 1. 1. 1.
        9.9999999999999845e-001 1. 1. 1. 1. 1. 1. 1. 1. 1. 1. 1. 1. 1.
        1. 1. 1. 1. 1. 1. 1. 1.0013880603433725e+000 1. -1. -1. -1. -1.
        -1. -1. -1. -1. -1. -1. -1. -1. -1. -1.0013880813184761e+000
        -9.9999997902489624e-001 -1. -1. -1. -1. -1. -1. -1. -1. -1. -1.
        -1. -1. -1. -1. -1. -1. -1. -1. -1. -1. -1. -1. -1. -1.
        -9.9999999999999845e-001</alpha>
      <index>
        31 21 22 23 24 25 26 27 28 29 30 20 32 33 34 35 36 37 38 39 0 10
        1 2 3 4 5 6 7 8 9 11 12 13 14 15 16 17 18 19 145 146 148 147 140
        144 143 142 141 159 149 150 151 152 153 154 155 156 157 158 129
        120 121 122 123 124 125 126 127 128 139 130 131 132 133 134 135
        136 137 138</index></_>
    <_>
      <sv_count>80</sv_count>
      <rho>8.3684765083116735e-010</rho>
      <alpha>
        1. 1. 1. 1. 1. 1. 1. 1. 9.9999998326304684e-001 1. 1. 1. 1. 1.
        1. 1. 1. 1. 1. 1. 1. 1. 1. 1. 1. 1. 1. 1. 1. 1. 1. 1. 1. 1. 1.
        1. 1. 1. 1. 1. -1. -1. -1. -1. -1. -1. -1. -1. -1. -1. -1. -1.
        -1. -1. -1. -1. -1. -1. -1. -1. -1. -1. -1. -1. -1. -1. -1. -1.
        -1. -1. -1. -1. -1. -1. -1. -1. -1. -1. -1.
        -9.9999998326304684e-001</alpha>
      <index>
        66 67 69 68 61 65 64 63 62 40 70 71 72 73 74 75 76 77 78 79 60
        41 42 43 44 45 46 47 48 49 50 51 52 53 54 55 56 57 58 59 106 107
        109 108 101 105 104 103 102 80 110 111 112 113 114 115 116 117
        118 119 90 100 81 82 83 84 85 86 87 88 89 91 92 93 94 95 96 97
        98 99</index></_>
    <_>
      <sv_count>80</sv_count>
      <rho>8.3684765083372996e-010</rho>
      <alpha>
        1. 1. 1. 1. 1. 1. 1. 1. 9.9999998326304684e-001 1. 1. 1. 1. 1.
        1. 1. 1. 1. 1. 1. 1. 1. 1. 1. 1. 1. 1. 1. 1. 1. 1. 1. 1. 1. 1.
        1. 1. 1. 1. 1. -1. -1. -1. -1. -1. -1. -1. -1. -1. -1. -1. -1.
        -1. -1. -1. -1. -1. -1. -1. -1. -1. -1. -1. -1. -1. -1. -1. -1.
        -1. -1. -1. -1. -1. -1. -1. -1. -1. -1. -1.
        -9.9999998326304684e-001</alpha>
      <index>
        66 67 69 68 61 65 64 63 62 40 70 71 72 73 74 75 76 77 78 79 60
        41 42 43 44 45 46 47 48 49 50 51 52 53 54 55 56 57 58 59 145 146
        148 147 140 144 143 142 141 159 149 150 151 152 153 154 155 156
        157 158 129 120 121 122 123 124 125 126 127 128 139 130 131 132
        133 134 135 136 137 138</index></_>
    <_>
      <sv_count>80</sv_count>
      <rho>5.2534080372443890e-040</rho>
      <alpha>
        1. 1. 1. 1. 1. 1. 1. 1. 1. 1. 1. 1. 1. 1. 1. 1. 1. 1. 1. 1. 1.
        1. 1. 1. 1. 1. 1. 1. 1. 1. 1. 1. 1. 1. 1. 1. 1. 1. 1. 1. -1. -1.
        -1. -1. -1. -1. -1. -1. -1. -1. -1. -1. -1. -1. -1. -1. -1. -1.
        -1. -1. -1. -1. -1. -1. -1. -1. -1. -1. -1. -1. -1. -1. -1. -1.
        -1. -1. -1. -1. -1. -1.</alpha>
      <index>
        106 107 109 108 101 105 104 103 102 80 110 111 112 113 114 115
        116 117 118 119 90 100 81 82 83 84 85 86 87 88 89 91 92 93 94 95
        96 97 98 99 145 146 148 147 140 144 143 142 141 159 149 150 151
        152 153 154 155 156 157 158 129 120 121 122 123 124 125 126 127
        128 139 130 131 132 133 134 135 136 137 138</index></_></decision_functions></opencv_ml_svm>
</opencv_storage>
