<?xml version="1.0"?>
<opencv_storage>
<opencv_ml_svm>
  <format>3</format>
  <svmType>C_SVC</svmType>
  <kernel>
    <type>RBF</type>
    <gamma>1.0000000000000001e-005</gamma></kernel>
  <C>5.0000000000000000e-001</C>
  <term_criteria><epsilon>1.1920928955078125e-007</epsilon>
    <iterations>1000</iterations></term_criteria>
  <var_count>3</var_count>
  <class_count>4</class_count>
  <class_labels type_id="opencv-matrix">
    <rows>4</rows>
    <cols>1</cols>
    <dt>i</dt>
    <data>
      0 1 2 3</data></class_labels>
  <sv_total>80</sv_total>
  <support_vectors>
    <_>
      349. 5. 618.</_>
    <_>
      75. 2. 3529.</_>
    <_>
      168. 4. 1701.</_>
    <_>
      260. 5. 922.</_>
    <_>
      98. 3. 245.</_>
    <_>
      84. 1. 138.</_>
    <_>
      227. 3. 220.</_>
    <_>
      120. 3. 1761.</_>
    <_>
      293. 7. 5730.</_>
    <_>
      0. 0. 2500.</_>
    <_>
      444. 5. 5719.</_>
    <_>
      150. 4. 4724.</_>
    <_>
      33. 1. 3469.</_>
    <_>
      0. 0. 294.</_>
    <_>
      295. 1. 1624.</_>
    <_>
      167. 4. 2836.</_>
    <_>
      308. 4. 18.</_>
    <_>
      1110. 13. 605.</_>
    <_>
      197. 3. 34.</_>
    <_>
      87. 2. 2586.</_>
    <_>
      136. 3. 2583.</_>
    <_>
      158. 3. 509.</_>
    <_>
      98. 2. 5905.</_>
    <_>
      126. 3. 974.</_>
    <_>
      458. 8. 0.</_>
    <_>
      30. 1. 1175.</_>
    <_>
      319. 4. 1363.</_>
    <_>
      220. 4. 496.</_>
    <_>
      1720. 16. 4625.</_>
    <_>
      101. 2. 1238.</_>
    <_>
      267. 5. 4702.</_>
    <_>
      293. 3. 5418.</_>
    <_>
      234. 4. 4902.</_>
    <_>
      35. 1. 2336.</_>
    <_>
      0. 0. 2840.</_>
    <_>
      299. 6. 613.</_>
    <_>
      0. 0. 359.</_>
    <_>
      0. 0. 3170.</_>
    <_>
      192. 3. 5557.</_>
    <_>
      209. 3. 2330.</_>
    <_>
      172. 2. 6057.</_>
    <_>
      233. 4. 4277.</_>
    <_>
      68. 2. 2819.</_>
    <_>
      0. 0. 2398.</_>
    <_>
      286. 4. 4092.</_>
    <_>
      0. 0. 4417.</_>
    <_>
      407. 2. 912.</_>
    <_>
      91. 2. 5202.</_>
    <_>
      0. 0. 1920.</_>
    <_>
      235. 5. 132.</_>
    <_>
      472. 6. 2818.</_>
    <_>
      878. 3. 6805.</_>
    <_>
      288. 7. 2728.</_>
    <_>
      49. 1. 2728.</_>
    <_>
      126. 1. 680.</_>
    <_>
      199. 3. 452.</_>
    <_>
      128. 3. 253.</_>
    <_>
      369. 5. 1620.</_>
    <_>
      149. 3. 749.</_>
    <_>
      1435. 12. 1702.</_>
    <_>
      142. 3. 2055.</_>
    <_>
      110. 2. 5459.</_>
    <_>
      462. 4. 182.</_>
    <_>
      42. 1. 201.</_>
    <_>
      314. 4. 2086.</_>
    <_>
      3836. 18. 2587.</_>
    <_>
      468. 10. 5178.</_>
    <_>
      1932. 16. 1680.</_>
    <_>
      3214. 27. 4321.</_>
    <_>
      3078. 31. 6066.</_>
    <_>
      298. 7. 1262.</_>
    <_>
      563. 10. 5925.</_>
    <_>
      1379. 21. 6869.</_>
    <_>
      802. 10. 2493.</_>
    <_>
      2971. 37. 4765.</_>
    <_>
      1637. 13. 5704.</_>
    <_>
      710. 12. 4577.</_>
    <_>
      1435. 12. 5806.</_>
    <_>
      813. 8. 70.</_>
    <_>
      555. 8. 34.</_></support_vectors>
  <decision_functions>
    <_>
      <sv_count>40</sv_count>
      <rho>0.</rho>
      <alpha>
        5.0000000000000000e-001 5.0000000000000000e-001
        5.0000000000000000e-001 5.0000000000000000e-001
        5.0000000000000000e-001 5.0000000000000000e-001
        5.0000000000000000e-001 5.0000000000000000e-001
        5.0000000000000000e-001 5.0000000000000000e-001
        5.0000000000000000e-001 5.0000000000000000e-001
        5.0000000000000000e-001 5.0000000000000000e-001
        5.0000000000000000e-001 5.0000000000000000e-001
        5.0000000000000000e-001 5.0000000000000000e-001
        5.0000000000000000e-001 5.0000000000000000e-001
        -5.0000000000000000e-001 -5.0000000000000000e-001
        -5.0000000000000000e-001 -5.0000000000000000e-001
        -5.0000000000000000e-001 -5.0000000000000000e-001
        -5.0000000000000000e-001 -5.0000000000000000e-001
        -5.0000000000000000e-001 -5.0000000000000000e-001
        -5.0000000000000000e-001 -5.0000000000000000e-001
        -5.0000000000000000e-001 -5.0000000000000000e-001
        -5.0000000000000000e-001 -5.0000000000000000e-001
        -5.0000000000000000e-001 -5.0000000000000000e-001
        -5.0000000000000000e-001 -5.0000000000000000e-001</alpha>
      <index>
        10 0 19 18 17 16 15 14 13 12 11 9 8 7 6 5 4 3 2 1 34 33 31 32 20
        35 36 37 38 39 30 29 28 27 26 25 24 23 22 21</index></_>
    <_>
      <sv_count>40</sv_count>
      <rho>0.</rho>
      <alpha>
        5.0000000000000000e-001 5.0000000000000000e-001
        5.0000000000000000e-001 5.0000000000000000e-001
        5.0000000000000000e-001 5.0000000000000000e-001
        5.0000000000000000e-001 5.0000000000000000e-001
        5.0000000000000000e-001 5.0000000000000000e-001
        5.0000000000000000e-001 5.0000000000000000e-001
        5.0000000000000000e-001 5.0000000000000000e-001
        5.0000000000000000e-001 5.0000000000000000e-001
        5.0000000000000000e-001 5.0000000000000000e-001
        5.0000000000000000e-001 5.0000000000000000e-001
        -5.0000000000000000e-001 -5.0000000000000000e-001
        -5.0000000000000000e-001 -5.0000000000000000e-001
        -5.0000000000000000e-001 -5.0000000000000000e-001
        -5.0000000000000000e-001 -5.0000000000000000e-001
        -5.0000000000000000e-001 -5.0000000000000000e-001
        -5.0000000000000000e-001 -5.0000000000000000e-001
        -5.0000000000000000e-001 -5.0000000000000000e-001
        -5.0000000000000000e-001 -5.0000000000000000e-001
        -5.0000000000000000e-001 -5.0000000000000000e-001
        -5.0000000000000000e-001 -5.0000000000000000e-001</alpha>
      <index>
        10 0 19 18 17 16 15 14 13 12 11 9 8 7 6 5 4 3 2 1 54 53 51 52 40
        55 56 57 58 59 49 48 47 46 45 44 43 42 41 50</index></_>
    <_>
      <sv_count>40</sv_count>
      <rho>0.</rho>
      <alpha>
        5.0000000000000000e-001 5.0000000000000000e-001
        5.0000000000000000e-001 5.0000000000000000e-001
        5.0000000000000000e-001 5.0000000000000000e-001
        5.0000000000000000e-001 5.0000000000000000e-001
        5.0000000000000000e-001 5.0000000000000000e-001
        5.0000000000000000e-001 5.0000000000000000e-001
        5.0000000000000000e-001 5.0000000000000000e-001
        5.0000000000000000e-001 5.0000000000000000e-001
        5.0000000000000000e-001 5.0000000000000000e-001
        5.0000000000000000e-001 5.0000000000000000e-001
        -5.0000000000000000e-001 -5.0000000000000000e-001
        -5.0000000000000000e-001 -5.0000000000000000e-001
        -5.0000000000000000e-001 -5.0000000000000000e-001
        -5.0000000000000000e-001 -5.0000000000000000e-001
        -5.0000000000000000e-001 -5.0000000000000000e-001
        -5.0000000000000000e-001 -5.0000000000000000e-001
        -5.0000000000000000e-001 -5.0000000000000000e-001
        -5.0000000000000000e-001 -5.0000000000000000e-001
        -5.0000000000000000e-001 -5.0000000000000000e-001
        -5.0000000000000000e-001 -5.0000000000000000e-001</alpha>
      <index>
        10 0 19 18 17 16 15 14 13 12 11 9 8 7 6 5 4 3 2 1 70 79 71 72 73
        74 75 76 77 78 69 68 67 66 65 64 63 62 61 60</index></_>
    <_>
      <sv_count>40</sv_count>
      <rho>0.</rho>
      <alpha>
        5.0000000000000000e-001 5.0000000000000000e-001
        5.0000000000000000e-001 5.0000000000000000e-001
        5.0000000000000000e-001 5.0000000000000000e-001
        5.0000000000000000e-001 5.0000000000000000e-001
        5.0000000000000000e-001 5.0000000000000000e-001
        5.0000000000000000e-001 5.0000000000000000e-001
        5.0000000000000000e-001 5.0000000000000000e-001
        5.0000000000000000e-001 5.0000000000000000e-001
        5.0000000000000000e-001 5.0000000000000000e-001
        5.0000000000000000e-001 5.0000000000000000e-001
        -5.0000000000000000e-001 -5.0000000000000000e-001
        -5.0000000000000000e-001 -5.0000000000000000e-001
        -5.0000000000000000e-001 -5.0000000000000000e-001
        -5.0000000000000000e-001 -5.0000000000000000e-001
        -5.0000000000000000e-001 -5.0000000000000000e-001
        -5.0000000000000000e-001 -5.0000000000000000e-001
        -5.0000000000000000e-001 -5.0000000000000000e-001
        -5.0000000000000000e-001 -5.0000000000000000e-001
        -5.0000000000000000e-001 -5.0000000000000000e-001
        -5.0000000000000000e-001 -5.0000000000000000e-001</alpha>
      <index>
        34 33 31 32 20 35 36 37 38 39 30 29 28 27 26 25 24 23 22 21 54
        53 51 52 40 55 56 57 58 59 49 48 47 46 45 44 43 42 41 50</index></_>
    <_>
      <sv_count>40</sv_count>
      <rho>0.</rho>
      <alpha>
        5.0000000000000000e-001 5.0000000000000000e-001
        5.0000000000000000e-001 5.0000000000000000e-001
        5.0000000000000000e-001 5.0000000000000000e-001
        5.0000000000000000e-001 5.0000000000000000e-001
        5.0000000000000000e-001 5.0000000000000000e-001
        5.0000000000000000e-001 5.0000000000000000e-001
        5.0000000000000000e-001 5.0000000000000000e-001
        5.0000000000000000e-001 5.0000000000000000e-001
        5.0000000000000000e-001 5.0000000000000000e-001
        5.0000000000000000e-001 5.0000000000000000e-001
        -5.0000000000000000e-001 -5.0000000000000000e-001
        -5.0000000000000000e-001 -5.0000000000000000e-001
        -5.0000000000000000e-001 -5.0000000000000000e-001
        -5.0000000000000000e-001 -5.0000000000000000e-001
        -5.0000000000000000e-001 -5.0000000000000000e-001
        -5.0000000000000000e-001 -5.0000000000000000e-001
        -5.0000000000000000e-001 -5.0000000000000000e-001
        -5.0000000000000000e-001 -5.0000000000000000e-001
        -5.0000000000000000e-001 -5.0000000000000000e-001
        -5.0000000000000000e-001 -5.0000000000000000e-001</alpha>
      <index>
        34 33 31 32 20 35 36 37 38 39 30 29 28 27 26 25 24 23 22 21 70
        79 71 72 73 74 75 76 77 78 69 68 67 66 65 64 63 62 61 60</index></_>
    <_>
      <sv_count>40</sv_count>
      <rho>0.</rho>
      <alpha>
        5.0000000000000000e-001 5.0000000000000000e-001
        5.0000000000000000e-001 5.0000000000000000e-001
        5.0000000000000000e-001 5.0000000000000000e-001
        5.0000000000000000e-001 5.0000000000000000e-001
        5.0000000000000000e-001 5.0000000000000000e-001
        5.0000000000000000e-001 5.0000000000000000e-001
        5.0000000000000000e-001 5.0000000000000000e-001
        5.0000000000000000e-001 5.0000000000000000e-001
        5.0000000000000000e-001 5.0000000000000000e-001
        5.0000000000000000e-001 5.0000000000000000e-001
        -5.0000000000000000e-001 -5.0000000000000000e-001
        -5.0000000000000000e-001 -5.0000000000000000e-001
        -5.0000000000000000e-001 -5.0000000000000000e-001
        -5.0000000000000000e-001 -5.0000000000000000e-001
        -5.0000000000000000e-001 -5.0000000000000000e-001
        -5.0000000000000000e-001 -5.0000000000000000e-001
        -5.0000000000000000e-001 -5.0000000000000000e-001
        -5.0000000000000000e-001 -5.0000000000000000e-001
        -5.0000000000000000e-001 -5.0000000000000000e-001
        -5.0000000000000000e-001 -5.0000000000000000e-001</alpha>
      <index>
        54 53 51 52 40 55 56 57 58 59 49 48 47 46 45 44 43 42 41 50 70
        79 71 72 73 74 75 76 77 78 69 68 67 66 65 64 63 62 61 60</index></_></decision_functions></opencv_ml_svm>
</opencv_storage>
