<?xml version="1.0"?>
<opencv_storage>
<opencv_ml_svm>
  <format>3</format>
  <svmType>C_SVC</svmType>
  <kernel>
    <type>POLY</type>
    <degree>3.</degree>
    <gamma>3.</gamma>
    <coef0>0.</coef0></kernel>
  <C>1.</C>
  <term_criteria><epsilon>1.1920928955078125e-007</epsilon>
    <iterations>1000</iterations></term_criteria>
  <var_count>3</var_count>
  <class_count>4</class_count>
  <class_labels type_id="opencv-matrix">
    <rows>4</rows>
    <cols>1</cols>
    <dt>i</dt>
    <data>
      0 1 2 3</data></class_labels>
  <sv_total>32</sv_total>
  <support_vectors>
    <_>
      349. 5. 618.</_>
    <_>
      293. 7. 5730.</_>
    <_>
      444. 5. 5719.</_>
    <_>
      295. 1. 1624.</_>
    <_>
      308. 4. 18.</_>
    <_>
      1110. 13. 605.</_>
    <_>
      197. 3. 34.</_>
    <_>
      98. 2. 5905.</_>
    <_>
      458. 8. 0.</_>
    <_>
      1720. 16. 4625.</_>
    <_>
      293. 3. 5418.</_>
    <_>
      0. 0. 2840.</_>
    <_>
      299. 6. 613.</_>
    <_>
      0. 0. 359.</_>
    <_>
      172. 2. 6057.</_>
    <_>
      235. 5. 132.</_>
    <_>
      878. 3. 6805.</_>
    <_>
      126. 1. 680.</_>
    <_>
      128. 3. 253.</_>
    <_>
      1435. 12. 1702.</_>
    <_>
      110. 2. 5459.</_>
    <_>
      462. 4. 182.</_>
    <_>
      42. 1. 201.</_>
    <_>
      3836. 18. 2587.</_>
    <_>
      1932. 16. 1680.</_>
    <_>
      3214. 27. 4321.</_>
    <_>
      3078. 31. 6066.</_>
    <_>
      298. 7. 1262.</_>
    <_>
      563. 10. 5925.</_>
    <_>
      1379. 21. 6869.</_>
    <_>
      813. 8. 70.</_>
    <_>
      555. 8. 34.</_></support_vectors>
  <decision_functions>
    <_>
      <sv_count>10</sv_count>
      <rho>-5.6168842596301061e-001</rho>
      <alpha>
        2.6857828525130744e-024 1.9532125542739062e-021
        1.4012802781947805e-022 2.0109362496643416e-021
        -2.6857828525130744e-024 -4.8271102805721288e-022
        -5.6901425855056633e-023 -2.9336967285467263e-022
        -1.9415856426482882e-021 -1.3297090623424940e-021</alpha>
      <index>
        2 5 4 1 11 10 12 9 8 7</index></_>
    <_>
      <sv_count>9</sv_count>
      <rho>-4.9462450064994035e-001</rho>
      <alpha>
        1.2314839154758924e-021 2.6513091071654503e-022
        5.6757477333008232e-022 5.7179014362177128e-024
        2.0576306781700547e-022 -2.0864762470358379e-024
        -3.8346795907028992e-022 -4.9786991591216863e-022
        -1.3922462175462490e-021</alpha>
      <index>
        2 0 5 4 3 17 16 14 15</index></_>
    <_>
      <sv_count>12</sv_count>
      <rho>-1.2434185242374018e-001</rho>
      <alpha>
        1.5854245795264195e-021 7.4461909408104999e-024
        1.0809542177021237e-021 3.2356939681644901e-023
        4.5934205263177621e-023 -2.1264035554928037e-024
        -1.8461202439135909e-022 -3.1201694991862241e-022
        -2.2276704079834945e-022 -6.2346580616249165e-022
        -3.7224736151162837e-022 -1.0348805467762314e-021</alpha>
      <index>
        2 6 5 4 1 27 31 28 29 30 22 20</index></_>
    <_>
      <sv_count>10</sv_count>
      <rho>-5.2288712485852673e-001</rho>
      <alpha>
        1.4512853259186548e-022 1.2021263604226814e-021
        2.5383561162023130e-023 1.1733871167677789e-021
        1.0739774193790371e-021 2.3427137582471832e-022
        -1.4512853259186548e-022 -1.0993609805410596e-021
        -2.5089968206509502e-021 -1.0078803236422979e-022</alpha>
      <index>
        11 10 13 9 8 7 17 16 19 15</index></_>
    <_>
      <sv_count>15</sv_count>
      <rho>-6.6959775776394684e-002</rho>
      <alpha>
        1.6936112287896596e-022 1.4297212001329918e-022
        2.1192102948725160e-021 9.4384741848998274e-022
        6.7391478412936495e-022 -1.6936112287896596e-022
        -7.9633681333185609e-022 -1.2954890064735034e-023
        -1.4784063380851523e-022 -1.9425418510535435e-022
        -1.3588290257643729e-023 -1.1919121792204747e-023
        -2.2755495072826818e-021 -1.2556451685842959e-023
        -4.1494472417633053e-022</alpha>
      <index>
        11 10 9 8 7 27 29 30 26 25 24 23 22 21 20</index></_>
    <_>
      <sv_count>12</sv_count>
      <rho>9.1569161994365544e-001</rho>
      <alpha>
        2.1618312873097608e-020 9.4215179768966956e-022
        1.2615065813709704e-023 1.1318043190057095e-021
        -2.1618312873097608e-020 -1.3461646136203627e-022
        -5.1075084560719420e-022 -3.4487395027434253e-022
        -7.0334605154930721e-022 -2.9453612247009008e-023
        -7.4735672531316808e-023 -2.8879458893788358e-022</alpha>
      <index>
        17 16 18 19 27 31 28 29 30 23 22 20</index></_></decision_functions></opencv_ml_svm>
</opencv_storage>
