<?xml version="1.0"?>
<opencv_storage>
<opencv_ml_svm>
  <format>3</format>
  <svmType>C_SVC</svmType>
  <kernel>
    <type>RBF</type>
    <gamma>9.3750000000000000e-002</gamma></kernel>
  <C>2.5000000000000000e+000</C>
  <term_criteria><iterations>1000</iterations></term_criteria>
  <var_count>4</var_count>
  <class_count>4</class_count>
  <class_labels type_id="opencv-matrix">
    <rows>4</rows>
    <cols>1</cols>
    <dt>i</dt>
    <data>
      0 1 2 3</data></class_labels>
  <sv_total>581</sv_total>
  <support_vectors>
    <_>
      0. 0. 402. 11.</_>
    <_>
      0. 0. 917. 27.</_>
    <_>
      0. 0. 887. 14.</_>
    <_>
      42. 1. 437. 10.</_>
    <_>
      41. 1. 86. 3.</_>
    <_>
      30. 1. 74. 2.</_>
    <_>
      77. 2. 127. 3.</_>
    <_>
      0. 0. 401. 11.</_>
    <_>
      0. 0. 691. 10.</_>
    <_>
      429. 2. 517. 12.</_>
    <_>
      48. 1. 277. 6.</_>
    <_>
      0. 0. 41. 2.</_>
    <_>
      0. 0. 1943. 20.</_>
    <_>
      179. 2. 224. 7.</_>
    <_>
      0. 0. 169. 4.</_>
    <_>
      105. 3. 155. 5.</_>
    <_>
      314. 4. 0. 0.</_>
    <_>
      223. 6. 0. 0.</_>
    <_>
      304. 6. 25. 1.</_>
    <_>
      47. 1. 94. 3.</_>
    <_>
      0. 0. 597. 9.</_>
    <_>
      0. 0. 72. 3.</_>
    <_>
      0. 0. 817. 12.</_>
    <_>
      0. 0. 411. 13.</_>
    <_>
      245. 6. 825. 22.</_>
    <_>
      84. 1. 763. 23.</_>
    <_>
      0. 0. 220. 8.</_>
    <_>
      50. 1. 434. 9.</_>
    <_>
      0. 0. 220. 5.</_>
    <_>
      230. 5. 0. 0.</_>
    <_>
      0. 0. 427. 6.</_>
    <_>
      0. 0. 27. 1.</_>
    <_>
      0. 0. 119. 1.</_>
    <_>
      83. 2. 0. 0.</_>
    <_>
      0. 0. 127. 3.</_>
    <_>
      128. 2. 37. 1.</_>
    <_>
      199. 3. 0. 0.</_>
    <_>
      0. 0. 2022. 10.</_>
    <_>
      0. 0. 728. 12.</_>
    <_>
      248. 4. 19. 1.</_>
    <_>
      0. 0. 269. 8.</_>
    <_>
      0. 0. 264. 6.</_>
    <_>
      104. 2. 563. 15.</_>
    <_>
      62. 1. 1369. 16.</_>
    <_>
      107. 3. 284. 9.</_>
    <_>
      0. 0. 186. 3.</_>
    <_>
      188. 5. 530. 5.</_>
    <_>
      62. 1. 93. 1.</_>
    <_>
      0. 0. 35. 1.</_>
    <_>
      31. 1. 17. 1.</_>
    <_>
      204. 3. 0. 0.</_>
    <_>
      52. 1. 178. 4.</_>
    <_>
      106. 2. 627. 6.</_>
    <_>
      0. 0. 38. 2.</_>
    <_>
      251. 4. 479. 10.</_>
    <_>
      176. 5. 20. 1.</_>
    <_>
      65. 2. 177. 4.</_>
    <_>
      0. 0. 23. 1.</_>
    <_>
      94. 2. 0. 0.</_>
    <_>
      484. 9. 1694. 34.</_>
    <_>
      135. 4. 1087. 28.</_>
    <_>
      34. 1. 0. 0.</_>
    <_>
      142. 4. 1453. 20.</_>
    <_>
      51. 1. 161. 4.</_>
    <_>
      117. 2. 652. 8.</_>
    <_>
      270. 1. 2260. 16.</_>
    <_>
      184. 3. 19. 1.</_>
    <_>
      68. 2. 0. 0.</_>
    <_>
      0. 0. 107. 3.</_>
    <_>
      0. 0. 344. 1.</_>
    <_>
      131. 3. 0. 0.</_>
    <_>
      522. 9. 0. 0.</_>
    <_>
      116. 3. 0. 0.</_>
    <_>
      651. 3. 0. 0.</_>
    <_>
      43. 1. 49. 2.</_>
    <_>
      28. 1. 0. 0.</_>
    <_>
      0. 0. 245. 5.</_>
    <_>
      0. 0. 0. 0.</_>
    <_>
      31. 1. 0. 0.</_>
    <_>
      1502. 16. 0. 0.</_>
    <_>
      311. 5. 0. 0.</_>
    <_>
      0. 0. 0. 0.</_>
    <_>
      80. 1. 0. 0.</_>
    <_>
      0. 0. 120. 1.</_>
    <_>
      0. 0. 0. 0.</_>
    <_>
      0. 0. 0. 0.</_>
    <_>
      50. 1. 0. 0.</_>
    <_>
      63. 1. 233. 7.</_>
    <_>
      0. 0. 623. 14.</_>
    <_>
      0. 0. 0. 0.</_>
    <_>
      59. 1. 0. 0.</_>
    <_>
      0. 0. 0. 0.</_>
    <_>
      116. 2. 460. 7.</_>
    <_>
      80. 2. 259. 8.</_>
    <_>
      248. 6. 21. 1.</_>
    <_>
      39. 1. 0. 0.</_>
    <_>
      0. 0. 274. 9.</_>
    <_>
      0. 0. 68. 2.</_>
    <_>
      0. 0. 0. 0.</_>
    <_>
      0. 0. 0. 0.</_>
    <_>
      57. 1. 0. 0.</_>
    <_>
      0. 0. 45. 2.</_>
    <_>
      533. 11. 0. 0.</_>
    <_>
      102. 1. 0. 0.</_>
    <_>
      251. 6. 0. 0.</_>
    <_>
      183. 4. 0. 0.</_>
    <_>
      0. 0. 0. 0.</_>
    <_>
      60. 2. 70. 3.</_>
    <_>
      0. 0. 0. 0.</_>
    <_>
      0. 0. 88. 3.</_>
    <_>
      60. 1. 65. 3.</_>
    <_>
      99. 3. 0. 0.</_>
    <_>
      0. 0. 566. 7.</_>
    <_>
      169. 4. 0. 0.</_>
    <_>
      35. 1. 0. 0.</_>
    <_>
      0. 0. 199. 3.</_>
    <_>
      105. 3. 516. 6.</_>
    <_>
      30. 1. 56. 2.</_>
    <_>
      90. 2. 0. 0.</_>
    <_>
      41. 1. 0. 0.</_>
    <_>
      491. 11. 0. 0.</_>
    <_>
      0. 0. 886. 2.</_>
    <_>
      0. 0. 58. 1.</_>
    <_>
      0. 0. 0. 0.</_>
    <_>
      361. 1. 269. 4.</_>
    <_>
      0. 0. 251. 6.</_>
    <_>
      0. 0. 240. 6.</_>
    <_>
      0. 0. 409. 7.</_>
    <_>
      389. 5. 141. 4.</_>
    <_>
      487. 5. 234. 10.</_>
    <_>
      160. 3. 0. 0.</_>
    <_>
      73. 2. 0. 0.</_>
    <_>
      0. 0. 732. 12.</_>
    <_>
      0. 0. 395. 5.</_>
    <_>
      0. 0. 0. 0.</_>
    <_>
      123. 3. 17. 1.</_>
    <_>
      285. 5. 0. 0.</_>
    <_>
      0. 0. 600. 12.</_>
    <_>
      226. 3. 195. 6.</_>
    <_>
      0. 0. 110. 4.</_>
    <_>
      0. 0. 361. 10.</_>
    <_>
      0. 0. 0. 0.</_>
    <_>
      0. 0. 432. 6.</_>
    <_>
      0. 0. 0. 0.</_>
    <_>
      0. 0. 78. 3.</_>
    <_>
      0. 0. 3507. 57.</_>
    <_>
      0. 0. 41. 2.</_>
    <_>
      108. 3. 0. 0.</_>
    <_>
      267. 6. 1094. 23.</_>
    <_>
      0. 0. 2086. 33.</_>
    <_>
      143. 3. 619. 19.</_>
    <_>
      60. 2. 728. 20.</_>
    <_>
      48. 1. 670. 12.</_>
    <_>
      0. 0. 110. 3.</_>
    <_>
      530. 13. 0. 0.</_>
    <_>
      287. 7. 0. 0.</_>
    <_>
      0. 0. 0. 0.</_>
    <_>
      65. 1. 1364. 36.</_>
    <_>
      0. 0. 373. 7.</_>
    <_>
      81. 1. 0. 0.</_>
    <_>
      0. 0. 175. 4.</_>
    <_>
      538. 12. 208. 2.</_>
    <_>
      0. 0. 0. 0.</_>
    <_>
      113. 2. 0. 0.</_>
    <_>
      0. 0. 0. 0.</_>
    <_>
      504. 7. 91. 3.</_>
    <_>
      0. 0. 484. 15.</_>
    <_>
      824. 16. 0. 0.</_>
    <_>
      188. 4. 350. 7.</_>
    <_>
      36. 1. 0. 0.</_>
    <_>
      0. 0. 31. 1.</_>
    <_>
      47. 1. 82. 3.</_>
    <_>
      340. 4. 129. 2.</_>
    <_>
      169. 1. 823. 7.</_>
    <_>
      620. 11. 0. 0.</_>
    <_>
      438. 7. 0. 0.</_>
    <_>
      199. 5. 0. 0.</_>
    <_>
      131. 3. 0. 0.</_>
    <_>
      456. 10. 0. 0.</_>
    <_>
      1490. 25. 0. 0.</_>
    <_>
      0. 0. 0. 0.</_>
    <_>
      108. 2. 0. 0.</_>
    <_>
      113. 2. 116. 4.</_>
    <_>
      115. 2. 468. 14.</_>
    <_>
      122. 2. 0. 0.</_>
    <_>
      412. 8. 433. 5.</_>
    <_>
      343. 5. 0. 0.</_>
    <_>
      564. 2. 1036. 9.</_>
    <_>
      255. 3. 1024. 18.</_>
    <_>
      95. 2. 181. 2.</_>
    <_>
      0. 0. 0. 0.</_>
    <_>
      0. 0. 0. 0.</_>
    <_>
      44. 1. 20. 1.</_>
    <_>
      264. 6. 0. 0.</_>
    <_>
      921. 16. 0. 0.</_>
    <_>
      1317. 18. 90. 1.</_>
    <_>
      133. 3. 0. 0.</_>
    <_>
      344. 5. 0. 0.</_>
    <_>
      339. 7. 0. 0.</_>
    <_>
      551. 9. 0. 0.</_>
    <_>
      139. 3. 0. 0.</_>
    <_>
      35. 1. 0. 0.</_>
    <_>
      635. 8. 0. 0.</_>
    <_>
      82. 2. 157. 4.</_>
    <_>
      265. 2. 124. 4.</_>
    <_>
      0. 0. 300. 6.</_>
    <_>
      0. 0. 0. 0.</_>
    <_>
      44. 1. 0. 0.</_>
    <_>
      175. 4. 29. 1.</_>
    <_>
      197. 3. 0. 0.</_>
    <_>
      259. 2. 38. 1.</_>
    <_>
      52. 1. 0. 0.</_>
    <_>
      29. 1. 0. 0.</_>
    <_>
      336. 5. 0. 0.</_>
    <_>
      684. 11. 0. 0.</_>
    <_>
      1913. 34. 0. 0.</_>
    <_>
      282. 5. 597. 7.</_>
    <_>
      254. 2. 0. 0.</_>
    <_>
      265. 4. 0. 0.</_>
    <_>
      61. 1. 483. 10.</_>
    <_>
      70. 2. 0. 0.</_>
    <_>
      402. 2. 58. 2.</_>
    <_>
      81. 1. 0. 0.</_>
    <_>
      160. 3. 0. 0.</_>
    <_>
      256. 4. 0. 0.</_>
    <_>
      240. 4. 0. 0.</_>
    <_>
      982. 6. 0. 0.</_>
    <_>
      122. 3. 0. 0.</_>
    <_>
      177. 4. 0. 0.</_>
    <_>
      323. 5. 0. 0.</_>
    <_>
      201. 4. 297. 9.</_>
    <_>
      621. 3. 18. 1.</_>
    <_>
      134. 2. 0. 0.</_>
    <_>
      0. 0. 240. 3.</_>
    <_>
      120. 2. 21. 1.</_>
    <_>
      33. 1. 210. 5.</_>
    <_>
      213. 5. 286. 3.</_>
    <_>
      0. 0. 214. 3.</_>
    <_>
      297. 1. 477. 4.</_>
    <_>
      0. 0. 126. 2.</_>
    <_>
      0. 0. 314. 6.</_>
    <_>
      0. 0. 154. 1.</_>
    <_>
      103. 2. 443. 5.</_>
    <_>
      0. 0. 464. 5.</_>
    <_>
      249. 5. 19. 1.</_>
    <_>
      95. 2. 1603. 32.</_>
    <_>
      0. 0. 265. 4.</_>
    <_>
      0. 0. 864. 21.</_>
    <_>
      258. 5. 239. 6.</_>
    <_>
      100. 3. 243. 5.</_>
    <_>
      46. 1. 383. 7.</_>
    <_>
      0. 0. 555. 11.</_>
    <_>
      481. 1. 105. 2.</_>
    <_>
      93. 1. 1005. 18.</_>
    <_>
      320. 3. 770. 20.</_>
    <_>
      202. 4. 940. 19.</_>
    <_>
      0. 0. 986. 27.</_>
    <_>
      0. 0. 190. 5.</_>
    <_>
      92. 2. 0. 0.</_>
    <_>
      273. 1. 1206. 19.</_>
    <_>
      179. 3. 0. 0.</_>
    <_>
      504. 3. 283. 8.</_>
    <_>
      0. 0. 347. 6.</_>
    <_>
      0. 0. 104. 4.</_>
    <_>
      502. 3. 236. 6.</_>
    <_>
      36. 1. 1448. 6.</_>
    <_>
      54. 1. 234. 3.</_>
    <_>
      140. 2. 0. 0.</_>
    <_>
      42. 1. 262. 4.</_>
    <_>
      31. 1. 506. 9.</_>
    <_>
      0. 0. 592. 9.</_>
    <_>
      0. 0. 180. 5.</_>
    <_>
      0. 0. 0. 0.</_>
    <_>
      187. 1. 0. 0.</_>
    <_>
      386. 3. 0. 0.</_>
    <_>
      0. 0. 157. 2.</_>
    <_>
      204. 2. 71. 1.</_>
    <_>
      301. 3. 0. 0.</_>
    <_>
      0. 0. 0. 0.</_>
    <_>
      144. 4. 0. 0.</_>
    <_>
      1012. 19. 0. 0.</_>
    <_>
      231. 1. 162. 1.</_>
    <_>
      374. 7. 0. 0.</_>
    <_>
      72. 1. 2954. 47.</_>
    <_>
      40. 1. 1772. 37.</_>
    <_>
      0. 0. 161. 4.</_>
    <_>
      42. 1. 1019. 11.</_>
    <_>
      0. 0. 817. 9.</_>
    <_>
      0. 0. 501. 17.</_>
    <_>
      0. 0. 0. 0.</_>
    <_>
      101. 2. 0. 0.</_>
    <_>
      36. 1. 228. 8.</_>
    <_>
      0. 0. 463. 12.</_>
    <_>
      190. 4. 0. 0.</_>
    <_>
      276. 6. 36. 1.</_>
    <_>
      77. 1. 0. 0.</_>
    <_>
      103. 3. 332. 8.</_>
    <_>
      0. 0. 42. 2.</_>
    <_>
      0. 0. 691. 16.</_>
    <_>
      33. 1. 248. 7.</_>
    <_>
      1346. 18. 0. 0.</_>
    <_>
      68. 1. 0. 0.</_>
    <_>
      1661. 17. 0. 0.</_>
    <_>
      222. 5. 123. 4.</_>
    <_>
      0. 0. 468. 8.</_>
    <_>
      0. 0. 211. 7.</_>
    <_>
      32. 1. 343. 5.</_>
    <_>
      290. 2. 0. 0.</_>
    <_>
      871. 11. 0. 0.</_>
    <_>
      246. 6. 274. 8.</_>
    <_>
      362. 8. 0. 0.</_>
    <_>
      0. 0. 836. 9.</_>
    <_>
      227. 5. 0. 0.</_>
    <_>
      764. 16. 0. 0.</_>
    <_>
      249. 4. 0. 0.</_>
    <_>
      914. 11. 0. 0.</_>
    <_>
      297. 8. 692. 17.</_>
    <_>
      93. 1. 208. 5.</_>
    <_>
      0. 0. 200. 4.</_>
    <_>
      0. 0. 391. 4.</_>
    <_>
      88. 1. 266. 7.</_>
    <_>
      0. 0. 764. 10.</_>
    <_>
      480. 11. 258. 7.</_>
    <_>
      356. 2. 1669. 35.</_>
    <_>
      359. 3. 179. 8.</_>
    <_>
      125. 3. 287. 8.</_>
    <_>
      138. 1. 1323. 13.</_>
    <_>
      0. 0. 1669. 14.</_>
    <_>
      649. 7. 0. 0.</_>
    <_>
      0. 0. 0. 0.</_>
    <_>
      692. 9. 0. 0.</_>
    <_>
      0. 0. 0. 0.</_>
    <_>
      0. 0. 108. 4.</_>
    <_>
      32. 1. 214. 6.</_>
    <_>
      0. 0. 0. 0.</_>
    <_>
      355. 7. 610. 15.</_>
    <_>
      0. 0. 818. 13.</_>
    <_>
      725. 7. 0. 0.</_>
    <_>
      1378. 22. 34. 1.</_>
    <_>
      1538. 30. 0. 0.</_>
    <_>
      74. 1. 314. 11.</_>
    <_>
      0. 0. 464. 11.</_>
    <_>
      0. 0. 0. 0.</_>
    <_>
      756. 3. 54. 2.</_>
    <_>
      0. 0. 176. 2.</_>
    <_>
      1148. 18. 938. 18.</_>
    <_>
      511. 9. 1929. 13.</_>
    <_>
      374. 4. 0. 0.</_>
    <_>
      571. 1. 0. 0.</_>
    <_>
      35. 1. 88. 4.</_>
    <_>
      0. 0. 159. 3.</_>
    <_>
      92. 2. 957. 13.</_>
    <_>
      32. 1. 613. 10.</_>
    <_>
      983. 4. 805. 16.</_>
    <_>
      727. 12. 0. 0.</_>
    <_>
      357. 1. 2561. 43.</_>
    <_>
      1974. 13. 0. 0.</_>
    <_>
      375. 4. 0. 0.</_>
    <_>
      127. 1. 0. 0.</_>
    <_>
      89. 2. 0. 0.</_>
    <_>
      177. 4. 203. 4.</_>
    <_>
      344. 3. 503. 12.</_>
    <_>
      95. 2. 0. 0.</_>
    <_>
      711. 10. 0. 0.</_>
    <_>
      207. 3. 0. 0.</_>
    <_>
      0. 0. 0. 0.</_>
    <_>
      29. 1. 341. 10.</_>
    <_>
      185. 4. 1029. 12.</_>
    <_>
      162. 3. 318. 6.</_>
    <_>
      71. 2. 37. 1.</_>
    <_>
      451. 5. 0. 0.</_>
    <_>
      169. 4. 0. 0.</_>
    <_>
      717. 6. 569. 5.</_>
    <_>
      363. 3. 626. 9.</_>
    <_>
      0. 0. 0. 0.</_>
    <_>
      256. 6. 0. 0.</_>
    <_>
      114. 2. 0. 0.</_>
    <_>
      730. 10. 0. 0.</_>
    <_>
      815. 10. 0. 0.</_>
    <_>
      68. 2. 56. 2.</_>
    <_>
      315. 2. 23. 1.</_>
    <_>
      98. 1. 0. 0.</_>
    <_>
      0. 0. 0. 0.</_>
    <_>
      126. 2. 861. 14.</_>
    <_>
      371. 3. 514. 3.</_>
    <_>
      0. 0. 17. 1.</_>
    <_>
      680. 10. 0. 0.</_>
    <_>
      41. 1. 0. 0.</_>
    <_>
      566. 3. 0. 0.</_>
    <_>
      53. 1. 1253. 20.</_>
    <_>
      0. 0. 2024. 30.</_>
    <_>
      313. 5. 0. 0.</_>
    <_>
      124. 2. 0. 0.</_>
    <_>
      1257. 22. 0. 0.</_>
    <_>
      264. 5. 0. 0.</_>
    <_>
      104. 2. 0. 0.</_>
    <_>
      229. 5. 0. 0.</_>
    <_>
      454. 6. 0. 0.</_>
    <_>
      444. 10. 863. 11.</_>
    <_>
      856. 15. 0. 0.</_>
    <_>
      1394. 22. 42. 1.</_>
    <_>
      1114. 18. 0. 0.</_>
    <_>
      0. 0. 0. 0.</_>
    <_>
      404. 6. 0. 0.</_>
    <_>
      505. 2. 897. 16.</_>
    <_>
      1675. 23. 0. 0.</_>
    <_>
      0. 0. 549. 6.</_>
    <_>
      0. 0. 0. 0.</_>
    <_>
      295. 6. 0. 0.</_>
    <_>
      853. 16. 148. 3.</_>
    <_>
      848. 16. 504. 14.</_>
    <_>
      147. 3. 50. 2.</_>
    <_>
      31. 1. 74. 1.</_>
    <_>
      213. 2. 0. 0.</_>
    <_>
      317. 7. 0. 0.</_>
    <_>
      466. 5. 44. 1.</_>
    <_>
      86. 2. 370. 10.</_>
    <_>
      0. 0. 175. 2.</_>
    <_>
      0. 0. 282. 6.</_>
    <_>
      900. 11. 0. 0.</_>
    <_>
      0. 0. 587. 10.</_>
    <_>
      42. 1. 581. 4.</_>
    <_>
      127. 2. 744. 13.</_>
    <_>
      384. 7. 133. 3.</_>
    <_>
      0. 0. 0. 0.</_>
    <_>
      123. 2. 275. 5.</_>
    <_>
      228. 4. 321. 10.</_>
    <_>
      230. 3. 72. 2.</_>
    <_>
      192. 3. 0. 0.</_>
    <_>
      65. 2. 0. 0.</_>
    <_>
      192. 4. 0. 0.</_>
    <_>
      464. 5. 224. 9.</_>
    <_>
      385. 5. 0. 0.</_>
    <_>
      0. 0. 212. 5.</_>
    <_>
      555. 9. 138. 2.</_>
    <_>
      148. 1. 735. 12.</_>
    <_>
      598. 9. 896. 19.</_>
    <_>
      717. 10. 377. 5.</_>
    <_>
      0. 0. 72. 1.</_>
    <_>
      2058. 10. 59. 2.</_>
    <_>
      950. 3. 4747. 52.</_>
    <_>
      201. 3. 630. 14.</_>
    <_>
      0. 0. 4278. 79.</_>
    <_>
      0. 0. 10001. 105.</_>
    <_>
      0. 0. 2431. 33.</_>
    <_>
      0. 0. 2850. 52.</_>
    <_>
      3437. 12. 3005. 33.</_>
    <_>
      739. 1. 2941. 54.</_>
    <_>
      0. 0. 5357. 75.</_>
    <_>
      38. 1. 68. 2.</_>
    <_>
      29. 1. 56. 2.</_>
    <_>
      0. 0. 898. 17.</_>
    <_>
      0. 0. 336. 5.</_>
    <_>
      0. 0. 0. 0.</_>
    <_>
      1147. 15. 849. 12.</_>
    <_>
      126. 1. 289. 5.</_>
    <_>
      1138. 2. 1456. 16.</_>
    <_>
      346. 5. 829. 10.</_>
    <_>
      34. 1. 607. 12.</_>
    <_>
      71. 1. 145. 3.</_>
    <_>
      0. 0. 1114. 16.</_>
    <_>
      60. 1. 0. 0.</_>
    <_>
      0. 0. 120. 3.</_>
    <_>
      0. 0. 0. 0.</_>
    <_>
      0. 0. 18. 1.</_>
    <_>
      41. 1. 254. 3.</_>
    <_>
      0. 0. 0. 0.</_>
    <_>
      0. 0. 5924. 40.</_>
    <_>
      0. 0. 943. 17.</_>
    <_>
      0. 0. 0. 0.</_>
    <_>
      0. 0. 2499. 47.</_>
    <_>
      660. 3. 233. 7.</_>
    <_>
      955. 11. 3565. 25.</_>
    <_>
      269. 6. 966. 21.</_>
    <_>
      59. 1. 34. 1.</_>
    <_>
      0. 0. 383. 1.</_>
    <_>
      0. 0. 290. 7.</_>
    <_>
      0. 0. 39. 2.</_>
    <_>
      1763. 20. 1483. 15.</_>
    <_>
      0. 0. 20. 1.</_>
    <_>
      503. 3. 1015. 23.</_>
    <_>
      243. 2. 1081. 15.</_>
    <_>
      126. 1. 1659. 45.</_>
    <_>
      0. 0. 8044. 93.</_>
    <_>
      1586. 9. 1524. 19.</_>
    <_>
      1248. 7. 5825. 34.</_>
    <_>
      48. 1. 8294. 96.</_>
    <_>
      34. 1. 8704. 82.</_>
    <_>
      30. 1. 452. 3.</_>
    <_>
      285. 2. 172. 3.</_>
    <_>
      2416. 23. 0. 0.</_>
    <_>
      400. 3. 24. 1.</_>
    <_>
      35. 1. 0. 0.</_>
    <_>
      0. 0. 0. 0.</_>
    <_>
      0. 0. 71. 3.</_>
    <_>
      82. 1. 753. 11.</_>
    <_>
      31. 1. 0. 0.</_>
    <_>
      1430. 15. 603. 16.</_>
    <_>
      261. 3. 9429. 107.</_>
    <_>
      0. 0. 3703. 62.</_>
    <_>
      490. 1. 3205. 39.</_>
    <_>
      49. 1. 741. 4.</_>
    <_>
      360. 4. 764. 17.</_>
    <_>
      594. 9. 4395. 48.</_>
    <_>
      502. 5. 5039. 64.</_>
    <_>
      1316. 4. 168. 4.</_>
    <_>
      0. 0. 378. 4.</_>
    <_>
      29. 1. 259. 5.</_>
    <_>
      0. 0. 0. 0.</_>
    <_>
      0. 0. 0. 0.</_>
    <_>
      109. 1. 0. 0.</_>
    <_>
      0. 0. 1362. 14.</_>
    <_>
      0. 0. 429. 3.</_>
    <_>
      379. 3. 222. 3.</_>
    <_>
      0. 0. 8616. 23.</_>
    <_>
      0. 0. 558. 10.</_>
    <_>
      0. 0. 441. 11.</_>
    <_>
      908. 5. 1035. 22.</_>
    <_>
      107. 1. 4297. 73.</_>
    <_>
      74. 2. 51. 1.</_>
    <_>
      0. 0. 2918. 6.</_>
    <_>
      461. 2. 560. 8.</_>
    <_>
      0. 0. 848. 8.</_>
    <_>
      2668. 28. 3812. 65.</_>
    <_>
      1860. 10. 5682. 87.</_>
    <_>
      110. 2. 281. 6.</_>
    <_>
      0. 0. 701. 12.</_>
    <_>
      1907. 19. 0. 0.</_>
    <_>
      2927. 27. 0. 0.</_>
    <_>
      0. 0. 1223. 16.</_>
    <_>
      0. 0. 155. 3.</_>
    <_>
      706. 6. 0. 0.</_>
    <_>
      0. 0. 4858. 50.</_>
    <_>
      110. 1. 10206. 15.</_>
    <_>
      1105. 20. 0. 0.</_>
    <_>
      41. 1. 305. 9.</_>
    <_>
      71. 1. 0. 0.</_>
    <_>
      209. 2. 45. 2.</_>
    <_>
      1379. 15. 0. 0.</_>
    <_>
      552. 6. 2940. 14.</_>
    <_>
      30. 1. 1138. 25.</_>
    <_>
      0. 0. 895. 18.</_>
    <_>
      116. 2. 0. 0.</_>
    <_>
      0. 0. 0. 0.</_>
    <_>
      916. 10. 1457. 30.</_>
    <_>
      0. 0. 5273. 45.</_>
    <_>
      442. 11. 0. 0.</_>
    <_>
      1427. 20. 516. 11.</_>
    <_>
      78. 2. 169. 4.</_>
    <_>
      361. 7. 283. 4.</_>
    <_>
      48. 1. 1275. 25.</_>
    <_>
      684. 8. 86. 3.</_>
    <_>
      34. 1. 0. 0.</_>
    <_>
      0. 0. 198. 1.</_>
    <_>
      0. 0. 0. 0.</_>
    <_>
      0. 0. 7725. 48.</_>
    <_>
      0. 0. 7324. 53.</_>
    <_>
      537. 3. 17. 1.</_>
    <_>
      345. 1. 642. 4.</_>
    <_>
      106. 1. 0. 0.</_>
    <_>
      0. 0. 198. 5.</_>
    <_>
      0. 0. 277. 9.</_>
    <_>
      0. 0. 18. 1.</_>
    <_>
      418. 3. 0. 0.</_>
    <_>
      1398. 13. 128. 2.</_>
    <_>
      439. 3. 717. 12.</_>
    <_>
      104. 3. 2918. 6.</_>
    <_>
      1148. 6. 255. 8.</_>
    <_>
      94. 2. 1543. 30.</_>
    <_>
      127. 2. 0. 0.</_>
    <_>
      0. 0. 117. 1.</_>
    <_>
      465. 5. 0. 0.</_>
    <_>
      1154. 8. 0. 0.</_>
    <_>
      61. 2. 2466. 39.</_>
    <_>
      0. 0. 2911. 45.</_>
    <_>
      2270. 10. 0. 0.</_>
    <_>
      115. 3. 0. 0.</_>
    <_>
      0. 0. 0. 0.</_>
    <_>
      136. 2. 1156. 24.</_>
    <_>
      943. 7. 228. 5.</_>
    <_>
      5480. 44. 0. 0.</_></support_vectors>
  <decision_functions>
    <_>
      <sv_count>282</sv_count>
      <rho>2.0144883137604482e-002</rho>
      <alpha>
        1.1389842316844960e+000 2.4841199360521595e+000
        2.5000000000000000e+000 1.0141562438677143e+000
        1.0201458416903175e+000 2.5000000000000000e+000
        1.0202468433063945e+000 1.0209143004965082e+000
        2.5000000000000000e+000 1.0201333797168048e+000
        2.5000000000000000e+000 1.3124950586368997e+000
        7.8524495635591296e-001 8.6365231949876220e-001
        2.5000000000000000e+000 2.5000000000000000e+000
        9.5780684071386568e-001 1.0201438937804814e+000
        2.5000000000000000e+000 3.6846030273598562e-001
        8.7623266091448193e-001 1.0201685170318469e+000
        1.6640703806492083e+000 1.2662379366158827e+000
        7.3292143170903401e-001 2.5000000000000000e+000
        9.4175820855760195e-001 2.5000000000000000e+000
        9.8151228642968003e-001 1.0201547126410300e+000
        1.4353773530442362e+000 2.5000000000000000e+000
        2.5000000000000000e+000 1.3430182597929481e+000
        1.0624010628838401e+000 1.0201411983284392e+000
        2.5000000000000000e+000 8.4057336917838099e-001
        5.2643630784302198e-001 1.0201474243989641e+000
        1.0212216815948412e+000 1.0201476299190866e+000
        1.0201481199817124e+000 1.0200766745730676e+000
        2.5000000000000000e+000 1.6994050438443025e+000
        1.0205441201789178e+000 2.5000000000000000e+000
        2.5000000000000000e+000 2.2267405087233949e+000
        1.9089250843927095e+000 5.9615345643719009e-001
        1.0201376142414109e+000 1.0201493729389346e+000
        2.5000000000000000e+000 1.0360326363480792e+000
        9.9030013914370907e-001 2.5000000000000000e+000
        9.9522560130773041e-001 1.0202362752941958e+000
        1.0201298152082274e+000 1.0201490357368213e+000
        1.0193344235707160e+000 1.8431124643727781e+000
        1.0201383634980150e+000 9.3816899653886410e-001
        1.1142712230337879e+000 1.0303923923288290e+000
        9.3817297680605793e-001 2.5000000000000000e+000
        8.3405182132172961e-001 2.5000000000000000e+000
        8.8394360947205064e-001 1.0201469626195796e+000
        1.1828883316463277e+000 1.0108340489599479e+000
        1.0200525654438288e+000 1.0275993824595142e+000
        9.9652582670542278e-001 1.0201494523565380e+000
        1.1245355210230219e+000 7.0495824519013939e-001
        7.3357882461886004e-001 1.0201470200221534e+000
        1.0201468255221471e+000 1.0201575236358511e+000
        1.3538937483923785e+000 1.0201388188107043e+000
        1.0201464600345891e+000 2.5000000000000000e+000
        1.0201486945776370e+000 1.0201469223967834e+000
        1.0201469272294712e+000 1.0201404083139649e+000
        1.0109117897234789e+000 1.0191634991128431e+000
        1.0201527403665123e+000 5.3900157160779005e-001
        3.2456560947030910e-001 1.0191597964756982e+000
        2.5000000000000000e+000 1.0201444123150327e+000
        1.0201459625601037e+000 1.0521317288002132e+000
        7.4046568304307947e-001 9.2417868965145267e-001
        5.8367809105644342e-001 1.0201489956591832e+000
        1.0201476868759747e+000 2.5000000000000000e+000
        1.0201463883733453e+000 8.3403220420097002e-001
        1.0189750712559797e+000 1.2209777654780367e+000
        1.0201468468543282e+000 2.1874457967755836e+000
        1.1236533559511710e+000 1.0185671521012212e+000
        1.0201440046651640e+000 1.0201461035793074e+000
        1.0201490778291855e+000 1.0201475299805671e+000
        1.0201342393552455e+000 1.0201460002579812e+000
        1.0201480354757277e+000 2.4946005392619108e+000
        7.5993005761472976e-001 2.3796396813999574e+000
        1.0201463769200896e+000 1.0201469007448229e+000
        1.0201486125181138e+000 8.9743171491191931e-001
        1.0201392394884390e+000 1.0201458971348782e+000
        2.5000000000000000e+000 1.0201474720863037e+000
        1.0201477901121208e+000 -9.7985412949890172e-001
        -9.9958920934358242e-001 -2.5000000000000000e+000
        -9.7985317063656319e-001 -9.7985080649630463e-001
        -9.7985244104291247e-001 -1.0772184635901816e+000
        -1.7739452428489206e+000 -4.0413828377104177e-001
        -9.7985244100081370e-001 -9.7985079623670590e-001
        -7.0412449261962540e-001 -9.7985641127559819e-001
        -9.7986946615134707e-001 -2.5000000000000000e+000
        -9.7985333199927638e-001 -2.5000000000000000e+000
        -9.7985200414169771e-001 -7.7599413818569063e-001
        -2.4962577190915871e+000 -1.2291133964743415e+000
        -9.7985055715167424e-001 -9.7985200414169771e-001
        -9.7984198373847287e-001 -7.6131705913094039e-001
        -6.0336745322298269e-001 -9.7985080649630474e-001
        -2.5000000000000000e+000 -9.7986168390940920e-001
        -9.7986168390891348e-001 -2.5000000000000000e+000
        -6.9402880660278332e-001 -9.7995674706730984e-001
        -9.7985071603784379e-001 -5.6990615932089028e-001
        -4.0351994476014497e-001 -9.8018950906408242e-001
        -9.7985557332012752e-001 -9.7995534837770137e-001
        -3.9720261964940251e-001 -9.7985232586965587e-001
        -9.7985429309682059e-001 -1.1084673153365423e+000
        -9.2679251238175009e-001 -2.5000000000000000e+000
        -1.1069195665513671e+000 -9.7984528600150045e-001
        -7.0411673910118588e-001 -9.7985391300809899e-001
        -9.7991272731561341e-001 -2.5000000000000000e+000
        -8.7368535374275913e-001 -9.7985431609162943e-001
        -9.7985336974219461e-001 -2.5000000000000000e+000
        -9.7986615076718753e-001 -9.7985631886688540e-001
        -9.7985367029740167e-001 -9.7985130542236298e-001
        -9.7984807547508312e-001 -9.7985215099132983e-001
        -9.7986236018490136e-001 -1.1673665401449629e+000
        -9.7985257560103589e-001 -9.7985712447557904e-001
        -9.9839796415607318e-001 -9.7985140432812101e-001
        -1.0237068282784345e+000 -1.8940513020431682e+000
        -9.7984782502649559e-001 -9.7985188631508424e-001
        -9.7985255672164895e-001 -9.7986114166481419e-001
        -2.3294572684972632e+000 -9.3488495362408830e-001
        -9.7985788821253550e-001 -2.5000000000000000e+000
        -1.5482726881386260e+000 -2.5000000000000000e+000
        -9.7985169037880682e-001 -2.5000000000000000e+000
        -9.7986193409040490e-001 -9.7985881288733556e-001
        -2.5000000000000000e+000 -1.5017876438489399e+000
        -9.8770742949267232e-001 -9.7985080649343337e-001
        -9.7985012153837181e-001 -9.7985038500589006e-001
        -4.9289497231211443e-001 -9.7984807547508312e-001
        -4.4789325525961504e-001 -9.7985276222959594e-001
        -2.5000000000000000e+000 -1.0877693555990930e+000
        -2.5000000000000000e+000 -1.0102483982890167e+000
        -9.7984841251514376e-001 -2.5000000000000000e+000
        -2.5000000000000000e+000 -9.7985946845132843e-001
        -9.7985244928966497e-001 -9.7985367029740167e-001
        -9.7985155457922368e-001 -9.7986620853581829e-001
        -1.5884100540172428e+000 -1.4047284213810127e+000
        -1.8815654156333046e+000 -9.7985316112201715e-001
        -9.7985391685619394e-001 -9.7986301288817801e-001
        -6.2343366501975661e-001 -8.3610392047743320e-001
        -6.7898501214402585e-001 -9.7985399974208220e-001
        -5.1759001755148748e-001 -2.5000000000000000e+000
        -9.7984937712383968e-001 -9.7985339482779998e-001
        -9.7986354273327059e-001 -9.7985315086552571e-001
        -2.5000000000000000e+000 -1.6223378710239811e+000
        -9.8028179317829112e-001 -1.8073495123937431e+000
        -9.7985391300809899e-001 -2.5000000000000000e+000
        -6.0107952476914450e-001 -1.9053006858965162e+000
        -2.5000000000000000e+000 -9.7984918210914673e-001
        -9.7985253947389517e-001 -2.5000000000000000e+000
        -4.1342183206420469e-001 -9.7985386362456439e-001
        -9.7987730745303658e-001 -5.1200678513726006e-001
        -9.7985844007456302e-001 -1.0659856416265218e-001
        -9.7985315314567178e-001 -9.7986615076718753e-001
        -9.7985386362456439e-001 -2.5000000000000000e+000
        -2.5000000000000000e+000 -9.7985221172951320e-001</alpha>
      <index>
        104 89 77 101 93 85 87 71 91 79 99 95 83 103 75 86 76 88 68 90
        78 92 72 94 80 98 96 82 100 74 102 84 70 105 69 73 81 97 0 124
        113 128 120 122 108 126 115 134 130 118 136 111 121 112 123 106
        125 114 127 109 129 116 133 131 117 110 135 119 107 67 132 33 21
        10 31 17 19 4 23 12 30 26 16 8 18 9 20 1 22 11 24 5 25 13 29 27
        15 7 32 3 34 2 6 14 28 50 53 43 64 41 51 38 55 45 62 58 48 66 37
        42 52 35 54 44 56 39 57 61 59 47 63 40 65 49 36 46 60 236 237
        239 238 231 235 234 233 232 248 240 241 242 243 244 245 246 247
        213 222 137 214 215 216 217 218 219 220 221 230 223 224 225 226
        227 228 229 274 266 267 268 269 270 271 272 273 265 275 276 277
        278 279 280 281 258 250 251 252 253 254 255 256 257 249 259 260
        261 262 263 264 166 157 158 159 160 161 162 163 164 165 156 167
        168 169 170 171 172 173 174 147 138 139 140 141 142 143 144 145
        146 212 148 149 150 151 152 153 154 155 203 194 195 196 197 198
        199 200 201 202 175 204 205 206 207 208 209 210 211 193 176 177
        178 179 180 181 182 183 184 185 186 187 188 189 190 191 192</index></_>
    <_>
      <sv_count>286</sv_count>
      <rho>5.7559008370025470e-002</rho>
      <alpha>
        2.0686028811509587e+000 2.4658920027210396e+000
        2.5000000000000000e+000 1.5733033704137136e+000
        1.0575761056265940e+000 2.5000000000000000e+000
        1.0575833116513782e+000 1.0575531293926697e+000
        2.5000000000000000e+000 1.0575728690822872e+000
        2.5000000000000000e+000 9.4044673420063540e-001
        5.2050066610321621e-001 2.5000000000000000e+000
        8.6157530830274898e-001 1.0514717230951387e+000
        9.4027648999421398e-001 1.0575057835221175e+000
        2.5000000000000000e+000 6.9970389851280601e-001
        4.1064208098846322e-001 1.0575874149797391e+000
        2.5000000000000000e+000 7.1826454989395971e-001
        1.8218198321863734e+000 2.5000000000000000e+000
        9.7929487646719171e-001 1.6930214499911054e+000
        5.6836487049852735e-001 1.0575987518911567e+000
        1.0575137440148628e+000 2.5000000000000000e+000
        1.1991659178074399e+000 1.0635763530853910e+000
        1.0575179634290013e+000 1.2309736001594518e+000
        2.5000000000000000e+000 8.7890658420198164e-001
        5.4700781174709301e-001 1.0575467309186699e+000
        2.5000000000000000e+000 1.0577140849335602e+000
        1.0575352358032131e+000 1.0575139905154838e+000
        2.5000000000000000e+000 9.7541268964326777e-001
        2.5000000000000000e+000 2.5000000000000000e+000
        1.0574854258146682e+000 2.5000000000000000e+000
        1.0975763305640087e+000 2.5000000000000000e+000
        1.0575902844835130e+000 1.0575897708796773e+000
        2.5000000000000000e+000 1.0916512708048867e+000
        1.0282638601688205e+000 3.1693254921856068e-001
        1.0317477259503369e+000 1.0575277929448463e+000
        1.0575440861842815e+000 1.0575124867076768e+000
        1.3019006457206332e+000 1.4245287042256627e+000
        1.0575502825141190e+000 9.7258263546677215e-001
        1.0575765844904881e+000 2.5000000000000000e+000
        9.7256908935045261e-001 2.5000000000000000e+000
        8.6461096979594532e-001 5.1626380815389161e-001
        8.7898548064812687e-001 1.0575460564592178e+000
        8.5447383766677376e-001 1.2238233482256820e+000
        1.0575066240583451e+000 1.0781523651545220e+000
        1.0330568751821021e+000 1.0575660723221414e+000
        1.0575222859851992e+000 7.3985212314805893e-001
        2.5000000000000000e+000 1.0910511463996970e+000
        1.0575810622202562e+000 1.0575459546977131e+000
        1.0576182125401647e+000 1.0575753044692811e+000
        2.5000000000000000e+000 2.5000000000000000e+000
        1.0575630069781041e+000 2.5000000000000000e+000
        1.0575997676193964e+000 1.0575956791410210e+000
        2.5000000000000000e+000 1.0565162247236417e+000
        1.0575503869058680e+000 5.5733670179183981e-001
        5.8179196593098526e-001 1.0565017825790970e+000
        1.0529608304328004e+000 1.0576092546204527e+000
        1.0575722994228363e+000 1.0759443231603703e+000
        7.3972645833194572e-001 1.6750991528602241e+000
        1.5640220749797387e-001 1.0575982231043786e+000
        1.0575589988066689e+000 9.9777411748908673e-001
        1.0575672316241600e+000 8.6466257220310849e-001
        1.0558703315290976e+000 1.0576004545722679e+000
        1.0576040541785545e+000 2.5000000000000000e+000
        9.3922242993649274e-001 1.0559098849295068e+000
        1.0575826541757689e+000 1.0575276323864835e+000
        1.0575076230012321e+000 1.0575720646091047e+000
        1.0575894216478130e+000 1.0575736578747357e+000
        1.0575867069647342e+000 7.1825795930549607e-001
        9.0021469727607650e-001 4.7267566184475257e-001
        1.0575760271376025e+000 1.0575916042110511e+000
        1.0575797709577079e+000 9.0617020079065458e-001
        1.0575922792827881e+000 1.0575445756741164e+000
        9.0717887798936847e-001 1.0575455533065430e+000
        1.0575277929780471e+000 -1.5692683294394509e+000
        -2.5000000000000000e+000 -9.4244974436554885e-001
        -9.4248679879354225e-001 -2.5000000000000000e+000
        -9.4249055476410981e-001 -9.4249195820940546e-001
        -9.4245344175922185e-001 -7.0669648537777752e-001
        -9.4244170245939574e-001 -9.7337447295021451e-001
        -9.4249074839495817e-001 -2.5000000000000000e+000
        -8.8409797190051709e-001 -9.4241510938392359e-001
        -9.4241517634349725e-001 -2.5000000000000000e+000
        -6.1158754566334594e-001 -4.9387615661891726e-001
        -9.1639740039233197e-001 -6.5903936732843749e-001
        -8.8685973838357202e-001 -2.5000000000000000e+000
        -9.4249338363825674e-001 -9.4247764172232007e-001
        -2.5000000000000000e+000 -9.4244724911293776e-001
        -1.6373264735263837e+000 -2.5000000000000000e+000
        -1.1254957397489767e+000 -9.4242138923603880e-001
        -9.4240396864185350e-001 -9.4244658281757565e-001
        -6.7722764198879293e-001 -2.5000000000000000e+000
        -9.4240758748017872e-001 -9.4242888505595990e-001
        -2.5000000000000000e+000 -9.4241822498904715e-001
        -8.9223552501901704e-001 -1.0643675600270355e+000
        -9.4245526576167049e-001 -9.4250966460749186e-001
        -6.0146255166621609e-001 -9.4345169371034943e-001
        -9.4242889288358200e-001 -9.4253480606331508e-001
        -9.4239939523088534e-001 -2.5000000000000000e+000
        -9.4255171852850572e-001 -2.5000000000000000e+000
        -9.4245580810912621e-001 -9.4242770057716374e-001
        -9.4249229238450249e-001 -5.0285164410897365e-001
        -1.0652900379029475e+000 -1.0287747808137795e-001
        -9.4239492875940778e-001 -1.5999347044776475e+000
        -2.5000000000000000e+000 -6.7721998798071426e-001
        -9.4247764862480987e-001 -9.4249150098267875e-001
        -9.4249229238441423e-001 -9.4240027211476729e-001
        -2.5000000000000000e+000 -9.3989338551342783e-001
        -9.4240756860302488e-001 -9.4249338330080512e-001
        -9.4239844124083683e-001 -2.5000000000000000e+000
        -9.2175900900013974e-001 -9.4244658281757632e-001
        -9.4240961169590654e-001 -9.4241822498904715e-001
        -9.4245997791299452e-001 -9.4245228755228960e-001
        -2.5000000000000000e+000 -9.4245701787261582e-001
        -9.4239631091015508e-001 -8.9997575289271126e-001
        -9.4303075918014456e-001 -9.1639740039130846e-001
        -9.6802131362180399e-001 -9.4242244299082722e-001
        -9.4242005861393763e-001 -9.4240342041050018e-001
        -9.4243265302018142e-001 -5.4811174106458638e-001
        -9.4240756860302488e-001 -1.9117209605065744e+000
        -9.4244627202765308e-001 -9.4247771401434588e-001
        -9.4239516180337868e-001 -2.5000000000000000e+000
        -9.4240517312969085e-001 -9.4249548521459525e-001
        -9.4242653736842974e-001 -5.8408046034673722e-001
        -9.4241879807459916e-001 -1.5097245271883393e+000
        -9.4243620262659911e-001 -2.5000000000000000e+000
        -2.5000000000000000e+000 -9.4242513399722716e-001
        -6.8275307695598608e-001 -5.6824913440565428e-001
        -9.4250450565336630e-001 -1.9759485945778277e+000
        -9.4245688550951390e-001 -2.5000000000000000e+000
        -9.7982466423325276e-001 -2.0927623422431066e-001
        -9.4245679222099799e-001 -9.4245690462740972e-001
        -9.4240604705775155e-001 -2.9006518924618069e-001
        -2.5000000000000000e+000 -9.4243767191674133e-001
        -4.0231244255434412e-001 -9.4240088892549134e-001
        -9.4242397286239754e-001 -8.6868437717983860e-001
        -8.8407744571721703e-001 -9.6549192607037193e-001
        -5.7698337711152026e-001 -9.4245615588078324e-001
        -9.4249548521459525e-001 -9.4241517634349714e-001
        -6.7619461721903085e-001 -9.4244397427889370e-001
        -1.1312328090094030e+000 -1.2068984142925823e+000
        -9.4243710136732539e-001 -9.4244773615084654e-001
        -9.4240772071721191e-001 -9.4245218147350773e-001
        -9.4243782065245429e-001 -9.4249975864272195e-001
        -9.4248895713579162e-001 -9.4246476419678682e-001
        -2.5000000000000000e+000 -9.4247133246381376e-001
        -2.5000000000000000e+000 -2.5000000000000000e+000
        -9.4242138772256789e-001 -2.5000000000000000e+000
        -9.4246325854483759e-001 -2.5000000000000000e+000</alpha>
      <index>
        104 89 77 101 93 85 87 71 91 79 99 95 83 103 75 86 76 88 68 90
        78 92 72 94 80 98 96 82 100 74 102 84 70 105 69 73 81 97 0 124
        113 128 120 122 108 126 115 134 130 118 136 111 121 112 123 106
        125 114 127 109 129 116 133 131 117 110 135 119 107 67 132 33 21
        10 31 17 19 4 23 12 30 26 16 8 18 9 20 1 22 11 24 5 25 13 29 27
        15 7 32 3 34 2 6 14 28 50 53 43 64 41 51 38 55 45 62 58 48 66 37
        42 52 35 54 44 56 39 57 61 59 47 63 40 65 49 36 46 60 381 382
        384 383 376 380 379 378 377 393 385 386 387 388 389 390 391 392
        357 366 282 358 359 360 361 362 363 364 365 375 367 368 369 370
        371 372 373 374 422 413 414 415 416 417 418 419 420 421 412 423
        424 425 426 427 428 429 430 403 395 396 397 398 399 400 401 402
        394 404 405 406 407 408 409 410 411 309 300 301 302 303 304 305
        306 307 308 299 310 311 312 313 314 315 316 317 290 356 283 284
        285 286 287 288 289 318 291 292 293 294 295 296 297 298 347 338
        339 340 341 342 343 344 345 346 337 348 349 350 351 352 353 354
        355 328 319 320 321 322 323 324 325 326 327 329 330 331 332 333
        334 335 336</index></_>
    <_>
      <sv_count>284</sv_count>
      <rho>8.3659581984499409e-002</rho>
      <alpha>
        1.0836597748658054e+000 2.4977467038414476e+000
        2.5000000000000000e+000 7.9895151461154645e-001
        1.0836584786181813e+000 2.5000000000000000e+000
        1.0836597748658057e+000 1.0836507835299578e+000
        2.5000000000000000e+000 1.0836582011862843e+000
        2.5000000000000000e+000 6.4290409189147391e-001
        1.5932394911586696e+000 1.0957735576517673e+000
        1.0836505651767552e+000 1.0779359249929663e+000
        9.6349996502853719e-001 1.0836602633011367e+000
        1.0838030514528321e+000 2.5000000000000000e+000
        2.5000000000000000e+000 1.0836608046020362e+000
        2.5000000000000000e+000 7.3599991965245848e-001
        7.7871165742484405e-001 2.5000000000000000e+000
        1.7209627059028236e+000 7.5757038209004257e-001
        4.2975086738848473e-001 1.0836592966484451e+000
        1.0836498200460998e+000 2.5000000000000000e+000
        1.3244961239178823e+000 1.0836606443766632e+000
        1.0841661699642000e+000 1.0836587983763777e+000
        2.5000000000000000e+000 1.8483809239073070e+000
        5.5912510570081619e-001 1.0836614063400183e+000
        1.0831612600948548e+000 1.0836580725668663e+000
        1.0836608009109714e+000 1.0835175439222644e+000
        2.5000000000000000e+000 9.9945791419915919e-001
        2.5000000000000000e+000 2.5000000000000000e+000
        1.0831640409327454e+000 8.9212429244301039e-001
        1.0836597863170359e+000 6.9427056533870024e-001
        1.0836590836881905e+000 1.0846371760403146e+000
        1.0859141007605886e+000 1.0536292863252144e+000
        2.5000000000000000e+000 1.0571865748025471e+000
        1.0836582886289361e+000 1.0836597883031545e+000
        1.0836608076934100e+000 1.0827947721426494e+000
        2.4654030770955604e+000 2.5000000000000000e+000
        9.9657943823565698e-001 1.0836586496282079e+000
        6.4125610884955764e-001 9.9658051766236322e-001
        1.8305653302069298e+000 8.8597358627593270e-001
        7.7775186976801691e-001 2.5000000000000000e+000
        1.0836582011862843e+000 7.3821479683643842e-001
        1.0737712338330188e+000 1.0835662752195185e+000
        1.0835688978983933e+000 1.0585685352404433e+000
        1.0836602395812389e+000 1.4842179347951556e+000
        7.5775368022878364e-001 7.7871194029561830e-001
        1.0837140700069399e+000 1.0836604228224040e+000
        1.0836608076934100e+000 1.0836601109958370e+000
        1.0836581824161455e+000 1.0836597708155331e+000
        1.5476558899378796e+000 1.0836598242768976e+000
        1.0837382747860744e+000 1.0836582075283143e+000
        1.0836603638001143e+000 1.0737712036645763e+000
        1.0826089730033832e+000 1.0836608040897844e+000
        5.7265443561965379e-001 2.5000000000000000e+000
        1.0826074519117657e+000 1.0937571653038773e+000
        1.0840247867974422e+000 1.0836604210687517e+000
        1.0836604315540714e+000 7.6003381281868498e-001
        9.8876900742049934e-001 2.4597875706346306e+000
        1.0836608076934100e+000 1.0836581438753827e+000
        1.0262562450924151e+000 1.0836603612611093e+000
        8.8597272278615813e-001 1.0819817454382956e+000
        1.0836633861370324e+000 1.0836593289613663e+000
        8.2145224116320303e-001 5.7818605802186984e-001
        1.0819798593584158e+000 1.0836585171740438e+000
        1.0836601239694192e+000 1.0836581906375844e+000
        1.0836614676629677e+000 1.0836579985057955e+000
        1.1561067808617236e+000 1.0836606805303362e+000
        7.3599645717458029e-001 1.6150121018857069e+000
        2.5000000000000000e+000 1.0836604162382042e+000
        1.0836601583632595e+000 1.0836601599263893e+000
        8.6933842983754317e-001 1.0836603976509984e+000
        1.0836603327496974e+000 9.8877032558122135e-001
        1.0836602750667423e+000 1.0836609739645668e+000
        -9.1634155278039853e-001 -9.1634005511631988e-001
        -9.1634021043055214e-001 -9.1634173651297757e-001
        -1.0000891909658656e+000 -9.1634023109775886e-001
        -9.1634095532814652e-001 -9.1633944781671739e-001
        -9.1640499586351187e-001 -1.7617459809506946e+000
        -9.1633973104800792e-001 -9.1633956315361864e-001
        -2.5000000000000000e+000 -9.1633987284842089e-001
        -9.1634212098674717e-001 -9.1634163566497717e-001
        -9.1634135923274185e-001 -6.5918247117778461e-001
        -8.8001946522061236e-001 -9.1749806472062467e-001
        -9.1634180936241560e-001 -9.1634147211065375e-001
        -2.5000000000000000e+000 -2.5000000000000000e+000
        -4.7490770500713309e-001 -9.1633984116859513e-001
        -1.3550733298025806e+000 -9.1634200149420453e-001
        -9.1634166686907714e-001 -9.1633997185649285e-001
        -9.1634155940912831e-001 -9.1633977416843981e-001
        -9.1634198968490232e-001 -9.1633944781671739e-001
        -9.1633992689695098e-001 -9.1633988900416308e-001
        -9.1633919908902861e-001 -9.1633999226412843e-001
        -9.1634163566497717e-001 -9.1634173520771756e-001
        -9.1634135037215481e-001 -9.1633977416843981e-001
        -9.1634182174846091e-001 -9.1634086712920060e-001
        -9.1633971397760061e-001 -1.1854334421381589e+000
        -2.5000000000000000e+000 -1.6584774317854347e+000
        -9.1634004321105178e-001 -9.1634121348135933e-001
        -9.1634125124570298e-001 -9.1634019959430790e-001
        -1.7205763676136312e+000 -2.5000000000000000e+000
        -9.1634182088430094e-001 -9.1634181632715861e-001
        -2.5000000000000000e+000 -9.1633991782369706e-001
        -9.1633971397760061e-001 -9.1634018183300903e-001
        -9.1633974746989111e-001 -9.1634190888933653e-001
        -9.1633972532139796e-001 -9.1634184335132385e-001
        -9.1634181632715861e-001 -2.5000000000000000e+000
        -2.0282400264324894e+000 -2.5000000000000000e+000
        -9.1633853233703233e-001 -9.1633929262152902e-001
        -9.1633966875778716e-001 -9.1634135173702003e-001
        -9.6082752627730916e-001 -2.0282382744465939e+000
        -9.1633943262890361e-001 -2.5000000000000000e+000
        -6.5820638622116823e-001 -9.1693927155513055e-001
        -2.5000000000000000e+000 -9.1634179015591088e-001
        -9.1634152138174096e-001 -9.1633980590400388e-001
        -9.1634194720250028e-001 -9.1633978822089290e-001
        -9.1643159478336256e-001 -9.1633966875778616e-001
        -2.5000000000000000e+000 -2.5000000000000000e+000
        -2.5000000000000000e+000 -9.1633946065859040e-001
        -2.5000000000000000e+000 -9.1634049497830172e-001
        -9.1633986851088345e-001 -9.1634014999717506e-001
        -9.1634015860471996e-001 -9.1903154922999675e-001
        -9.1633994661084284e-001 -9.1634195339109836e-001
        -9.1633820461875670e-001 -9.1633936780578662e-001
        -1.4456236025792357e+000 -9.1634013745482157e-001
        -9.1634041304519676e-001 -9.1634013745482157e-001
        -9.1634135173702003e-001 -9.1633926870750793e-001
        -9.1633991782369706e-001 -9.1633967136846484e-001
        -9.1633919908902872e-001 -9.1634019959430790e-001
        -9.1634198968490232e-001 -2.5000000000000000e+000
        -9.1633984007192215e-001 -9.1634021368296414e-001
        -9.1633920157097171e-001 -9.1634199707295638e-001
        -9.1634179254491865e-001 -2.5000000000000000e+000
        -2.5000000000000000e+000 -2.5000000000000000e+000
        -9.1634168000049532e-001 -9.1634015860471996e-001
        -9.1634003646814211e-001 -9.1633919908902872e-001
        -9.1633984336637209e-001 -9.1633984848808270e-001
        -9.1634205434221250e-001 -9.1634041304519676e-001
        -9.1633933720722127e-001 -9.1633957449917758e-001
        -2.5000000000000000e+000 -2.5000000000000000e+000
        -9.1634058691513298e-001 -9.1633957183499259e-001
        -9.1633919230659011e-001 -9.1634197132921902e-001
        -9.1634155497079983e-001 -8.8001735290190441e-001
        -9.1633979668866661e-001 -9.1634156252305898e-001
        -9.1634135037215481e-001 -1.6184149607187619e+000
        -9.1634163680778158e-001 -9.1634135037215481e-001
        -9.1634163199117813e-001 -9.1634021169684554e-001
        -9.1634172010261594e-001 -9.1634179257878601e-001</alpha>
      <index>
        104 89 77 101 93 85 87 71 91 79 99 95 83 103 75 86 76 88 68 90
        78 92 72 94 80 98 96 82 100 74 102 84 70 105 69 73 81 97 0 124
        113 128 120 122 108 126 115 134 130 118 136 111 121 112 123 125
        114 127 109 129 116 133 131 117 110 135 119 107 67 132 33 21 10
        31 17 19 4 23 12 30 26 16 8 18 9 20 1 22 11 24 5 25 13 29 27 15
        7 32 3 34 2 6 14 28 50 53 43 64 41 51 38 55 45 62 58 48 66 37 42
        52 35 54 44 56 39 57 61 59 47 63 40 65 49 36 46 60 530 531 533
        532 525 529 528 527 526 542 534 535 536 537 538 539 540 541 506
        515 580 507 508 509 510 511 512 513 514 524 516 517 518 519 520
        521 522 523 571 563 564 565 566 567 568 569 570 561 572 573 574
        575 576 577 578 579 552 544 545 546 547 548 549 550 551 543 553
        554 555 556 557 558 559 560 459 450 451 452 453 454 455 456 457
        458 449 460 461 462 463 465 466 467 440 431 432 433 434 435 436
        437 438 439 468 441 442 443 444 445 446 447 448 496 487 488 489
        490 491 492 493 494 495 486 497 498 499 500 501 502 503 504 477
        469 470 471 472 473 474 475 476 505 478 479 480 481 482 483 484
        485</index></_>
    <_>
      <sv_count>289</sv_count>
      <rho>1.5254289982111884e-002</rho>
      <alpha>
        1.0152625793633467e+000 1.1200751526689328e+000
        1.0152554737172270e+000 1.0152620114553168e+000
        1.0152547530082932e+000 1.2398338796387449e+000
        1.0152551725261896e+000 1.0152586705831670e+000
        6.2512672385317369e-001 1.0152665298917334e+000
        1.0152480157094304e+000 2.0113725258656553e-001
        1.0152633445190495e+000 1.1342816488655010e+000
        1.0152493837183847e+000 1.0152550815084929e+000
        1.0152667716403878e+000 1.0152577606053850e+000
        8.0403020937083236e-001 1.3094949821007245e+000
        1.0140819771037972e+000 1.2693930962904094e+000
        1.0152529010124822e+000 1.0152374053195852e+000
        2.8449415995573107e-001 1.6871001872803044e+000
        1.0152603864053940e+000 2.5000000000000000e+000
        1.0152480263346517e+000 1.0152665500777887e+000
        1.0157189140783633e+000 2.5000000000000000e+000
        1.0157797647241753e+000 1.0152630342640649e+000
        5.0108279267791533e-001 6.3045875332951773e-001
        1.0359867370922657e+000 1.0152662599123725e+000
        1.0152642471522528e+000 4.0134880762510539e-001
        1.0152390981100170e+000 1.0152547530082934e+000
        1.1086673982551591e+000 9.5915887202581496e-001
        2.5000000000000000e+000 1.2076973502220272e+000
        1.0152403609776106e+000 2.5000000000000000e+000
        1.0152638402844407e+000 1.0297085367938208e+000
        2.5000000000000000e+000 9.0592059993478702e-001
        1.0152363601175183e+000 1.0152428577314419e+000
        2.5000000000000000e+000 1.0152453526773713e+000
        1.0184861501959461e+000 1.0152666379006225e+000
        1.0152458697213824e+000 1.0152578183182412e+000
        1.0152632572134617e+000 1.0152612244545098e+000
        1.0152596074277338e+000 1.0152625953811647e+000
        1.0152620114553168e+000 6.1874548467404067e-001
        1.0152601897176945e+000 1.0152441746097396e+000
        1.4812918000542914e+000 1.0152601897176945e+000
        1.0152372033872101e+000 1.0152601819347196e+000
        1.0152629375197320e+000 2.5000000000000000e+000
        1.0152634752560519e+000 2.5000000000000000e+000
        2.5000000000000000e+000 2.5000000000000000e+000
        1.0152455033112049e+000 2.5000000000000000e+000
        1.0152586356573612e+000 1.0152607409904624e+000
        1.1810324309143125e+000 1.0150740311255402e+000
        1.0152569201542783e+000 1.0152600736729784e+000
        1.0152551725261896e+000 1.0152554882127298e+000
        5.3130255242302749e-001 1.0152546611936395e+000
        2.1990287336774190e+000 1.0152643232210619e+000
        2.5000000000000000e+000 1.0152435592275255e+000
        2.5000000000000000e+000 1.0152664832108724e+000
        1.0152404146907232e+000 2.5000000000000000e+000
        1.0033046504760577e+000 1.0152546611936395e+000
        1.0152492945772702e+000 1.0152380023623968e+000
        1.0152407246876960e+000 1.0152533242365167e+000
        5.3130720911572060e-001 1.0152367535808864e+000
        1.0590643241599333e+000 1.0152637617662554e+000
        1.0162146575870490e+000 1.0152547535731069e+000
        8.6631239902121682e-001 7.0352017794872679e-001
        1.0152506525772136e+000 5.4664114509457828e-001
        1.0152450339756398e+000 1.0152626553388882e+000
        1.0152373786904336e+000 1.0152548081631192e+000
        2.5000000000000000e+000 1.8184798389715131e+000
        1.0152554916785566e+000 7.7306378857620595e-001
        1.0152634733808292e+000 1.0107698441510167e+000
        2.2377034199199612e+000 6.5647267040100243e-001
        8.4842656471683497e-001 1.1611289609612534e+000
        1.0152584741455304e+000 2.5000000000000000e+000
        6.1219935297781725e-001 1.0152602760743217e+000
        1.0152565060501975e+000 2.3147031172965731e+000
        1.0152638570072305e+000 1.1043070708044476e-001
        1.0152393490111067e+000 1.0152638024824001e+000
        1.0152664192585561e+000 2.5000000000000000e+000
        2.5000000000000000e+000 1.0152587456063722e+000
        -9.4366334748272149e-002 -2.5000000000000000e+000
        -9.8473297701877105e-001 -9.8475116213420977e-001
        -2.5000000000000000e+000 -9.8474221583439336e-001
        -9.8475633520611006e-001 -9.8475606510411762e-001
        -7.3843168511861945e-001 -9.8475963247936593e-001
        -9.8473962421979266e-001 -1.2426407356907920e+000
        -1.8802089024123203e+000 -9.2380856752473162e-001
        -9.8474619316787393e-001 -9.8475958530927676e-001
        -8.5007869029836813e-001 -2.5000000000000000e+000
        -5.1558793236741507e-001 -9.5758444121711739e-001
        -6.8858975169759440e-001 -3.7690733481507382e-001
        -1.9965621466588677e+000 -9.8473668209150100e-001
        -9.8473754191721952e-001 -1.9388112355133906e+000
        -9.8473684433466302e-001 -9.5616623780325016e-001
        -2.5000000000000000e+000 -2.5000000000000000e+000
        -9.8475714141595083e-001 -9.8475473895397969e-001
        -9.8475070542272902e-001 -6.3790987760644946e-001
        -9.8682239171363684e-001 -9.8475993537605377e-001
        -9.8475504746877018e-001 -2.5000000000000000e+000
        -9.8473872684346564e-001 -9.5494557019113802e-001
        -8.7874250775717266e-001 -9.8473999564794779e-001
        -9.8474212714270493e-001 -1.9749238550409147e+000
        -9.8474307994825505e-001 -9.8475472863514357e-001
        -1.0816294300411264e+000 -9.8475308386656446e-001
        -9.8474666155030499e-001 -9.8474013238749092e-001
        -2.5000000000000000e+000 -9.8475000206988528e-001
        -9.8473978780016680e-001 -9.8474708349187412e-001
        -6.2860919454790076e-001 -2.6770182136023390e-001
        -9.8475605593322890e-001 -1.0331248636626775e+000
        -5.8368924873475303e-001 -9.1298934437138612e-001
        -9.8475668283789686e-001 -9.8473802420903700e-001
        -9.8474292766574190e-001 -9.8475724160731160e-001
        -2.5000000000000000e+000 -2.5000000000000000e+000
        -9.8475029358156074e-001 -9.8473766708769206e-001
        -9.8807898949156037e-001 -2.5000000000000000e+000
        -9.8071366138374239e-001 -9.8473958883356683e-001
        -9.8475282884803617e-001 -9.8475714141595083e-001
        -9.8473344992169776e-001 -9.8475837542986755e-001
        -2.4437059436010617e+000 -9.8475332263731907e-001
        -9.8474162203004301e-001 -1.0435284316957052e+000
        -1.0922294019460193e+000 -9.5757216333282003e-001
        -1.0074626600094467e+000 -9.8473327153998635e-001
        -9.8473819014431829e-001 -9.8473607716635658e-001
        -9.8473524969206627e-001 -5.8357429854718146e-001
        -9.8476314222483041e-001 -1.0119356671698370e+000
        -9.8572774853094736e-001 -9.8473645131164722e-001
        -9.8473789004668089e-001 -4.4944436549324029e-001
        -9.8475504746877074e-001 -9.8475900954261009e-001
        -9.8475714226855815e-001 -9.8473322836077049e-001
        -8.1846641143117826e-001 -9.8474518121112986e-001
        -2.5000000000000000e+000 -9.8481278373195646e-001
        -9.8476261936062759e-001 -6.6298386107196972e-001
        -8.2221653745592116e-001 -9.8473769566325275e-001
        -1.2987118601156795e+000 -9.8473335651216776e-001
        -2.5000000000000000e+000 -9.8474695697830339e-001
        -2.1914112157304746e-001 -9.8473524969198756e-001
        -9.8475623583481198e-001 -9.8473191406722793e-001
        -3.7378204805765841e-001 -2.5000000000000000e+000
        -9.8473675032960162e-001 -8.4308113596239942e-001
        -9.8473972392567843e-001 -9.8473335274949303e-001
        -9.0765613392662137e-001 -9.2380528322559829e-001
        -9.8474170538378403e-001 -2.5000000000000000e+000
        -9.8473877554549027e-001 -9.8474634178426912e-001
        -9.8473769566298630e-001 -7.0658535808006739e-001
        -9.8474272006226615e-001 -9.8473727751398132e-001
        -9.8475894406889297e-001 -9.8474208731283697e-001
        -9.8473927007805906e-001 -9.8475167465687230e-001
        -9.8475036541741023e-001 -9.8476324641911372e-001
        -9.8474260991255613e-001 -9.8473956076828395e-001
        -9.8474499105549684e-001 -2.5000000000000000e+000
        -9.8691134023385918e-001 -2.5000000000000000e+000
        -2.5000000000000000e+000 -1.2140842276830421e+000
        -2.5000000000000000e+000 -9.8474418006737163e-001
        -8.1846456380646126e-001</alpha>
      <index>
        236 237 239 238 231 235 234 233 232 248 240 241 242 243 244 245
        246 247 213 222 137 214 215 216 217 218 219 220 221 230 223 224
        225 226 227 228 229 274 266 267 268 269 270 271 272 273 265 275
        276 277 278 279 280 281 258 250 251 252 253 254 255 256 257 249
        259 260 261 262 263 264 166 157 158 160 161 162 163 164 165 156
        167 168 169 170 171 172 173 174 147 138 139 140 141 142 143 144
        145 146 212 148 149 150 151 152 153 154 155 203 194 195 197 198
        199 200 202 175 204 205 206 207 208 209 210 211 193 176 177 178
        179 180 181 182 183 184 185 186 187 188 189 190 191 192 381 382
        384 383 376 380 379 378 377 393 385 386 387 388 389 390 391 392
        357 366 282 358 359 360 361 362 363 364 365 375 367 368 369 370
        371 372 373 374 422 413 414 415 416 417 418 419 420 421 412 423
        424 425 426 427 428 429 403 395 396 397 398 399 400 401 402 394
        404 405 406 407 408 409 410 411 309 300 301 302 303 304 305 306
        307 308 299 310 311 312 313 314 315 316 317 290 356 283 284 286
        287 288 289 318 291 292 293 294 295 296 297 298 347 338 339 340
        341 342 343 344 345 346 337 348 349 350 351 352 353 354 355 328
        319 320 321 322 323 324 325 326 327 329 330 331 332 333 334 335
        336</index></_>
    <_>
      <sv_count>291</sv_count>
      <rho>4.2134868549396874e-002</rho>
      <alpha>
        1.0421349578181669e+000 1.9238676279873881e+000
        1.0665757806200868e+000 1.0421331276818515e+000
        1.0421290246155424e+000 1.0421351657192131e+000
        1.0421380281792609e+000 1.0421341054186666e+000
        5.6788336459726896e-001 1.0421322880828139e+000
        1.0421346174020749e+000 1.8730811996951133e+000
        1.0421349479089681e+000 1.0421382620329522e+000
        1.0421400271856995e+000 1.0421351425665060e+000
        1.0421332537050543e+000 1.0421336076180117e+000
        8.2532215748037130e-001 1.0423078621777366e+000
        1.0410233877443233e+000 1.0421378592321557e+000
        1.0421358096429814e+000 1.0421335892373786e+000
        7.0862821406591325e-001 6.4166833269700774e-001
        1.0421363004523243e+000 2.5000000000000000e+000
        1.0421313426091059e+000 1.0421374471459472e+000
        1.0421378503181795e+000 7.0599505896112891e-001
        1.0421314388527523e+000 1.0421343621128178e+000
        5.7017696858307443e-001 6.4277519201350020e-001
        1.0421336125442067e+000 2.5000000000000000e+000
        1.0421364276288128e+000 4.0403534840265309e-001
        1.0441054728679353e+000 1.0421359914795123e+000
        1.0410264273741217e+000 9.5830402543542026e-001
        2.4716108883011199e+000 1.0409868376823996e+000
        1.0421343621128585e+000 1.8730903755491795e+000
        1.0421342067596151e+000 1.0421343596788437e+000
        2.5000000000000000e+000 9.3001775556982680e-001
        1.0421319471518073e+000 1.0421321461775304e+000
        1.0421223871899170e+000 1.0421343037815094e+000
        1.6739430476124220e+000 1.0421383954514269e+000
        1.0421288285257191e+000 1.0421326536845454e+000
        1.0421329319792614e+000 1.0421322902042798e+000
        1.0444323788933227e+000 1.0421382581252054e+000
        1.0421387993453606e+000 6.3812158965182764e-001
        1.0421374725087715e+000 1.0421461364112712e+000
        1.0075412062847182e+000 1.0421354402926157e+000
        1.0421328191390162e+000 1.0421336217979749e+000
        1.0819517371756129e+000 9.5839971043388195e-001
        1.0421381793778255e+000 2.5000000000000000e+000
        2.5000000000000000e+000 2.5000000000000000e+000
        1.0421362517263777e+000 2.5000000000000000e+000
        1.0421376263908568e+000 1.0421387874652928e+000
        2.5000000000000000e+000 1.0475940154388890e+000
        1.0421397681849836e+000 1.0421336217979749e+000
        1.0421337039534229e+000 1.0421381884677456e+000
        1.0699089963964601e+000 1.0421353058341896e+000
        5.0244507487842938e-001 1.0421311127949300e+000
        2.5000000000000000e+000 1.2625726529380683e+000
        2.5000000000000000e+000 1.0625697669009897e+000
        1.0421329721048829e+000 2.5000000000000000e+000
        2.5000000000000000e+000 1.0421342080774390e+000
        1.0421329687609526e+000 1.0421343037815094e+000
        1.0421342172042245e+000 1.0421313727391210e+000
        5.5844774856253043e-001 1.0421336402798189e+000
        1.0421399248308529e+000 1.0421358732693362e+000
        1.0421294712112772e+000 1.0421392421047426e+000
        8.8918510668694994e-001 7.2212762047800749e-001
        1.0421347453945711e+000 5.7361993205373907e-001
        2.5000000000000000e+000 1.0421353787457490e+000
        1.0925329110323356e+000 1.0421347453945711e+000
        1.0422069537700118e+000 2.5000000000000000e+000
        1.0335286943938735e+000 1.0421352369403316e+000
        7.0771213885847783e-001 1.0421353143446250e+000
        1.0419567461221928e+000 6.3937166181427907e-001
        7.0783516463656726e-001 1.0810985263902340e+000
        1.0421863298196772e+000 1.0421384618385798e+000
        2.5000000000000000e+000 2.5000000000000000e+000
        1.0421375278406211e+000 1.0421319471518073e+000
        6.6874446859196512e-001 1.0421337289989994e+000
        1.1343010474383845e-001 1.0421356540546018e+000
        1.0421376602923296e+000 1.0421352071848309e+000
        2.5000000000000000e+000 1.0705212578764440e+000
        1.0421321129616499e+000 -2.5000000000000000e+000
        -9.5786444354788902e-001 -9.5785997281430046e-001
        -9.5786451380122539e-001 -9.5787134750735503e-001
        -9.5786579191926369e-001 -9.5786788703835002e-001
        -9.5786636115619050e-001 -9.5786444354788902e-001
        -9.5786849679781427e-001 -9.5786641692428742e-001
        -2.5000000000000000e+000 -9.5786424998417752e-001
        -9.5786639238198834e-001 -9.5786578279577550e-001
        -9.5786676811348292e-001 -6.8831480653270360e-001
        -9.6462674980918917e-001 -1.6133920207240802e+000
        -9.5786569621849060e-001 -9.5786249251507316e-001
        -2.5000000000000000e+000 -2.5000000000000000e+000
        -2.5000000000000000e+000 -9.5786702789511702e-001
        -1.1914205474024777e+000 -9.5786628360301918e-001
        -9.5785997188613470e-001 -9.5786160454857305e-001
        -9.5793043277748102e-001 -9.5786396002786056e-001
        -9.5786579192256105e-001 -9.5786424998417752e-001
        -9.5786766017596126e-001 -9.5786239288194719e-001
        -9.5786146628426461e-001 -9.5786219107917647e-001
        -9.5791606889968994e-001 -5.6768811199380576e-001
        -9.5786855602270082e-001 -9.5786718086098366e-001
        -9.5786827252048745e-001 -9.5786852450337767e-001
        -9.5785997367771336e-001 -9.5786260611547569e-001
        -1.2972478714888629e+000 -7.3571316705803713e-001
        -9.5786368337503691e-001 -9.5786365886087466e-001
        -9.5786068147506387e-001 -9.5786120065463953e-001
        -9.5786363288745391e-001 -2.5000000000000000e+000
        -2.5000000000000000e+000 -9.5786237903890337e-001
        -9.5786498384978247e-001 -2.0391400353315685e+000
        -9.5786652305795428e-001 -9.5786498384978247e-001
        -1.0122636747834377e+000 -9.5786462094480118e-001
        -9.5786611071104355e-001 -9.5786483990528437e-001
        -9.5786701539659769e-001 -9.5786468256993351e-001
        -2.5000000000000000e+000 -7.8312514418557422e-001
        -2.5000000000000000e+000 -9.5786497523585534e-001
        -9.5786468256993351e-001 -9.5786849679781427e-001
        -9.5786374827362242e-001 -1.9746386317346194e+000
        -7.8571589932253039e-001 -9.5786498143922061e-001
        -9.5786075723534236e-001 -6.8832313282194213e-001
        -9.5787948452002447e-001 -2.5000000000000000e+000
        -9.5786382676250637e-001 -9.5786708154504197e-001
        -9.5786418292384023e-001 -9.5786182062217451e-001
        -9.5786464191777398e-001 -9.5786672274494811e-001
        -9.5786615339949488e-001 -9.6060858759165046e-001
        -7.7370360607778077e-001 -2.5000000000000000e+000
        -9.6001683387405612e-001 -2.5000000000000000e+000
        -9.5786216445642158e-001 -9.5786382676250637e-001
        -9.5786639185018330e-001 -2.5000000000000000e+000
        -1.8666310185259227e+000 -9.5786702789511702e-001
        -9.5786439477244623e-001 -9.5786531134278607e-001
        -9.5786582080036042e-001 -6.1919464629612964e-001
        -9.5786123870637063e-001 -9.5786429270864271e-001
        -9.5786464187418141e-001 -9.5786504218130586e-001
        -9.5786563788718204e-001 -9.5786521569883620e-001
        -9.5786461901529085e-001 -9.5786455970738416e-001
        -9.5786503430708403e-001 -9.5786181462632891e-001
        -2.0389805528939324e+000 -9.5786396002786056e-001
        -9.5786806091922772e-001 -9.5786865739089411e-001
        -9.5786669542380010e-001 -9.5786140309177958e-001
        -2.5000000000000000e+000 -2.5000000000000000e+000
        -5.8112753590598443e-001 -9.5786504218130586e-001
        -9.5786094329970539e-001 -9.5786369954767570e-001
        -9.5786582080036042e-001 -9.5786418292384023e-001
        -9.5786464187418141e-001 -9.5786702789511702e-001
        -9.5786852450337767e-001 -9.5786152643690659e-001
        -9.5786469416581044e-001 -2.5000000000000000e+000
        -2.5000000000000000e+000 -9.5786848756219289e-001
        -9.5786806091922772e-001 -9.5786403104546014e-001
        -9.5786766017596126e-001 -9.5786504218130586e-001
        -9.1805296937170555e-001 -9.5794508567381464e-001
        -9.5786563027872806e-001 -9.5786713524979561e-001
        -5.6770671429153752e-001 -9.5786569621849060e-001
        -9.5786668922432772e-001 -9.5786174187479456e-001
        -9.5786703769387960e-001 -9.5786627885275588e-001
        -9.5786765391328976e-001</alpha>
      <index>
        236 237 239 238 231 235 234 233 232 248 240 241 242 243 244 245
        246 247 213 222 137 214 215 216 217 218 219 220 221 230 223 224
        225 226 227 228 229 274 266 267 268 269 270 271 272 273 265 275
        276 277 278 279 280 281 258 250 251 252 253 254 255 256 257 249
        259 260 261 262 263 264 166 157 158 160 161 162 163 164 165 156
        167 168 169 170 171 172 173 174 147 138 139 140 141 142 143 144
        145 146 212 148 149 150 151 152 153 154 155 203 194 195 197 198
        199 200 201 202 175 204 205 206 207 208 209 210 211 193 176 177
        178 179 180 181 182 183 184 185 186 187 188 189 190 191 192 530
        531 533 532 525 529 528 527 526 534 535 536 537 538 539 540 541
        506 515 580 507 508 509 510 511 512 513 514 524 516 517 518 519
        520 521 522 523 571 562 563 564 565 566 567 568 569 570 561 572
        573 574 575 576 577 578 579 552 544 545 546 547 548 549 550 551
        543 553 554 555 556 557 558 559 560 459 450 451 452 453 454 455
        456 457 458 449 460 461 462 463 465 466 467 440 431 432 433 434
        435 436 437 438 439 468 441 442 443 444 445 446 447 448 496 487
        488 489 490 491 492 493 494 495 486 497 498 499 500 501 502 503
        504 477 469 470 471 472 473 474 475 476 505 478 479 480 481 482
        483 484 485</index></_>
    <_>
      <sv_count>296</sv_count>
      <rho>2.6562231686475625e-002</rho>
      <alpha>
        6.6862369513386044e-001 2.4993985588954417e+000
        1.0265529727355762e+000 1.0265674992664720e+000
        2.5000000000000000e+000 1.0265622159267318e+000
        1.0294879958905943e+000 1.0265597020500787e+000
        7.6976638375247342e-001 1.0265634923447271e+000
        2.5000000000000000e+000 1.0265667731306407e+000
        1.0551551205679792e+000 9.6304673446689260e-001
        1.0265598294985894e+000 1.0265659608975246e+000
        8.9005991526123729e-001 1.1252525450916797e+000
        5.3778564059918699e-001 9.9825027770715946e-001
        7.1784429697854801e-001 2.5000000000000000e+000
        1.0012954674718910e+000 1.0265629803204592e+000
        1.0265682176920428e+000 7.2923560744161198e-001
        1.0478887531313053e+000 9.9554805915723121e-001
        2.5000000000000000e+000 1.0171692948052242e+000
        1.0265649437992113e+000 1.0265539201619427e+000
        1.0265553243671668e+000 7.3769670385608688e-001
        1.0265623991723567e+000 1.0265666945026184e+000
        1.0265682982042590e+000 2.5000000000000000e+000
        1.0265678171490460e+000 9.9554640043313647e-001
        8.9007292355389844e-001 1.0265652747867464e+000
        1.0265685392745021e+000 5.3725116781189797e-001
        1.0707568444603568e+000 1.0265501026974555e+000
        1.0265613560320273e+000 1.0265621839651633e+000
        1.0268749133785835e+000 1.0265572587006115e+000
        2.5000000000000000e+000 1.0265678184270501e+000
        1.0265588399095666e+000 1.0265546006765061e+000
        5.3739642570819890e-001 5.6926993809100823e-001
        1.1908502959105385e-001 1.0265687071365059e+000
        2.5000000000000000e+000 6.0838652065286636e-001
        7.3768929270045613e-001 1.0265517771976671e+000
        1.0265601930945689e+000 1.0265613984415460e+000
        1.0269008655939464e+000 2.5000000000000000e+000
        1.0242665729542153e+000 1.0265585589628419e+000
        1.0265526204947610e+000 1.0266727844092629e+000
        2.5000000000000000e+000 1.0050473185409527e+000
        1.0265584037118012e+000 1.0265687683730103e+000
        1.0265645729673660e+000 1.0265620792007233e+000
        1.0265601932527109e+000 1.5310867459483075e+000
        1.0265649412739410e+000 1.0265621586811604e+000
        9.8031581390515710e-001 2.5000000000000000e+000
        9.9825036114083898e-001 1.0050431670384876e+000
        1.0265678169909069e+000 1.0265789810693184e+000
        1.0265507135293133e+000 1.0265695805708579e+000
        6.0842998661012482e-001 1.0265687904467866e+000
        1.0194938920211296e+000 1.0265688977937113e+000
        1.0265681702669238e+000 1.0265598341856250e+000
        1.0265604370187873e+000 1.0265641670727084e+000
        1.0265648481220577e+000 4.1421043824869569e-001
        1.0265621101182183e+000 8.5321347908917000e-001
        1.0265681661926696e+000 2.5000000000000000e+000
        2.5000000000000000e+000 1.0265678631204547e+000
        7.4357983504802816e-001 6.0842142272867739e-001
        1.0265622159267318e+000 1.0835032365645578e+000
        1.0265598294985894e+000 1.7732422868938105e+000
        1.0265864653689565e+000 2.2816038099425923e-001
        1.0265601826867679e+000 1.0265516951542026e+000
        1.0265624680962639e+000 3.1602399366148859e-001
        2.5000000000000000e+000 1.0265652747867464e+000
        5.3739889821109421e-001 1.0265604199401517e+000
        1.0265622622752697e+000 9.4620487966812283e-001
        9.6304858714687214e-001 1.0265647248061311e+000
        1.0391781409037411e+000 1.0265620291758395e+000
        1.0425661365005876e+000 1.0265500981067972e+000
        7.3660786789896970e-001 1.0265539516999556e+000
        1.0265604698376125e+000 1.0275602831965700e+000
        1.0265678234968565e+000 1.0265607785015127e+000
        1.0265601644132583e+000 1.0265617604169621e+000
        1.0265680242090514e+000 1.2493845851731391e+000
        1.0265684099132812e+000 1.0265649128158001e+000
        2.5000000000000000e+000 1.0265675259152323e+000
        2.5000000000000000e+000 1.0267319758366544e+000
        1.0265502568068097e+000 1.0271616055141115e+000
        1.0265614700378951e+000 8.5322112736004341e-001
        -1.2182175773212243e+000 -9.9588841637967107e-001
        -9.7344030238268664e-001 -9.7343798940017645e-001
        -9.7344967460169873e-001 -9.7343129724599931e-001
        -9.7343264944486596e-001 -9.7343988630025613e-001
        -9.7345734988410548e-001 -6.1884843206314577e-001
        -9.7379064537096771e-001 -9.7343508718419991e-001
        -1.6867429544449584e+000 -9.7343213779182436e-001
        -9.7344121011936169e-001 -9.7344912771314407e-001
        -9.7343505620078863e-001 -6.9951578678103310e-001
        -9.3481226497996528e-001 -9.7354707570766186e-001
        -9.7343080326258646e-001 -9.7343970370143951e-001
        -2.5000000000000000e+000 -2.5000000000000000e+000
        -3.0864696643900691e-001 -9.7343875156805826e-001
        -9.7343407011738248e-001 -9.7344785128964173e-001
        -9.7343213779182436e-001 -9.7343198840699652e-001
        -9.7344966706716718e-001 -9.7343543247898456e-001
        -9.7344016581437498e-001 -9.7651983680127519e-001
        -9.7343522843011909e-001 -9.7343277190008703e-001
        -9.7343981140056102e-001 -9.7343109146097706e-001
        -9.7344210274599852e-001 -2.4999104533180496e+000
        -9.7344072468838894e-001 -9.7343180418222219e-001
        -9.7344653703892803e-001 -9.7343791366964350e-001
        -9.7343194544950751e-001 -9.7343175035012242e-001
        -2.5000000000000000e+000 -7.5159369847287161e-001
        -1.0176366222441591e+000 -9.7344737913756052e-001
        -9.7343956671882803e-001 -9.7343781603483670e-001
        -9.7344326037806117e-001 -2.5000000000000000e+000
        -2.5000000000000000e+000 -9.7343172950048762e-001
        -9.7343163456222848e-001 -9.7343264944486596e-001
        -9.7343129724590016e-001 -9.7344683915648034e-001
        -9.7343974246960230e-001 -9.7343170179574023e-001
        -9.7344152393588168e-001 -9.7344722097452641e-001
        -9.7343165665164000e-001 -2.5000000000000000e+000
        -1.2062124451291225e+000 -2.5000000000000000e+000
        -9.7344116009043336e-001 -9.7343897664171386e-001
        -9.7344912771314407e-001 -9.7344029794992137e-001
        -2.4115484556875662e+000 -2.2687543335171294e+000
        -9.7343088426631685e-001 -9.7343875089577303e-001
        -6.9950550159382507e-001 -9.7343981101386479e-001
        -2.5000000000000000e+000 -9.7343956671882803e-001
        -1.2045498703515958e+000 -9.7344702726442378e-001
        -9.7343696789196810e-001 -9.9028955923833617e-001
        -9.7377101026785640e-001 -9.7343205163575564e-001
        -1.0269492414163024e+000 -7.5127978738082513e-001
        -2.5000000000000000e+000 -7.4979845738825512e-001
        -9.7345890271245872e-001 -2.5000000000000000e+000
        -9.7343277190008703e-001 -9.7343656764538566e-001
        -9.7343250500158196e-001 -9.7348308739735090e-001
        -2.5000000000000000e+000 -9.7344326037806117e-001
        -9.7343180418222219e-001 -9.7343819189102998e-001
        -9.7343958005984832e-001 -5.9876151486096352e-001
        -9.7343809516007296e-001 -9.7343791366964350e-001
        -9.7343158750435832e-001 -9.7343666616036306e-001
        -9.7343158750435832e-001 -9.7343617438869134e-001
        -9.7344188029803780e-001 -9.7343701967954077e-001
        -9.7343123162698975e-001 -9.7343303632380407e-001
        -7.8747177619627429e-001 -9.7343822374262590e-001
        -9.7343781814018571e-001 -9.7343198840699652e-001
        -9.7344949732900721e-001 -9.7343119716078241e-001
        -8.3384083476518733e-001 -2.5000000000000000e+000
        -5.9873867532618119e-001 -9.7343264908049232e-001
        -9.7343189969443655e-001 -9.7343205163575564e-001
        -9.7343981190921347e-001 -9.7343732412595829e-001
        -9.7344914435934160e-001 -9.7343773772473030e-001
        -9.7343798940017645e-001 -9.7344822280233290e-001
        -9.7344444911403694e-001 -1.7361017269112780e+000
        -2.5000000000000000e+000 -9.7343781814018571e-001
        -9.7343690016458562e-001 -9.7343217650314351e-001
        -9.7343129724599931e-001 -9.7344036214605312e-001
        -9.3595225914493252e-001 -9.7585581173452729e-001
        -9.7343760082764341e-001 -9.7343194544950751e-001
        -9.7344988655678921e-001 -9.7343523079109917e-001
        -9.7343194543346712e-001 -9.7343134731998049e-001
        -9.7343341736061662e-001 -9.7343770579749223e-001</alpha>
      <index>
        381 382 384 383 376 380 379 378 377 393 385 386 387 388 389 390
        391 392 357 366 282 358 359 360 361 362 363 364 365 375 367 368
        369 370 371 372 373 374 422 413 414 415 416 417 418 419 420 421
        412 423 424 425 426 427 428 429 430 403 395 396 397 398 399 400
        401 402 394 404 405 406 407 408 409 410 411 309 300 301 302 303
        304 305 306 307 308 299 310 311 312 313 314 315 316 317 356 283
        284 285 286 287 288 289 318 291 292 293 294 295 296 297 298 347
        338 339 340 341 342 343 344 345 346 337 348 349 350 351 352 353
        354 355 328 319 320 321 322 323 324 325 326 327 329 330 331 332
        333 334 335 336 530 531 533 532 525 529 528 527 526 542 534 535
        536 537 538 539 540 541 506 515 580 507 508 509 510 511 512 513
        514 524 516 517 518 519 520 521 522 523 571 562 563 564 565 566
        567 568 569 570 561 572 573 574 575 576 577 578 579 544 545 546
        547 548 549 550 551 543 553 554 555 556 557 558 559 560 459 450
        451 452 453 454 455 456 457 458 449 460 461 462 463 464 465 466
        467 440 431 432 433 434 435 436 437 438 439 468 441 442 443 444
        445 446 447 448 496 487 488 489 490 491 492 493 494 495 486 497
        498 499 500 501 502 503 504 477 469 470 471 472 473 474 475 476
        505 478 480 481 482 483 484 485</index></_></decision_functions></opencv_ml_svm>
</opencv_storage>
