<?xml version="1.0"?>
<opencv_storage>
<opencv_ml_svm>
  <format>3</format>
  <svmType>C_SVC</svmType>
  <kernel>
    <type>RBF</type>
    <gamma>3.3750000000000002e-002</gamma></kernel>
  <C>3.1250000000000000e+002</C>
  <term_criteria><epsilon>1.1920928955078125e-007</epsilon>
    <iterations>1000</iterations></term_criteria>
  <var_count>4</var_count>
  <class_count>4</class_count>
  <class_labels type_id="opencv-matrix">
    <rows>4</rows>
    <cols>1</cols>
    <dt>i</dt>
    <data>
      0 1 2 3</data></class_labels>
  <sv_total>567</sv_total>
  <support_vectors>
    <_>
      0. 0. 402. 11.</_>
    <_>
      0. 0. 917. 27.</_>
    <_>
      0. 0. 887. 14.</_>
    <_>
      42. 1. 459. 11.</_>
    <_>
      41. 1. 86. 3.</_>
    <_>
      30. 1. 74. 2.</_>
    <_>
      77. 2. 127. 3.</_>
    <_>
      0. 0. 401. 11.</_>
    <_>
      0. 0. 691. 10.</_>
    <_>
      429. 2. 517. 12.</_>
    <_>
      48. 1. 277. 6.</_>
    <_>
      0. 0. 41. 2.</_>
    <_>
      0. 0. 1940. 20.</_>
    <_>
      179. 2. 192. 6.</_>
    <_>
      0. 0. 169. 4.</_>
    <_>
      105. 3. 155. 5.</_>
    <_>
      314. 4. 0. 0.</_>
    <_>
      223. 6. 0. 0.</_>
    <_>
      340. 7. 25. 1.</_>
    <_>
      0. 0. 94. 3.</_>
    <_>
      0. 0. 597. 9.</_>
    <_>
      0. 0. 70. 3.</_>
    <_>
      0. 0. 820. 12.</_>
    <_>
      0. 0. 411. 13.</_>
    <_>
      244. 6. 825. 22.</_>
    <_>
      84. 1. 763. 23.</_>
    <_>
      50. 1. 434. 9.</_>
    <_>
      0. 0. 220. 5.</_>
    <_>
      230. 5. 0. 0.</_>
    <_>
      0. 0. 427. 6.</_>
    <_>
      0. 0. 27. 1.</_>
    <_>
      0. 0. 127. 1.</_>
    <_>
      83. 2. 0. 0.</_>
    <_>
      0. 0. 127. 3.</_>
    <_>
      82. 1. 37. 1.</_>
    <_>
      199. 3. 0. 0.</_>
    <_>
      0. 0. 2022. 10.</_>
    <_>
      242. 4. 19. 1.</_>
    <_>
      0. 0. 264. 6.</_>
    <_>
      104. 2. 563. 15.</_>
    <_>
      62. 1. 1369. 16.</_>
    <_>
      107. 3. 284. 9.</_>
    <_>
      0. 0. 186. 3.</_>
    <_>
      188. 5. 530. 5.</_>
    <_>
      62. 1. 105. 1.</_>
    <_>
      0. 0. 35. 1.</_>
    <_>
      0. 0. 17. 1.</_>
    <_>
      204. 3. 0. 0.</_>
    <_>
      52. 1. 178. 4.</_>
    <_>
      106. 2. 229. 5.</_>
    <_>
      251. 4. 479. 10.</_>
    <_>
      176. 5. 20. 1.</_>
    <_>
      65. 2. 177. 4.</_>
    <_>
      0. 0. 23. 1.</_>
    <_>
      94. 2. 0. 0.</_>
    <_>
      407. 8. 1694. 34.</_>
    <_>
      194. 5. 1087. 28.</_>
    <_>
      34. 1. 0. 0.</_>
    <_>
      142. 4. 1453. 20.</_>
    <_>
      51. 1. 161. 4.</_>
    <_>
      116. 2. 652. 8.</_>
    <_>
      270. 1. 2260. 16.</_>
    <_>
      137. 4. 19. 1.</_>
    <_>
      68. 2. 0. 0.</_>
    <_>
      0. 0. 107. 3.</_>
    <_>
      0. 0. 344. 1.</_>
    <_>
      41. 1. 0. 0.</_>
    <_>
      532. 10. 0. 0.</_>
    <_>
      116. 3. 0. 0.</_>
    <_>
      651. 3. 0. 0.</_>
    <_>
      43. 1. 33. 1.</_>
    <_>
      28. 1. 0. 0.</_>
    <_>
      0. 0. 245. 5.</_>
    <_>
      0. 0. 0. 0.</_>
    <_>
      32. 1. 0. 0.</_>
    <_>
      1545. 17. 0. 0.</_>
    <_>
      311. 5. 0. 0.</_>
    <_>
      0. 0. 0. 0.</_>
    <_>
      80. 1. 0. 0.</_>
    <_>
      0. 0. 120. 1.</_>
    <_>
      0. 0. 0. 0.</_>
    <_>
      0. 0. 0. 0.</_>
    <_>
      50. 1. 0. 0.</_>
    <_>
      63. 1. 233. 7.</_>
    <_>
      0. 0. 702. 15.</_>
    <_>
      0. 0. 0. 0.</_>
    <_>
      59. 1. 0. 0.</_>
    <_>
      0. 0. 0. 0.</_>
    <_>
      116. 2. 460. 7.</_>
    <_>
      80. 2. 259. 8.</_>
    <_>
      205. 5. 21. 1.</_>
    <_>
      0. 0. 276. 9.</_>
    <_>
      0. 0. 0. 0.</_>
    <_>
      0. 0. 0. 0.</_>
    <_>
      57. 1. 0. 0.</_>
    <_>
      0. 0. 45. 2.</_>
    <_>
      534. 11. 0. 0.</_>
    <_>
      102. 1. 0. 0.</_>
    <_>
      251. 6. 0. 0.</_>
    <_>
      350. 7. 0. 0.</_>
    <_>
      0. 0. 0. 0.</_>
    <_>
      60. 2. 70. 3.</_>
    <_>
      0. 0. 0. 0.</_>
    <_>
      0. 0. 88. 3.</_>
    <_>
      60. 1. 65. 3.</_>
    <_>
      99. 3. 0. 0.</_>
    <_>
      0. 0. 566. 7.</_>
    <_>
      171. 4. 0. 0.</_>
    <_>
      0. 0. 0. 0.</_>
    <_>
      0. 0. 199. 3.</_>
    <_>
      106. 3. 313. 9.</_>
    <_>
      30. 1. 56. 2.</_>
    <_>
      38. 1. 0. 0.</_>
    <_>
      41. 1. 0. 0.</_>
    <_>
      471. 10. 0. 0.</_>
    <_>
      0. 0. 886. 2.</_>
    <_>
      0. 0. 58. 1.</_>
    <_>
      0. 0. 0. 0.</_>
    <_>
      361. 1. 269. 4.</_>
    <_>
      0. 0. 251. 6.</_>
    <_>
      0. 0. 240. 6.</_>
    <_>
      0. 0. 409. 7.</_>
    <_>
      389. 5. 141. 4.</_>
    <_>
      487. 5. 234. 10.</_>
    <_>
      160. 3. 0. 0.</_>
    <_>
      73. 2. 0. 0.</_>
    <_>
      0. 0. 732. 12.</_>
    <_>
      0. 0. 395. 5.</_>
    <_>
      0. 0. 0. 0.</_>
    <_>
      0. 0. 219. 7.</_>
    <_>
      123. 3. 17. 1.</_>
    <_>
      252. 4. 0. 0.</_>
    <_>
      0. 0. 600. 12.</_>
    <_>
      226. 3. 195. 6.</_>
    <_>
      0. 0. 110. 4.</_>
    <_>
      0. 0. 361. 10.</_>
    <_>
      0. 0. 0. 0.</_>
    <_>
      0. 0. 432. 6.</_>
    <_>
      0. 0. 0. 0.</_>
    <_>
      0. 0. 78. 3.</_>
    <_>
      0. 0. 3456. 55.</_>
    <_>
      0. 0. 41. 2.</_>
    <_>
      108. 3. 0. 0.</_>
    <_>
      188. 5. 1094. 23.</_>
    <_>
      0. 0. 2086. 33.</_>
    <_>
      143. 3. 619. 19.</_>
    <_>
      60. 2. 728. 20.</_>
    <_>
      48. 1. 670. 12.</_>
    <_>
      0. 0. 110. 3.</_>
    <_>
      535. 13. 0. 0.</_>
    <_>
      255. 6. 0. 0.</_>
    <_>
      0. 0. 0. 0.</_>
    <_>
      65. 1. 1364. 36.</_>
    <_>
      0. 0. 373. 7.</_>
    <_>
      0. 0. 175. 4.</_>
    <_>
      538. 12. 208. 2.</_>
    <_>
      59. 1. 0. 0.</_>
    <_>
      113. 2. 0. 0.</_>
    <_>
      0. 0. 0. 0.</_>
    <_>
      592. 8. 91. 3.</_>
    <_>
      0. 0. 484. 15.</_>
    <_>
      862. 17. 0. 0.</_>
    <_>
      183. 4. 334. 7.</_>
    <_>
      36. 1. 0. 0.</_>
    <_>
      0. 0. 26. 1.</_>
    <_>
      47. 1. 82. 3.</_>
    <_>
      340. 4. 127. 2.</_>
    <_>
      169. 1. 826. 7.</_>
    <_>
      718. 13. 0. 0.</_>
    <_>
      436. 7. 0. 0.</_>
    <_>
      263. 6. 0. 0.</_>
    <_>
      131. 3. 0. 0.</_>
    <_>
      378. 8. 0. 0.</_>
    <_>
      1549. 27. 0. 0.</_>
    <_>
      0. 0. 0. 0.</_>
    <_>
      113. 2. 116. 4.</_>
    <_>
      115. 2. 468. 14.</_>
    <_>
      122. 2. 0. 0.</_>
    <_>
      448. 8. 433. 5.</_>
    <_>
      564. 2. 1036. 9.</_>
    <_>
      255. 3. 1024. 18.</_>
    <_>
      93. 2. 181. 2.</_>
    <_>
      0. 0. 0. 0.</_>
    <_>
      0. 0. 0. 0.</_>
    <_>
      264. 6. 0. 0.</_>
    <_>
      949. 17. 0. 0.</_>
    <_>
      1487. 21. 90. 1.</_>
    <_>
      344. 5. 0. 0.</_>
    <_>
      428. 8. 0. 0.</_>
    <_>
      35. 1. 0. 0.</_>
    <_>
      635. 8. 0. 0.</_>
    <_>
      82. 2. 157. 4.</_>
    <_>
      265. 2. 124. 4.</_>
    <_>
      0. 0. 306. 6.</_>
    <_>
      0. 0. 0. 0.</_>
    <_>
      44. 1. 0. 0.</_>
    <_>
      175. 4. 29. 1.</_>
    <_>
      197. 3. 0. 0.</_>
    <_>
      259. 2. 38. 1.</_>
    <_>
      52. 1. 0. 0.</_>
    <_>
      29. 1. 0. 0.</_>
    <_>
      336. 5. 0. 0.</_>
    <_>
      763. 12. 0. 0.</_>
    <_>
      2065. 36. 0. 0.</_>
    <_>
      282. 5. 597. 7.</_>
    <_>
      254. 2. 0. 0.</_>
    <_>
      265. 4. 0. 0.</_>
    <_>
      61. 1. 483. 10.</_>
    <_>
      70. 2. 0. 0.</_>
    <_>
      402. 2. 58. 2.</_>
    <_>
      81. 1. 0. 0.</_>
    <_>
      160. 3. 0. 0.</_>
    <_>
      180. 3. 0. 0.</_>
    <_>
      240. 4. 0. 0.</_>
    <_>
      913. 6. 0. 0.</_>
    <_>
      122. 3. 0. 0.</_>
    <_>
      177. 4. 0. 0.</_>
    <_>
      684. 11. 0. 0.</_>
    <_>
      323. 5. 0. 0.</_>
    <_>
      201. 4. 255. 8.</_>
    <_>
      621. 3. 18. 1.</_>
    <_>
      134. 2. 0. 0.</_>
    <_>
      0. 0. 240. 3.</_>
    <_>
      119. 2. 21. 1.</_>
    <_>
      33. 1. 210. 5.</_>
    <_>
      181. 4. 286. 3.</_>
    <_>
      0. 0. 214. 3.</_>
    <_>
      297. 1. 477. 4.</_>
    <_>
      0. 0. 126. 2.</_>
    <_>
      0. 0. 310. 6.</_>
    <_>
      0. 0. 154. 1.</_>
    <_>
      103. 2. 443. 5.</_>
    <_>
      0. 0. 464. 5.</_>
    <_>
      249. 5. 19. 1.</_>
    <_>
      95. 2. 1603. 32.</_>
    <_>
      0. 0. 263. 4.</_>
    <_>
      0. 0. 864. 21.</_>
    <_>
      258. 5. 239. 6.</_>
    <_>
      100. 3. 243. 5.</_>
    <_>
      46. 1. 383. 7.</_>
    <_>
      0. 0. 555. 11.</_>
    <_>
      481. 1. 105. 2.</_>
    <_>
      93. 1. 1021. 18.</_>
    <_>
      320. 3. 770. 20.</_>
    <_>
      202. 4. 940. 19.</_>
    <_>
      0. 0. 986. 27.</_>
    <_>
      0. 0. 190. 5.</_>
    <_>
      92. 2. 0. 0.</_>
    <_>
      273. 1. 1206. 19.</_>
    <_>
      179. 3. 0. 0.</_>
    <_>
      504. 3. 283. 8.</_>
    <_>
      0. 0. 347. 6.</_>
    <_>
      0. 0. 104. 4.</_>
    <_>
      502. 3. 236. 6.</_>
    <_>
      36. 1. 1448. 6.</_>
    <_>
      54. 1. 234. 3.</_>
    <_>
      140. 2. 0. 0.</_>
    <_>
      42. 1. 262. 4.</_>
    <_>
      31. 1. 506. 9.</_>
    <_>
      0. 0. 592. 9.</_>
    <_>
      0. 0. 180. 5.</_>
    <_>
      0. 0. 0. 0.</_>
    <_>
      187. 1. 0. 0.</_>
    <_>
      356. 2. 0. 0.</_>
    <_>
      0. 0. 157. 2.</_>
    <_>
      204. 2. 71. 1.</_>
    <_>
      301. 3. 0. 0.</_>
    <_>
      0. 0. 0. 0.</_>
    <_>
      173. 5. 0. 0.</_>
    <_>
      1012. 19. 0. 0.</_>
    <_>
      231. 1. 162. 1.</_>
    <_>
      407. 7. 0. 0.</_>
    <_>
      72. 1. 2954. 47.</_>
    <_>
      40. 1. 1772. 37.</_>
    <_>
      0. 0. 161. 4.</_>
    <_>
      42. 1. 1019. 11.</_>
    <_>
      0. 0. 817. 9.</_>
    <_>
      0. 0. 501. 17.</_>
    <_>
      192. 3. 0. 0.</_>
    <_>
      0. 0. 0. 0.</_>
    <_>
      101. 2. 0. 0.</_>
    <_>
      36. 1. 228. 8.</_>
    <_>
      0. 0. 463. 12.</_>
    <_>
      190. 4. 0. 0.</_>
    <_>
      245. 5. 36. 1.</_>
    <_>
      77. 1. 0. 0.</_>
    <_>
      103. 3. 307. 7.</_>
    <_>
      0. 0. 56. 3.</_>
    <_>
      0. 0. 691. 16.</_>
    <_>
      33. 1. 248. 7.</_>
    <_>
      1380. 18. 0. 0.</_>
    <_>
      68. 1. 0. 0.</_>
    <_>
      1662. 17. 0. 0.</_>
    <_>
      223. 5. 123. 4.</_>
    <_>
      0. 0. 468. 8.</_>
    <_>
      0. 0. 211. 7.</_>
    <_>
      32. 1. 343. 5.</_>
    <_>
      290. 2. 0. 0.</_>
    <_>
      871. 11. 0. 0.</_>
    <_>
      215. 5. 274. 8.</_>
    <_>
      318. 7. 0. 0.</_>
    <_>
      0. 0. 836. 9.</_>
    <_>
      220. 5. 0. 0.</_>
    <_>
      763. 16. 0. 0.</_>
    <_>
      249. 4. 0. 0.</_>
    <_>
      1004. 13. 0. 0.</_>
    <_>
      296. 8. 692. 17.</_>
    <_>
      93. 1. 208. 5.</_>
    <_>
      0. 0. 200. 4.</_>
    <_>
      0. 0. 391. 4.</_>
    <_>
      88. 1. 266. 7.</_>
    <_>
      0. 0. 764. 10.</_>
    <_>
      552. 13. 258. 7.</_>
    <_>
      360. 2. 1669. 35.</_>
    <_>
      359. 3. 179. 8.</_>
    <_>
      123. 3. 287. 8.</_>
    <_>
      138. 1. 1319. 13.</_>
    <_>
      0. 0. 1669. 14.</_>
    <_>
      649. 7. 0. 0.</_>
    <_>
      0. 0. 0. 0.</_>
    <_>
      692. 9. 0. 0.</_>
    <_>
      0. 0. 0. 0.</_>
    <_>
      0. 0. 108. 4.</_>
    <_>
      32. 1. 214. 6.</_>
    <_>
      0. 0. 0. 0.</_>
    <_>
      352. 7. 610. 15.</_>
    <_>
      0. 0. 818. 13.</_>
    <_>
      725. 7. 0. 0.</_>
    <_>
      1386. 22. 34. 1.</_>
    <_>
      1311. 27. 0. 0.</_>
    <_>
      74. 1. 314. 11.</_>
    <_>
      0. 0. 0. 0.</_>
    <_>
      668. 2. 54. 2.</_>
    <_>
      0. 0. 176. 2.</_>
    <_>
      1145. 18. 938. 18.</_>
    <_>
      478. 8. 1929. 13.</_>
    <_>
      374. 4. 0. 0.</_>
    <_>
      571. 1. 0. 0.</_>
    <_>
      35. 1. 72. 3.</_>
    <_>
      0. 0. 159. 3.</_>
    <_>
      92. 2. 957. 13.</_>
    <_>
      32. 1. 613. 10.</_>
    <_>
      982. 4. 752. 14.</_>
    <_>
      667. 10. 0. 0.</_>
    <_>
      441. 2. 2561. 43.</_>
    <_>
      1936. 12. 0. 0.</_>
    <_>
      348. 3. 0. 0.</_>
    <_>
      130. 1. 0. 0.</_>
    <_>
      89. 2. 0. 0.</_>
    <_>
      177. 4. 203. 4.</_>
    <_>
      344. 3. 503. 12.</_>
    <_>
      85. 2. 0. 0.</_>
    <_>
      711. 10. 0. 0.</_>
    <_>
      175. 2. 0. 0.</_>
    <_>
      0. 0. 0. 0.</_>
    <_>
      29. 1. 341. 10.</_>
    <_>
      185. 4. 1029. 12.</_>
    <_>
      162. 3. 318. 6.</_>
    <_>
      71. 2. 37. 1.</_>
    <_>
      451. 5. 0. 0.</_>
    <_>
      169. 4. 0. 0.</_>
    <_>
      717. 6. 569. 5.</_>
    <_>
      363. 3. 626. 9.</_>
    <_>
      0. 0. 0. 0.</_>
    <_>
      256. 6. 0. 0.</_>
    <_>
      114. 2. 0. 0.</_>
    <_>
      805. 9. 0. 0.</_>
    <_>
      815. 10. 0. 0.</_>
    <_>
      68. 2. 56. 2.</_>
    <_>
      315. 2. 23. 1.</_>
    <_>
      0. 0. 0. 0.</_>
    <_>
      0. 0. 0. 0.</_>
    <_>
      126. 2. 861. 14.</_>
    <_>
      371. 3. 514. 3.</_>
    <_>
      0. 0. 26. 1.</_>
    <_>
      734. 11. 0. 0.</_>
    <_>
      41. 1. 0. 0.</_>
    <_>
      566. 3. 0. 0.</_>
    <_>
      53. 1. 1253. 20.</_>
    <_>
      0. 0. 2024. 30.</_>
    <_>
      245. 3. 0. 0.</_>
    <_>
      124. 2. 0. 0.</_>
    <_>
      1288. 24. 0. 0.</_>
    <_>
      264. 5. 0. 0.</_>
    <_>
      104. 2. 0. 0.</_>
    <_>
      229. 5. 0. 0.</_>
    <_>
      454. 6. 0. 0.</_>
    <_>
      535. 11. 863. 11.</_>
    <_>
      806. 14. 0. 0.</_>
    <_>
      1230. 19. 42. 1.</_>
    <_>
      1163. 17. 0. 0.</_>
    <_>
      0. 0. 0. 0.</_>
    <_>
      404. 6. 0. 0.</_>
    <_>
      505. 2. 897. 16.</_>
    <_>
      1675. 23. 0. 0.</_>
    <_>
      0. 0. 550. 6.</_>
    <_>
      0. 0. 0. 0.</_>
    <_>
      201. 5. 0. 0.</_>
    <_>
      896. 17. 148. 3.</_>
    <_>
      786. 15. 504. 14.</_>
    <_>
      147. 3. 50. 2.</_>
    <_>
      31. 1. 74. 1.</_>
    <_>
      213. 2. 0. 0.</_>
    <_>
      317. 7. 0. 0.</_>
    <_>
      466. 5. 44. 1.</_>
    <_>
      86. 2. 370. 10.</_>
    <_>
      0. 0. 175. 2.</_>
    <_>
      0. 0. 282. 6.</_>
    <_>
      861. 10. 0. 0.</_>
    <_>
      0. 0. 587. 10.</_>
    <_>
      42. 1. 581. 4.</_>
    <_>
      127. 2. 744. 13.</_>
    <_>
      383. 7. 133. 3.</_>
    <_>
      0. 0. 0. 0.</_>
    <_>
      123. 2. 275. 5.</_>
    <_>
      228. 4. 321. 10.</_>
    <_>
      230. 3. 72. 2.</_>
    <_>
      464. 5. 224. 9.</_>
    <_>
      420. 6. 0. 0.</_>
    <_>
      0. 0. 212. 5.</_>
    <_>
      555. 9. 138. 2.</_>
    <_>
      148. 1. 735. 12.</_>
    <_>
      645. 10. 890. 19.</_>
    <_>
      715. 10. 377. 5.</_>
    <_>
      0. 0. 72. 1.</_>
    <_>
      2058. 10. 59. 2.</_>
    <_>
      949. 3. 4747. 52.</_>
    <_>
      255. 4. 630. 14.</_>
    <_>
      0. 0. 4278. 79.</_>
    <_>
      0. 0. 10003. 105.</_>
    <_>
      0. 0. 2431. 33.</_>
    <_>
      0. 0. 2850. 52.</_>
    <_>
      3438. 12. 3005. 33.</_>
    <_>
      739. 1. 2941. 54.</_>
    <_>
      0. 0. 5367. 75.</_>
    <_>
      38. 1. 68. 2.</_>
    <_>
      29. 1. 56. 2.</_>
    <_>
      0. 0. 898. 17.</_>
    <_>
      0. 0. 336. 5.</_>
    <_>
      0. 0. 0. 0.</_>
    <_>
      1180. 16. 849. 12.</_>
    <_>
      126. 1. 289. 5.</_>
    <_>
      1138. 2. 1416. 15.</_>
    <_>
      346. 5. 829. 10.</_>
    <_>
      34. 1. 607. 12.</_>
    <_>
      71. 1. 145. 3.</_>
    <_>
      0. 0. 1114. 16.</_>
    <_>
      60. 1. 0. 0.</_>
    <_>
      0. 0. 120. 3.</_>
    <_>
      0. 0. 0. 0.</_>
    <_>
      0. 0. 32. 1.</_>
    <_>
      41. 1. 254. 3.</_>
    <_>
      0. 0. 0. 0.</_>
    <_>
      0. 0. 5924. 40.</_>
    <_>
      0. 0. 931. 17.</_>
    <_>
      0. 0. 0. 0.</_>
    <_>
      0. 0. 2499. 47.</_>
    <_>
      660. 3. 233. 7.</_>
    <_>
      958. 11. 3565. 25.</_>
    <_>
      269. 6. 966. 21.</_>
    <_>
      59. 1. 34. 1.</_>
    <_>
      0. 0. 383. 1.</_>
    <_>
      0. 0. 296. 7.</_>
    <_>
      0. 0. 39. 2.</_>
    <_>
      2031. 21. 1483. 15.</_>
    <_>
      0. 0. 20. 1.</_>
    <_>
      501. 3. 1015. 23.</_>
    <_>
      243. 2. 1081. 15.</_>
    <_>
      126. 1. 1661. 45.</_>
    <_>
      0. 0. 8044. 93.</_>
    <_>
      1585. 9. 1625. 19.</_>
    <_>
      1161. 6. 5825. 34.</_>
    <_>
      48. 1. 8294. 96.</_>
    <_>
      34. 1. 8723. 83.</_>
    <_>
      30. 1. 451. 3.</_>
    <_>
      285. 2. 172. 3.</_>
    <_>
      2413. 23. 0. 0.</_>
    <_>
      400. 3. 24. 1.</_>
    <_>
      35. 1. 0. 0.</_>
    <_>
      0. 0. 0. 0.</_>
    <_>
      0. 0. 71. 3.</_>
    <_>
      82. 1. 753. 11.</_>
    <_>
      31. 1. 0. 0.</_>
    <_>
      1430. 15. 603. 16.</_>
    <_>
      261. 3. 9429. 107.</_>
    <_>
      0. 0. 3703. 62.</_>
    <_>
      490. 1. 3205. 39.</_>
    <_>
      49. 1. 741. 4.</_>
    <_>
      360. 4. 764. 17.</_>
    <_>
      566. 8. 4395. 48.</_>
    <_>
      612. 6. 5036. 64.</_>
    <_>
      1315. 4. 214. 4.</_>
    <_>
      0. 0. 378. 4.</_>
    <_>
      29. 1. 259. 5.</_>
    <_>
      0. 0. 0. 0.</_>
    <_>
      0. 0. 0. 0.</_>
    <_>
      109. 1. 0. 0.</_>
    <_>
      0. 0. 1362. 14.</_>
    <_>
      0. 0. 429. 3.</_>
    <_>
      168. 2. 243. 3.</_>
    <_>
      0. 0. 8616. 23.</_>
    <_>
      0. 0. 558. 10.</_>
    <_>
      0. 0. 441. 11.</_>
    <_>
      701. 4. 1035. 22.</_>
    <_>
      106. 1. 4313. 73.</_>
    <_>
      74. 2. 51. 1.</_>
    <_>
      0. 0. 2918. 6.</_>
    <_>
      461. 2. 560. 8.</_>
    <_>
      0. 0. 848. 8.</_>
    <_>
      2558. 27. 3812. 65.</_>
    <_>
      1865. 10. 5682. 87.</_>
    <_>
      110. 2. 281. 6.</_>
    <_>
      0. 0. 701. 12.</_>
    <_>
      1928. 19. 0. 0.</_>
    <_>
      2928. 27. 0. 0.</_>
    <_>
      0. 0. 1223. 16.</_>
    <_>
      0. 0. 155. 3.</_>
    <_>
      951. 6. 0. 0.</_>
    <_>
      0. 0. 4858. 50.</_>
    <_>
      110. 1. 10206. 15.</_>
    <_>
      1106. 20. 0. 0.</_>
    <_>
      41. 1. 305. 9.</_>
    <_>
      71. 1. 0. 0.</_>
    <_>
      209. 2. 45. 2.</_>
    <_>
      1465. 16. 0. 0.</_>
    <_>
      552. 6. 2940. 14.</_>
    <_>
      30. 1. 1138. 25.</_>
    <_>
      0. 0. 895. 18.</_>
    <_>
      116. 2. 0. 0.</_>
    <_>
      0. 0. 0. 0.</_>
    <_>
      916. 10. 1457. 30.</_>
    <_>
      0. 0. 5273. 45.</_>
    <_>
      451. 11. 0. 0.</_>
    <_>
      1735. 22. 570. 12.</_>
    <_>
      78. 2. 169. 4.</_>
    <_>
      360. 7. 284. 4.</_>
    <_>
      48. 1. 1275. 25.</_>
    <_>
      685. 8. 84. 3.</_>
    <_>
      34. 1. 0. 0.</_>
    <_>
      0. 0. 198. 1.</_>
    <_>
      0. 0. 0. 0.</_>
    <_>
      0. 0. 7723. 48.</_>
    <_>
      0. 0. 7324. 53.</_>
    <_>
      537. 3. 17. 1.</_>
    <_>
      345. 1. 642. 4.</_>
    <_>
      106. 1. 0. 0.</_>
    <_>
      0. 0. 198. 5.</_>
    <_>
      0. 0. 277. 9.</_>
    <_>
      0. 0. 18. 1.</_>
    <_>
      345. 2. 0. 0.</_>
    <_>
      1405. 13. 128. 2.</_>
    <_>
      439. 3. 717. 12.</_>
    <_>
      105. 3. 2918. 6.</_>
    <_>
      1149. 6. 255. 8.</_>
    <_>
      94. 2. 1543. 30.</_>
    <_>
      182. 3. 0. 0.</_>
    <_>
      0. 0. 117. 1.</_>
    <_>
      465. 5. 0. 0.</_>
    <_>
      1153. 8. 0. 0.</_>
    <_>
      61. 2. 2466. 39.</_>
    <_>
      0. 0. 2911. 45.</_>
    <_>
      2270. 10. 0. 0.</_>
    <_>
      115. 3. 0. 0.</_>
    <_>
      0. 0. 0. 0.</_>
    <_>
      136. 2. 1167. 24.</_>
    <_>
      943. 7. 196. 4.</_>
    <_>
      4840. 40. 0. 0.</_></support_vectors>
  <decision_functions>
    <_>
      <sv_count>121</sv_count>
      <rho>-5.5411189698312810e-002</rho>
      <alpha>
        1. 3.1250000000000000e+002 3.1250000000000000e+002
        1.6456870585680008e+000 1.3428863464234650e+000
        3.1250000000000000e+002 1.3350956694596432e+000
        1.6645640151915937e+000 1.4508306811509710e+000
        2.7267475533866974e+000 1.3953307332712490e+000
        4.9963114618603505e+001 1.0692273487063961e+001
        1.3699402605439372e+000 6.5026546821720164e+000
        3.1130414886172952e+002 2.0017210148173998e+001
        1.3300490611030291e+000 3.1506402070410910e+000
        2.2660800927524367e+001 4.1887353609273834e+000
        1.6680465196826564e+000 1.8615025882133676e+000
        1.3356801683317545e+000 1.3424850651359845e+000
        1.4421573012916822e+000 8.6694144267664797e-001
        1.3166042253976999e+000 1.8083010244207283e+000
        1.1949913070768650e+000 2.1078617695618718e+001
        1.3482959524460454e+000 4.7806285474334809e+000
        1.4697926771389493e+000 1.3932169934303902e+000
        7.1233793313605194e+000 1.2528699951087720e+001
        1.2502009727944587e+000 2.2344741199699413e+001
        1.4472953564667665e+000 1.4504964491137735e+000
        1.0313557101018120e+000 1.3817449499532608e+000
        1.3860044816346941e+000 1.6932456569575864e+000
        3.1229964572682769e+002 1.3670923728187636e+000
        1.0712818088195155e+000 1.0392578745735637e+001
        1.1867100567822066e+001 1.3396056761451165e+000
        1.3487655944680332e+000 1.4545628972265714e+000
        1.8729847875756960e+000 1.6793072843601984e+000
        4.9253270898737851e+000 8.5431294143199921e-001
        1.3055048747708722e+000 1.3777193591377912e+000
        8.7138881646116566e+000 5.0038057775634336e+001
        1.3403826778466754e+000 -1. -1.4726423656418182e+000
        -2.1654612263066628e+001 -1.4191344725912165e+000
        -1.3297162453725866e+000 -1.5787625813510058e+000
        -1.4636035025016503e+000 -1.4792906045355334e+000
        -1.5252551183325447e+000 -1.8792716688378419e+000
        -1.7840770190039996e+000 -1.6438244772385522e+000
        -1.5045948053521978e+000 -1.6107585556414294e+000
        -1.6359513938472947e+000 -1.3399021795645938e+000
        -1.3301971641871164e+000 -3.2950493748013351e+001
        -1.3475146497441317e+000 -1.3034080953049925e+000
        -1.3298086610806950e+000 -1.3150298697280407e+000
        -1.0244505084756792e+001 -1.4761138169415031e+000
        -1.5243173364730425e+000 -1.3481802649102301e+000
        -1.3902641159369409e+000 -1.8271611095221048e+000
        -1.7172237227028258e+000 -3.1250000000000000e+002
        -1.3186803200281845e+000 -3.1250000000000000e+002
        -5.5534470246554974e+000 -1.3324694034363449e+000
        -1.4367946597145269e+000 -1.3895244249497578e+000
        -1.5418295374473567e+000 -3.8455965787770254e+000
        -3.1250000000000000e+002 -3.4136351306048018e+000
        -3.1250000000000000e+002 -2.3479599354995120e+000
        -8.8910015130569260e+000 -2.8317216939778458e+001
        -1.3285612530231936e+000 -1.8103721012505285e+000
        -1.6950837584891776e+000 -3.1250000000000000e+002
        -6.6566418133917168e+001 -4.9872656100811614e+000
        -3.2346122125249512e+000 -1.2913741171360016e+000
        -1.4293671288971883e+000 -6.0107126542699710e+001
        -1.2789762010316132e+000 -7.0658135867942660e+000
        -1.0286300150556464e+001 -1.2890498399369412e+000
        -1.3491625884384946e+000</alpha>
      <index>
        98 85 73 95 89 81 67 87 75 79 97 71 82 84 64 86 74 88 68 78 94
        96 66 99 65 69 0 118 120 109 112 106 125 130 101 63 32 21 30 19
        4 29 16 18 20 11 5 28 31 33 2 14 27 38 42 54 45 49 37 53 57 44
        225 226 228 227 220 223 222 237 229 230 231 232 233 234 235 236
        201 210 132 202 203 204 208 213 215 218 263 259 260 261 266 267
        247 240 246 238 251 252 156 157 158 151 163 164 165 137 139 141
        200 148 149 150 187 189 190 195 199 173 176</index></_>
    <_>
      <sv_count>258</sv_count>
      <rho>4.7091158033957622e-002</rho>
      <alpha>
        3.3312555076079629e+000 3.1250000000000000e+002
        3.1250000000000000e+002 1.3567852419177377e+000
        1.3124236400672680e+000 3.1250000000000000e+002
        1.3333333333835049e+000 3.1250000000000000e+002
        1.3337603972037066e+000 3.1250000000000000e+002
        9.2621273233977630e-001 4.8127602997715606e+001
        9.3090177837810928e-001 9.1186599390555134e-001
        7.7033649716970132e-002 1.3263265821325541e+000
        1.4850157946156573e+001 1.2625872919826004e+000
        1.2854643116192812e+000 6.8519212334044113e+000
        1.0468711653539855e+000 3.1250000000000000e+002
        1.4750383194006536e+000 3.8979088319289823e+000
        1.3462743574737939e+000 1.2496945602690794e+000
        3.1250000000000000e+002 3.1204090154996453e+002
        1.6743589419911975e+000 1.3253689458394602e+000
        1.9672966802803451e+000 3.1250000000000000e+002
        1.2421220614663975e-001 1.2663458572777295e+000
        1.1068853664603830e+001 1.5606735483224483e+000
        1.3165864643194305e+000 1.3053071477710487e+000
        3.7332904745050195e+000 3.1250000000000000e+002
        1.2328715007500988e+000 1.4414618768501251e+001
        3.1250000000000000e+002 1.6980387839041118e+000
        3.8407182226414784e+000 2.5952333211422577e+001
        1.0386459086291921e+000 1.3347700272975112e+000
        3.1250000000000000e+002 3.1250000000000000e+002
        1.0931935105287229e+000 1.0580941536637978e+000
        1.1481976976940187e+000 7.1313521200030316e-001
        1.3337495737810507e+000 1.4609737243156535e+000
        2.2739425642302824e+000 4.3702426738640563e+000
        1.3333281111388748e+000 8.9801964866166595e-001
        1.3325770133705475e+000 1.3665411114326602e+000
        5.1848399903896125e-001 2.2165010678271976e+001
        1.3333333333458475e+000 7.1524570415650324e+000
        1.3263500646481021e+000 1.2951636576986680e+000
        6.6279733695521898e+001 9.1158233576888250e+000
        1.1525257067331109e+000 1.3676715505755497e+000
        7.0777617290409967e-001 1.3237909144246651e+000
        1.3333333331241781e+000 2.5581623856210225e+000
        1.5321057776116607e+000 1.3850974260882443e+000
        1.3309477286061644e+000 1.3554890557499852e+000
        1.3327369321515357e+000 5.4686800712291319e+000
        1.0420317788909623e+000 1.2454965622772857e+001
        1.3868245255226008e+000 1.3388543919675033e+000
        3.4913299795934485e+001 1.3467061313806448e+000
        1.3366765328451629e+000 1.0208311121982838e+000
        1.3333333332929869e+000 8.0967629776801986e-001
        1.3314179877713186e+000 1.3341691332112924e+000
        1.4629493291408346e+000 3.0618415273383315e+000
        1.3335422833028212e+000 1.3333855708256999e+000
        1.3385422495250967e+000 1.3333463927064195e+000
        1.3333331587432240e+000 1.3686693643162122e+000
        1.3333365981766030e+000 1.3416614084602165e+000
        1.3014774567800531e+000 1.3333341495441453e+000
        1.3333335373860273e+000 9.9224655286037344e-001
        1.3333333847156319e+000 1.3348731038942017e+000
        1.0029152892254731e+000 1.1024603149807186e+000
        2.2186981004013152e+001 4.3955309723883829e-001
        1.3333333461789061e+000 1.3333333333115303e+000
        1.3332996721325931e+000 1.3333333365447282e+000
        4.7885790274714184e+000 1.3333333341361731e+000
        1.3333333335340449e+000 -3.1250000000000000e+002
        -3.1250000000000000e+002 -9.6876857453262111e-001
        -9.4481833701956686e-001 -6.6692093694455448e+000
        -8.9540136647835655e-001 -9.4291255727926981e-001
        -8.6891034148481494e-001 -8.0367460366177013e-001
        -1.0410523212953153e+000 -8.1030671110685773e+001
        -1.2656852220985941e+000 -3.1250000000000000e+002
        -7.4207986675514725e-001 -8.9759555891817044e-001
        -8.8440253683434178e-001 -1.3421314949007230e+000
        -1.7658963453679495e+000 -7.9516081426788676e-001
        -1.2329791787612909e+000 -5.0332989450822985e-001
        -1.3373155270802899e+000 -1.2002388674486062e+000
        -8.4382868522548087e+000 -1.2760065754226919e+000
        -4.0813188865958132e+000 -3.1250000000000000e+002
        -3.3279230072246735e+000 -9.3565340456659118e-001
        -8.9540134699387830e-001 -1.2544872988460303e+000
        -8.9001189814082826e-001 -9.3813733478068393e+000
        -9.1129412301812718e-001 -8.1189595016688210e-001
        -3.1250000000000000e+002 -9.1207003676196030e-001
        -4.8151509085721689e-001 -2.2912886988305856e+000
        -8.7465622174225388e-001 -1.3304599454049795e+000
        -1.3443070498046810e+000 -7.9258033310151177e-001
        -1.3331253823595950e+000 -9.2097491956184052e-001
        -1.2603853707709863e+001 -1.3607345538232833e+000
        -3.1250000000000000e+002 -1.2657041584199049e+000
        -9.4036115759386907e-001 -9.4694641584028738e-001
        -4.7790264598495069e+000 -3.6573042106136050e+001
        -1.3065877372386980e+000 -3.9934448265937605e-001
        -1.3266469343096761e+000 -1.3316617335774170e+000
        -3.1250000000000000e+002 -6.3047802111457418e-001
        -1.3329154333943594e+000 -9.4483541637994872e-001
        -1.3327291202645928e+000 -3.1250000000000000e+002
        -6.4997979672766881e+000 -1.3333072145871485e+000
        -1.3333268036467958e+000 -1.3291698973986545e+000
        -1.3333317009116969e+000 -1.3333329252279329e+000
        -2.3633475340212485e+001 -1.1821743853353546e+000
        -1.3333333076421896e+000 -6.9259250760773239e-001
        -1.2805515812640547e+000 -5.0979806418708562e-001
        -1.3074512892498245e+000 -8.5778599256810906e-001
        -9.1338464707802491e-001 -1.2267169060880878e+000
        -6.1073598940304965e+000 -8.8133469460642100e-001
        -5.7671335021538921e+000 -1.3333333317276415e+000
        -1.3333333329319119e+000 -1.3333332320452591e+000
        -6.4315588718811497e+001 -1.3333333332329831e+000
        -9.5364763708201306e-001 -9.4709733519283223e-001
        -1.4603978457467126e+000 -9.5312883719243413e-001
        -1.4982979944749695e+000 -9.5432740917643488e-001
        -1.3082758602105109e+000 -3.1250000000000000e+002
        -1.4344003639912403e+001 -1.1420552613741262e+000
        -6.4558852212446050e-001 -1.2864949929770120e+000
        -7.1087949520478988e+000 -1.3331198073876245e+000
        -3.4853640983451664e+000 -1.3476364419562561e+000
        -1.0287465891290579e+000 -1.3333333332154287e+000
        -8.2019928214555193e-001 -1.2444418093897898e+000
        -3.1250000000000000e+002 -1.3333332459793259e+000
        -1.2896991342026172e+000 -1.3333306785591010e+000
        -1.3333257895740975e+000 -1.1174759724699947e+000
        -4.2403300072836553e-001 -1.3333127308533439e+000
        -1.3329448721119452e+000 -1.2624506853087003e+000
        -9.1211457401838181e-001 -1.3144958983706876e+000
        -1.6757079626167086e+000 -2.3156515079510589e+000
        -1.3573225676267122e+000 -9.5137741925847330e-001
        -1.3265190739478858e+000 -1.3289685308596053e+000
        -1.3276592977538475e+000 -9.1697016689180688e-001
        -1.2971568755479770e+000 -1.3016679753230211e+000
        -3.1250000000000000e+002 -1.2784659655633714e+000
        -3.1250000000000000e+002 -1.4803977975836625e+001
        -1.2655405854015886e+000 -3.1250000000000000e+002
        -8.9277193816417277e-001 -4.6664891130268096e+000</alpha>
      <index>
        98 85 73 95 89 81 83 87 75 93 79 97 71 82 72 84 64 86 88 68 90
        92 91 78 70 96 80 66 99 65 69 77 0 118 107 129 122 114 116 102
        120 109 128 124 131 105 115 106 117 100 119 108 121 103 123 110
        127 125 111 104 130 113 101 63 126 32 21 10 30 17 19 4 23 12 29
        16 8 18 9 20 1 22 24 5 25 13 28 26 15 7 3 33 2 6 14 47 40 60 38
        48 51 42 58 62 36 39 49 34 50 41 52 37 53 57 55 44 59 61 35 43
        56 370 371 373 372 365 369 368 367 366 382 374 375 376 377 378
        379 381 346 355 271 347 349 350 351 352 353 354 364 356 357 358
        359 360 361 362 363 411 402 403 404 405 407 408 409 410 401 412
        413 414 415 416 384 385 387 388 389 390 391 383 393 394 395 396
        397 398 399 400 299 290 291 292 293 294 295 296 297 298 289 301
        302 303 304 305 306 307 280 345 272 273 274 275 276 277 278 279
        308 281 282 284 285 286 287 288 336 328 329 330 331 332 333 334
        335 327 337 340 341 342 343 344 318 309 310 311 312 313 314 315
        316 317 319 320 321 322 323 324 325 326</index></_>
    <_>
      <sv_count>213</sv_count>
      <rho>1.5436279253504097e-003</rho>
      <alpha>
        1. 3.1250000000000000e+002 3.1250000000000000e+002
        1.3333333333298598e+000 2.3858801674228465e+002
        1.3517845673472408e+000 1.2255486333721792e+000
        1.3063885740159245e+000 8.7376952797663332e+000
        1.3156080625680380e+000 3.4989829083294126e+001
        1.3333333332715767e+000 1.8079310285279520e+000
        1.3271843452993903e+000 1.9091904571245216e+001
        2.1960971127699668e+002 1.3265971435039814e+000
        2.8044807579387268e+001 1.3290405325687806e+000
        1.3316492858759952e+000 2.2057685540380078e+001
        1.3333333332219852e+000 1.5529953222523394e+000
        1.3650169097908991e+000 1.3641883896531615e+000
        1.2950033378998582e+000 1.3410470974132911e+000
        1.3431343961320756e+000 1.2618622805469173e+000
        1.3353102066663280e+000 1.3338275516665801e+000
        1.3328767545032094e+000 1.4413891973117593e+001
        1.3237199113841831e+000 2.3715318745670995e+001
        1.3291993048267188e+000 1.3798052284849751e+000
        1.5352305462610554e+000 1.3760104585896078e+000
        1.3333333333329362e+000 1.2885045994748914e+000
        6.8881121968655474e+000 7.5083233801669316e+000
        1.3325660697714850e+000 1.2720979170414664e+000
        5.0041210496357236e+000 1.3333333333330815e+000
        1.3771266472231312e+000 1.0916344708816521e+001
        1.4071382658867269e+000 1.8880572395062525e+000
        1.3333903317712053e+000 1.3332748057125243e+000
        1.3332910370028135e+000 1.3440026148480226e+000
        1.7629593388071270e+000 1.2363843178795773e+000
        1.4600676392969305e+000 1.3340001634276886e+000
        1.3333333333324602e+000 1.3161017839480067e+000
        1.3360006537132536e+000 1.1519272468197425e+001
        1.3335000408569220e+000 1.2759262230326021e+000
        1.3333750102142294e+000 1.3334209934973875e+000
        1.2945136735379108e+000 1.3333552483743458e+000
        1.3333175230948660e+000 1.3334075318234553e+000
        1.0000000000018403e+000 1.2604273047091346e+000
        1.3332682732207244e+000 1.0006478204159066e+000
        1.3333187722959925e+000 1.3333296930739988e+000
        1.3632772071019605e+000 1.3314200763256414e+000
        1.3333367903457518e+000 1.1762724840862906e+000
        1.3333324232684978e+000 1.2817335871117417e+000
        1.3325470938104615e+001 1.3333333333234139e+000
        1.3333331058171216e+000 1.3333332764542793e+000
        1.3333333191135670e+000 1.3181263527103506e+000
        1.3333333297783942e+000 1.5519760062871022e+000
        1.3335856686645511e+000 1.3333474435045822e+000
        4.8487568744378802e+000 3.1250000000000000e+002
        1.3333333324445993e+000 1.3333333333130259e+000
        1.3333341152742864e+000 1.3333333331111523e+000
        2.5630718581232248e+001 1.3303851900885633e+000
        1.3333333332777888e+000 1.3333333333194479e+000 -1.
        -1.0006478204159066e+000 -1.0482630539386093e+000
        -1.0189814943369866e+000 -1.4657582744781474e+000
        -1.5088671403826228e+000 -1.3923966817076123e+000
        -1.4558042825940629e+000 -1.3410387243601822e+000
        -1.3878501836681000e+001 -1.5542265571294895e+000
        -1.3953054375045331e+000 -9.4482826827977782e+000
        -1.0554268830184128e+000 -1.1916247171878029e+000
        -1.6936478875015462e+000 -1.5743146915022410e+000
        -1.5857141055862478e+000 -1.4230707051476912e+000
        -1.3557876523112913e+000 -1.3677964403981335e+000
        -3.1250000000000000e+002 -3.1250000000000000e+002
        -1.3393070653197456e+000 -1.3348461277041543e+000
        -1.5489027332556409e+000 -1.3468057129920366e+000
        -1.3367014282480090e+000 -1.3341753570620012e+000
        -1.2699661804182012e+000 -1.3639511036255019e+000
        -1.3179058051734172e+000 -1.3323448966668356e+000
        -1.3279986925759883e+000 -1.3319996731446222e+000
        -1.4181933655126324e+000 -2.7618059291044133e+001
        -1.3671399562081823e+000 -1.3329999182861554e+000
        -1.3332499795715369e+000 -1.3332895032513041e+000
        -1.3333649538102639e+000 -1.3334634535585506e+000
        -1.3354797345074219e+000 -3.1223180367194301e+000
        -2.2493334223556776e+001 -1.3333406138520016e+000
        -1.3333351534630002e+000 -1.3333337883657526e+000
        -1.3333334470914371e+000 -1.4206822381335426e+001
        -2.3740614487930250e+002 -1.3333333617728618e+000
        -1.3333333404432144e+000 -3.1250000000000000e+002
        -1.3333333351108043e+000 -1.3333333337776982e+000
        -1.3333333334444253e+000 -1.3333412384525820e+000
        -1.3295733159193603e+000 -1.3333333333611070e+000
        -1.3333333333402739e+000 -8.6266616864479548e+000
        -1.3333333333350657e+000 -1.3333333333337654e+000
        -1.3872285146596668e+000 -1.3333333333334243e+000
        -1.5251900318453813e+000 -8.0218176857764156e+000
        -1.3333692713712599e+000 -7.2968936577559749e+000
        -1.3633598695154212e+000 -1.3333333333331756e+000
        -1.3333333333282942e+000 -1.3333333333206558e+000
        -1.3333333332961208e+000 -4.6997183358885541e-001
        -1.3333048323374574e+000 -1.8899866511755864e+001
        -7.0351326223054302e+000 -9.8300236448548048e+000
        -1.2964308688083741e+000 -1.3333261379210162e+000
        -1.3333314641333833e+000 -1.3119947711064346e+000
        -1.3333327897038350e+000 -1.0435212300367651e+000
        -1.3333119133533236e+000 -1.3332933595329199e+000
        -1.3329297146522057e+000 -1.3321748954889221e+000
        -1.3306871001578207e+000 -1.3419792879000849e+000
        -1.3272035057710061e+000 -1.2899996706380596e+000
        -1.3114382125706348e+000 -1.2875431860711180e+000
        -1.4649240092886726e+000 -1.2780788762172148e+000
        -1.2799062316644763e+000 -1.2294167733844643e+000
        -2.0350487953547557e+002 -1.2116292546011278e+000
        -1.3333223758285766e+000 -1.3996467339137806e+000
        -6.8632381088691091e+001 -1.0603211550681591e+001
        -1.3334669767805396e+000 -1.6384397973047022e+001
        -1.3334473336143811e+000</alpha>
      <index>
        98 85 73 89 81 83 67 75 79 97 71 72 84 64 86 74 88 68 90 76 91
        70 99 65 69 0 118 107 129 122 114 116 109 124 112 115 106 103
        123 110 127 125 111 130 101 63 126 32 21 10 30 17 4 23 12 29 8
        18 9 20 1 22 11 24 5 25 13 28 26 15 3 33 2 6 14 40 60 38 48 51
        42 58 54 45 62 36 39 49 34 50 41 52 37 53 57 55 44 59 61 46 35
        43 56 516 517 519 518 511 515 514 513 512 528 520 521 522 523
        524 525 526 527 492 501 566 494 495 497 498 499 500 510 503 504
        505 506 507 508 509 557 548 549 550 551 552 553 554 555 556 547
        558 559 560 561 562 563 564 565 538 530 531 533 534 535 536 537
        539 541 542 543 544 545 546 445 436 438 440 442 443 444 435 446
        447 448 450 451 453 426 417 418 419 420 421 422 423 425 454 427
        428 429 430 431 432 433 434 482 473 474 475 478 480 481 463 460</index></_>
    <_>
      <sv_count>273</sv_count>
      <rho>-2.0144193758830475e-002</rho>
      <alpha>
        1. 1.8770912265292896e+000 7.8020171001710137e-001
        8.0463678685726692e-001 1.3332925709678958e+000
        2.0038391264841486e+000 7.4574823400701462e-001
        1.3333216589493113e+000 8.1516016303660266e-001
        8.2574757271915189e-001 1.3333440895181639e+000
        1.9408213855824723e+000 1.3034647433020274e+000
        8.4134837562770515e-001 8.5108343285770904e-001
        8.1512639441052137e-001 5.5905626420301824e-001
        4.8255819721366606e+000 5.6556195856216074e-001
        2.6437501941826294e+000 7.2227850228398649e-001
        8.1139158447726678e-001 1.4628380100689033e+000
        9.4890425120805972e+001 8.3303292982750543e-001
        7.8400961501664117e+000 1.3027131498113391e+000
        1.3314165671928748e+000 1.3438753460643009e+000
        1.3164893189367530e+000 1.3328541440031927e+000
        1.8226695106841939e+000 1.3508356111516651e+000
        1.3497147190915078e+000 1.2577694636678183e+000
        7.5132106612628591e-001 6.1670198759002059e-001
        7.7787609851491890e-001 8.2021055925066833e-001
        1.5551931458175563e+000 7.9231862639522621e-001
        3.1250000000000000e+002 1.7968048776624446e+000
        1.3332135360007982e+000 6.0269567300389202e+000
        1.3333033840002031e+000 7.3121971979463096e-001
        3.1250000000000000e+002 3.5719258717045772e+000
        1.3333258460372406e+000 7.8700238994970029e-001
        3.8122744548628993e+000 7.8647988088203868e-001
        1.2783713512691584e+000 8.4274611065064953e-001
        8.0051960118996457e-001 8.3388384274303096e-001
        1.3333444701517720e+000 1.3333361175379537e+000
        7.9579591597926336e-001 1.3333340293844884e+000
        1.3333335073808854e+000 7.5254947181516463e-001
        1.3333333768452178e+000 8.0035888265395594e-001
        6.1681905853326473e+000 1.3333333442113116e+000
        1.1451466050993582e+000 1.3333333360528314e+000
        8.0800094295997638e-001 5.9555484144880335e+000
        1.3333333340132185e+000 1.0368339478068134e+000
        3.3134269773753189e+001 3.1250000000000000e+002
        1.3333333333733748e+000 3.1250000000000000e+002
        1.4572321371751469e+000 8.0822036512334416e-001
        2.5129343925302119e+000 3.1250000000000000e+002
        1.3256903061341889e+000 1.3333333333433472e+000
        1.3333333333358297e+000 1.3314269248044202e+000
        1.3333333333339539e+000 1.0548999179734874e+001
        8.1590654215129366e-001 3.1250000000000000e+002
        1.3333333311924032e+000 3.1250000000000000e+002
        8.5802425140003291e-001 1.3333333333334849e+000
        1.3336579176636483e+000 6.9690817600921473e-001
        8.5350016836771725e-001 1.3333384040915890e+000
        1.3333346010228952e+000 1.3333336502557218e+000
        1.3333334125639285e+000 1.1350500784400768e+000
        8.2677894390495299e-001 5.5855143880476781e+001
        1.3331709961430780e+000 1.3333333531409837e+000
        1.3333333382852475e+000 1.5609107017712192e+000
        6.6895043611499405e-001 1.3095686685306309e+000
        7.0811046518937093e-001 1.3333333345713116e+000
        5.6350178359037040e-001 3.1250000000000000e+002
        4.2084843576574276e+000 1.3333333331993171e+000
        3.5294033023000573e+000 1.3264592996271749e+000
        5.3737498424311736e-001 7.9900919400946089e+000
        1.0482799297199114e+002 5.4770604975110118e+000
        1.5158004626501427e+000 1.3333311410223816e+000
        3.1250000000000000e+002 1.3333327852555970e+000
        1.3333333327978565e+000 1.1014932181232794e+001
        1.3333331963138990e+000 1.3333332990784728e+000
        1.3333333247696162e+000 1.3333333335131234e+000
        3.1250000000000000e+002 3.1250000000000000e+002
        -3.1250000000000000e+002 -3.1250000000000000e+002
        -8.7925036525614908e-001 -8.0108949324507750e-001
        -3.3608444830259565e+001 -8.8323741153238211e-001
        -9.5666269698465434e-001 -8.1944367084643621e-001
        -5.9260139288764835e-001 -9.0399585083839029e-001
        -3.1250000000000000e+002 -8.2156355077458398e-001
        -5.0167391228073068e+000 -6.1268378122535405e-001
        -1.3277308916502761e+000 -1.3319327229125690e+000
        -9.7369186638224043e+000 -1.7891200868553745e+000
        -6.9458460508072373e-001 -6.4922849518266212e-001
        -3.8625926039207261e+000 -3.3521081569840074e+000
        -1.3333118209636723e+000 -1.3333333344037817e+000
        -1.8607914444080023e+000 -1.4283959352293518e+000
        -4.7162524711616447e+000 -3.1250000000000000e+002
        -5.9743366038220572e+001 -1.3333279552409181e+000
        -1.3154066599506535e+000 -8.7183621288168611e-001
        -8.6562646314211733e-001 -1.8018912017249651e+000
        -1.3288516650063542e+000 -1.3322129162515921e+000
        -3.1250000000000000e+002 -9.0604648937320142e-001
        -7.0847341369141581e-001 -1.3106442172713741e+000
        -1.3276610543178435e+000 -5.1565694836611486e+000
        -1.3329831807302863e+000 -1.3319152635794609e+000
        -1.3352051654256132e+000 -8.9545133349530204e-001
        -6.9731656923756380e-001 -8.6843168903909640e-001
        -3.1250000000000000e+002 -8.6473212595121052e-001
        -8.9523116552748838e-001 -8.8396595933243138e-001
        -8.5969099632281665e-001 -1.8056358731123507e+000
        -8.3112794108849464e-001 -5.5004839645071024e-001
        -1.3276312822922591e+000 -6.3126879880426934e-001
        -1.3319078205730648e+000 -1.3329769551432662e+000
        -3.1250000000000000e+002 -1.9170924418844444e+002
        -1.3332442387858094e+000 -8.5673187127230643e-001
        -1.4790517796453826e+000 -3.1250000000000000e+002
        -2.5683483423914604e+000 -1.3333277649241069e+000
        -1.3333319412310232e+000 -1.3333332463095502e+000
        -8.6518345335358848e-001 -1.3333333115773911e+000
        -7.1911439161236181e+000 -1.3243084120912068e+000
        -1.3333333278943371e+000 -1.6200623200998212e+000
        -1.6438091434538364e+000 -8.0419440791250418e-001
        -1.2798222508028869e+000 -1.2393085621117748e+000
        -1.2436143463175693e+000 -1.5787409090044406e+000
        -1.3330532290629147e+000 -9.7002935091806530e-001
        -2.5954829893130831e+000 -5.9884138617163245e+000
        -1.3561490247937571e+000 -1.3333333319735772e+000
        -1.3333333329933907e+000 -1.3333333332532504e+000
        -1.3333333333133197e+000 -1.3333333333283264e+000
        -1.3333333333320923e+000 -8.5954629933684001e-001
        -1.2617015723516376e+000 -2.9415853358761073e+000
        -3.1250000000000000e+002 -1.2910735154553623e+000
        -1.3305969213131008e+000 -9.8496249975009720e-001
        -8.0133057326282797e-001 -4.3117601028076420e+000
        -1.3333333333330160e+000 -1.3333333333332575e+000
        -1.3331709621519625e+000 -1.4664022220307769e+000
        -1.3332927672672685e+000 -8.5962192136370186e-001
        -1.3333333336008120e+000 -3.1250000000000000e+002
        -1.3333231918168185e+000 -1.3162210793550375e+000
        -1.3333307979542059e+000 -1.3333326994885528e+000
        -1.3218631378567780e+000 -7.6802448059362949e-001
        -6.9422622672729606e-001 -5.7847942361760873e+000
        -1.3333331748721395e+000 -1.3333332937180362e+000
        -1.3333333234295086e+000 -9.0681418016846804e-001
        -1.3333333308573732e+000 -8.3195788590940101e-001
        -1.3333333327143411e+000 -1.3333329853772962e+000
        -8.2582894522860373e-001 -8.5411230890599310e-001
        -8.7154271489703272e-001 -8.6899260958339719e-001
        -9.5111768730335000e-001 -1.3333333504607641e+000
        -1.3333333376151888e+000 -3.1250000000000000e+002
        -1.3926346967843168e+000 -9.8634443780686953e-001
        -1.4609669114684213e+001 -2.3350788748738047e+000
        -8.6690186071633957e-001 -5.7902741156232096e-001</alpha>
      <index>
        225 226 228 227 220 224 223 222 237 229 231 232 233 234 235 236
        201 210 132 202 203 204 205 206 207 208 209 219 211 213 214 216
        217 218 263 255 256 257 258 259 260 261 262 254 264 265 266 267
        268 269 270 247 239 240 241 242 243 244 245 246 238 248 249 250
        251 252 253 160 152 153 154 155 156 157 158 159 151 161 162 163
        164 165 166 167 168 133 134 135 136 137 138 139 140 141 200 143
        144 145 146 147 148 149 150 191 185 186 187 188 190 169 192 193
        194 195 196 197 198 199 184 170 171 172 173 174 175 176 177 178
        179 180 181 182 183 370 371 373 372 365 369 368 367 366 382 374
        375 376 377 378 379 381 346 355 271 347 348 349 350 351 352 353
        354 364 356 357 358 359 360 361 362 363 411 402 404 405 406 407
        408 409 410 401 412 413 414 415 416 392 384 385 386 387 388 389
        390 391 383 393 394 395 396 397 398 399 400 299 290 291 292 293
        294 295 296 297 298 289 300 301 302 303 304 305 306 307 345 272
        273 275 276 277 278 279 308 281 282 284 285 286 287 288 336 328
        329 330 331 332 333 334 335 327 337 338 339 340 341 342 343 344
        318 309 310 311 312 313 314 315 316 317 319 320 321 322 323 325
        326</index></_>
    <_>
      <sv_count>280</sv_count>
      <rho>5.5839284239726228e-002</rho>
      <alpha>
        1.0475442614125918e+000 4.1785526630109953e+000
        1.3472647872019921e+000 1.0633708102662549e+000
        1.0479253301274558e+000 1.0479263719582730e+000
        1.0474657577397428e+000 1.0772244567827518e+000
        2.8550408683161699e-001 1.0849494158051820e+000
        6.4253349046735198e-001 6.4580524346730472e+000
        1.0762952676259019e+000 1.0329067127912896e+000
        1.0869392989818691e+000 1.0217351780819457e+000
        1.0605368252757210e+000 1.0708259507028210e+000
        8.3402215622795683e-001 1.3625640728392692e+000
        9.4800321065191739e-001 1.0633206616396227e+000
        1.0506194711773438e+000 1.0721472651736395e+000
        7.1973500102283738e-001 7.7400742122078303e-001
        1.0701858399074975e+000 1.7344609568411023e+001
        1.0625909509697447e+000 1.0537687103110318e+000
        1.0434438047580117e+000 1.0181039921733058e+001
        1.0682880547839206e+000 1.0444782363287985e+000
        2.3235068810383246e+000 1.0512127800360394e+000
        1.0688191039683990e+000 1.0884137017446365e+000
        1.0135712424584498e+000 9.2497345787656582e-001
        1.2026309839457143e+000 1.0693490831445107e+000
        9.4374910593916161e-001 7.2075263885311602e-001
        3.1250000000000000e+002 3.4860182723070055e+000
        1.0833330380734965e+000 6.3675683987912803e+000
        1.0473700585793906e+000 1.0208332177569432e+000
        3.1250000000000000e+002 1.0473527531634512e+000
        1.0699996056198853e+000 1.0524719824126938e+000
        1.0747055719043077e+000 3.4572861996873212e+000
        1.0763263752318823e+000 1.0699402220528142e+000
        1.0701430169916857e+000 1.0602335565553482e+000
        1.0537657358992667e+000 1.1289782908013406e+000
        1.0416580379965985e+000 1.0281364476798700e+000
        1.0252193770493712e+000 1.0880883398151873e+000
        7.4250406937010482e-001 1.0592824273359165e+000
        1.0493333651020056e+000 1.0500477277188744e+000
        1.4666560304877478e+000 7.7693063314367850e-001
        1.0401505903852191e+000 3.1575381943916302e+001
        1.6296537084523063e+001 3.1250000000000000e+002
        1.0253404040599046e+000 3.1250000000000000e+002
        1.0210111310253949e+000 1.0205628733694585e+000
        8.2572897777588938e+000 1.6999789535024361e+000
        1.0757081562465463e+000 1.0493334135562775e+000
        1.0491091493068447e+000 1.0479391173828505e+000
        8.5065166678570172e+000 1.0479263719582741e+000
        1.0673430664004460e+000 3.1250000000000000e+002
        2.2919084018831493e+000 3.1250000000000000e+002
        1.3786180118503706e+000 1.0640141417247950e+000
        7.6016667816247505e+000 7.9280430565461284e+000
        1.0603799611579943e+000 1.0465301103270126e+000
        1.0493061720266361e+000 1.0485551619495195e+000
        1.0767305273360679e+000 9.7890790726761279e-001
        1.0213963141542206e+000 5.7941297079475462e-001
        1.0750826264924642e+000 1.0640038423774838e+000
        1.0809713782686192e+000 3.3414955033480096e+000
        1.0326354101227473e+000 3.1250000000000000e+002
        1.0770356035332560e+000 9.6228205979515224e-001
        1.0732396212405224e+000 6.9699104120543487e-001
        3.1250000000000000e+002 3.4220117380110804e-001
        1.0510231894497435e+000 9.3453658820280971e-001
        1.0485550126488892e+000 3.7112111508788387e-001
        6.5732908433374071e-001 1.0824283619032740e+000
        1.0632841048340687e+000 3.1250000000000000e+002
        1.0614828749121548e+000 1.0505829365062878e+000
        2.0093845697692891e-001 1.0691330051962629e+000
        1.0574878473881959e+000 1.0502025588420691e+000
        1.0666903429540042e+000 3.1250000000000000e+002
        3.1250000000000000e+002 -1.1752755827942909e+001
        -9.3777644612630962e-001 -9.5122740257034710e-001
        -9.5278852419349158e-001 -9.5861982060658879e-001
        -9.5262994147139413e-001 -9.5205233299899295e-001
        -9.6213853645558267e-001 -9.5264732786571338e-001
        -9.1589119616392867e-001 -9.5654235493156625e-001
        -1.6884578930561027e+001 -9.5066658649642055e-001
        -9.4941706349329569e-001 -9.4478285001851703e-001
        -9.4404450869368406e-001 -4.7887447671718542e-001
        -1.2654970288556009e+000 -3.3952243297012843e+000
        -9.3705600321728943e-001 -9.2289573403779013e-001
        -3.1250000000000000e+002 -3.1250000000000000e+002
        -1.3866909096995204e+001 -9.4941706349333810e-001
        -2.2159834729227144e+000 -9.3671589516593134e-001
        -9.5216388704249644e-001 -9.5066658644372248e-001
        -1.0480530173453217e+000 -9.4839758199309077e-001
        -9.2917471455699707e-001 -9.3881940805279984e-001
        -9.2917459388363777e-001 -9.5203618449053873e-001
        -9.2358810691433613e-001 -9.5264724683654878e-001
        -9.5168850023381801e-001 -3.3669644281914430e+000
        -9.5346988967298729e-001 -9.5834196200340149e-001
        -9.5089085069315527e-001 -9.4840461295337963e-001
        -9.3009602776618105e-001 -1.1120670267135914e+001
        -5.7543927990019950e-001 -9.3520807538369821e-001
        -9.1456107816027787e-001 -9.5345363966452856e-001
        -9.5637637774432915e-001 -9.5089085069315538e-001
        -1.3200225102019017e+001 -3.1250000000000000e+002
        -9.2358751701541619e-001 -9.3705471494560777e-001
        -6.9703649024360832e+000 -9.3667933836037731e-001
        -9.5524900245268007e-001 -9.3651529018468405e-001
        -9.4840461295337963e-001 -9.5364655430515055e-001
        -9.2819800893774651e-001 -9.3905434800501397e-001
        -9.3873403902370200e-001 -3.1250000000000000e+002
        -5.8232601515542248e-001 -3.1250000000000000e+002
        -9.4885565432582475e-001 -9.4941706349329569e-001
        -9.1621689628552794e-001 -9.5319576559055408e-001
        -7.6060542683542054e-001 -9.1634637259004403e-001
        -9.1522788429941804e-001 -6.3495723945025495e-001
        -9.6865597674988235e-001 -3.1250000000000000e+002
        -9.4981220550233536e-001 -9.3070130262500128e-001
        -9.1666696192650354e-001 -9.3983240053248174e-001
        -9.4121759518397607e-001 -9.5673622441606732e-001
        -9.4267244494349012e-001 -3.1765180802927663e+001
        -9.8087422082478093e-001 -3.1250000000000000e+002
        -5.5443446599788060e-001 -1.1104951809042913e+000
        -3.1250000000000000e+002 -9.7295630739663641e-001
        -9.7340579239625558e-001 -9.7556143069592194e-001
        -1.0367794926937171e+000 -4.1025452529271140e+000
        -9.7826482191805431e-001 -9.3873403902370200e-001
        -9.2963473112162898e-001 -9.5264732786571338e-001
        -8.1549487212654537e-001 -9.5253461103085590e-001
        -9.4177102190198236e-001 -9.5122740257034710e-001
        -9.5052173358291425e-001 -9.7916668861445511e-001
        -9.8642876401122392e-001 -9.4822886008670693e-001
        -9.5319576559055408e-001 -9.3705600321728943e-001
        -9.2917471455699707e-001 -6.2491568619133329e+000
        -9.2720361292444753e-001 -9.2768573494184703e-001
        -9.1639114092090712e-001 -9.5089085069315527e-001
        -9.2364105245637040e-001 -3.1250000000000000e+002
        -3.1250000000000000e+002 -5.6041227977150954e-001
        -9.1370611545494462e-001 -9.2140342049495705e-001
        -9.1822116660346709e-001 -9.2411888143345022e-001
        -9.4075014245997490e-001 -9.5063471897385132e-001
        -9.3223772740202793e-001 -9.7041019475265589e-001
        -9.5207465917538148e-001 -9.7478062295062884e-001
        -7.4607424759954917e+000 -3.1250000000000000e+002
        -9.7943712663054150e-001 -9.7860536453311575e-001
        -9.5220591634716090e-001 -9.4623128968896819e-001
        -9.2280229252342960e-001 -5.2781406264467712e-001
        -9.4923238092826467e-001 -9.4623426410073330e-001
        -9.4071757266408351e-001 -1.4592150867356830e+000
        -9.3740904903025535e-001 -9.2785273482636055e-001
        -9.2981416009250251e-001 -9.2985698300831432e-001
        -9.2954919283110538e-001 -9.3065091685548929e-001</alpha>
      <index>
        225 226 228 227 220 224 223 222 221 237 229 230 231 232 233 234
        235 236 201 210 132 202 203 204 205 206 207 208 209 219 211 212
        213 214 215 217 218 263 255 256 257 258 259 260 261 262 254 264
        265 266 267 269 270 247 239 240 241 242 243 244 245 246 238 248
        250 251 252 253 160 152 153 154 155 156 157 158 159 151 161 162
        163 164 165 166 167 168 142 133 135 136 137 138 139 140 141 200
        143 144 145 146 147 148 149 150 191 185 186 187 188 189 190 169
        192 193 194 195 196 197 198 170 171 172 173 174 175 176 177 178
        179 180 181 182 183 516 517 519 518 511 515 514 513 512 520 521
        522 523 524 525 526 527 492 501 566 493 494 495 496 497 498 499
        500 510 502 503 504 505 506 507 508 509 557 549 550 551 552 553
        554 555 556 547 558 559 560 561 562 563 564 565 538 530 531 532
        533 534 535 536 537 529 539 540 541 542 543 544 546 445 436 437
        438 439 440 441 442 443 444 435 446 447 448 449 450 451 452 453
        426 417 418 419 420 421 422 423 424 425 454 427 428 429 430 431
        432 433 434 482 473 474 475 476 477 478 479 480 481 472 483 484
        485 486 487 488 489 490 463 455 456 457 458 459 460 461 462 491
        464 465 466 467 468 469 470 471</index></_>
    <_>
      <sv_count>291</sv_count>
      <rho>4.4743413978742430e-002</rho>
      <alpha>
        3.1238239698946791e+002 3.1250000000000000e+002
        1.0459317860530641e+000 1.0454009611639032e+000
        2.3801762326212014e+001 1.0459381868349107e+000
        1.1821117671010279e+000 9.9561121317636525e-001
        7.2063899197876968e-001 1.0445272346735957e+000
        1.9024685139875472e+000 1.0046452038177398e+000
        1.4114904417948195e+000 7.6062104975728562e-001
        1.0446856201824684e+000 1.0413242986318720e+000
        7.7207147583430058e-001 1.6534799341887045e+000
        3.5106421371114664e+000 8.1589400961013714e-001
        6.1782528567048756e-001 5.7960418109619349e-001
        8.4885473958538515e-001 1.0412224674920330e+000
        1.0439469100661480e+000 3.0533635138301068e-001
        1.0445931438150062e+000 1.0845384895012775e+000
        3.1250000000000000e+002 8.5056943443272492e-001
        1.0461883796077867e+000 1.0460072118351178e+000
        1.0512541600347813e+000 7.9851740284565387e-001
        7.6558827032052679e-001 1.0442882966695968e+000
        1.0449818348122519e+000 3.1250000000000000e+002
        1.0413143292360283e+000 9.1664970521407163e-001
        4.6976828418990507e-001 1.0450670751748325e+000
        1.0457270451884606e+000 4.7596260616801406e-001
        1.5013479062399753e+000 1.0134423745800640e+000
        1.0415567725922912e+000 1.0449502795547863e+000
        4.5885443357147693e-001 1.0416487045205149e+000
        3.1250000000000000e+002 1.0371880269044631e+000
        1.0448187083180462e+000 1.0439363387563225e+000
        6.0274923195865848e-001 5.1053906227325987e+000
        9.9007258117446673e-001 9.6882446505964892e-001
        1.0470250494440316e+000 7.0456187831903472e-001
        1.0459919857754616e+000 1.0467890113644671e+000
        3.1250000000000000e+002 9.5055207648621953e-001
        1.0425576047650678e+000 1.0435438325501416e+000
        1.1135156970458122e+000 3.1250000000000000e+002
        1.0111974971919471e+000 1.0449712617719549e+000
        1.0412167471054077e+000 1.0431282737390664e+000
        1.0446820741642542e+000 1.0449020134930567e+000
        4.9310882383460308e+000 1.0442969754119940e+000
        1.0435496240230970e+000 8.3478874370502332e-001
        6.3570241432829020e+000 8.1994641042889405e-001
        1.0442713122258442e+000 1.0135362973958020e+000
        1.0736880620735636e+000 5.9098450588779983e-001
        1.0531993722443935e+000 8.5199406988572246e-001
        1.0449538476396625e+000 4.6519415127556685e-001
        1.0462112047401069e+000 1.0461388794575799e+000
        1.0446653578208434e+000 1.0667895823258011e+000
        1.0450578304198312e+000 1.0458131192304754e+000
        1.0459128195986149e+000 6.6957846074164706e-001
        1.0447401244988417e+000 1.3329978700463330e-001
        3.1250000000000000e+002 7.6265111792485438e+000
        1.0452618942085115e+000 8.3300218530388415e-001
        1.0587543531046111e+000 1.0459741853691651e+000
        2.2401429602901937e+000 1.0415323342372615e+000
        1.0462838449748850e+000 1.0640624799735396e+000
        1.0448570007360549e+000 1.0445716452918516e+000
        1.0428745629043534e+000 1.0449502795526746e+000
        3.1250000000000000e+002 1.0448817808212327e+000
        5.8420990271154427e-001 1.0451775707438091e+000
        1.0449150417537392e+000 1.0020922851354448e+000
        7.5915883129360895e-001 1.5076834876917677e+000
        2.4288708829941874e+000 1.0459971227683120e+000
        1.3315245076092246e+000 1.0436781122447303e+000
        1.0458776219920196e+000 1.0448297050414541e+000
        1.0457337941638527e+000 1.1193916583625600e+000
        1.0472792193325204e+000 1.0461633392368921e+000
        1.0462021515164595e+000 1.0473397159901869e+000
        1.0455697025797142e+000 1.7359957358675917e+000
        1.0453894891909146e+000 1.0457300635988702e+000
        3.1250000000000000e+002 1.0439805943641598e+000
        1.1644660727518024e+000 1.0792070878341833e+000
        1.0452940286938368e+000 1.0447775839701008e+000
        6.6619628579512402e-001 -2.3733910135869536e+000
        -9.5307742816233132e-001 -9.5480497483253479e-001
        -9.5571170333040312e-001 -9.5713699481508663e-001
        -9.5411153680987160e-001 -9.5572868768588370e-001
        -9.7928822046618247e-001 -9.7429830550906005e-001
        -3.9027925373703503e+000 -9.5561194898438484e-001
        -9.5542422469807786e-001 -5.2382415883476430e+000
        -9.5502451160692714e-001 -9.5372905964374677e-001
        -9.5533660343242821e-001 -9.5265900924077673e-001
        -5.6357878929825977e-001 -6.9470960931448156e-001
        -1.0299496434108188e+000 -9.5398437297504657e-001
        -9.6045082689925310e-001 -3.1250000000000000e+002
        -3.1250000000000000e+002 -5.6161939026505232e+000
        -9.5392757489346991e-001 -9.5290773754123437e-001
        -9.5429619698978363e-001 -9.5848747430263659e-001
        -9.5387118662126258e-001 -9.5498651074114460e-001
        -9.5304863137278384e-001 -9.5543272997916684e-001
        -1.1005986047720473e+000 -9.5614520258699309e-001
        -9.5409165576231336e-001 -9.6119209630087066e-001
        -9.5652326868718396e-001 -9.7035307070037569e-001
        -3.4590327602701825e+000 -9.5511107803309248e-001
        -9.5480817336161428e-001 -9.5380419515754589e-001
        -9.5399410962767617e-001 -9.5397226285030889e-001
        -1.2822798121169834e+000 -6.5416181484532532e-001
        -1.4347304801987522e+000 -9.5657980368669981e-001
        -9.5387118662126258e-001 -9.5389760996418616e-001
        -9.5751028471777500e-001 -1.8138160216033953e+001
        -3.1250000000000000e+002 -9.5653925444991716e-001
        -9.5369596238673815e-001 -9.5387057971332434e-001
        -9.5886603950789984e-001 -1.5017620969540062e+000
        -9.5496069463575106e-001 -9.5296070760474749e-001
        -9.5657722346041896e-001 -9.5377930973244185e-001
        -9.5422568932821072e-001 -3.1250000000000000e+002
        -2.3595327781068622e+000 -3.1250000000000000e+002
        -9.5886603950789984e-001 -9.5534214924013117e-001
        -9.5470790811410033e-001 -9.5397226408356972e-001
        -2.6209043661302265e+000 -6.0315620894730868e+000
        -9.5374800103194934e-001 -9.5458362204961766e-001
        -5.5226780570208500e-001 -9.5406180706858223e-001
        -3.1250000000000000e+002 -9.5377361539195271e-001
        -1.6768217425932850e+000 -9.5510326971176374e-001
        -9.5407593815784564e-001 -1.2566771967794692e+000
        -1.6069159326278502e+000 -9.5507538917925905e-001
        -1.4368999714199928e+000 -5.4439109592961898e-001
        -3.1250000000000000e+002 -1.3756872877360420e+000
        -9.7216377022381262e-001 -3.1250000000000000e+002
        -9.5411153680987160e-001 -9.5273084839578659e-001
        -9.5407839199716982e-001 -9.5694779252345208e-001
        -6.3760216856646350e+000 -9.5467089113671733e-001
        -9.5630903314021942e-001 -9.5499619826869009e-001
        -9.5508947886089424e-001 -5.0899162920748420e-001
        -9.5431072926006788e-001 -9.5503499918918844e-001
        -9.5506895446687701e-001 -9.5571437382663649e-001
        -9.5479141285854252e-001 -9.5409165576231336e-001
        -9.5411531666964178e-001 -9.5520376790172790e-001
        -9.5476751088859990e-001 -9.5504615236013402e-001
        -3.0303393280006002e-001 -9.5751318759220994e-001
        -9.5513763191232215e-001 -9.5462156322168745e-001
        -9.5371458559009470e-001 -9.5386112166769288e-001
        -1.1975987251842459e+000 -3.1250000000000000e+002
        -5.2811843902914268e-001 -9.5446409171303259e-001
        -9.5548811970359071e-001 -9.5407889521795930e-001
        -9.5613821132078947e-001 -9.5566672498626104e-001
        -9.5433847227646607e-001 -9.5499619826869009e-001
        -9.5448598848521671e-001 -9.5835129547948505e-001
        -9.5408102666528272e-001 -7.0772286996984635e-001
        -3.1250000000000000e+002 -9.5501457028989167e-001
        -9.5622095353693981e-001 -9.5606366124367748e-001
        -9.5408552660399137e-001 -9.6420372390068654e-001
        -8.2881448815216385e-001 -9.5728025354477086e-001
        -9.5378500074558126e-001 -9.5485937534889787e-001
        -1.5083235811109414e+000 -9.5521175989009155e-001
        -9.5398437297504657e-001 -9.5830082386374615e-001
        -9.5867570136812796e-001 -9.5855396949270855e-001
        -9.5571437382663649e-001</alpha>
      <index>
        370 371 373 372 365 369 368 367 366 382 374 375 376 377 378 379
        380 381 346 355 271 347 348 349 350 351 352 353 354 364 356 357
        358 359 360 361 362 363 411 402 403 404 405 406 407 408 409 410
        401 412 413 414 415 416 392 384 385 386 387 388 389 390 391 383
        393 394 395 396 397 398 399 400 299 290 291 292 293 294 295 296
        297 298 289 300 301 302 303 304 305 306 307 345 272 273 275 276
        277 278 279 308 281 282 283 284 285 286 287 288 336 328 329 330
        331 332 333 334 335 327 337 338 339 340 341 342 343 344 318 309
        310 311 312 313 314 315 316 317 319 320 321 322 323 325 326 516
        517 519 518 511 515 514 513 512 528 520 521 522 523 524 525 526
        527 492 501 566 493 494 495 496 497 498 499 500 510 502 503 504
        505 506 507 508 509 557 549 550 551 552 553 554 555 556 547 558
        559 560 561 562 563 564 565 530 531 532 533 534 535 536 537 529
        539 540 541 542 543 544 545 546 445 436 437 438 439 440 441 442
        443 444 435 446 447 448 449 450 451 452 453 426 417 418 419 420
        421 422 423 424 425 454 427 428 429 430 431 432 433 434 482 473
        474 475 476 477 478 479 480 481 472 483 484 485 486 487 488 489
        490 463 455 456 457 458 459 460 461 462 491 464 465 466 467 468
        469 470 471</index></_></decision_functions></opencv_ml_svm>
</opencv_storage>
