<?xml version="1.0"?>
<opencv_storage>
<opencv_ml_svm>
  <format>3</format>
  <svmType>C_SVC</svmType>
  <kernel>
    <type>RBF</type>
    <gamma>3.3750000000000002e-002</gamma></kernel>
  <C>2.5000000000000000e+000</C>
  <term_criteria><epsilon>1.1920928955078125e-007</epsilon>
    <iterations>1000</iterations></term_criteria>
  <var_count>4</var_count>
  <class_count>4</class_count>
  <class_labels type_id="opencv-matrix">
    <rows>4</rows>
    <cols>1</cols>
    <dt>i</dt>
    <data>
      0 1 2 3</data></class_labels>
  <sv_total>119</sv_total>
  <support_vectors>
    <_>
      0. 0. 402. 11.</_>
    <_>
      0. 0. 917. 27.</_>
    <_>
      0. 0. 887. 14.</_>
    <_>
      42. 1. 459. 11.</_>
    <_>
      41. 1. 86. 3.</_>
    <_>
      30. 1. 74. 2.</_>
    <_>
      77. 2. 127. 3.</_>
    <_>
      0. 0. 401. 11.</_>
    <_>
      0. 0. 691. 10.</_>
    <_>
      429. 2. 517. 12.</_>
    <_>
      48. 1. 277. 6.</_>
    <_>
      0. 0. 41. 2.</_>
    <_>
      0. 0. 1940. 20.</_>
    <_>
      179. 2. 192. 6.</_>
    <_>
      0. 0. 169. 4.</_>
    <_>
      105. 3. 155. 5.</_>
    <_>
      314. 4. 0. 0.</_>
    <_>
      0. 0. 0. 0.</_>
    <_>
      223. 6. 0. 0.</_>
    <_>
      340. 7. 25. 1.</_>
    <_>
      0. 0. 94. 3.</_>
    <_>
      0. 0. 597. 9.</_>
    <_>
      0. 0. 70. 3.</_>
    <_>
      0. 0. 820. 12.</_>
    <_>
      0. 0. 411. 13.</_>
    <_>
      244. 6. 825. 22.</_>
    <_>
      0. 0. 0. 0.</_>
    <_>
      84. 1. 763. 23.</_>
    <_>
      0. 0. 220. 8.</_>
    <_>
      50. 1. 434. 9.</_>
    <_>
      0. 0. 600. 12.</_>
    <_>
      226. 3. 195. 6.</_>
    <_>
      0. 0. 110. 4.</_>
    <_>
      0. 0. 361. 10.</_>
    <_>
      0. 0. 432. 6.</_>
    <_>
      0. 0. 0. 0.</_>
    <_>
      0. 0. 78. 3.</_>
    <_>
      0. 0. 3456. 55.</_>
    <_>
      0. 0. 41. 2.</_>
    <_>
      108. 3. 0. 0.</_>
    <_>
      188. 5. 1094. 23.</_>
    <_>
      0. 0. 2086. 33.</_>
    <_>
      143. 3. 619. 19.</_>
    <_>
      60. 2. 728. 20.</_>
    <_>
      48. 1. 670. 12.</_>
    <_>
      0. 0. 110. 3.</_>
    <_>
      535. 13. 0. 0.</_>
    <_>
      255. 6. 0. 0.</_>
    <_>
      0. 0. 0. 0.</_>
    <_>
      65. 1. 1364. 36.</_>
    <_>
      0. 0. 373. 7.</_>
    <_>
      81. 1. 0. 0.</_>
    <_>
      0. 0. 175. 4.</_>
    <_>
      538. 12. 208. 2.</_>
    <_>
      59. 1. 0. 0.</_>
    <_>
      113. 2. 0. 0.</_>
    <_>
      0. 0. 0. 0.</_>
    <_>
      592. 8. 91. 3.</_>
    <_>
      0. 0. 484. 15.</_>
    <_>
      407. 7. 0. 0.</_>
    <_>
      72. 1. 2954. 47.</_>
    <_>
      40. 1. 1772. 37.</_>
    <_>
      0. 0. 161. 4.</_>
    <_>
      42. 1. 1019. 11.</_>
    <_>
      0. 0. 817. 9.</_>
    <_>
      0. 0. 501. 17.</_>
    <_>
      192. 3. 0. 0.</_>
    <_>
      0. 0. 0. 0.</_>
    <_>
      101. 2. 0. 0.</_>
    <_>
      36. 1. 228. 8.</_>
    <_>
      0. 0. 463. 12.</_>
    <_>
      190. 4. 0. 0.</_>
    <_>
      245. 5. 36. 1.</_>
    <_>
      77. 1. 0. 0.</_>
    <_>
      103. 3. 307. 7.</_>
    <_>
      0. 0. 56. 3.</_>
    <_>
      0. 0. 691. 16.</_>
    <_>
      33. 1. 248. 7.</_>
    <_>
      1380. 18. 0. 0.</_>
    <_>
      68. 1. 0. 0.</_>
    <_>
      1662. 17. 0. 0.</_>
    <_>
      223. 5. 123. 4.</_>
    <_>
      0. 0. 468. 8.</_>
    <_>
      0. 0. 211. 7.</_>
    <_>
      32. 1. 343. 5.</_>
    <_>
      290. 2. 0. 0.</_>
    <_>
      871. 11. 0. 0.</_>
    <_>
      215. 5. 274. 8.</_>
    <_>
      318. 7. 0. 0.</_>
    <_>
      464. 5. 224. 9.</_>
    <_>
      420. 6. 0. 0.</_>
    <_>
      0. 0. 212. 5.</_>
    <_>
      555. 9. 138. 2.</_>
    <_>
      148. 1. 735. 12.</_>
    <_>
      645. 10. 890. 19.</_>
    <_>
      715. 10. 377. 5.</_>
    <_>
      0. 0. 72. 1.</_>
    <_>
      2058. 10. 59. 2.</_>
    <_>
      949. 3. 4747. 52.</_>
    <_>
      255. 4. 630. 14.</_>
    <_>
      0. 0. 4278. 79.</_>
    <_>
      0. 0. 10003. 105.</_>
    <_>
      0. 0. 2431. 33.</_>
    <_>
      0. 0. 2850. 52.</_>
    <_>
      3438. 12. 3005. 33.</_>
    <_>
      739. 1. 2941. 54.</_>
    <_>
      0. 0. 5367. 75.</_>
    <_>
      38. 1. 68. 2.</_>
    <_>
      29. 1. 56. 2.</_>
    <_>
      0. 0. 898. 17.</_>
    <_>
      0. 0. 336. 5.</_>
    <_>
      0. 0. 0. 0.</_>
    <_>
      1180. 16. 849. 12.</_>
    <_>
      126. 1. 289. 5.</_>
    <_>
      1138. 2. 1416. 15.</_>
    <_>
      346. 5. 829. 10.</_>
    <_>
      34. 1. 607. 12.</_>
    <_>
      71. 1. 145. 3.</_>
    <_>
      0. 0. 1114. 16.</_></support_vectors>
  <decision_functions>
    <_>
      <sv_count>59</sv_count>
      <rho>-1.9419253691286879e-002</rho>
      <alpha>
        9.8058078102913759e-001 6.1181086495163473e-001
        9.8058070566599864e-001 9.8058077346786476e-001
        9.8058072661140505e-001 2.5000000000000000e+000
        9.8058075355881957e-001 9.8058074287349861e-001
        9.8058079649715457e-001 9.8058075355882823e-001
        9.8069314234342442e-001 9.8058069295148864e-001
        9.8058077804277322e-001 9.8058071024165239e-001
        2.5000000000000000e+000 9.8058070271676101e-001
        9.8058080488954769e-001 9.8058075355881957e-001
        9.8058079249200059e-001 2.5000000000000000e+000
        9.8058071024165239e-001 9.8058074287349861e-001
        9.8058079249200070e-001 6.1181068928431015e-001
        9.8058079361244987e-001 9.8058069814863935e-001
        9.8058075355881957e-001 9.8058069015797988e-001
        9.8058075355881957e-001 9.8058075355881957e-001
        -1.0194192897583476e+000 -1.0194192265321351e+000
        -1.0194193018513606e+000 -6.3604327394837579e-001
        -2.4999994993170804e+000 -1.0194192414807828e+000
        -1.0194193070485114e+000 -1.0195273844849853e+000
        -1.0194192467323364e+000 -1.0194192417873400e+000
        -1.0194192249693359e+000 -1.0194172660482117e+000
        -2.5000000000000000e+000 -1.0194192972832390e+000
        -1.0194192943340012e+000 -1.0194192219572269e+000
        -1.0194192226580672e+000 -1.0194192464411804e+000
        -1.0194192035028453e+000 -1.0194192943340012e+000
        -1.0194172679096933e+000 -2.5000000000000000e+000
        -1.0194192464411804e+000 -1.0194192414807910e+000
        -1.0194197950169208e+000 -1.0194193015991646e+000
        -1.0194192075079993e+000 -6.3604308585461888e-001
        -1.0194192226580672e+000</alpha>
      <index>
        15 0 29 28 27 26 25 24 23 22 21 20 19 18 17 16 14 13 12 11 10 9
        8 7 6 5 4 3 2 1 51 49 50 45 48 47 46 30 52 53 54 55 56 57 58 44
        43 42 41 40 39 38 37 36 35 34 33 32 31</index></_>
    <_>
      <sv_count>60</sv_count>
      <rho>1.0591085915615965e-002</rho>
      <alpha>
        1.0105910966025671e+000 6.3053514976446556e-001
        1.0105910669113811e+000 1.0105910695788412e+000
        1.0105910669113811e+000 2.4935165407345594e+000
        1.0105910938942104e+000 1.0105910669113811e+000
        1.0107002640775793e+000 1.0105910669113811e+000
        1.0105910738761630e+000 1.0105911411396755e+000
        1.0105910966025671e+000 1.0105910669113811e+000
        1.0170745103341874e+000 1.0105942853036887e+000
        1.0105910942576892e+000 1.0105910964401041e+000
        1.0105910966025671e+000 1.0105910942576808e+000
        1.0105910738761630e+000 1.0105910574641914e+000
        1.0105911110905819e+000 6.3053493931870697e-001
        1.0105910552629380e+000 1.0105910738761630e+000
        1.0105910964401041e+000 1.0105910669113811e+000
        1.0105910318943336e+000 1.0105910942576808e+000
        -9.8940890339743293e-001 -9.8940894893125331e-001
        -9.8940890234285772e-001 -9.8940890094199829e-001
        -9.8940890355989586e-001 -9.8940890355989586e-001
        -9.8940893841401845e-001 -9.8940885887961760e-001
        -9.8940897298064778e-001 -9.8940895144064367e-001
        -9.8940885774030329e-001 -9.8940894893125331e-001
        -9.8940890127803860e-001 -9.8940890574231921e-001
        -9.8941209278194442e-001 -9.8940885774030329e-001
        -9.8940892439333672e-001 -9.1649314177783525e-001
        -9.8940885792231159e-001 -9.8940886852198862e-001
        -9.8940894253580858e-001 -2.5000000000000000e+000
        -9.1649323325521992e-001 -9.8940893308861877e-001
        -9.8952035993690446e-001 -9.8940892439333672e-001
        -9.8940893308862732e-001 -9.8940895144064367e-001
        -9.8940894893125331e-001 -9.8940887046738490e-001</alpha>
      <index>
        15 0 29 28 27 26 25 24 23 22 21 20 19 18 17 16 14 13 12 11 10 9
        8 7 6 5 4 3 2 1 81 79 80 75 78 77 76 59 82 83 84 85 86 87 88 73
        72 71 70 69 68 67 66 65 64 63 62 61 60 74</index></_>
    <_>
      <sv_count>60</sv_count>
      <rho>1.3146279035312427e-002</rho>
      <alpha>
        1.0131462949342973e+000 6.3212936434091183e-001
        1.0131462608215007e+000 1.0131462940416542e+000
        1.0131462862332772e+000 2.4721239317917947e+000
        1.0131462956056405e+000 1.0131462837712235e+000
        1.0131462837712235e+000 1.0306524390054794e+000
        1.0131462839794971e+000 1.0131462839794971e+000
        1.0131462917610650e+000 1.0131462917610650e+000
        1.0410223479890048e+000 1.0131462910225051e+000
        1.0131462839794971e+000 1.0131462910225051e+000
        1.0131462956221942e+000 1.0131462956056405e+000
        1.0131462956056405e+000 1.0131462940416540e+000
        1.0131462956221942e+000 6.3212917521079848e-001
        1.0131462940416540e+000 1.0131462949342973e+000
        1.0131462646491718e+000 1.0131462797807993e+000
        1.0131462956056405e+000 1.0131462917610650e+000
        -9.8685371538551514e-001 -9.8685372798062576e-001
        -9.8685373491903916e-001 -9.8685370823893492e-001
        -9.8685370823893492e-001 -9.8685371622877649e-001
        -9.8685370823893492e-001 -9.8685370823893492e-001
        -2.5000000000000000e+000 -9.8685372798062576e-001
        -9.8685379892040292e-001 -9.8685373491903916e-001
        -9.8685374023360861e-001 -9.8685373491903916e-001
        -9.8685371821144230e-001 -9.8685379892040292e-001
        -9.8685374023360861e-001 -9.8685370823893492e-001
        -9.8685373491903916e-001 -9.8685373491903916e-001
        -9.8685371602050287e-001 -9.8685371602050287e-001
        -1.0048101228902593e+000 -9.8685370439435949e-001
        -9.8685371622877649e-001 -9.8685370595834587e-001
        -9.8685371602050287e-001 -9.8685373491903927e-001
        -9.8685370439435949e-001 -9.8685373556085954e-001</alpha>
      <index>
        15 0 29 28 27 26 25 24 23 22 21 20 19 18 17 16 14 13 12 11 10 9
        8 7 6 5 4 3 2 1 110 108 109 104 107 106 105 118 111 112 113 114
        115 116 117 103 102 101 100 99 98 97 96 95 94 93 92 91 90 89</index></_>
    <_>
      <sv_count>58</sv_count>
      <rho>4.7273401005203934e-002</rho>
      <alpha>
        1.0475627170328876e+000 1.0472733298925816e+000
        1.0472733930573408e+000 6.5342219293941295e-001
        2.4223493145049964e+000 1.0472734268023598e+000
        1.0472734203447991e+000 1.0472733298925816e+000
        1.0472734202246028e+000 1.0472734290889203e+000
        1.0472734202246023e+000 1.0472714063978825e+000
        1.1249241037302764e+000 1.0472734298818962e+000
        1.0472734306163827e+000 1.0472733298925816e+000
        1.0472733298925816e+000 1.0472734223656928e+000
        1.0472734218061146e+000 1.0472733930573408e+000
        1.0472714096326288e+000 1.0472734185371055e+000
        1.0472734308336920e+000 1.0472733672360719e+000
        1.0472734185371058e+000 1.0472734184932930e+000
        6.5342199489223007e-001 1.0472734168468123e+000
        -9.5272657977539776e-001 -9.5272658146289435e-001
        -9.5272664551175956e-001 -9.5272657977539776e-001
        -9.5272656938361733e-001 -9.5272657763430724e-001
        -9.5272656938361733e-001 -9.5272657819388540e-001
        -9.5272657885358381e-001 -9.5272657595800903e-001
        -9.5272657595800903e-001 -9.5272660694265920e-001
        -9.5272665450749161e-001 -9.5272656938361744e-001
        -9.5272663695817306e-001 -9.5304454709276054e-001
        -9.5272662386190643e-001 -8.8251424040636761e-001
        -9.5272657885358325e-001 -9.5272667010741852e-001
        -9.5272663696881399e-001 -2.5000000000000000e+000
        -8.8251424940210133e-001 -9.5272657965520091e-001
        -9.5272657319764031e-001 -9.5272658150670708e-001
        -9.5272657823801121e-001 -9.5272663276392822e-001
        -9.5272658176472746e-001 -9.5272658315318781e-001</alpha>
      <index>
        51 49 50 45 48 47 46 30 52 53 54 55 56 57 58 44 43 42 41 40 39
        38 37 36 34 33 32 31 81 79 80 75 78 77 76 59 82 83 84 85 86 87
        88 73 72 71 70 69 68 67 66 65 64 63 62 61 60 74</index></_>
    <_>
      <sv_count>58</sv_count>
      <rho>4.9814606789597267e-002</rho>
      <alpha>
        1.0498146237767974e+000 1.0498146136546704e+000
        1.0498145933219403e+000 6.5500771212470221e-001
        2.4248146527353707e+000 1.0498145933219403e+000
        1.0498146015727752e+000 1.0498146250118787e+000
        1.0498146185626325e+000 1.0498146138165509e+000
        1.0498146250118787e+000 1.0498125898152124e+000
        1.1249999997993465e+000 1.0498146387740119e+000
        1.0498146132100126e+000 1.0498145933219403e+000
        1.0498146525347170e+000 1.0498146525347183e+000
        1.0498145511922581e+000 1.0498146170169687e+000
        1.0498125967950951e+000 1.0498145931235807e+000
        1.0498145931178655e+000 1.0498145568989752e+000
        1.0498146138163122e+000 1.0498146044435241e+000
        6.5500756713362485e-001 1.0498145511922581e+000
        -9.5018540687641928e-001 -9.5018538678998743e-001
        -9.5018544880774181e-001 -9.5018540687641928e-001
        -9.5018538634532956e-001 -9.5018534746528216e-001
        -9.5018534746528216e-001 -9.5018534746528294e-001
        -2.5000000000000000e+000 -9.5018538298303146e-001
        -9.5018540687641928e-001 -9.5018539555647585e-001
        -9.5018539316316009e-001 -9.5018538298303135e-001
        -9.5018540667805973e-001 -9.5018540688213438e-001
        -9.5018544880774181e-001 -9.5018544880774181e-001
        -9.5018534746528305e-001 -9.5018538298303135e-001
        -9.5018538618368775e-001 -9.5018539555647585e-001
        -9.5018534915047337e-001 -9.5018538298303146e-001
        -9.5018544880774181e-001 -9.5018539555647585e-001
        -9.5018539316252293e-001 -9.5018544880774181e-001
        -9.5018538298303135e-001 -9.5018539316252293e-001</alpha>
      <index>
        51 49 50 45 48 47 46 30 52 53 54 55 56 57 58 44 43 42 41 40 39
        38 37 36 34 33 32 31 110 108 109 104 107 106 105 118 111 112 113
        114 115 116 117 103 102 101 100 99 98 97 96 95 94 93 92 91 90 89</index></_>
    <_>
      <sv_count>60</sv_count>
      <rho>2.5542324145964466e-003</rho>
      <alpha>
        1.0025542257468549e+000 1.0025542257468547e+000
        1.0025542257468525e+000 1.0025542257468547e+000
        1.0025542192479804e+000 1.0025542257468549e+000
        1.0025542257468547e+000 1.0025542320856458e+000
        1.0025542171721511e+000 1.0888023208578415e+000
        1.0025542257619704e+000 1.0025542988803273e+000
        1.0025542047651479e+000 1.0025542988803273e+000
        1.0025542181421760e+000 1.0025542181421765e+000
        1.0025542181421765e+000 9.2866970643957625e-001
        1.0025542399818830e+000 1.0025542988803273e+000
        1.0025542988803273e+000 2.5000000000000000e+000
        9.2866971709346591e-001 1.0025542320856458e+000
        1.0025542320856458e+000 1.0025542257468525e+000
        1.0025542136696903e+000 1.0025542136696903e+000
        1.0025542192479804e+000 1.0025542988803273e+000
        -9.9744576791435413e-001 -9.9744577425314529e-001
        -9.9744570111967268e-001 -9.9744578075201962e-001
        -9.9744578833286279e-001 -9.9744578075201962e-001
        -9.9744578075201962e-001 -9.9744579057315608e-001
        -2.5000000000000000e+000 -9.9744578075201962e-001
        -9.9744578075201962e-001 -9.9744570111967268e-001
        -9.9744578075201962e-001 -9.9744577423802949e-001
        -9.9744577425314529e-001 -9.9744577425314518e-001
        -9.9744570111967268e-001 -9.9744578185782351e-001
        -9.9744577425314518e-001 -9.9744578075201962e-001
        -9.9744577425314518e-001 -9.9744577425314529e-001
        -9.9744575904809230e-001 -9.9744578075201962e-001
        -9.9744578075201962e-001 -9.9744578075201962e-001
        -9.9744578185782351e-001 -1.0840703535122334e+000
        -9.9744577425314518e-001 -9.9744579523485200e-001</alpha>
      <index>
        81 79 80 75 78 77 76 59 82 83 84 85 86 87 88 73 72 71 70 69 68
        67 66 65 64 63 62 61 60 74 110 108 109 104 107 106 105 118 111
        112 113 114 115 116 117 103 102 101 100 99 98 97 96 95 94 93 92
        91 90 89</index></_></decision_functions></opencv_ml_svm>
</opencv_storage>
