<?xml version="1.0"?>
<opencv_storage>
<opencv_ml_svm>
  <format>3</format>
  <svmType>C_SVC</svmType>
  <kernel>
    <type>RBF</type>
    <gamma>3.3750000000000002e-002</gamma></kernel>
  <C>2.5000000000000000e+000</C>
  <term_criteria><iterations>1000</iterations></term_criteria>
  <var_count>4</var_count>
  <class_count>4</class_count>
  <class_labels type_id="opencv-matrix">
    <rows>4</rows>
    <cols>1</cols>
    <dt>i</dt>
    <data>
      0 1 2 3</data></class_labels>
  <sv_total>580</sv_total>
  <support_vectors>
    <_>
      0. 0. 402. 11.</_>
    <_>
      0. 0. 917. 27.</_>
    <_>
      0. 0. 887. 14.</_>
    <_>
      42. 1. 437. 10.</_>
    <_>
      41. 1. 86. 3.</_>
    <_>
      30. 1. 74. 2.</_>
    <_>
      77. 2. 127. 3.</_>
    <_>
      0. 0. 401. 11.</_>
    <_>
      0. 0. 691. 10.</_>
    <_>
      429. 2. 517. 12.</_>
    <_>
      48. 1. 277. 6.</_>
    <_>
      0. 0. 41. 2.</_>
    <_>
      0. 0. 1943. 20.</_>
    <_>
      179. 2. 224. 7.</_>
    <_>
      0. 0. 169. 4.</_>
    <_>
      105. 3. 155. 5.</_>
    <_>
      314. 4. 0. 0.</_>
    <_>
      223. 6. 0. 0.</_>
    <_>
      304. 6. 25. 1.</_>
    <_>
      47. 1. 94. 3.</_>
    <_>
      0. 0. 597. 9.</_>
    <_>
      0. 0. 72. 3.</_>
    <_>
      0. 0. 817. 12.</_>
    <_>
      0. 0. 411. 13.</_>
    <_>
      245. 6. 825. 22.</_>
    <_>
      84. 1. 763. 23.</_>
    <_>
      0. 0. 220. 8.</_>
    <_>
      50. 1. 434. 9.</_>
    <_>
      0. 0. 220. 5.</_>
    <_>
      230. 5. 0. 0.</_>
    <_>
      0. 0. 427. 6.</_>
    <_>
      0. 0. 27. 1.</_>
    <_>
      0. 0. 119. 1.</_>
    <_>
      83. 2. 0. 0.</_>
    <_>
      0. 0. 127. 3.</_>
    <_>
      128. 2. 37. 1.</_>
    <_>
      199. 3. 0. 0.</_>
    <_>
      0. 0. 2022. 10.</_>
    <_>
      0. 0. 728. 12.</_>
    <_>
      248. 4. 19. 1.</_>
    <_>
      0. 0. 269. 8.</_>
    <_>
      0. 0. 264. 6.</_>
    <_>
      104. 2. 563. 15.</_>
    <_>
      62. 1. 1369. 16.</_>
    <_>
      107. 3. 284. 9.</_>
    <_>
      0. 0. 186. 3.</_>
    <_>
      0. 0. 23. 1.</_>
    <_>
      188. 5. 530. 5.</_>
    <_>
      62. 1. 93. 1.</_>
    <_>
      0. 0. 35. 1.</_>
    <_>
      31. 1. 17. 1.</_>
    <_>
      204. 3. 0. 0.</_>
    <_>
      52. 1. 178. 4.</_>
    <_>
      106. 2. 627. 6.</_>
    <_>
      0. 0. 38. 2.</_>
    <_>
      251. 4. 479. 10.</_>
    <_>
      176. 5. 20. 1.</_>
    <_>
      65. 2. 177. 4.</_>
    <_>
      0. 0. 23. 1.</_>
    <_>
      94. 2. 0. 0.</_>
    <_>
      484. 9. 1694. 34.</_>
    <_>
      135. 4. 1087. 28.</_>
    <_>
      34. 1. 0. 0.</_>
    <_>
      142. 4. 1453. 20.</_>
    <_>
      51. 1. 161. 4.</_>
    <_>
      117. 2. 652. 8.</_>
    <_>
      270. 1. 2260. 16.</_>
    <_>
      184. 3. 19. 1.</_>
    <_>
      68. 2. 0. 0.</_>
    <_>
      0. 0. 107. 3.</_>
    <_>
      0. 0. 344. 1.</_>
    <_>
      131. 3. 0. 0.</_>
    <_>
      522. 9. 0. 0.</_>
    <_>
      116. 3. 0. 0.</_>
    <_>
      651. 3. 0. 0.</_>
    <_>
      43. 1. 49. 2.</_>
    <_>
      28. 1. 0. 0.</_>
    <_>
      0. 0. 245. 5.</_>
    <_>
      0. 0. 0. 0.</_>
    <_>
      31. 1. 0. 0.</_>
    <_>
      1502. 16. 0. 0.</_>
    <_>
      311. 5. 0. 0.</_>
    <_>
      0. 0. 0. 0.</_>
    <_>
      80. 1. 0. 0.</_>
    <_>
      0. 0. 120. 1.</_>
    <_>
      0. 0. 0. 0.</_>
    <_>
      0. 0. 0. 0.</_>
    <_>
      50. 1. 0. 0.</_>
    <_>
      63. 1. 233. 7.</_>
    <_>
      0. 0. 623. 14.</_>
    <_>
      0. 0. 0. 0.</_>
    <_>
      59. 1. 0. 0.</_>
    <_>
      0. 0. 0. 0.</_>
    <_>
      116. 2. 460. 7.</_>
    <_>
      80. 2. 259. 8.</_>
    <_>
      248. 6. 21. 1.</_>
    <_>
      39. 1. 0. 0.</_>
    <_>
      0. 0. 274. 9.</_>
    <_>
      0. 0. 68. 2.</_>
    <_>
      0. 0. 0. 0.</_>
    <_>
      0. 0. 0. 0.</_>
    <_>
      57. 1. 0. 0.</_>
    <_>
      0. 0. 45. 2.</_>
    <_>
      533. 11. 0. 0.</_>
    <_>
      102. 1. 0. 0.</_>
    <_>
      251. 6. 0. 0.</_>
    <_>
      183. 4. 0. 0.</_>
    <_>
      0. 0. 0. 0.</_>
    <_>
      60. 2. 70. 3.</_>
    <_>
      0. 0. 0. 0.</_>
    <_>
      0. 0. 88. 3.</_>
    <_>
      60. 1. 65. 3.</_>
    <_>
      99. 3. 0. 0.</_>
    <_>
      0. 0. 566. 7.</_>
    <_>
      169. 4. 0. 0.</_>
    <_>
      35. 1. 0. 0.</_>
    <_>
      0. 0. 199. 3.</_>
    <_>
      105. 3. 516. 6.</_>
    <_>
      30. 1. 56. 2.</_>
    <_>
      90. 2. 0. 0.</_>
    <_>
      41. 1. 0. 0.</_>
    <_>
      491. 11. 0. 0.</_>
    <_>
      0. 0. 886. 2.</_>
    <_>
      0. 0. 58. 1.</_>
    <_>
      0. 0. 0. 0.</_>
    <_>
      361. 1. 269. 4.</_>
    <_>
      0. 0. 251. 6.</_>
    <_>
      0. 0. 240. 6.</_>
    <_>
      0. 0. 409. 7.</_>
    <_>
      389. 5. 141. 4.</_>
    <_>
      487. 5. 234. 10.</_>
    <_>
      160. 3. 0. 0.</_>
    <_>
      73. 2. 0. 0.</_>
    <_>
      0. 0. 732. 12.</_>
    <_>
      0. 0. 395. 5.</_>
    <_>
      0. 0. 0. 0.</_>
    <_>
      0. 0. 219. 7.</_>
    <_>
      123. 3. 17. 1.</_>
    <_>
      285. 5. 0. 0.</_>
    <_>
      0. 0. 600. 12.</_>
    <_>
      226. 3. 195. 6.</_>
    <_>
      0. 0. 110. 4.</_>
    <_>
      0. 0. 361. 10.</_>
    <_>
      0. 0. 0. 0.</_>
    <_>
      0. 0. 432. 6.</_>
    <_>
      0. 0. 0. 0.</_>
    <_>
      0. 0. 78. 3.</_>
    <_>
      0. 0. 3507. 57.</_>
    <_>
      0. 0. 41. 2.</_>
    <_>
      108. 3. 0. 0.</_>
    <_>
      267. 6. 1094. 23.</_>
    <_>
      0. 0. 2086. 33.</_>
    <_>
      143. 3. 619. 19.</_>
    <_>
      60. 2. 728. 20.</_>
    <_>
      48. 1. 670. 12.</_>
    <_>
      0. 0. 110. 3.</_>
    <_>
      530. 13. 0. 0.</_>
    <_>
      287. 7. 0. 0.</_>
    <_>
      0. 0. 0. 0.</_>
    <_>
      65. 1. 1364. 36.</_>
    <_>
      0. 0. 373. 7.</_>
    <_>
      81. 1. 0. 0.</_>
    <_>
      0. 0. 175. 4.</_>
    <_>
      538. 12. 208. 2.</_>
    <_>
      0. 0. 0. 0.</_>
    <_>
      113. 2. 0. 0.</_>
    <_>
      0. 0. 0. 0.</_>
    <_>
      504. 7. 91. 3.</_>
    <_>
      0. 0. 484. 15.</_>
    <_>
      824. 16. 0. 0.</_>
    <_>
      188. 4. 350. 7.</_>
    <_>
      36. 1. 0. 0.</_>
    <_>
      0. 0. 31. 1.</_>
    <_>
      47. 1. 82. 3.</_>
    <_>
      340. 4. 129. 2.</_>
    <_>
      169. 1. 823. 7.</_>
    <_>
      620. 11. 0. 0.</_>
    <_>
      438. 7. 0. 0.</_>
    <_>
      199. 5. 0. 0.</_>
    <_>
      131. 3. 0. 0.</_>
    <_>
      456. 10. 0. 0.</_>
    <_>
      1490. 25. 0. 0.</_>
    <_>
      0. 0. 0. 0.</_>
    <_>
      108. 2. 0. 0.</_>
    <_>
      113. 2. 116. 4.</_>
    <_>
      115. 2. 468. 14.</_>
    <_>
      122. 2. 0. 0.</_>
    <_>
      412. 8. 433. 5.</_>
    <_>
      564. 2. 1036. 9.</_>
    <_>
      255. 3. 1024. 18.</_>
    <_>
      95. 2. 181. 2.</_>
    <_>
      0. 0. 0. 0.</_>
    <_>
      0. 0. 0. 0.</_>
    <_>
      44. 1. 20. 1.</_>
    <_>
      264. 6. 0. 0.</_>
    <_>
      921. 16. 0. 0.</_>
    <_>
      1317. 18. 90. 1.</_>
    <_>
      133. 3. 0. 0.</_>
    <_>
      344. 5. 0. 0.</_>
    <_>
      339. 7. 0. 0.</_>
    <_>
      551. 9. 0. 0.</_>
    <_>
      35. 1. 0. 0.</_>
    <_>
      635. 8. 0. 0.</_>
    <_>
      82. 2. 157. 4.</_>
    <_>
      265. 2. 124. 4.</_>
    <_>
      0. 0. 300. 6.</_>
    <_>
      0. 0. 0. 0.</_>
    <_>
      44. 1. 0. 0.</_>
    <_>
      175. 4. 29. 1.</_>
    <_>
      197. 3. 0. 0.</_>
    <_>
      259. 2. 38. 1.</_>
    <_>
      52. 1. 0. 0.</_>
    <_>
      29. 1. 0. 0.</_>
    <_>
      336. 5. 0. 0.</_>
    <_>
      684. 11. 0. 0.</_>
    <_>
      1913. 34. 0. 0.</_>
    <_>
      282. 5. 597. 7.</_>
    <_>
      254. 2. 0. 0.</_>
    <_>
      265. 4. 0. 0.</_>
    <_>
      61. 1. 483. 10.</_>
    <_>
      70. 2. 0. 0.</_>
    <_>
      402. 2. 58. 2.</_>
    <_>
      81. 1. 0. 0.</_>
    <_>
      160. 3. 0. 0.</_>
    <_>
      256. 4. 0. 0.</_>
    <_>
      240. 4. 0. 0.</_>
    <_>
      982. 6. 0. 0.</_>
    <_>
      122. 3. 0. 0.</_>
    <_>
      177. 4. 0. 0.</_>
    <_>
      323. 5. 0. 0.</_>
    <_>
      201. 4. 297. 9.</_>
    <_>
      621. 3. 18. 1.</_>
    <_>
      134. 2. 0. 0.</_>
    <_>
      0. 0. 240. 3.</_>
    <_>
      120. 2. 21. 1.</_>
    <_>
      33. 1. 210. 5.</_>
    <_>
      213. 5. 286. 3.</_>
    <_>
      0. 0. 214. 3.</_>
    <_>
      297. 1. 477. 4.</_>
    <_>
      0. 0. 126. 2.</_>
    <_>
      0. 0. 314. 6.</_>
    <_>
      0. 0. 154. 1.</_>
    <_>
      103. 2. 443. 5.</_>
    <_>
      0. 0. 464. 5.</_>
    <_>
      249. 5. 19. 1.</_>
    <_>
      95. 2. 1603. 32.</_>
    <_>
      0. 0. 265. 4.</_>
    <_>
      0. 0. 864. 21.</_>
    <_>
      258. 5. 239. 6.</_>
    <_>
      100. 3. 243. 5.</_>
    <_>
      46. 1. 383. 7.</_>
    <_>
      0. 0. 555. 11.</_>
    <_>
      481. 1. 105. 2.</_>
    <_>
      93. 1. 1005. 18.</_>
    <_>
      320. 3. 770. 20.</_>
    <_>
      202. 4. 940. 19.</_>
    <_>
      0. 0. 986. 27.</_>
    <_>
      0. 0. 190. 5.</_>
    <_>
      92. 2. 0. 0.</_>
    <_>
      273. 1. 1206. 19.</_>
    <_>
      179. 3. 0. 0.</_>
    <_>
      504. 3. 283. 8.</_>
    <_>
      0. 0. 347. 6.</_>
    <_>
      0. 0. 104. 4.</_>
    <_>
      502. 3. 236. 6.</_>
    <_>
      36. 1. 1448. 6.</_>
    <_>
      54. 1. 234. 3.</_>
    <_>
      140. 2. 0. 0.</_>
    <_>
      42. 1. 262. 4.</_>
    <_>
      31. 1. 506. 9.</_>
    <_>
      0. 0. 592. 9.</_>
    <_>
      0. 0. 180. 5.</_>
    <_>
      0. 0. 0. 0.</_>
    <_>
      187. 1. 0. 0.</_>
    <_>
      386. 3. 0. 0.</_>
    <_>
      0. 0. 157. 2.</_>
    <_>
      204. 2. 71. 1.</_>
    <_>
      301. 3. 0. 0.</_>
    <_>
      0. 0. 0. 0.</_>
    <_>
      144. 4. 0. 0.</_>
    <_>
      1012. 19. 0. 0.</_>
    <_>
      231. 1. 162. 1.</_>
    <_>
      374. 7. 0. 0.</_>
    <_>
      72. 1. 2954. 47.</_>
    <_>
      40. 1. 1772. 37.</_>
    <_>
      0. 0. 161. 4.</_>
    <_>
      42. 1. 1019. 11.</_>
    <_>
      0. 0. 817. 9.</_>
    <_>
      0. 0. 501. 17.</_>
    <_>
      0. 0. 0. 0.</_>
    <_>
      101. 2. 0. 0.</_>
    <_>
      36. 1. 228. 8.</_>
    <_>
      0. 0. 463. 12.</_>
    <_>
      190. 4. 0. 0.</_>
    <_>
      276. 6. 36. 1.</_>
    <_>
      77. 1. 0. 0.</_>
    <_>
      103. 3. 332. 8.</_>
    <_>
      0. 0. 42. 2.</_>
    <_>
      0. 0. 691. 16.</_>
    <_>
      33. 1. 248. 7.</_>
    <_>
      1346. 18. 0. 0.</_>
    <_>
      68. 1. 0. 0.</_>
    <_>
      1661. 17. 0. 0.</_>
    <_>
      222. 5. 123. 4.</_>
    <_>
      0. 0. 468. 8.</_>
    <_>
      0. 0. 211. 7.</_>
    <_>
      32. 1. 343. 5.</_>
    <_>
      290. 2. 0. 0.</_>
    <_>
      871. 11. 0. 0.</_>
    <_>
      246. 6. 274. 8.</_>
    <_>
      362. 8. 0. 0.</_>
    <_>
      0. 0. 836. 9.</_>
    <_>
      227. 5. 0. 0.</_>
    <_>
      764. 16. 0. 0.</_>
    <_>
      249. 4. 0. 0.</_>
    <_>
      914. 11. 0. 0.</_>
    <_>
      297. 8. 692. 17.</_>
    <_>
      93. 1. 208. 5.</_>
    <_>
      0. 0. 200. 4.</_>
    <_>
      0. 0. 391. 4.</_>
    <_>
      88. 1. 266. 7.</_>
    <_>
      0. 0. 764. 10.</_>
    <_>
      480. 11. 258. 7.</_>
    <_>
      356. 2. 1669. 35.</_>
    <_>
      359. 3. 179. 8.</_>
    <_>
      125. 3. 287. 8.</_>
    <_>
      138. 1. 1323. 13.</_>
    <_>
      0. 0. 1669. 14.</_>
    <_>
      649. 7. 0. 0.</_>
    <_>
      0. 0. 0. 0.</_>
    <_>
      692. 9. 0. 0.</_>
    <_>
      0. 0. 0. 0.</_>
    <_>
      0. 0. 108. 4.</_>
    <_>
      32. 1. 214. 6.</_>
    <_>
      0. 0. 0. 0.</_>
    <_>
      355. 7. 610. 15.</_>
    <_>
      0. 0. 818. 13.</_>
    <_>
      725. 7. 0. 0.</_>
    <_>
      1378. 22. 34. 1.</_>
    <_>
      1538. 30. 0. 0.</_>
    <_>
      74. 1. 314. 11.</_>
    <_>
      0. 0. 0. 0.</_>
    <_>
      756. 3. 54. 2.</_>
    <_>
      0. 0. 176. 2.</_>
    <_>
      1148. 18. 938. 18.</_>
    <_>
      511. 9. 1929. 13.</_>
    <_>
      374. 4. 0. 0.</_>
    <_>
      571. 1. 0. 0.</_>
    <_>
      35. 1. 88. 4.</_>
    <_>
      0. 0. 159. 3.</_>
    <_>
      92. 2. 957. 13.</_>
    <_>
      32. 1. 613. 10.</_>
    <_>
      983. 4. 805. 16.</_>
    <_>
      727. 12. 0. 0.</_>
    <_>
      357. 1. 2561. 43.</_>
    <_>
      1974. 13. 0. 0.</_>
    <_>
      375. 4. 0. 0.</_>
    <_>
      127. 1. 0. 0.</_>
    <_>
      89. 2. 0. 0.</_>
    <_>
      177. 4. 203. 4.</_>
    <_>
      344. 3. 503. 12.</_>
    <_>
      95. 2. 0. 0.</_>
    <_>
      711. 10. 0. 0.</_>
    <_>
      207. 3. 0. 0.</_>
    <_>
      0. 0. 0. 0.</_>
    <_>
      29. 1. 341. 10.</_>
    <_>
      185. 4. 1029. 12.</_>
    <_>
      162. 3. 318. 6.</_>
    <_>
      71. 2. 37. 1.</_>
    <_>
      451. 5. 0. 0.</_>
    <_>
      169. 4. 0. 0.</_>
    <_>
      717. 6. 569. 5.</_>
    <_>
      363. 3. 626. 9.</_>
    <_>
      0. 0. 0. 0.</_>
    <_>
      256. 6. 0. 0.</_>
    <_>
      114. 2. 0. 0.</_>
    <_>
      730. 10. 0. 0.</_>
    <_>
      815. 10. 0. 0.</_>
    <_>
      68. 2. 56. 2.</_>
    <_>
      315. 2. 23. 1.</_>
    <_>
      98. 1. 0. 0.</_>
    <_>
      0. 0. 0. 0.</_>
    <_>
      126. 2. 861. 14.</_>
    <_>
      371. 3. 514. 3.</_>
    <_>
      0. 0. 17. 1.</_>
    <_>
      680. 10. 0. 0.</_>
    <_>
      41. 1. 0. 0.</_>
    <_>
      566. 3. 0. 0.</_>
    <_>
      53. 1. 1253. 20.</_>
    <_>
      0. 0. 2024. 30.</_>
    <_>
      313. 5. 0. 0.</_>
    <_>
      124. 2. 0. 0.</_>
    <_>
      1257. 22. 0. 0.</_>
    <_>
      264. 5. 0. 0.</_>
    <_>
      104. 2. 0. 0.</_>
    <_>
      229. 5. 0. 0.</_>
    <_>
      454. 6. 0. 0.</_>
    <_>
      444. 10. 863. 11.</_>
    <_>
      856. 15. 0. 0.</_>
    <_>
      1394. 22. 42. 1.</_>
    <_>
      1114. 18. 0. 0.</_>
    <_>
      0. 0. 0. 0.</_>
    <_>
      404. 6. 0. 0.</_>
    <_>
      505. 2. 897. 16.</_>
    <_>
      1675. 23. 0. 0.</_>
    <_>
      0. 0. 549. 6.</_>
    <_>
      0. 0. 0. 0.</_>
    <_>
      295. 6. 0. 0.</_>
    <_>
      853. 16. 148. 3.</_>
    <_>
      848. 16. 504. 14.</_>
    <_>
      147. 3. 50. 2.</_>
    <_>
      31. 1. 74. 1.</_>
    <_>
      213. 2. 0. 0.</_>
    <_>
      317. 7. 0. 0.</_>
    <_>
      466. 5. 44. 1.</_>
    <_>
      86. 2. 370. 10.</_>
    <_>
      0. 0. 175. 2.</_>
    <_>
      0. 0. 282. 6.</_>
    <_>
      900. 11. 0. 0.</_>
    <_>
      0. 0. 587. 10.</_>
    <_>
      42. 1. 581. 4.</_>
    <_>
      127. 2. 744. 13.</_>
    <_>
      384. 7. 133. 3.</_>
    <_>
      0. 0. 0. 0.</_>
    <_>
      123. 2. 275. 5.</_>
    <_>
      228. 4. 321. 10.</_>
    <_>
      230. 3. 72. 2.</_>
    <_>
      192. 3. 0. 0.</_>
    <_>
      65. 2. 0. 0.</_>
    <_>
      192. 4. 0. 0.</_>
    <_>
      464. 5. 224. 9.</_>
    <_>
      385. 5. 0. 0.</_>
    <_>
      0. 0. 212. 5.</_>
    <_>
      555. 9. 138. 2.</_>
    <_>
      148. 1. 735. 12.</_>
    <_>
      598. 9. 896. 19.</_>
    <_>
      717. 10. 377. 5.</_>
    <_>
      0. 0. 72. 1.</_>
    <_>
      2058. 10. 59. 2.</_>
    <_>
      950. 3. 4747. 52.</_>
    <_>
      201. 3. 630. 14.</_>
    <_>
      0. 0. 4278. 79.</_>
    <_>
      0. 0. 10001. 105.</_>
    <_>
      0. 0. 2431. 33.</_>
    <_>
      0. 0. 2850. 52.</_>
    <_>
      3437. 12. 3005. 33.</_>
    <_>
      739. 1. 2941. 54.</_>
    <_>
      0. 0. 5357. 75.</_>
    <_>
      38. 1. 68. 2.</_>
    <_>
      29. 1. 56. 2.</_>
    <_>
      0. 0. 898. 17.</_>
    <_>
      0. 0. 336. 5.</_>
    <_>
      0. 0. 0. 0.</_>
    <_>
      1147. 15. 849. 12.</_>
    <_>
      126. 1. 289. 5.</_>
    <_>
      1138. 2. 1456. 16.</_>
    <_>
      346. 5. 829. 10.</_>
    <_>
      34. 1. 607. 12.</_>
    <_>
      71. 1. 145. 3.</_>
    <_>
      0. 0. 1114. 16.</_>
    <_>
      60. 1. 0. 0.</_>
    <_>
      0. 0. 120. 3.</_>
    <_>
      0. 0. 0. 0.</_>
    <_>
      0. 0. 18. 1.</_>
    <_>
      41. 1. 254. 3.</_>
    <_>
      0. 0. 0. 0.</_>
    <_>
      0. 0. 5924. 40.</_>
    <_>
      0. 0. 943. 17.</_>
    <_>
      0. 0. 0. 0.</_>
    <_>
      0. 0. 2499. 47.</_>
    <_>
      660. 3. 233. 7.</_>
    <_>
      955. 11. 3565. 25.</_>
    <_>
      269. 6. 966. 21.</_>
    <_>
      59. 1. 34. 1.</_>
    <_>
      0. 0. 383. 1.</_>
    <_>
      0. 0. 290. 7.</_>
    <_>
      0. 0. 39. 2.</_>
    <_>
      1763. 20. 1483. 15.</_>
    <_>
      0. 0. 20. 1.</_>
    <_>
      503. 3. 1015. 23.</_>
    <_>
      243. 2. 1081. 15.</_>
    <_>
      126. 1. 1659. 45.</_>
    <_>
      0. 0. 8044. 93.</_>
    <_>
      1586. 9. 1524. 19.</_>
    <_>
      1248. 7. 5825. 34.</_>
    <_>
      48. 1. 8294. 96.</_>
    <_>
      34. 1. 8704. 82.</_>
    <_>
      30. 1. 452. 3.</_>
    <_>
      285. 2. 172. 3.</_>
    <_>
      2416. 23. 0. 0.</_>
    <_>
      400. 3. 24. 1.</_>
    <_>
      35. 1. 0. 0.</_>
    <_>
      0. 0. 0. 0.</_>
    <_>
      0. 0. 71. 3.</_>
    <_>
      82. 1. 753. 11.</_>
    <_>
      31. 1. 0. 0.</_>
    <_>
      1430. 15. 603. 16.</_>
    <_>
      261. 3. 9429. 107.</_>
    <_>
      0. 0. 3703. 62.</_>
    <_>
      490. 1. 3205. 39.</_>
    <_>
      49. 1. 741. 4.</_>
    <_>
      360. 4. 764. 17.</_>
    <_>
      594. 9. 4395. 48.</_>
    <_>
      502. 5. 5039. 64.</_>
    <_>
      1316. 4. 168. 4.</_>
    <_>
      0. 0. 378. 4.</_>
    <_>
      29. 1. 259. 5.</_>
    <_>
      0. 0. 0. 0.</_>
    <_>
      0. 0. 0. 0.</_>
    <_>
      109. 1. 0. 0.</_>
    <_>
      0. 0. 1362. 14.</_>
    <_>
      0. 0. 429. 3.</_>
    <_>
      379. 3. 222. 3.</_>
    <_>
      0. 0. 8616. 23.</_>
    <_>
      0. 0. 558. 10.</_>
    <_>
      0. 0. 441. 11.</_>
    <_>
      908. 5. 1035. 22.</_>
    <_>
      107. 1. 4297. 73.</_>
    <_>
      74. 2. 51. 1.</_>
    <_>
      0. 0. 2918. 6.</_>
    <_>
      461. 2. 560. 8.</_>
    <_>
      0. 0. 848. 8.</_>
    <_>
      2668. 28. 3812. 65.</_>
    <_>
      1860. 10. 5682. 87.</_>
    <_>
      110. 2. 281. 6.</_>
    <_>
      0. 0. 701. 12.</_>
    <_>
      1907. 19. 0. 0.</_>
    <_>
      2927. 27. 0. 0.</_>
    <_>
      0. 0. 1223. 16.</_>
    <_>
      0. 0. 155. 3.</_>
    <_>
      706. 6. 0. 0.</_>
    <_>
      0. 0. 4858. 50.</_>
    <_>
      110. 1. 10206. 15.</_>
    <_>
      1105. 20. 0. 0.</_>
    <_>
      41. 1. 305. 9.</_>
    <_>
      71. 1. 0. 0.</_>
    <_>
      209. 2. 45. 2.</_>
    <_>
      1379. 15. 0. 0.</_>
    <_>
      552. 6. 2940. 14.</_>
    <_>
      30. 1. 1138. 25.</_>
    <_>
      0. 0. 895. 18.</_>
    <_>
      116. 2. 0. 0.</_>
    <_>
      0. 0. 0. 0.</_>
    <_>
      916. 10. 1457. 30.</_>
    <_>
      0. 0. 5273. 45.</_>
    <_>
      442. 11. 0. 0.</_>
    <_>
      1427. 20. 516. 11.</_>
    <_>
      78. 2. 169. 4.</_>
    <_>
      361. 7. 283. 4.</_>
    <_>
      48. 1. 1275. 25.</_>
    <_>
      684. 8. 86. 3.</_>
    <_>
      34. 1. 0. 0.</_>
    <_>
      0. 0. 198. 1.</_>
    <_>
      0. 0. 0. 0.</_>
    <_>
      0. 0. 7725. 48.</_>
    <_>
      0. 0. 7324. 53.</_>
    <_>
      537. 3. 17. 1.</_>
    <_>
      345. 1. 642. 4.</_>
    <_>
      106. 1. 0. 0.</_>
    <_>
      0. 0. 198. 5.</_>
    <_>
      0. 0. 277. 9.</_>
    <_>
      0. 0. 18. 1.</_>
    <_>
      418. 3. 0. 0.</_>
    <_>
      1398. 13. 128. 2.</_>
    <_>
      439. 3. 717. 12.</_>
    <_>
      104. 3. 2918. 6.</_>
    <_>
      1148. 6. 255. 8.</_>
    <_>
      94. 2. 1543. 30.</_>
    <_>
      127. 2. 0. 0.</_>
    <_>
      0. 0. 117. 1.</_>
    <_>
      465. 5. 0. 0.</_>
    <_>
      1154. 8. 0. 0.</_>
    <_>
      61. 2. 2466. 39.</_>
    <_>
      0. 0. 2911. 45.</_>
    <_>
      2270. 10. 0. 0.</_>
    <_>
      115. 3. 0. 0.</_>
    <_>
      0. 0. 0. 0.</_>
    <_>
      136. 2. 1156. 24.</_>
    <_>
      943. 7. 228. 5.</_>
    <_>
      5480. 44. 0. 0.</_></support_vectors>
  <decision_functions>
    <_>
      <sv_count>275</sv_count>
      <rho>4.6360026466800798e-002</rho>
      <alpha>
        1.8332775465320568e+000 2.5000000000000000e+000
        2.5000000000000000e+000 1.0470178248397299e+000
        1.0464496227614037e+000 2.5000000000000000e+000
        1.0827720970968899e+000 1.1775581226259553e+000
        2.5000000000000000e+000 1.0469352369550646e+000
        2.5000000000000000e+000 6.6352681783947576e-001
        1.2724990392718434e+000 1.0541061756516310e+000
        2.5000000000000000e+000 2.5000000000000000e+000
        7.0913328913918028e-001 1.0464583824875151e+000
        2.5000000000000000e+000 4.6181688414473737e-001
        1.0671665453055739e+000 2.5000000000000000e+000
        1.2115995974717675e+000 5.9006122215346068e-001
        2.5000000000000000e+000 7.9263025019324784e-001
        2.5000000000000000e+000 1.6199494569810162e+000
        1.0455995270981662e+000 2.5000000000000000e+000
        2.5000000000000000e+000 2.5000000000000000e+000
        2.5000000000000000e+000 1.5000173509889159e+000
        1.0464763976240834e+000 2.5000000000000000e+000
        3.5049307814370162e-001 5.6133774832523450e-002
        1.0464117839491538e+000 1.1164809920858634e+000
        7.1465851248004963e-001 1.0463060904010713e+000
        1.0463393321618399e+000 1.0300032239882093e+000
        2.5000000000000000e+000 2.5000000000000000e+000
        1.1666267608126779e+000 2.5000000000000000e+000
        2.5000000000000000e+000 1.7839273087523713e+000
        2.5000000000000000e+000 1.0385250134202086e+000
        1.0557229171610831e+000 2.5000000000000000e+000
        1.0463057811518375e+000 8.2650466063643746e-001
        2.5000000000000000e+000 7.7089097795698558e-001
        1.0935482390026883e+000 1.0465644249859658e+000
        1.0464425325326909e+000 9.6915533566962109e-001
        1.8698719426037544e+000 1.0456652043875478e+000
        7.3902537259432843e-001 1.7446024583345214e+000
        2.5000000000000000e+000 7.3908788172237916e-001
        2.3965351899128460e+000 6.6117940029002009e-001
        2.5000000000000000e+000 1.2553355051657404e+000
        1.0465051471846041e+000 2.2356379819902856e+000
        8.7665396679353080e-001 1.0134335162886474e+000
        1.2140549000622667e+000 8.1840075358728115e-001
        1.0462897495065191e+000 1.7869673113379543e+000
        6.9107084059700830e-001 1.0463793391425358e+000
        1.0463417516301021e+000 1.0463939993372009e+000
        2.5000000000000000e+000 1.0463431433384844e+000
        1.0463545696960650e+000 2.3711720754578658e+000
        1.0463321445556080e+000 1.0462763041974585e+000
        1.0463758679210309e+000 1.0464301707312929e+000
        9.1761948383402903e-001 9.6690202218500310e-001
        1.0463788760431356e+000 8.3047132663438450e-001
        1.3771291033257008e-001 9.6673097046756040e-001
        2.5000000000000000e+000 1.0385678600797048e+000
        1.0462587071030753e+000 1.3372128840589934e+000
        7.8963277317556591e-001 1.1795512926987715e+000
        1.0463554744954131e+000 1.0462465837980748e+000
        2.5000000000000000e+000 1.0430690412655566e+000
        6.6094483558844808e-001 1.0156890959093896e+000
        2.5000000000000000e+000 1.0463364791112650e+000
        2.0450647525498424e+000 2.2477027324508527e+000
        9.4967951045817556e-001 1.0464207319773411e+000
        1.0462873989585770e+000 1.0463513771464574e+000
        1.0464070998382080e+000 1.0463281316512505e+000
        1.0463724646731580e+000 1.0430911828242135e+000
        2.4582432952154081e+000 1.4497920012776312e-002
        2.5000000000000000e+000 1.0463860843732042e+000
        1.0459549379648547e+000 1.0462963807898786e+000
        6.2632019066363609e-001 1.0464124447377199e+000
        1.0485848696941507e+000 2.5000000000000000e+000
        1.0463317600177962e+000 1.0463057278316676e+000
        -9.5365855080781081e-001 -1.3379442432316155e+000
        -2.5000000000000000e+000 -9.5360708336562872e-001
        -9.5364786188630457e-001 -9.5366434904178110e-001
        -1.6791289270058583e+000 -2.5000000000000000e+000
        -9.7072116173785694e-002 -9.5366646826423995e-001
        -9.5234133633451257e-001 -5.4461870061098772e-001
        -9.5362284284076515e-001 -9.5367408117818031e-001
        -2.5000000000000000e+000 -9.5362646036772547e-001
        -2.5000000000000000e+000 -9.5369493039988740e-001
        -7.4928108388579640e-001 -2.5000000000000000e+000
        -2.1584015998865342e+000 -9.5357334600368926e-001
        -9.5357374584092325e-001 -9.5354897089560953e-001
        -1.2695511241945980e+000 -5.5816690168899374e-001
        -9.5362315079587923e-001 -2.5000000000000000e+000
        -9.5375819539473639e-001 -9.5362782263748636e-001
        -2.5000000000000000e+000 -5.9638899400900514e-001
        -1.0094508999726532e+000 -9.5353988226437603e-001
        -1.2116823553868821e+000 -9.9918056768848329e-001
        -9.5362257269596173e-001 -9.9329147040102872e-001
        -4.1630295951569435e-001 -9.5369392766087602e-001
        -9.5364584241590267e-001 -1.8450761978050849e+000
        -1.1710287752721957e+000 -2.5000000000000000e+000
        -1.7688641720513327e+000 -9.5373593598118700e-001
        -5.7408690760666381e-001 -9.5361383868371730e-001
        -9.7195590512098795e-001 -2.5000000000000000e+000
        -7.2671431369899353e-001 -9.5361391562679554e-001
        -9.5366253830085868e-001 -2.5000000000000000e+000
        -9.5369421856501291e-001 -9.6398860724467506e-001
        -9.5353274284949252e-001 -9.5361282128367908e-001
        -9.5362257269596173e-001 -9.5365353186125734e-001
        -9.5366369274869967e-001 -2.2522785642507674e+000
        -9.5366873996002877e-001 -9.5356565086094169e-001
        -2.2207468355490594e+000 -9.5352873464613042e-001
        -1.4290742135019534e+000 -2.0943880355723006e+000
        -9.5384727846112294e-001 -9.5358945410924045e-001
        -9.5352468965990789e-001 -9.4816899634417851e-001
        -2.5000000000000000e+000 -9.0309180105029163e-001
        -9.5367900467478972e-001 -2.5000000000000000e+000
        -2.4503042904334671e+000 -2.5000000000000000e+000
        -9.5361390152453906e-001 -2.5000000000000000e+000
        -9.5361569443772243e-001 -9.5361700493930335e-001
        -2.5000000000000000e+000 -2.5000000000000000e+000
        -1.1714663858524528e+000 -9.5369744753896546e-001
        -9.5354459175060169e-001 -9.5320916629890606e-001
        -4.7589899124248186e-001 -9.5359877801091675e-001
        -9.4710873909198490e-001 -2.5000000000000000e+000
        -1.7221140072959984e+000 -2.5000000000000000e+000
        -1.3750266659173351e+000 -9.5364291017439484e-001
        -2.5000000000000000e+000 -2.5000000000000000e+000
        -9.5366318272149886e-001 -9.5365948276403711e-001
        -9.5354896038900516e-001 -9.5361596147771410e-001
        -9.5356529498999143e-001 -2.2435409245871551e+000
        -2.5000000000000000e+000 -2.5000000000000000e+000
        -9.5373341411762735e-001 -9.5369744753896546e-001
        -9.5372692406129267e-001 -7.4849836056505070e-001
        -8.0412834996602089e-001 -1.6816355536712513e-001
        -9.5368939520809870e-001 -2.5000000000000000e+000
        -9.5325374000359586e-001 -9.5373309691442976e-001
        -9.5368070905496483e-001 -9.5230098199454649e-001
        -2.5000000000000000e+000 -2.5000000000000000e+000
        -1.0173579497642158e+000 -1.4055123356877999e+000
        -9.5366649863745656e-001 -2.5000000000000000e+000
        -4.0276118424372126e-001 -2.5000000000000000e+000
        -2.5000000000000000e+000 -9.5372874706324828e-001
        -9.5414112659136008e-001 -2.5000000000000000e+000
        -2.1143435283593293e-002 -9.5366136106558175e-001
        -9.7638566270307947e-001 -3.2675959410844019e-001
        -9.5363889475808028e-001 -9.5364458877100255e-001
        -9.5356959562730903e-001 -9.5360708335879318e-001
        -2.5000000000000000e+000 -2.5000000000000000e+000
        -9.5614576158831055e-001</alpha>
      <index>
        105 90 78 102 94 86 88 72 92 80 100 96 84 104 76 87 77 89 69 79
        93 73 95 81 99 97 83 101 75 103 85 71 106 70 74 82 98 0 125 114
        136 129 121 123 109 127 116 135 131 119 138 122 113 124 107 126
        115 128 110 130 117 134 132 118 111 137 120 108 68 133 33 21 10
        31 17 19 4 23 12 30 16 8 18 9 20 1 22 11 24 5 25 13 29 27 15 7
        32 3 34 2 6 14 28 51 43 65 41 52 38 56 45 63 59 49 67 37 42 53
        35 55 44 57 39 58 62 60 48 64 40 66 50 36 47 61 236 237 239 238
        231 235 234 233 232 248 240 241 242 243 244 245 246 247 213 222
        139 214 215 216 217 218 219 220 221 230 223 224 225 226 227 229
        274 266 267 268 269 270 271 272 273 265 275 276 277 278 279 280
        281 258 250 251 252 253 254 255 256 257 249 259 260 261 262 263
        264 168 159 160 161 162 163 164 165 166 167 158 169 170 171 172
        173 174 175 176 149 140 142 143 144 145 146 147 148 212 150 151
        152 153 154 155 156 157 203 195 196 197 198 199 200 201 202 177
        204 205 206 207 208 209 210 211 194 178 179 180 181 182 183 184
        185 186 187 188 189 190 191 192 193</index></_>
    <_>
      <sv_count>279</sv_count>
      <rho>8.1148790704722279e-002</rho>
      <alpha>
        2.5000000000000000e+000 2.5000000000000000e+000
        2.5000000000000000e+000 1.4939161058623969e+000
        1.1005756069765271e+000 2.5000000000000000e+000
        1.0811440591589758e+000 1.0655132911601557e+000
        2.5000000000000000e+000 1.0811562455684771e+000
        2.5000000000000000e+000 8.6354594234360560e-001
        2.5000000000000000e+000 9.3863296603221924e-001
        9.7040547907088104e-001 4.4725181649296386e-001
        1.0812262862692299e+000 2.5000000000000000e+000
        1.4920096847268587e+000 1.0811598674642364e+000
        2.5000000000000000e+000 6.1294183138078451e-001
        1.8685030687434436e+000 2.5000000000000000e+000
        1.0139023578526249e+000 2.4325007694025143e+000
        1.0804395719964310e+000 1.0654284295916727e+000
        2.5000000000000000e+000 2.0771024296040324e+000
        1.2785623699976343e+000 1.0811736249385999e+000
        2.0910480771490669e+000 2.5000000000000000e+000
        6.4154197875498076e-001 5.1194690911568008e-001
        1.0811313245256662e+000 2.5000000000000000e+000
        3.7012108165456270e-001 1.1215953111214017e+000
        1.0811614924570849e+000 1.0545768739162287e+000
        2.5000000000000000e+000 8.7947164200830030e-001
        2.5000000000000000e+000 2.5000000000000000e+000
        1.0811326243934110e+000 2.5000000000000000e+000
        1.4925134200971817e+000 2.5000000000000000e+000
        1.0730686710116830e+000 1.0811845484220339e+000
        2.5000000000000000e+000 1.0812011421640366e+000
        9.3495217785221152e-001 7.8201546368818842e-001
        1.0810306576716864e+000 1.0810920150685326e+000
        1.0811187571845664e+000 2.2598484168269457e+000
        2.1840318279565452e+000 1.0804042667886162e+000
        7.7137892624164184e-001 1.0812281381273772e+000
        2.5000000000000000e+000 7.6057427194369420e-001
        2.5000000000000000e+000 6.8317014557842892e-001
        2.2919660008490400e-001 7.1832788990024299e-001
        1.0811107475213688e+000 2.7629924132436484e-001
        2.5000000000000000e+000 1.0369211255839395e+000
        1.3623137135285031e+000 8.3959145216248288e-001
        1.0811359624786154e+000 1.0810646802882908e+000
        4.1483146220506539e-001 2.5000000000000000e+000
        1.4845207971009375e+000 1.0891222285652016e+000
        1.0811572794279360e+000 1.1127308337004562e+000
        1.0812117810857789e+000 2.5000000000000000e+000
        2.4087973187117124e+000 1.0811076573436482e+000
        2.5000000000000000e+000 1.0811030637259142e+000
        1.0811621186404907e+000 2.5000000000000000e+000
        9.9893334192524730e-001 1.0811606738733726e+000
        3.2389352688035777e-001 9.9646025274339201e-001
        9.9888956575776222e-001 9.8076660892179257e-001
        1.0730447617467442e+000 1.0811669784326048e+000
        1.5437125738168129e+000 5.1895042072964226e-001
        2.5000000000000000e+000 1.0812262863282871e+000
        1.0811637077389720e+000 9.3564713195086202e-001
        1.0776904729513213e+000 6.8306606061815189e-001
        9.8519646235939029e-001 1.0977327946027182e+000
        1.0811584624593562e+000 2.5000000000000000e+000
        7.6120461061641875e-001 9.8512033679196409e-001
        1.0811336864952350e+000 1.0811976400535863e+000
        1.0811488748090410e+000 1.0810914131880582e+000
        1.0811716428007352e+000 1.0811468910264008e+000
        1.0777504800864732e+000 6.1325933597548721e-001
        1.3045299724975272e+000 4.3105183431724275e-001
        1.0811345834602080e+000 1.0806649014153453e+000
        1.0810716760496479e+000 3.1082703204833206e-001
        1.0811367479899838e+000 1.0810938929764138e+000
        4.1239586495443603e-001 1.0811080745545276e+000
        1.0811451359019879e+000 -2.0181325558962535e+000
        -2.5000000000000000e+000 -9.1883063201311654e-001
        -9.1890090977044214e-001 -2.5000000000000000e+000
        -9.2818493597733476e-001 -9.2433212680023924e-001
        -9.1884367035249637e-001 -4.7845514366311298e-001
        -9.1889063110557179e-001 -1.3154029726836471e+000
        -9.1200254268482928e-001 -2.5000000000000000e+000
        -6.6785866805232375e-001 -9.1889599752246931e-001
        -9.1889462419144585e-001 -2.5000000000000000e+000
        -1.3362171428353417e-001 -5.0239863853958566e-001
        -7.1931477236941577e-001 -5.2041510579457295e-001
        -1.9097655482625933e+000 -2.5000000000000000e+000
        -9.1883826854575257e-001 -9.1883571958106436e-001
        -2.5000000000000000e+000 -9.1814888264795025e-001
        -2.5000000000000000e+000 -2.5000000000000000e+000
        -1.4915260119154161e+000 -9.1885137936127914e-001
        -9.1884918189046705e-001 -9.1880928451361077e-001
        -5.3636612427682651e-001 -2.5000000000000000e+000
        -9.1881940390685957e-001 -9.1880501794894920e-001
        -2.5000000000000000e+000 -9.1881243023824044e-001
        -4.0649734311479535e-001 -1.4921916742927690e+000
        -9.1891422739407624e-001 -9.1883308355205551e-001
        -1.3356997464529616e+000 -1.0060708976830677e+000
        -9.1761513826005003e-001 -9.5567568679016146e-001
        -9.1882637506141618e-001 -2.5000000000000000e+000
        -9.6584212094663746e-001 -2.5000000000000000e+000
        -9.1442795402184840e-001 -9.1883844261588143e-001
        -9.1884405846578221e-001 -3.1052595549690382e-001
        -1.6429115033440813e+000 -9.1889685055318315e-001
        -1.5045882314587153e+000 -1.8687139988677124e+000
        -5.3611423838504602e-001 -9.1890918445583281e-001
        -9.1859582738443180e-001 -9.1884903521712202e-001
        -9.1885900395228659e-001 -2.5000000000000000e+000
        -7.5937554698936116e-001 -9.1888950745924380e-001
        -9.1847330185973630e-001 -9.1889275315741514e-001
        -2.5000000000000000e+000 -6.6098617693661521e-001
        -9.1887154080370481e-001 -9.1891087067122390e-001
        -9.1887419456255037e-001 -9.1889107142062876e-001
        -9.1889030704260311e-001 -2.5000000000000000e+000
        -9.1851599666225592e-001 -9.1886635828643426e-001
        -7.3467475520675185e-001 -9.9726484106836344e-001
        -7.1934489447322070e-001 -1.2269150034831418e+000
        -9.1863955502219752e-001 -9.1882973374907717e-001
        -9.1376931023696517e-001 -9.1878003259929053e-001
        -2.5000000000000000e+000 -9.1883421042727731e-001
        -2.5000000000000000e+000 -9.1757518516845782e-001
        -9.1889118131339398e-001 -9.1883324422167112e-001
        -2.5000000000000000e+000 -9.1887968417067656e-001
        -9.1885633217556040e-001 -9.1885937882338697e-001
        -9.6444877361920789e-001 -9.1890361275504739e-001
        -1.3619264019467758e+000 -9.1883269740744966e-001
        -2.5000000000000000e+000 -2.5000000000000000e+000
        -9.1823472612240309e-001 -7.3474991982044691e-001
        -9.3015174293617442e-001 -9.1883052021889400e-001
        -2.5000000000000000e+000 -9.1884360468097137e-001
        -2.5000000000000000e+000 -1.3593084792507313e+000
        -4.4834121306269993e-002 -9.1876863393289576e-001
        -9.1884069561359139e-001 -9.1883932128012347e-001
        -2.5000000000000000e+000 -9.1885371844081598e-001
        -9.1883414454732348e-001 -9.1890880694928656e-001
        -6.2503991344999166e-001 -6.6786568657572853e-001
        -1.2624137361325061e+000 -1.5499178778387362e-001
        -9.1890090977044214e-001 -9.1884363983919037e-001
        -9.1889752603712904e-001 -3.7527273880404249e-001
        -9.1885040945143281e-001 -1.9834803514676993e+000
        -2.1958385820083257e+000 -9.4160829790370992e-001
        -9.1889685055342629e-001 -9.1889534947267926e-001
        -9.1883765537361450e-001 -9.1884219658352828e-001
        -9.1441249907938327e-001 -9.1891278274101840e-001
        -9.1881030444525691e-001 -2.5000000000000000e+000
        -9.1199834507150601e-001 -2.5000000000000000e+000
        -2.5000000000000000e+000 -9.1817190613727107e-001
        -2.5000000000000000e+000 -9.1888182930879558e-001
        -2.4883809722133283e+000</alpha>
      <index>
        105 90 78 102 94 86 88 72 92 80 100 96 104 76 87 77 89 69 91 93
        73 95 81 99 97 83 75 103 85 71 106 70 74 82 98 0 125 114 136 129
        121 123 109 127 116 135 131 119 138 112 122 113 124 107 126 128
        110 130 117 134 132 118 111 137 120 108 68 133 33 21 10 31 17 19
        4 23 12 30 26 16 8 18 9 20 1 22 11 24 5 25 13 29 27 15 7 32 3 34
        2 6 14 28 51 43 65 41 52 38 56 45 63 59 49 67 37 42 53 35 55 44
        57 39 58 62 60 48 64 40 66 50 36 47 61 380 381 383 382 375 379
        378 377 376 392 384 385 386 387 388 389 390 391 356 365 282 357
        358 359 360 361 362 363 364 374 366 367 368 369 370 371 372 373
        421 412 413 414 415 416 417 418 419 420 411 422 423 424 425 426
        427 428 402 394 395 396 397 398 399 400 401 393 403 404 405 406
        407 408 409 410 309 300 301 302 303 304 305 306 307 308 299 310
        311 312 313 314 315 316 317 290 355 283 284 285 286 287 288 289
        318 291 292 293 294 295 296 297 298 346 338 339 340 341 342 344
        345 337 347 348 349 350 351 352 353 354 328 319 320 321 322 323
        324 325 326 327 329 330 331 332 333 334 335 336</index></_>
    <_>
      <sv_count>282</sv_count>
      <rho>1.1700995395294356e-001</rho>
      <alpha>
        1.1170625933746607e+000 2.4340001375822271e+000
        2.5000000000000000e+000 7.8215532691201939e-001
        1.1169380033462395e+000 2.5000000000000000e+000
        1.1170275685315754e+000 1.1007428894868649e+000
        2.5000000000000000e+000 1.1170640225401360e+000
        2.5000000000000000e+000 6.8175123105419144e-001
        2.5000000000000000e+000 2.3339660614414752e+000
        1.1039610226062389e+000 8.8822372418276274e-001
        4.6227991401959112e-001 1.1169789662351635e+000
        1.1758766511562881e+000 2.5000000000000000e+000
        2.5000000000000000e+000 1.1170421572680285e+000
        2.5000000000000000e+000 6.3357284227169930e-001
        6.5169317583213604e-001 2.5000000000000000e+000
        2.5000000000000000e+000 3.3805915397803632e-001
        5.7767097688316382e-001 1.1160757741818059e+000
        1.1008223137850994e+000 2.5000000000000000e+000
        2.3642003671569460e+000 1.1155123033205119e+000
        1.1817461345222222e+000 1.1169993304534935e+000
        2.5000000000000000e+000 2.5000000000000000e+000
        6.1107147371696244e-002 1.1172854771472545e+000
        1.0494795508369159e+000 6.5920150582428949e-001
        1.1169282567035768e+000 1.1170162133750752e+000
        1.0393333328097252e+000 2.5000000000000000e+000
        9.0850900145002644e-001 2.5000000000000000e+000
        2.5000000000000000e+000 1.0510705328414833e+000
        6.9250952204448102e-001 1.1170260870056168e+000
        1.1083203474708039e+000 1.2007835013441175e+000
        1.1830292127712134e+000 9.6556990942351106e-001
        2.5000000000000000e+000 8.2298913496113857e-001
        1.1171240385144821e+000 1.1170674657994746e+000
        1.1169355680571700e+000 1.0378348072919104e+000
        2.2738109446506845e+000 2.5000000000000000e+000
        7.8894872828976692e-001 1.1170429869106790e+000
        4.5973329648815620e-001 7.8897112692664284e-001
        2.0322731182988445e+000 7.0588130957382833e-001
        6.7547846074905693e-001 2.5000000000000000e+000
        1.1170136383215254e+000 9.4269196319859871e-001
        1.0795711450979246e+000 1.0799711504873053e+000
        8.7364354039641634e-001 1.1169383623214431e+000
        2.5000000000000000e+000 1.9187626176251238e-001
        6.5198942250207270e-001 1.1443827014830790e+000
        1.1170069502725646e+000 1.1170186077980246e+000
        1.1171056991869983e+000 1.1170276473713445e+000
        1.1170187451802838e+000 1.1239142704188765e+000
        1.1170208664762433e+000 1.1485478769620092e+000
        1.1172358948504939e+000 1.1170269711013674e+000
        9.4263937060774705e-001 1.0320881614061381e+000
        1.1169429676423475e+000 8.8512645848143778e-001
        2.5000000000000000e+000 1.0320185836882640e+000
        1.0003297235203099e+000 1.1580300553986345e+000
        1.1170424023507350e+000 1.1181575620617612e+000
        5.4248772072465390e-001 7.8107545065530370e-001
        2.0684294006054293e+000 1.1170172045926532e+000
        1.1170059699733355e+000 1.0568146823317572e+000
        1.1134643251115752e+000 7.0566239411136022e-001
        1.0178854905460730e+000 1.1342105816040584e+000
        1.1169057405013079e+000 4.5783407961740291e-001
        6.7968031741940926e-001 1.0179249630603853e+000
        1.1170387521884968e+000 1.1169993304534935e+000
        1.1170189056216377e+000 1.1170151066114278e+000
        1.1170289882840871e+000 1.7200097223903192e+000
        1.1138400826113031e+000 6.3327411713457915e-001
        2.4238117001572346e+000 5.3241010267888456e-001
        2.5000000000000000e+000 1.1170161845090880e+000
        1.1166219117244731e+000 1.1169769784175916e+000
        1.1170712120231436e+000 1.1168871074396312e+000
        7.8092988509601924e-001 1.1169518329349131e+000
        1.1170353720393538e+000 -8.8452881656043625e-001
        -8.8301260134020620e-001 -8.8301505028602600e-001
        -8.8300494936422413e-001 -1.5514978604288208e+000
        -8.8297327226331035e-001 -8.8297707801493341e-001
        -8.8304029772341719e-001 -9.1718734334262353e-001
        -1.8583680637722400e+000 -8.8306617653360076e-001
        -8.8296810410601845e-001 -2.5000000000000000e+000
        -8.8297021491359873e-001 -8.8296085525825818e-001
        -8.8305518552546025e-001 -8.8292878797685637e-001
        -6.5310468055480631e-001 -6.6869480570844975e-001
        -9.8517491620962006e-001 -8.8295784273197142e-001
        -8.8040286116893673e-001 -2.5000000000000000e+000
        -2.5000000000000000e+000 -8.8297862077206668e-001
        -2.4942913177632664e+000 -8.8292672650607096e-001
        -8.8305700743999604e-001 -8.8297431713160657e-001
        -8.8230661072084293e-001 -8.8298691756405834e-001
        -8.8297021491359873e-001 -8.8301278194328392e-001
        -8.8299299045379653e-001 -8.8299403001531629e-001
        -8.8296477648099625e-001 -8.8296031755240123e-001
        -8.8298904963026237e-001 -8.8297099993170181e-001
        -8.8306304937232416e-001 -8.8305858189588671e-001
        -8.8292072842579739e-001 -8.8303610420116752e-001
        -8.8299378143264373e-001 -2.2136941493121745e+000
        -2.5000000000000000e+000 -2.5000000000000000e+000
        -8.8309374683074082e-001 -8.8294130406941529e-001
        -8.8306837334179367e-001 -8.8305173624409805e-001
        -1.4299078700109760e+000 -2.5000000000000000e+000
        -8.8298436779777678e-001 -8.8297904152271800e-001
        -2.5000000000000000e+000 -8.8299276962846140e-001
        -8.8293597745986396e-001 -8.8307037938410349e-001
        -8.8293651607603996e-001 -8.8349414184277608e-001
        -8.8337670442021088e-001 -8.8296031755240123e-001
        -8.8295613765980319e-001 -2.5000000000000000e+000
        -1.8970916944027334e+000 -2.5000000000000000e+000
        -8.8295691492261241e-001 -8.8298351491408034e-001
        -8.8301076504376097e-001 -8.8303279023611103e-001
        -2.1787408822773946e+000 -1.8954020842211288e+000
        -8.8297591468508807e-001 -2.5000000000000000e+000
        -4.3137098597001067e-001 -9.6239955360132079e-001
        -2.5000000000000000e+000 -8.8299887566376567e-001
        -8.8289689539868210e-001 -8.8293253471544886e-001
        -8.8296423672357571e-001 -8.8298051697213475e-001
        -9.2336476669987932e-001 -8.8290728990279166e-001
        -2.5000000000000000e+000 -2.5000000000000000e+000
        -2.5000000000000000e+000 -8.8041982371580518e-001
        -2.5000000000000000e+000 -8.8298654368047924e-001
        -8.8297707801493341e-001 -8.8293651672816154e-001
        -8.8297158349364335e-001 -1.0753422188348063e+000
        -8.8287951328366465e-001 -8.8291680308854903e-001
        -8.8297924236600145e-001 -8.8297023091868154e-001
        -2.3655633158729445e+000 -8.8307905339957404e-001
        -8.8299737675048318e-001 -8.8302894039726010e-001
        -8.8303217875197548e-001 -8.8298206651155142e-001
        -8.8297101171591286e-001 -8.8293357895246638e-001
        -8.8293645264333609e-001 -8.8292836948500319e-001
        -8.8300127596156630e-001 -2.5000000000000000e+000
        -8.8296424968274156e-001 -8.8305396074686926e-001
        -8.8308473233156515e-001 -8.8298425659133661e-001
        -8.8296160664139056e-001 -2.5000000000000000e+000
        -2.5000000000000000e+000 -2.5000000000000000e+000
        -8.8322991051342015e-001 -8.8308747293811507e-001
        -8.8300915664876700e-001 -8.8292400228226831e-001
        -8.8301280722002018e-001 -8.8297913352375679e-001
        -8.8297023091868154e-001 -8.8306332380080199e-001
        -8.8296451995887382e-001 -8.8305354996557983e-001
        -2.5000000000000000e+000 -2.5000000000000000e+000
        -8.8295467215244561e-001 -8.8295871619405863e-001
        -8.8297957948094630e-001 -8.8293274695343660e-001
        -8.8309441761765084e-001 -6.7539487437235013e-001
        -8.7614583632006515e-001 -8.8305858189588671e-001
        -8.8296024653250582e-001 -2.5000000000000000e+000
        -8.8307905339957404e-001 -8.8297020643760193e-001
        -8.8295972831814074e-001 -8.8295074364472514e-001
        -8.8301505028602600e-001 -8.8297286119986795e-001</alpha>
      <index>
        105 90 78 102 94 86 88 72 92 80 100 96 84 104 76 87 77 89 69 91
        79 93 73 95 81 99 97 83 101 75 103 85 71 106 70 74 82 98 0 125
        114 136 129 121 123 109 127 116 135 131 119 138 122 113 124 126
        115 128 110 130 117 134 132 118 111 137 120 108 68 133 33 21 10
        17 19 4 23 12 30 26 16 8 18 9 20 1 22 11 24 5 25 13 29 27 15 7
        32 3 34 2 6 14 28 51 54 43 65 41 52 38 56 45 63 59 49 67 37 42
        53 35 55 44 57 39 58 46 62 60 48 64 66 50 36 47 61 529 530 532
        531 524 528 527 526 525 541 533 534 535 536 537 538 539 540 505
        514 579 506 507 508 510 511 512 513 523 515 516 517 518 519 520
        521 522 570 562 563 564 565 566 567 568 569 560 571 572 573 574
        575 576 577 578 551 543 544 545 546 547 548 549 550 542 552 553
        554 555 556 557 558 559 458 449 450 451 452 453 454 455 456 457
        448 459 460 461 462 464 465 466 439 430 431 432 433 434 435 436
        437 438 467 440 441 442 443 444 445 446 447 495 486 487 488 489
        490 491 492 493 494 485 496 497 498 499 500 501 502 503 476 468
        469 470 471 472 473 474 475 504 477 478 479 480 481 482 483 484</index></_>
    <_>
      <sv_count>281</sv_count>
      <rho>5.4419844840010376e-003</rho>
      <alpha>
        1.0054053182321012e+000 1.7534678435905422e+000
        1.0050499912584725e+000 1.0054418789564994e+000
        1.0054395973954824e+000 2.1994174270952564e+000
        1.0054402249741372e+000 1.0054502215878234e+000
        1.0054436995114144e+000 1.0040931356739460e+000
        1.8684493552605302e-001 1.0054381736933269e+000
        1.8482280888689875e+000 1.0054505386881865e+000
        1.0054411812199788e+000 1.0054831117947631e+000
        1.0054393510563331e+000 7.8834152652295353e-001
        2.4835257291130080e+000 8.7181374732998118e-001
        2.4672583607531648e+000 1.0054435978890754e+000
        1.0054455874154822e+000 9.1950616068779178e-001
        1.4020879334584948e+000 1.0054378330778078e+000
        2.5000000000000000e+000 1.0054388043273268e+000
        1.0053956451733885e+000 1.0799066704549785e+000
        2.5000000000000000e+000 1.1112529212504674e+000
        1.0054441523834059e+000 1.3754965807039570e+000
        1.0925522821201701e+000 1.2991652411211911e+000
        1.0179676776615225e+000 1.0054403641908076e+000
        4.9904902736453027e-001 1.0055045523980120e+000
        1.0054464165215509e+000 1.6272137001569147e+000
        1.3888341413428500e+000 2.5000000000000000e+000
        2.1495098636905610e+000 1.0054389292593799e+000
        2.5000000000000000e+000 1.0054399770198834e+000
        1.2770552604440870e+000 2.5000000000000000e+000
        7.4438714319643584e-001 1.0054472670204639e+000
        1.0054363013545795e+000 2.5000000000000000e+000
        1.0054392198346096e+000 1.1511222645354657e+000
        1.0054414369592120e+000 1.0054406222933843e+000
        1.0054454313180834e+000 1.0054453548648949e+000
        1.0054391211904363e+000 9.9297020932662439e-001
        1.0054390297732558e+000 1.0054388826154390e+000
        1.0054560766555591e+000 1.0046586165902713e+000
        1.6622918396859621e+000 1.0054419592790396e+000
        1.0055414757530765e+000 1.0054420634969310e+000
        9.9974827829364243e-001 1.8704243539712292e-001
        2.5000000000000000e+000 1.0054407900001894e+000
        2.5000000000000000e+000 2.5000000000000000e+000
        2.5000000000000000e+000 1.0054413832619391e+000
        2.5000000000000000e+000 1.0249956500367554e+000
        1.0054409392574883e+000 1.6570497834944655e+000
        9.6477697678314223e-001 1.0076783662111806e+000
        1.0054418392530586e+000 1.0054392589480645e+000
        1.0050644256858754e+000 5.0954127081987566e-001
        1.0054389292593799e+000 2.2022450128667814e+000
        9.9893984403793590e-001 2.5000000000000000e+000
        1.0054391457507144e+000 2.5000000000000000e+000
        1.0054391109915108e+000 1.0054399769089055e+000
        2.5000000000000000e+000 7.0652409696379903e-001
        1.0054476245705102e+000 1.0054414312608360e+000
        1.0054409131054534e+000 1.0054391525027990e+000
        1.0054442154147176e+000 5.1106439231481138e-001
        1.0054398668120794e+000 1.5158957242179856e+000
        1.0054438970513675e+000 1.0945862572148797e+000
        1.0054389790500742e+000 8.4750077943420277e-001
        1.7840312923323554e-001 1.0055407284473235e+000
        1.0063585439437781e+000 1.0057733870420300e+000
        1.0054438697683215e+000 1.0041250432719231e+000
        2.5000000000000000e+000 2.5000000000000000e+000
        1.0054389401657000e+000 1.9075006209124028e+000
        1.0054707114916677e+000 7.6021264490049101e-001
        2.2568221522438030e+000 2.1286011953859103e+000
        2.0410234387686241e+000 1.0054404470259022e+000
        2.5000000000000000e+000 1.3754201946785680e+000
        1.0054327845663469e+000 1.0054409288568216e+000
        2.5000000000000000e+000 1.0054420999516425e+000
        1.0054407900001894e+000 1.0054396596213764e+000
        1.0054385429945509e+000 2.5000000000000000e+000
        2.5000000000000000e+000 1.0054368305205181e+000
        -2.5000000000000000e+000 -9.9455798089977987e-001
        -9.9456387946406855e-001 -2.5000000000000000e+000
        -9.9456325492272857e-001 -9.9455091638610771e-001
        -1.0143192827919425e+000 -5.1785394094685033e-001
        -9.9455106592460496e-001 -9.9585345543972192e-001
        -2.3754539919367197e+000 -2.5000000000000000e+000
        -7.2307177786079158e-001 -9.9456098607060284e-001
        -9.9455955297409782e-001 -4.9908112067723898e-001
        -2.5000000000000000e+000 -6.1434920412937899e-001
        -7.7860760319270006e-001 -5.5337640498610940e-001
        -1.8477376759918733e+000 -2.5000000000000000e+000
        -9.9455971559975376e-001 -9.9456119567265089e-001
        -1.9743799948078706e+000 -9.9381515622518712e-001
        -8.4304643280288494e-001 -2.5000000000000000e+000
        -2.5000000000000000e+000 -9.9455939919378455e-001
        -9.9455538143179323e-001 -9.9455453031775398e-001
        -1.1884315406767167e+000 -9.9455603183405439e-001
        -9.9455556283447555e-001 -2.5000000000000000e+000
        -9.9455994541051318e-001 -7.5248865732613324e-001
        -1.0773788181569495e+000 -9.9455538236669516e-001
        -9.9454269180871124e-001 -1.2024319544950515e+000
        -9.9462741158270240e-001 -9.9310754511768129e-001
        -1.6737301696393581e+000 -9.9455889635233219e-001
        -9.9400389462032723e-001 -9.9454457788008033e-001
        -2.5000000000000000e+000 -9.8977650623904168e-001
        -9.9456208529656354e-001 -9.9455802992460296e-001
        -1.7194359993952923e+000 -2.7008814892647881e-001
        -9.9457503091586097e-001 -2.0499373914912802e+000
        -5.9642603162355712e-001 -2.0339279470200728e+000
        -9.9455914516781363e-001 -9.9426823076179371e-001
        -9.9453591721241141e-001 -9.9455573601554537e-001
        -2.5000000000000000e+000 -2.5000000000000000e+000
        -9.9455791733069143e-001 -9.9416570579142260e-001
        -1.1414596239820023e+000 -2.5000000000000000e+000
        -1.1397299941353634e+000 -9.9455807583569966e-001
        -9.9455815271591663e-001 -9.9456083321905631e-001
        -9.9455436357571481e-001 -9.9456088349165017e-001
        -2.5000000000000000e+000 -9.9416010701535973e-001
        -9.9456167232398207e-001 -1.5520293745000069e+000
        -1.7361847630538809e+000 -7.7861451744494703e-001
        -1.2108915158022102e+000 -9.9426624623799875e-001
        -9.9461778723974115e-001 -9.8923240872005336e-001
        -9.9454829292162517e-001 -4.7627256996363199e-001
        -9.9456145076031555e-001 -1.4727286305777296e+000
        -1.0833064908210281e+000 -9.9456473947016988e-001
        -9.9455946689546049e-001 -9.9455305843738873e-001
        -9.9455908198355436e-001 -9.9455924069969115e-001
        -1.8288714306873818e-001 -9.9455748510842190e-001
        -6.3614803353708649e-001 -9.9461078192938501e-001
        -2.5000000000000000e+000 -1.0080984229167675e+000
        -9.9308503825126004e-001 -9.4744922592748027e-001
        -1.0694311365924225e+000 -9.9459090197165489e-001
        -2.5000000000000000e+000 -9.9456622164330211e-001
        -2.5000000000000000e+000 -9.9455570542944927e-001
        -9.9454103632552615e-001 -9.9455420506535630e-001
        -9.9456794844450247e-001 -2.5000000000000000e+000
        -9.9455600504533792e-001 -2.5000000000000000e+000
        -9.9454272097508623e-001 -9.9456710549600968e-001
        -6.7654433327268282e-001 -7.2284353719916483e-001
        -9.9622881500796623e-001 -2.5000000000000000e+000
        -9.9456102094992571e-001 -9.9456132407151687e-001
        -9.9455773016556259e-001 -4.0622603474894642e-001
        -9.9456124956365777e-001 -9.9586730694910119e-001
        -9.9457228987100055e-001 -9.9456092092618975e-001
        -9.9456143630478100e-001 -9.9455968839063891e-001
        -9.9456007311603201e-001 -9.9455971559975376e-001
        -9.8977661987147980e-001 -9.9456245105092644e-001
        -9.9456053619822926e-001 -2.5000000000000000e+000
        -1.2253593496860222e+000 -2.5000000000000000e+000
        -2.5000000000000000e+000 -2.1919215872031561e+000
        -2.5000000000000000e+000 -9.9455732520201845e-001
        -6.3613654090051530e-001</alpha>
      <index>
        236 237 239 238 231 235 234 233 248 240 241 242 243 244 245 246
        247 213 222 139 214 215 216 217 218 219 220 221 230 223 224 225
        226 227 228 229 274 266 267 268 269 270 271 272 273 265 275 276
        277 278 279 280 281 258 250 251 252 253 254 255 256 257 249 259
        261 262 263 264 168 159 160 161 162 163 164 165 166 167 158 169
        170 171 172 173 174 175 176 149 140 141 142 143 144 145 146 147
        148 212 150 151 152 153 154 155 156 157 203 195 196 198 199 200
        202 177 204 205 206 207 208 209 210 211 194 179 180 181 182 183
        184 185 186 187 188 189 190 191 192 193 381 383 382 375 379 378
        377 376 392 384 385 386 387 388 389 390 391 356 365 282 357 358
        359 360 361 362 363 364 374 366 367 368 370 371 372 373 421 412
        413 414 415 416 417 418 419 420 411 422 423 424 425 426 427 428
        402 394 395 396 397 398 399 400 401 393 403 404 405 406 407 408
        409 410 309 300 301 302 303 304 305 306 307 308 299 310 311 312
        313 314 315 316 317 355 283 284 285 286 287 288 289 318 291 292
        293 294 295 296 297 298 338 339 340 341 342 343 344 345 337 347
        348 349 350 351 352 353 354 328 319 320 321 322 323 324 325 326
        327 329 330 331 332 333 334 335 336</index></_>
    <_>
      <sv_count>289</sv_count>
      <rho>5.4652534983646993e-002</rho>
      <alpha>
        1.0546591238836605e+000 2.5000000000000000e+000
        1.3855106263624182e+000 1.0546609519755106e+000
        1.0546428078143018e+000 1.0546419608109594e+000
        1.0546961660832352e+000 1.0546478738867073e+000
        1.0546340501203899e+000 1.0531789945279801e+000
        1.8478275100962140e+000 1.0546295400392793e+000
        1.0546513508408317e+000 1.0546613296465297e+000
        1.0546736072548049e+000 1.0577705934529151e+000
        1.0546990998555450e+000 8.2876121665996438e-001
        1.0825503257018121e+000 9.7191300597365005e-001
        1.0546447818790581e+000 1.0547670049810880e+000
        1.0546530185265284e+000 7.1258942135772407e-001
        6.0692316493277709e-001 1.0546249289338303e+000
        2.5000000000000000e+000 1.0546419006618475e+000
        1.0546019682409928e+000 1.0544186855126174e+000
        4.2215844208811443e-001 1.0537955960200291e+000
        1.0546507023955987e+000 8.5762767773477155e-001
        7.7785950774072410e-001 1.0518674652107540e+000
        2.5000000000000000e+000 1.0545848377553826e+000
        5.2339862524818848e-001 1.1721512378466707e+000
        1.0546552778827321e+000 9.7189983094744026e-001
        6.9752388054442227e-001 2.4296424085430486e+000
        9.8608288411180911e-001 1.0546910245637535e+000
        1.8479633028276452e+000 1.0546269305109426e+000
        1.0538414503917506e+000 2.5000000000000000e+000
        7.8082041729237994e-001 1.0546425934367569e+000
        1.0546449102146607e+000 1.0395614927110375e+000
        1.0546403738631926e+000 2.5000000000000000e+000
        1.0546870767003396e+000 1.0546346212480751e+000
        1.0546525140198657e+000 1.0546379881359020e+000
        1.0546459120067329e+000 1.1544435185650916e+000
        1.0546056881653669e+000 1.0547037688305880e+000
        2.9819559116847649e-001 1.0546444775766628e+000
        1.0695123432372027e+000 7.7987752538818578e-001
        1.0546510760343437e+000 1.0546409546486653e+000
        1.0546936456776077e+000 1.4422530476701696e+000
        7.6399474359152730e-001 1.0546414972334426e+000
        2.5000000000000000e+000 2.5000000000000000e+000
        2.5000000000000000e+000 1.0546255670907265e+000
        2.5000000000000000e+000 1.0546010836263588e+000
        1.0546588405576496e+000 2.5000000000000000e+000
        1.2618861666817334e+000 1.0547243241461515e+000
        1.0547136374971053e+000 1.0546231503067673e+000
        1.0542515996862520e+000 2.2254021750626225e+000
        1.0546347420585311e+000 1.4134666623349454e-001
        1.0456335943450223e+000 2.5000000000000000e+000
        2.2710480111304063e+000 2.5000000000000000e+000
        1.3821594144293823e+000 1.0545804792542026e+000
        2.5000000000000000e+000 2.5000000000000000e+000
        1.0546307161896600e+000 1.0546270154890067e+000
        1.0546497534253378e+000 1.0546499393278514e+000
        1.0546603886205634e+000 8.1656803452743498e-001
        1.0546448080356696e+000 1.0538117008497876e+000
        1.0591112600391808e+000 1.0546627345276303e+000
        1.0545772904251318e+000 8.8927020337140006e-001
        1.8589217918881820e-001 1.0546964777007479e+000
        2.5000000000000000e+000 1.0542484157855174e+000
        1.5554710353279566e+000 1.0546454878276961e+000
        1.0856635648010826e+000 2.5000000000000000e+000
        7.3114315563138521e-001 1.0546257999554027e+000
        5.3542564385052982e-001 1.0546292520525846e+000
        1.0982003638021169e+000 4.8521842570492268e-001
        6.4152259077703477e-001 2.2591564489914728e+000
        1.0838156603799314e+000 1.0547104231712423e+000
        2.5000000000000000e+000 2.5000000000000000e+000
        1.0546422868716712e+000 1.0546861714763200e+000
        1.8135637979215022e+000 1.0546986328285284e+000
        1.0546453729425127e+000 1.0546524548628817e+000
        1.0546381347234521e+000 2.5000000000000000e+000
        1.1250058885891840e+000 1.0546394711305644e+000
        -2.5000000000000000e+000 -9.4537092346798524e-001
        -9.4530368542557153e-001 -9.4535557180075547e-001
        -9.4539814822844492e-001 -9.4537081628125241e-001
        -9.4535328989972001e-001 -9.4551166938317854e-001
        -9.4530204159506626e-001 -1.1880575387435179e+000
        -9.4535485301726974e-001 -9.4533793251063392e-001
        -2.5000000000000000e+000 -9.4530135744126997e-001
        -9.4535404538309009e-001 -9.4529263131113606e-001
        -9.4541049690702339e-001 -5.5180310899074170e-001
        -1.2214936179319755e+000 -2.5000000000000000e+000
        -9.4537232264431004e-001 -9.4500757833908933e-001
        -2.5000000000000000e+000 -2.5000000000000000e+000
        -2.5000000000000000e+000 -9.4536180458213559e-001
        -2.1814682294969274e+000 -9.4537423894611083e-001
        -9.4533560489040147e-001 -9.4536568865070636e-001
        -1.0068643968345832e+000 -9.4531541477863334e-001
        -9.4530197181836639e-001 -9.4533973740471422e-001
        -9.4535868241754362e-001 -9.4533338442107651e-001
        -9.4536657177463090e-001 -9.4537114233468345e-001
        -9.7558039353466708e-001 -4.4420789698304913e-001
        -9.4536595359966447e-001 -9.4533642452798461e-001
        -9.4535878737746537e-001 -9.4535850276655742e-001
        -9.4534930092426028e-001 -9.4535006973747748e-001
        -2.5000000000000000e+000 -5.2007641032773511e-001
        -9.4604163864340052e-001 -9.4531788123490035e-001
        -9.4532509954072586e-001 -9.4531880535838264e-001
        -9.4536221395018416e-001 -2.5000000000000000e+000
        -2.5000000000000000e+000 -9.4535771312832884e-001
        -9.4536802920786911e-001 -2.4704463799251681e+000
        -9.4535406620801943e-001 -9.4540068199309435e-001
        -1.4749456083832297e+000 -9.4535024657466216e-001
        -9.5011951762081326e-001 -9.4535468135048317e-001
        -9.4529380120276862e-001 -9.4537232264431004e-001
        -2.5000000000000000e+000 -5.9743717227857795e-001
        -2.5000000000000000e+000 -9.4529808209207133e-001
        -9.4530145764826257e-001 -9.4531291617152280e-001
        -9.4530009922789060e-001 -2.5000000000000000e+000
        -7.2739450748029633e-001 -9.4544246251039277e-001
        -9.4488375304810068e-001 -5.5155215450055839e-001
        -9.6272381872945478e-001 -2.5000000000000000e+000
        -9.4536616968399634e-001 -9.4540149391774031e-001
        -9.4537523136689461e-001 -9.4535738286697124e-001
        -9.4534748598013429e-001 -9.4493956631208698e-001
        -9.4535418846030272e-001 -1.1127516782676268e+000
        -1.0401982041737730e+000 -2.5000000000000000e+000
        -1.0689127537940843e+000 -2.5000000000000000e+000
        -9.4530897543624648e-001 -9.4533642452798461e-001
        -9.4539891637364115e-001 -2.5000000000000000e+000
        -2.5000000000000000e+000 -9.4535010509991191e-001
        -9.4534662093629529e-001 -9.4535255506703486e-001
        -9.4532509954072586e-001 -9.8371478292542458e-001
        -9.4533466334145988e-001 -9.4535408799326714e-001
        -9.4535962613680735e-001 -9.4536471151024304e-001
        -9.4536508008389053e-001 -9.4537429291951258e-001
        -9.4535738286697124e-001 -9.4530337813646181e-001
        -9.4534878157065116e-001 -9.4532247281232218e-001
        -2.3839634075566147e+000 -9.4535878737746537e-001
        -9.4537456485905158e-001 -9.4535006973747748e-001
        -9.4536421803709336e-001 -9.4533511718024754e-001
        -2.5000000000000000e+000 -2.5000000000000000e+000
        -3.7884083998663265e-001 -9.4535006974822733e-001
        -9.4532947835319758e-001 -9.4533554204985859e-001
        -9.4540125269246655e-001 -9.4537434071908022e-001
        -9.4537353245346600e-001 -9.4535356458628184e-001
        -9.4533549960572771e-001 -9.4534929760440101e-001
        -9.4529836464531480e-001 -2.5000000000000000e+000
        -2.5000000000000000e+000 -9.4533270753496390e-001
        -9.4534878157065116e-001 -9.4533923319424806e-001
        -9.4535899587590944e-001 -9.4536606376312937e-001
        -5.7225313788885068e-001 -9.7853623998494443e-001
        -9.4535478828536179e-001 -9.4534486751574376e-001
        -5.7841970613093108e-001 -9.4533726547236974e-001
        -9.4535656172596672e-001 -9.4533754049454521e-001
        -9.4532947734141737e-001 -9.4535525085246874e-001
        -9.4536427801190381e-001</alpha>
      <index>
        236 237 239 238 231 235 234 233 248 240 241 242 243 244 245 246
        247 213 222 139 214 215 216 217 218 219 220 221 230 223 224 225
        226 227 228 229 274 266 267 268 269 270 271 272 273 265 275 276
        277 278 279 280 281 258 250 251 252 253 254 255 256 257 249 259
        260 261 262 263 264 168 159 160 162 163 164 165 166 167 158 169
        170 171 172 173 174 175 176 149 140 141 142 143 144 145 146 147
        148 212 150 151 152 153 154 155 156 157 203 195 196 198 199 200
        201 202 177 204 205 206 207 208 209 210 211 194 178 179 180 181
        182 183 184 185 186 187 188 189 190 191 192 193 529 530 532 531
        524 528 527 526 525 541 533 534 535 536 537 538 539 540 505 514
        579 506 507 508 509 510 511 512 513 523 515 516 517 518 519 520
        521 522 570 561 562 563 564 565 566 567 568 569 560 571 572 573
        574 575 576 577 578 551 543 544 545 546 547 548 549 550 542 552
        553 554 555 556 557 558 559 458 449 450 451 452 453 454 455 456
        457 448 459 460 461 462 464 465 466 439 430 431 432 433 434 435
        436 437 438 467 440 441 442 443 444 445 446 447 495 486 487 488
        489 490 491 492 493 494 485 496 497 498 499 500 501 502 503 476
        468 469 470 471 472 473 474 475 504 477 478 479 480 481 482 483
        484</index></_>
    <_>
      <sv_count>293</sv_count>
      <rho>4.7279271038571297e-002</rho>
      <alpha>
        1.9101944652812075e-001 2.4997596740535477e+000
        1.0472787494928344e+000 1.0472855476566185e+000
        2.5000000000000000e+000 1.0472512432874974e+000
        1.1829582707731983e+000 1.0472791886336634e+000
        5.4545946926520150e-001 1.0472875993061204e+000
        2.5000000000000000e+000 1.0394796104838109e+000
        1.4119058559824700e+000 7.6118540646471855e-001
        1.0473275418069286e+000 1.0473129162108452e+000
        6.9397181563195465e-001 1.3081488227927747e+000
        6.6373686586038472e-001 8.1986809976033448e-001
        5.8029710710608029e-001 2.5000000000000000e+000
        8.6381500581918946e-001 1.0472917344667088e+000
        1.0473137384839786e+000 5.3351116267962373e-001
        1.3717280221013588e+000 8.1367079776704931e-001
        2.5000000000000000e+000 7.8732526041623951e-001
        1.0473256771347148e+000 1.0472644302537744e+000
        1.0537061532894725e+000 6.2436649029175462e-001
        1.0472792117177052e+000 1.0472979050324800e+000
        1.0473141397428565e+000 2.5000000000000000e+000
        1.0472513789619753e+000 8.1323634652126364e-001
        6.9390330527524124e-001 1.0472791771541805e+000
        1.0472420698807108e+000 5.2741346750679430e-001
        1.6400117817660513e+000 1.0458774648470202e+000
        1.0473153679778833e+000 1.0472863320579646e+000
        1.1023118806364929e+000 1.0472504599334234e+000
        2.5000000000000000e+000 1.0394986218964868e+000
        1.0473204530177842e+000 1.0472947968116522e+000
        5.3297453782698168e-001 5.6462718312401383e-001
        4.1924441232631476e-002 1.0482120967880342e+000
        2.5000000000000000e+000 5.6167495064215889e-001
        6.2063868343794981e-001 1.0473275276206815e+000
        1.0469963703673859e+000 1.0472615579655737e+000
        1.1049247668786146e+000 2.5000000000000000e+000
        9.5906801433783284e-001 1.0472645360899835e+000
        1.0469078479330589e+000 1.0849148322462399e+000
        2.5000000000000000e+000 8.3742044475134148e-001
        1.0472422849607379e+000 1.0472787688962237e+000
        1.0472777649150720e+000 1.0472808676240128e+000
        1.0472513590796497e+000 2.5000000000000000e+000
        1.0468374203328163e+000 1.0473135282588437e+000
        8.3740994452326478e-001 2.5000000000000000e+000
        8.1988940658059628e-001 8.3742987886197029e-001
        1.0470229056615463e+000 1.0748735787918302e+000
        1.0416415036711337e+000 1.0544793251731650e+000
        5.5571785715222288e-001 1.0473169554273800e+000
        9.1516874443050933e-001 1.0458774648307769e+000
        1.0472891769051369e+000 1.0472791771600307e+000
        1.0473251640051722e+000 1.0473262329717441e+000
        1.0472629989914888e+000 1.0472422849607379e+000
        6.6992589905885802e-001 1.0472760466122333e+000
        2.5000000000000000e+000 2.5000000000000000e+000
        1.0466127773144702e+000 8.3737288766449058e-001
        5.6039305681823670e-001 1.0472387986722977e+000
        1.6160031463991353e+000 1.0473204530177842e+000
        2.5000000000000000e+000 1.0667000566824862e+000
        1.0472238760077341e+000 1.0473131876704709e+000
        1.0472851426134702e+000 2.5000000000000000e+000
        1.0473214265240349e+000 5.3728476282807502e-001
        1.0472789429474159e+000 1.0472786963874177e+000
        7.1207890362001369e-001 7.6124494580998603e-001
        1.0466072404415290e+000 2.4262783578954705e+000
        1.0472917344667088e+000 1.3314037457199752e+000
        1.0473083379172525e+000 4.2774673917206490e-001
        1.0473129162108452e+000 1.0472788071111911e+000
        1.1200582536820933e+000 1.0472504599695696e+000
        1.0472789429474159e+000 1.0472962557099144e+000
        1.0473245638328037e+000 1.0472334064624447e+000
        2.2207483184840786e+000 1.0472437194689883e+000
        1.0472791873609841e+000 2.5000000000000000e+000
        1.0408123337727564e+000 2.5000000000000000e+000
        1.0828940012746997e+000 1.0465333172542870e+000
        1.0474071686339474e+000 1.0472750747880375e+000
        6.6978712743381574e-001 -2.3666341992205582e+000
        -1.2975737241597258e+000 -9.5276120132770215e-001
        -9.5276522897915505e-001 -9.5395382888243396e-001
        -9.5274783540557140e-001 -9.5268463202258491e-001
        -9.5268335397963622e-001 -9.7402462611674323e-001
        -1.5389362154443458e+000 -1.0154907270036977e+000
        -9.5274489422394470e-001 -2.5000000000000000e+000
        -9.5268695816526072e-001 -9.5270808064869783e-001
        -9.5268339600231489e-001 -9.5270636518567364e-001
        -5.5611870178447131e-001 -6.9365492267647688e-001
        -9.9375019104749140e-001 -9.5269922766427961e-001
        -9.5915401931709232e-001 -2.5000000000000000e+000
        -2.5000000000000000e+000 -4.6323781267161007e-001
        -9.5274657260606077e-001 -9.5190256492501746e-001
        -9.5271913292787858e-001 -9.5272082284581949e-001
        -9.5272101233926354e-001 -9.5186997203476909e-001
        -9.5272091542745474e-001 -9.5274891747974555e-001
        -1.0997056242767804e+000 -9.5272099281235612e-001
        -9.5273784061185052e-001 -9.6062243435578321e-001
        -9.5267543616719630e-001 -9.6370188114558508e-001
        -2.5000000000000000e+000 -9.5377032068331347e-001
        -9.5272119288880264e-001 -9.5274874464133796e-001
        -9.5267446058963645e-001 -9.5272093325252438e-001
        -9.5270874854214282e-001 -2.5000000000000000e+000
        -6.5924635432325873e-001 -1.4700152683568368e+000
        -9.5270636518567364e-001 -9.5275601989329994e-001
        -9.5272065654840299e-001 -9.5275329036545497e-001
        -1.7101549243386249e+000 -2.5000000000000000e+000
        -9.5272039047323476e-001 -9.5275985851122702e-001
        -9.5268621528226061e-001 -9.5271240069387964e-001
        -9.6678997909923980e-001 -9.5270374429008553e-001
        -9.5274289739739937e-001 -9.5272409773160960e-001
        -9.5272096832068576e-001 -9.5275273075836298e-001
        -2.5000000000000000e+000 -1.1769658487179886e+000
        -2.5000000000000000e+000 -9.5276138514930619e-001
        -9.5271525564392279e-001 -9.5271444195109811e-001
        -9.5273722799278826e-001 -2.5000000000000000e+000
        -2.3825486330764516e+000 -9.5272368716402678e-001
        -9.5217959100733085e-001 -5.5588033047636642e-001
        -9.5272252959641923e-001 -2.5000000000000000e+000
        -9.5275239296831271e-001 -2.1632926081615311e+000
        -9.5272093792630264e-001 -9.5274489422394470e-001
        -1.2543243577709522e+000 -1.0127206573366947e+000
        -9.5274765672621953e-001 -1.4338523952908129e+000
        -5.3569924674805214e-001 -2.5000000000000000e+000
        -8.6976479444977473e-001 -9.7135548867452359e-001
        -2.5000000000000000e+000 -9.5274321711620424e-001
        -9.5272081136633657e-001 -9.5274891747974555e-001
        -9.8320319034209580e-001 -2.5000000000000000e+000
        -9.5268708378915479e-001 -9.5271915490069259e-001
        -9.5276179095483515e-001 -9.5273610634762074e-001
        -5.1665635310931346e-001 -9.5273473001907616e-001
        -9.5276156095554543e-001 -9.5272039047323476e-001
        -9.5274228107693937e-001 -9.5272039047052570e-001
        -9.5272084051463124e-001 -9.5272095272477919e-001
        -9.5276280657757484e-001 -9.5273084975314704e-001
        -9.5271401598658789e-001 -3.0538826343244191e-001
        -9.5271164606533143e-001 -9.5275795107721051e-001
        -9.5274289801240564e-001 -9.5274228107693937e-001
        -9.5272650594237507e-001 -1.1937307402861728e+000
        -2.5000000000000000e+000 -5.1624110092681708e-001
        -9.5276897894950119e-001 -9.5275642737286603e-001
        -9.5275129441106410e-001 -9.5271588326973888e-001
        -9.5271290225791938e-001 -9.5271839391089919e-001
        -9.5267857347596507e-001 -9.5276737111721044e-001
        -9.5272091542745474e-001 -9.5272093899249821e-001
        -2.5000000000000000e+000 -2.5000000000000000e+000
        -9.5268708378915479e-001 -9.5275287708411316e-001
        -9.5272074162697762e-001 -9.5267511676717087e-001
        -9.5858141476283076e-001 -8.2789863280949461e-001
        -1.1312768894465268e+000 -9.5268108115027661e-001
        -9.5268473395767450e-001 -9.5269358814445670e-001
        -9.5267854320212109e-001 -9.5274489724773426e-001
        -9.5270520318834784e-001 -9.5268621528226061e-001
        -9.5271655307983127e-001</alpha>
      <index>
        380 381 383 382 375 379 378 377 376 392 384 385 386 387 388 389
        390 391 356 365 282 357 358 359 360 361 362 363 364 374 366 367
        368 369 370 371 372 373 421 412 413 414 415 416 417 418 419 420
        411 422 423 424 425 426 427 428 429 402 394 395 396 397 398 399
        400 401 393 403 404 405 406 407 408 409 410 309 300 301 302 303
        304 305 306 307 308 299 310 311 312 313 314 315 316 317 355 283
        284 286 287 288 289 318 291 292 293 294 295 296 297 298 338 339
        340 341 342 343 344 345 337 347 348 349 350 351 352 353 354 328
        319 320 321 322 323 324 325 326 327 329 330 331 332 333 334 335
        336 529 530 532 531 524 528 527 526 525 541 533 534 535 536 537
        538 539 540 505 514 579 506 507 508 509 510 511 512 513 523 515
        516 517 518 519 520 521 522 570 561 562 563 564 565 566 567 568
        569 560 571 572 573 574 575 576 577 578 543 544 545 546 547 548
        549 550 542 552 553 554 555 556 557 558 559 458 449 450 451 452
        453 454 455 456 457 448 459 460 461 462 463 464 465 466 439 430
        431 432 433 434 435 436 437 438 467 440 441 442 443 444 445 446
        447 495 486 487 488 489 490 491 492 493 494 485 496 497 498 499
        500 501 502 503 476 468 469 470 471 472 473 474 475 504 477 479
        480 481 482 483 484</index></_></decision_functions></opencv_ml_svm>
</opencv_storage>
