<?xml version="1.0"?>
<opencv_storage>
<opencv_ml_svm>
  <format>3</format>
  <svmType>C_SVC</svmType>
  <kernel>
    <type>RBF</type>
    <gamma>4.3750000000000004e-002</gamma></kernel>
  <C>2.5000000000000000e+000</C>
  <term_criteria><iterations>1000</iterations></term_criteria>
  <var_count>4</var_count>
  <class_count>4</class_count>
  <class_labels type_id="opencv-matrix">
    <rows>4</rows>
    <cols>1</cols>
    <dt>i</dt>
    <data>
      0 1 2 3</data></class_labels>
  <sv_total>581</sv_total>
  <support_vectors>
    <_>
      0. 0. 402. 11.</_>
    <_>
      0. 0. 917. 27.</_>
    <_>
      0. 0. 887. 14.</_>
    <_>
      42. 1. 437. 10.</_>
    <_>
      41. 1. 86. 3.</_>
    <_>
      30. 1. 74. 2.</_>
    <_>
      77. 2. 127. 3.</_>
    <_>
      0. 0. 401. 11.</_>
    <_>
      0. 0. 691. 10.</_>
    <_>
      429. 2. 517. 12.</_>
    <_>
      48. 1. 277. 6.</_>
    <_>
      0. 0. 41. 2.</_>
    <_>
      0. 0. 1943. 20.</_>
    <_>
      179. 2. 224. 7.</_>
    <_>
      0. 0. 169. 4.</_>
    <_>
      105. 3. 155. 5.</_>
    <_>
      314. 4. 0. 0.</_>
    <_>
      223. 6. 0. 0.</_>
    <_>
      304. 6. 25. 1.</_>
    <_>
      47. 1. 94. 3.</_>
    <_>
      0. 0. 597. 9.</_>
    <_>
      0. 0. 72. 3.</_>
    <_>
      0. 0. 817. 12.</_>
    <_>
      0. 0. 411. 13.</_>
    <_>
      245. 6. 825. 22.</_>
    <_>
      84. 1. 763. 23.</_>
    <_>
      0. 0. 220. 8.</_>
    <_>
      50. 1. 434. 9.</_>
    <_>
      0. 0. 220. 5.</_>
    <_>
      230. 5. 0. 0.</_>
    <_>
      0. 0. 427. 6.</_>
    <_>
      0. 0. 27. 1.</_>
    <_>
      0. 0. 119. 1.</_>
    <_>
      83. 2. 0. 0.</_>
    <_>
      0. 0. 127. 3.</_>
    <_>
      128. 2. 37. 1.</_>
    <_>
      199. 3. 0. 0.</_>
    <_>
      0. 0. 2022. 10.</_>
    <_>
      0. 0. 728. 12.</_>
    <_>
      248. 4. 19. 1.</_>
    <_>
      0. 0. 269. 8.</_>
    <_>
      0. 0. 264. 6.</_>
    <_>
      104. 2. 563. 15.</_>
    <_>
      62. 1. 1369. 16.</_>
    <_>
      107. 3. 284. 9.</_>
    <_>
      0. 0. 186. 3.</_>
    <_>
      0. 0. 23. 1.</_>
    <_>
      188. 5. 530. 5.</_>
    <_>
      62. 1. 93. 1.</_>
    <_>
      0. 0. 35. 1.</_>
    <_>
      31. 1. 17. 1.</_>
    <_>
      204. 3. 0. 0.</_>
    <_>
      52. 1. 178. 4.</_>
    <_>
      106. 2. 627. 6.</_>
    <_>
      0. 0. 38. 2.</_>
    <_>
      251. 4. 479. 10.</_>
    <_>
      176. 5. 20. 1.</_>
    <_>
      65. 2. 177. 4.</_>
    <_>
      0. 0. 23. 1.</_>
    <_>
      94. 2. 0. 0.</_>
    <_>
      484. 9. 1694. 34.</_>
    <_>
      135. 4. 1087. 28.</_>
    <_>
      34. 1. 0. 0.</_>
    <_>
      142. 4. 1453. 20.</_>
    <_>
      51. 1. 161. 4.</_>
    <_>
      117. 2. 652. 8.</_>
    <_>
      270. 1. 2260. 16.</_>
    <_>
      184. 3. 19. 1.</_>
    <_>
      68. 2. 0. 0.</_>
    <_>
      0. 0. 107. 3.</_>
    <_>
      0. 0. 344. 1.</_>
    <_>
      131. 3. 0. 0.</_>
    <_>
      522. 9. 0. 0.</_>
    <_>
      116. 3. 0. 0.</_>
    <_>
      651. 3. 0. 0.</_>
    <_>
      43. 1. 49. 2.</_>
    <_>
      28. 1. 0. 0.</_>
    <_>
      0. 0. 245. 5.</_>
    <_>
      0. 0. 0. 0.</_>
    <_>
      31. 1. 0. 0.</_>
    <_>
      1502. 16. 0. 0.</_>
    <_>
      311. 5. 0. 0.</_>
    <_>
      0. 0. 0. 0.</_>
    <_>
      80. 1. 0. 0.</_>
    <_>
      0. 0. 120. 1.</_>
    <_>
      0. 0. 0. 0.</_>
    <_>
      0. 0. 0. 0.</_>
    <_>
      50. 1. 0. 0.</_>
    <_>
      63. 1. 233. 7.</_>
    <_>
      0. 0. 623. 14.</_>
    <_>
      0. 0. 0. 0.</_>
    <_>
      59. 1. 0. 0.</_>
    <_>
      0. 0. 0. 0.</_>
    <_>
      116. 2. 460. 7.</_>
    <_>
      80. 2. 259. 8.</_>
    <_>
      248. 6. 21. 1.</_>
    <_>
      39. 1. 0. 0.</_>
    <_>
      0. 0. 274. 9.</_>
    <_>
      0. 0. 68. 2.</_>
    <_>
      0. 0. 0. 0.</_>
    <_>
      0. 0. 0. 0.</_>
    <_>
      57. 1. 0. 0.</_>
    <_>
      0. 0. 45. 2.</_>
    <_>
      533. 11. 0. 0.</_>
    <_>
      102. 1. 0. 0.</_>
    <_>
      251. 6. 0. 0.</_>
    <_>
      183. 4. 0. 0.</_>
    <_>
      0. 0. 0. 0.</_>
    <_>
      60. 2. 70. 3.</_>
    <_>
      0. 0. 0. 0.</_>
    <_>
      0. 0. 88. 3.</_>
    <_>
      60. 1. 65. 3.</_>
    <_>
      99. 3. 0. 0.</_>
    <_>
      0. 0. 566. 7.</_>
    <_>
      169. 4. 0. 0.</_>
    <_>
      35. 1. 0. 0.</_>
    <_>
      0. 0. 199. 3.</_>
    <_>
      105. 3. 516. 6.</_>
    <_>
      30. 1. 56. 2.</_>
    <_>
      90. 2. 0. 0.</_>
    <_>
      41. 1. 0. 0.</_>
    <_>
      491. 11. 0. 0.</_>
    <_>
      0. 0. 886. 2.</_>
    <_>
      0. 0. 58. 1.</_>
    <_>
      0. 0. 0. 0.</_>
    <_>
      361. 1. 269. 4.</_>
    <_>
      0. 0. 251. 6.</_>
    <_>
      0. 0. 240. 6.</_>
    <_>
      0. 0. 409. 7.</_>
    <_>
      389. 5. 141. 4.</_>
    <_>
      487. 5. 234. 10.</_>
    <_>
      160. 3. 0. 0.</_>
    <_>
      73. 2. 0. 0.</_>
    <_>
      0. 0. 732. 12.</_>
    <_>
      0. 0. 395. 5.</_>
    <_>
      0. 0. 0. 0.</_>
    <_>
      0. 0. 219. 7.</_>
    <_>
      123. 3. 17. 1.</_>
    <_>
      285. 5. 0. 0.</_>
    <_>
      0. 0. 600. 12.</_>
    <_>
      226. 3. 195. 6.</_>
    <_>
      0. 0. 110. 4.</_>
    <_>
      0. 0. 361. 10.</_>
    <_>
      0. 0. 0. 0.</_>
    <_>
      0. 0. 432. 6.</_>
    <_>
      0. 0. 0. 0.</_>
    <_>
      0. 0. 78. 3.</_>
    <_>
      0. 0. 3507. 57.</_>
    <_>
      0. 0. 41. 2.</_>
    <_>
      108. 3. 0. 0.</_>
    <_>
      267. 6. 1094. 23.</_>
    <_>
      0. 0. 2086. 33.</_>
    <_>
      143. 3. 619. 19.</_>
    <_>
      60. 2. 728. 20.</_>
    <_>
      48. 1. 670. 12.</_>
    <_>
      0. 0. 110. 3.</_>
    <_>
      530. 13. 0. 0.</_>
    <_>
      287. 7. 0. 0.</_>
    <_>
      0. 0. 0. 0.</_>
    <_>
      65. 1. 1364. 36.</_>
    <_>
      0. 0. 373. 7.</_>
    <_>
      81. 1. 0. 0.</_>
    <_>
      0. 0. 175. 4.</_>
    <_>
      538. 12. 208. 2.</_>
    <_>
      0. 0. 0. 0.</_>
    <_>
      113. 2. 0. 0.</_>
    <_>
      0. 0. 0. 0.</_>
    <_>
      504. 7. 91. 3.</_>
    <_>
      0. 0. 484. 15.</_>
    <_>
      824. 16. 0. 0.</_>
    <_>
      188. 4. 350. 7.</_>
    <_>
      36. 1. 0. 0.</_>
    <_>
      0. 0. 31. 1.</_>
    <_>
      47. 1. 82. 3.</_>
    <_>
      340. 4. 129. 2.</_>
    <_>
      169. 1. 823. 7.</_>
    <_>
      620. 11. 0. 0.</_>
    <_>
      438. 7. 0. 0.</_>
    <_>
      199. 5. 0. 0.</_>
    <_>
      131. 3. 0. 0.</_>
    <_>
      456. 10. 0. 0.</_>
    <_>
      1490. 25. 0. 0.</_>
    <_>
      0. 0. 0. 0.</_>
    <_>
      108. 2. 0. 0.</_>
    <_>
      113. 2. 116. 4.</_>
    <_>
      115. 2. 468. 14.</_>
    <_>
      122. 2. 0. 0.</_>
    <_>
      412. 8. 433. 5.</_>
    <_>
      564. 2. 1036. 9.</_>
    <_>
      255. 3. 1024. 18.</_>
    <_>
      95. 2. 181. 2.</_>
    <_>
      0. 0. 0. 0.</_>
    <_>
      0. 0. 0. 0.</_>
    <_>
      44. 1. 20. 1.</_>
    <_>
      264. 6. 0. 0.</_>
    <_>
      921. 16. 0. 0.</_>
    <_>
      1317. 18. 90. 1.</_>
    <_>
      133. 3. 0. 0.</_>
    <_>
      344. 5. 0. 0.</_>
    <_>
      339. 7. 0. 0.</_>
    <_>
      551. 9. 0. 0.</_>
    <_>
      139. 3. 0. 0.</_>
    <_>
      35. 1. 0. 0.</_>
    <_>
      635. 8. 0. 0.</_>
    <_>
      82. 2. 157. 4.</_>
    <_>
      265. 2. 124. 4.</_>
    <_>
      0. 0. 300. 6.</_>
    <_>
      0. 0. 0. 0.</_>
    <_>
      44. 1. 0. 0.</_>
    <_>
      175. 4. 29. 1.</_>
    <_>
      197. 3. 0. 0.</_>
    <_>
      259. 2. 38. 1.</_>
    <_>
      52. 1. 0. 0.</_>
    <_>
      29. 1. 0. 0.</_>
    <_>
      336. 5. 0. 0.</_>
    <_>
      684. 11. 0. 0.</_>
    <_>
      1913. 34. 0. 0.</_>
    <_>
      282. 5. 597. 7.</_>
    <_>
      254. 2. 0. 0.</_>
    <_>
      265. 4. 0. 0.</_>
    <_>
      61. 1. 483. 10.</_>
    <_>
      70. 2. 0. 0.</_>
    <_>
      402. 2. 58. 2.</_>
    <_>
      81. 1. 0. 0.</_>
    <_>
      160. 3. 0. 0.</_>
    <_>
      256. 4. 0. 0.</_>
    <_>
      240. 4. 0. 0.</_>
    <_>
      982. 6. 0. 0.</_>
    <_>
      122. 3. 0. 0.</_>
    <_>
      177. 4. 0. 0.</_>
    <_>
      323. 5. 0. 0.</_>
    <_>
      201. 4. 297. 9.</_>
    <_>
      621. 3. 18. 1.</_>
    <_>
      134. 2. 0. 0.</_>
    <_>
      0. 0. 240. 3.</_>
    <_>
      120. 2. 21. 1.</_>
    <_>
      33. 1. 210. 5.</_>
    <_>
      213. 5. 286. 3.</_>
    <_>
      0. 0. 214. 3.</_>
    <_>
      297. 1. 477. 4.</_>
    <_>
      0. 0. 126. 2.</_>
    <_>
      0. 0. 314. 6.</_>
    <_>
      0. 0. 154. 1.</_>
    <_>
      103. 2. 443. 5.</_>
    <_>
      0. 0. 464. 5.</_>
    <_>
      249. 5. 19. 1.</_>
    <_>
      95. 2. 1603. 32.</_>
    <_>
      0. 0. 265. 4.</_>
    <_>
      0. 0. 864. 21.</_>
    <_>
      258. 5. 239. 6.</_>
    <_>
      100. 3. 243. 5.</_>
    <_>
      46. 1. 383. 7.</_>
    <_>
      0. 0. 555. 11.</_>
    <_>
      481. 1. 105. 2.</_>
    <_>
      93. 1. 1005. 18.</_>
    <_>
      320. 3. 770. 20.</_>
    <_>
      202. 4. 940. 19.</_>
    <_>
      0. 0. 986. 27.</_>
    <_>
      0. 0. 190. 5.</_>
    <_>
      92. 2. 0. 0.</_>
    <_>
      273. 1. 1206. 19.</_>
    <_>
      179. 3. 0. 0.</_>
    <_>
      504. 3. 283. 8.</_>
    <_>
      0. 0. 347. 6.</_>
    <_>
      0. 0. 104. 4.</_>
    <_>
      502. 3. 236. 6.</_>
    <_>
      36. 1. 1448. 6.</_>
    <_>
      54. 1. 234. 3.</_>
    <_>
      140. 2. 0. 0.</_>
    <_>
      42. 1. 262. 4.</_>
    <_>
      31. 1. 506. 9.</_>
    <_>
      0. 0. 592. 9.</_>
    <_>
      0. 0. 180. 5.</_>
    <_>
      0. 0. 0. 0.</_>
    <_>
      187. 1. 0. 0.</_>
    <_>
      386. 3. 0. 0.</_>
    <_>
      0. 0. 157. 2.</_>
    <_>
      204. 2. 71. 1.</_>
    <_>
      301. 3. 0. 0.</_>
    <_>
      0. 0. 0. 0.</_>
    <_>
      144. 4. 0. 0.</_>
    <_>
      1012. 19. 0. 0.</_>
    <_>
      231. 1. 162. 1.</_>
    <_>
      374. 7. 0. 0.</_>
    <_>
      72. 1. 2954. 47.</_>
    <_>
      40. 1. 1772. 37.</_>
    <_>
      0. 0. 161. 4.</_>
    <_>
      42. 1. 1019. 11.</_>
    <_>
      0. 0. 817. 9.</_>
    <_>
      0. 0. 501. 17.</_>
    <_>
      0. 0. 0. 0.</_>
    <_>
      101. 2. 0. 0.</_>
    <_>
      36. 1. 228. 8.</_>
    <_>
      0. 0. 463. 12.</_>
    <_>
      190. 4. 0. 0.</_>
    <_>
      276. 6. 36. 1.</_>
    <_>
      77. 1. 0. 0.</_>
    <_>
      103. 3. 332. 8.</_>
    <_>
      0. 0. 42. 2.</_>
    <_>
      0. 0. 691. 16.</_>
    <_>
      33. 1. 248. 7.</_>
    <_>
      1346. 18. 0. 0.</_>
    <_>
      68. 1. 0. 0.</_>
    <_>
      1661. 17. 0. 0.</_>
    <_>
      222. 5. 123. 4.</_>
    <_>
      0. 0. 468. 8.</_>
    <_>
      0. 0. 211. 7.</_>
    <_>
      32. 1. 343. 5.</_>
    <_>
      290. 2. 0. 0.</_>
    <_>
      871. 11. 0. 0.</_>
    <_>
      246. 6. 274. 8.</_>
    <_>
      362. 8. 0. 0.</_>
    <_>
      0. 0. 836. 9.</_>
    <_>
      227. 5. 0. 0.</_>
    <_>
      764. 16. 0. 0.</_>
    <_>
      249. 4. 0. 0.</_>
    <_>
      914. 11. 0. 0.</_>
    <_>
      297. 8. 692. 17.</_>
    <_>
      93. 1. 208. 5.</_>
    <_>
      0. 0. 200. 4.</_>
    <_>
      0. 0. 391. 4.</_>
    <_>
      88. 1. 266. 7.</_>
    <_>
      0. 0. 764. 10.</_>
    <_>
      480. 11. 258. 7.</_>
    <_>
      356. 2. 1669. 35.</_>
    <_>
      359. 3. 179. 8.</_>
    <_>
      125. 3. 287. 8.</_>
    <_>
      138. 1. 1323. 13.</_>
    <_>
      0. 0. 1669. 14.</_>
    <_>
      649. 7. 0. 0.</_>
    <_>
      0. 0. 0. 0.</_>
    <_>
      692. 9. 0. 0.</_>
    <_>
      0. 0. 0. 0.</_>
    <_>
      0. 0. 108. 4.</_>
    <_>
      32. 1. 214. 6.</_>
    <_>
      0. 0. 0. 0.</_>
    <_>
      355. 7. 610. 15.</_>
    <_>
      0. 0. 818. 13.</_>
    <_>
      725. 7. 0. 0.</_>
    <_>
      1378. 22. 34. 1.</_>
    <_>
      1538. 30. 0. 0.</_>
    <_>
      74. 1. 314. 11.</_>
    <_>
      0. 0. 0. 0.</_>
    <_>
      756. 3. 54. 2.</_>
    <_>
      0. 0. 176. 2.</_>
    <_>
      1148. 18. 938. 18.</_>
    <_>
      511. 9. 1929. 13.</_>
    <_>
      374. 4. 0. 0.</_>
    <_>
      571. 1. 0. 0.</_>
    <_>
      35. 1. 88. 4.</_>
    <_>
      0. 0. 159. 3.</_>
    <_>
      92. 2. 957. 13.</_>
    <_>
      32. 1. 613. 10.</_>
    <_>
      983. 4. 805. 16.</_>
    <_>
      727. 12. 0. 0.</_>
    <_>
      357. 1. 2561. 43.</_>
    <_>
      1974. 13. 0. 0.</_>
    <_>
      375. 4. 0. 0.</_>
    <_>
      127. 1. 0. 0.</_>
    <_>
      89. 2. 0. 0.</_>
    <_>
      177. 4. 203. 4.</_>
    <_>
      344. 3. 503. 12.</_>
    <_>
      95. 2. 0. 0.</_>
    <_>
      711. 10. 0. 0.</_>
    <_>
      207. 3. 0. 0.</_>
    <_>
      0. 0. 0. 0.</_>
    <_>
      29. 1. 341. 10.</_>
    <_>
      185. 4. 1029. 12.</_>
    <_>
      162. 3. 318. 6.</_>
    <_>
      71. 2. 37. 1.</_>
    <_>
      451. 5. 0. 0.</_>
    <_>
      169. 4. 0. 0.</_>
    <_>
      717. 6. 569. 5.</_>
    <_>
      363. 3. 626. 9.</_>
    <_>
      0. 0. 0. 0.</_>
    <_>
      256. 6. 0. 0.</_>
    <_>
      114. 2. 0. 0.</_>
    <_>
      730. 10. 0. 0.</_>
    <_>
      815. 10. 0. 0.</_>
    <_>
      68. 2. 56. 2.</_>
    <_>
      315. 2. 23. 1.</_>
    <_>
      98. 1. 0. 0.</_>
    <_>
      0. 0. 0. 0.</_>
    <_>
      126. 2. 861. 14.</_>
    <_>
      371. 3. 514. 3.</_>
    <_>
      0. 0. 17. 1.</_>
    <_>
      680. 10. 0. 0.</_>
    <_>
      41. 1. 0. 0.</_>
    <_>
      566. 3. 0. 0.</_>
    <_>
      53. 1. 1253. 20.</_>
    <_>
      0. 0. 2024. 30.</_>
    <_>
      313. 5. 0. 0.</_>
    <_>
      124. 2. 0. 0.</_>
    <_>
      1257. 22. 0. 0.</_>
    <_>
      264. 5. 0. 0.</_>
    <_>
      104. 2. 0. 0.</_>
    <_>
      229. 5. 0. 0.</_>
    <_>
      454. 6. 0. 0.</_>
    <_>
      444. 10. 863. 11.</_>
    <_>
      856. 15. 0. 0.</_>
    <_>
      1394. 22. 42. 1.</_>
    <_>
      1114. 18. 0. 0.</_>
    <_>
      0. 0. 0. 0.</_>
    <_>
      404. 6. 0. 0.</_>
    <_>
      505. 2. 897. 16.</_>
    <_>
      1675. 23. 0. 0.</_>
    <_>
      0. 0. 549. 6.</_>
    <_>
      0. 0. 0. 0.</_>
    <_>
      295. 6. 0. 0.</_>
    <_>
      853. 16. 148. 3.</_>
    <_>
      848. 16. 504. 14.</_>
    <_>
      147. 3. 50. 2.</_>
    <_>
      31. 1. 74. 1.</_>
    <_>
      213. 2. 0. 0.</_>
    <_>
      317. 7. 0. 0.</_>
    <_>
      466. 5. 44. 1.</_>
    <_>
      86. 2. 370. 10.</_>
    <_>
      0. 0. 175. 2.</_>
    <_>
      0. 0. 282. 6.</_>
    <_>
      900. 11. 0. 0.</_>
    <_>
      0. 0. 587. 10.</_>
    <_>
      42. 1. 581. 4.</_>
    <_>
      127. 2. 744. 13.</_>
    <_>
      384. 7. 133. 3.</_>
    <_>
      0. 0. 0. 0.</_>
    <_>
      123. 2. 275. 5.</_>
    <_>
      228. 4. 321. 10.</_>
    <_>
      230. 3. 72. 2.</_>
    <_>
      192. 3. 0. 0.</_>
    <_>
      65. 2. 0. 0.</_>
    <_>
      192. 4. 0. 0.</_>
    <_>
      464. 5. 224. 9.</_>
    <_>
      385. 5. 0. 0.</_>
    <_>
      0. 0. 212. 5.</_>
    <_>
      555. 9. 138. 2.</_>
    <_>
      148. 1. 735. 12.</_>
    <_>
      598. 9. 896. 19.</_>
    <_>
      717. 10. 377. 5.</_>
    <_>
      0. 0. 72. 1.</_>
    <_>
      2058. 10. 59. 2.</_>
    <_>
      950. 3. 4747. 52.</_>
    <_>
      201. 3. 630. 14.</_>
    <_>
      0. 0. 4278. 79.</_>
    <_>
      0. 0. 10001. 105.</_>
    <_>
      0. 0. 2431. 33.</_>
    <_>
      0. 0. 2850. 52.</_>
    <_>
      3437. 12. 3005. 33.</_>
    <_>
      739. 1. 2941. 54.</_>
    <_>
      0. 0. 5357. 75.</_>
    <_>
      38. 1. 68. 2.</_>
    <_>
      29. 1. 56. 2.</_>
    <_>
      0. 0. 898. 17.</_>
    <_>
      0. 0. 336. 5.</_>
    <_>
      0. 0. 0. 0.</_>
    <_>
      1147. 15. 849. 12.</_>
    <_>
      126. 1. 289. 5.</_>
    <_>
      1138. 2. 1456. 16.</_>
    <_>
      346. 5. 829. 10.</_>
    <_>
      34. 1. 607. 12.</_>
    <_>
      71. 1. 145. 3.</_>
    <_>
      0. 0. 1114. 16.</_>
    <_>
      60. 1. 0. 0.</_>
    <_>
      0. 0. 120. 3.</_>
    <_>
      0. 0. 0. 0.</_>
    <_>
      0. 0. 18. 1.</_>
    <_>
      41. 1. 254. 3.</_>
    <_>
      0. 0. 0. 0.</_>
    <_>
      0. 0. 5924. 40.</_>
    <_>
      0. 0. 943. 17.</_>
    <_>
      0. 0. 0. 0.</_>
    <_>
      0. 0. 2499. 47.</_>
    <_>
      660. 3. 233. 7.</_>
    <_>
      955. 11. 3565. 25.</_>
    <_>
      269. 6. 966. 21.</_>
    <_>
      59. 1. 34. 1.</_>
    <_>
      0. 0. 383. 1.</_>
    <_>
      0. 0. 290. 7.</_>
    <_>
      0. 0. 39. 2.</_>
    <_>
      1763. 20. 1483. 15.</_>
    <_>
      0. 0. 20. 1.</_>
    <_>
      503. 3. 1015. 23.</_>
    <_>
      243. 2. 1081. 15.</_>
    <_>
      126. 1. 1659. 45.</_>
    <_>
      0. 0. 8044. 93.</_>
    <_>
      1586. 9. 1524. 19.</_>
    <_>
      1248. 7. 5825. 34.</_>
    <_>
      48. 1. 8294. 96.</_>
    <_>
      34. 1. 8704. 82.</_>
    <_>
      30. 1. 452. 3.</_>
    <_>
      285. 2. 172. 3.</_>
    <_>
      2416. 23. 0. 0.</_>
    <_>
      400. 3. 24. 1.</_>
    <_>
      35. 1. 0. 0.</_>
    <_>
      0. 0. 0. 0.</_>
    <_>
      0. 0. 71. 3.</_>
    <_>
      82. 1. 753. 11.</_>
    <_>
      31. 1. 0. 0.</_>
    <_>
      1430. 15. 603. 16.</_>
    <_>
      261. 3. 9429. 107.</_>
    <_>
      0. 0. 3703. 62.</_>
    <_>
      490. 1. 3205. 39.</_>
    <_>
      49. 1. 741. 4.</_>
    <_>
      360. 4. 764. 17.</_>
    <_>
      594. 9. 4395. 48.</_>
    <_>
      502. 5. 5039. 64.</_>
    <_>
      1316. 4. 168. 4.</_>
    <_>
      0. 0. 378. 4.</_>
    <_>
      29. 1. 259. 5.</_>
    <_>
      0. 0. 0. 0.</_>
    <_>
      0. 0. 0. 0.</_>
    <_>
      109. 1. 0. 0.</_>
    <_>
      0. 0. 1362. 14.</_>
    <_>
      0. 0. 429. 3.</_>
    <_>
      379. 3. 222. 3.</_>
    <_>
      0. 0. 8616. 23.</_>
    <_>
      0. 0. 558. 10.</_>
    <_>
      0. 0. 441. 11.</_>
    <_>
      908. 5. 1035. 22.</_>
    <_>
      107. 1. 4297. 73.</_>
    <_>
      74. 2. 51. 1.</_>
    <_>
      0. 0. 2918. 6.</_>
    <_>
      461. 2. 560. 8.</_>
    <_>
      0. 0. 848. 8.</_>
    <_>
      2668. 28. 3812. 65.</_>
    <_>
      1860. 10. 5682. 87.</_>
    <_>
      110. 2. 281. 6.</_>
    <_>
      0. 0. 701. 12.</_>
    <_>
      1907. 19. 0. 0.</_>
    <_>
      2927. 27. 0. 0.</_>
    <_>
      0. 0. 1223. 16.</_>
    <_>
      0. 0. 155. 3.</_>
    <_>
      706. 6. 0. 0.</_>
    <_>
      0. 0. 4858. 50.</_>
    <_>
      110. 1. 10206. 15.</_>
    <_>
      1105. 20. 0. 0.</_>
    <_>
      41. 1. 305. 9.</_>
    <_>
      71. 1. 0. 0.</_>
    <_>
      209. 2. 45. 2.</_>
    <_>
      1379. 15. 0. 0.</_>
    <_>
      552. 6. 2940. 14.</_>
    <_>
      30. 1. 1138. 25.</_>
    <_>
      0. 0. 895. 18.</_>
    <_>
      116. 2. 0. 0.</_>
    <_>
      0. 0. 0. 0.</_>
    <_>
      916. 10. 1457. 30.</_>
    <_>
      0. 0. 5273. 45.</_>
    <_>
      442. 11. 0. 0.</_>
    <_>
      1427. 20. 516. 11.</_>
    <_>
      78. 2. 169. 4.</_>
    <_>
      361. 7. 283. 4.</_>
    <_>
      48. 1. 1275. 25.</_>
    <_>
      684. 8. 86. 3.</_>
    <_>
      34. 1. 0. 0.</_>
    <_>
      0. 0. 198. 1.</_>
    <_>
      0. 0. 0. 0.</_>
    <_>
      0. 0. 7725. 48.</_>
    <_>
      0. 0. 7324. 53.</_>
    <_>
      537. 3. 17. 1.</_>
    <_>
      345. 1. 642. 4.</_>
    <_>
      106. 1. 0. 0.</_>
    <_>
      0. 0. 198. 5.</_>
    <_>
      0. 0. 277. 9.</_>
    <_>
      0. 0. 18. 1.</_>
    <_>
      418. 3. 0. 0.</_>
    <_>
      1398. 13. 128. 2.</_>
    <_>
      439. 3. 717. 12.</_>
    <_>
      104. 3. 2918. 6.</_>
    <_>
      1148. 6. 255. 8.</_>
    <_>
      94. 2. 1543. 30.</_>
    <_>
      127. 2. 0. 0.</_>
    <_>
      0. 0. 117. 1.</_>
    <_>
      465. 5. 0. 0.</_>
    <_>
      1154. 8. 0. 0.</_>
    <_>
      61. 2. 2466. 39.</_>
    <_>
      0. 0. 2911. 45.</_>
    <_>
      2270. 10. 0. 0.</_>
    <_>
      115. 3. 0. 0.</_>
    <_>
      0. 0. 0. 0.</_>
    <_>
      136. 2. 1156. 24.</_>
    <_>
      943. 7. 228. 5.</_>
    <_>
      5480. 44. 0. 0.</_></support_vectors>
  <decision_functions>
    <_>
      <sv_count>278</sv_count>
      <rho>3.8250336056888171e-002</rho>
      <alpha>
        1.5674643784043958e+000 2.4998352035670082e+000
        2.5000000000000000e+000 1.0123058570326495e+000
        1.0382216411538716e+000 2.5000000000000000e+000
        1.0516314106894984e+000 1.0985551153388815e+000
        2.5000000000000000e+000 1.0382856701710885e+000
        2.5000000000000000e+000 6.0132074490273657e-001
        1.3099722233913311e+000 1.0419691052478550e+000
        2.5000000000000000e+000 2.5000000000000000e+000
        7.7446609987921144e-001 1.0382453375029324e+000
        2.5000000000000000e+000 5.3522759591458247e-001
        1.0449427093951906e+000 2.5000000000000000e+000
        1.2223584838276291e+000 6.2094035289592997e-001
        2.5000000000000000e+000 8.2042670080063351e-001
        2.5000000000000000e+000 1.5735240751204465e+000
        1.0381564276837698e+000 2.3505764913667719e+000
        2.5000000000000000e+000 2.5000000000000000e+000
        2.5000000000000000e+000 1.3230340676478118e+000
        1.0382651389496362e+000 2.5000000000000000e+000
        5.5465735841250874e-001 2.8698247499030261e-001
        1.0382633904777914e+000 1.0628262331751721e+000
        4.3243830193993110e-001 1.0382459990395791e+000
        1.0382690458319279e+000 1.0308360658191640e+000
        2.5000000000000000e+000 2.4717588299370568e+000
        1.0806059246246789e+000 2.5000000000000000e+000
        2.5000000000000000e+000 1.8969309829426813e+000
        2.5000000000000000e+000 1.2299831683598113e-002
        1.0364270635209740e+000 1.0406395488208939e+000
        2.5000000000000000e+000 1.0383900696550676e+000
        8.7967407903525585e-001 2.5000000000000000e+000
        8.4826969583617717e-001 1.0532850839532026e+000
        1.0382939651329570e+000 1.0382761017672850e+000
        1.0018283314207683e+000 1.8662359996818170e+000
        1.0381698119299521e+000 7.8614906789059114e-001
        1.5008617416195245e+000 2.5000000000000000e+000
        7.8622864927588598e-001 2.5000000000000000e+000
        6.9376575719977418e-001 2.5000000000000000e+000
        1.0214105813950760e+000 1.0382957339331429e+000
        2.0710494442937941e+000 9.3213046925711629e-001
        1.0258694316889041e+000 1.1363676271995464e+000
        8.7667565839514228e-001 1.0382304757017335e+000
        1.5323197800094026e+000 2.1954233226545841e-001
        6.6497938703473369e-001 1.0382958570594238e+000
        1.0382420735093301e+000 1.0382300132876014e+000
        2.5000000000000000e+000 1.0382472995873284e+000
        1.0382242324273019e+000 2.5000000000000000e+000
        1.0382378083815194e+000 1.0382204145924321e+000
        1.0382263160932521e+000 1.0382309283715749e+000
        9.4545511581572161e-001 9.9896936744574705e-001
        1.0382312174401287e+000 6.8567042948121837e-001
        9.9902678641741149e-001 2.5000000000000000e+000
        1.0364239781437572e+000 1.0383324815151032e+000
        1.2316507071239235e+000 7.4754769059909765e-001
        1.0113200716050090e+000 1.0382764277758969e+000
        1.0382233543095656e+000 2.5000000000000000e+000
        1.0376310427578834e+000 6.9374414247171601e-001
        1.0161234617876014e+000 1.9625590966316675e+000
        1.0382137537764098e+000 2.1203512425717306e+000
        2.1413434212829161e+000 9.8893979118154940e-001
        1.0382675819392952e+000 1.0382447961178984e+000
        1.0382311041015164e+000 1.0382446267338905e+000
        1.0382313558575977e+000 1.0382211510444599e+000
        1.0376841571891680e+000 2.4674002926477607e+000
        1.5786954768527442e-001 2.5000000000000000e+000
        1.0382618097474872e+000 1.0382050598093009e+000
        1.0382436562711466e+000 6.8870560297865258e-001
        1.0382375329554403e+000 1.0386307342168077e+000
        2.5000000000000000e+000 1.0382457044108564e+000
        1.0382080396448405e+000 -9.6181491923807305e-001
        -1.1788173406209459e+000 -2.5000000000000000e+000
        -9.6178653281069038e-001 -9.6170729102571784e-001
        -9.6172359571311206e-001 -1.4428955136738413e+000
        -2.5000000000000000e+000 -9.9997237844897863e-002
        -9.6181667739567178e-001 -9.6149644435058290e-001
        -5.8243990387978772e-001 -9.6174277787094420e-001
        -9.6173660921824844e-001 -2.5000000000000000e+000
        -9.6172747426391492e-001 -2.5000000000000000e+000
        -9.6175656100282780e-001 -7.3327506622082606e-001
        -2.5000000000000000e+000 -2.0288356485880121e+000
        -9.6172347999635388e-001 -9.6171370142611901e-001
        -9.6168556889192436e-001 -1.0360492348636119e+000
        -5.5594919425926048e-001 -9.6178304962974537e-001
        -2.5000000000000000e+000 -9.6175187362939574e-001
        -9.6175964742129094e-001 -2.5000000000000000e+000
        -6.3192658881136865e-001 -9.7953479085921169e-001
        -9.6177664569042853e-001 -1.0059225038671964e+000
        -9.8089532096633614e-001 -9.6176059497355326e-001
        -9.7614725855465934e-001 -3.6137750874161273e-001
        -9.6176043479414242e-001 -9.6171007386580953e-001
        -1.7158910621144856e+000 -9.9538442118209647e-001
        -2.5000000000000000e+000 -1.6779835390077560e+000
        -9.6167169908993355e-001 -5.8756252687295585e-001
        -9.6173322589122834e-001 -9.6841567584695754e-001
        -2.5000000000000000e+000 -7.4235863621416565e-001
        -9.6180274057713999e-001 -9.6180444972846035e-001
        -2.5000000000000000e+000 -9.6176515228310633e-001
        -9.6431656097061547e-001 -9.6174060297867359e-001
        -9.6169521846671568e-001 -9.6176042868772627e-001
        -9.6172324149812349e-001 -9.6171972663124050e-001
        -1.7935539403435428e+000 -9.6175642716909959e-001
        -9.6178596716982845e-001 -2.0772202266679107e+000
        -9.6178603171501853e-001 -1.2605361112270173e+000
        -2.1317286380916887e+000 -9.6179764407220236e-001
        -9.6176952399427285e-001 -9.6173156152893347e-001
        -9.6059612054740251e-001 -2.5000000000000000e+000
        -9.0689304593767084e-001 -9.6175626629559907e-001
        -2.5000000000000000e+000 -2.3661286945020334e+000
        -2.5000000000000000e+000 -9.6178006313019293e-001
        -2.5000000000000000e+000 -9.6176690910470519e-001
        -9.6172251438977308e-001 -2.5000000000000000e+000
        -2.5000000000000000e+000 -1.0804657252185352e+000
        -9.6177238092082906e-001 -9.6168338346625515e-001
        -9.6174649598098660e-001 -4.4506422056327199e-001
        -9.6176914546595982e-001 -2.5576113132554951e-002
        -9.6045006639588193e-001 -2.5000000000000000e+000
        -1.4750095578800866e+000 -2.5000000000000000e+000
        -1.1931042784575887e+000 -9.6174016467405998e-001
        -2.5000000000000000e+000 -2.5000000000000000e+000
        -9.6174016467405998e-001 -9.6181095454875876e-001
        -9.6178188512236318e-001 -9.6172347999635388e-001
        -9.6166736610087633e-001 -2.2149177570601450e+000
        -2.3258143027254068e+000 -2.5000000000000000e+000
        -9.6176709167551644e-001 -9.6176749874218281e-001
        -9.6176898844534797e-001 -7.7761628157421248e-001
        -8.2907723154055646e-001 -3.1338357751154028e-001
        -9.6177599205503150e-001 -1.9966136076419838e-001
        -2.5000000000000000e+000 -9.6175042485840612e-001
        -9.6177671482957727e-001 -9.6168023861775287e-001
        -9.6159087120587250e-001 -2.5000000000000000e+000
        -2.5000000000000000e+000 -9.8902890680605771e-001
        -1.6006054849831646e+000 -9.6171741098742136e-001
        -2.5000000000000000e+000 -4.7718802751398848e-001
        -2.2152530310644925e+000 -2.5000000000000000e+000
        -9.6175774677493209e-001 -9.6181228763067994e-001
        -2.5000000000000000e+000 -9.5603624635172274e-002
        -9.6173926533522125e-001 -9.6887577812847414e-001
        -4.2176357161984634e-001 -9.6177576757269823e-001
        -9.6177884895554011e-001 -9.6175175565255278e-001
        -9.6176709160445240e-001 -2.5000000000000000e+000
        -2.5000000000000000e+000 -9.6221846211039008e-001</alpha>
      <index>
        105 90 78 102 94 86 88 72 92 80 100 96 84 104 76 87 77 89 69 79
        93 73 95 81 99 97 83 101 75 103 85 71 106 70 74 82 98 0 125 114
        136 129 121 123 109 127 116 135 131 119 138 112 122 113 124 107
        126 115 128 110 130 117 134 132 118 111 137 120 108 68 133 33 21
        10 31 17 19 4 23 12 30 26 16 8 18 9 20 1 22 11 24 5 25 13 29 27
        15 7 3 34 2 6 14 28 51 43 65 41 52 38 56 45 63 59 49 67 37 42 53
        35 55 44 57 39 58 62 60 48 64 40 66 50 36 47 61 237 238 240 239
        232 236 235 234 233 249 241 242 243 244 245 246 247 248 214 223
        139 215 216 217 218 219 220 221 222 231 224 225 226 227 228 230
        275 267 268 269 270 271 272 273 274 266 276 277 278 279 280 281
        282 259 251 252 253 254 255 256 257 258 250 260 261 262 263 264
        265 168 159 160 161 162 163 164 165 166 167 158 169 170 171 172
        173 174 175 176 149 140 141 142 143 144 145 146 147 148 213 150
        151 152 153 154 155 156 157 204 195 196 197 198 199 200 201 202
        203 177 205 206 207 208 209 210 211 212 194 178 179 180 181 182
        183 184 185 186 187 188 189 190 191 192 193</index></_>
    <_>
      <sv_count>279</sv_count>
      <rho>7.5413161614925658e-002</rho>
      <alpha>
        2.5000000000000000e+000 2.4999453579230417e+000
        2.5000000000000000e+000 1.5098418778468641e+000
        1.0815090946372319e+000 2.5000000000000000e+000
        1.0754499651205491e+000 1.0709093399672240e+000
        2.5000000000000000e+000 1.0754306233533371e+000
        2.5000000000000000e+000 8.6854811737858006e-001
        2.5000000000000000e+000 9.4933555147010740e-001
        1.0329395170437654e+000 6.0607240881881497e-001
        1.0754177642387430e+000 2.5000000000000000e+000
        1.3213372871585132e+000 1.0754420835325782e+000
        2.5000000000000000e+000 6.3075238452021098e-001
        1.7913133677468711e+000 2.5000000000000000e+000
        9.4212197892653304e-001 2.4610045476048894e+000
        1.0753254212188923e+000 1.0708492963733125e+000
        2.5000000000000000e+000 1.7183657773612409e+000
        1.1730024536663930e+000 1.0754026869593198e+000
        1.7681447369187961e+000 2.5000000000000000e+000
        7.1239886256541241e-001 4.5551659652389975e-001
        1.0754143019439932e+000 2.5000000000000000e+000
        3.0899463513276042e-002 1.0908558762261664e+000
        1.0754446106119828e+000 1.0658427208914536e+000
        2.5000000000000000e+000 8.7635170933722595e-001
        2.5000000000000000e+000 2.5000000000000000e+000
        1.0753720195963674e+000 2.5000000000000000e+000
        1.3330473311809696e+000 2.5000000000000000e+000
        1.0735353162520791e+000 1.0754454063434615e+000
        2.5000000000000000e+000 1.0754608015200355e+000
        9.5035540522388595e-001 8.7522575273454672e-001
        1.0754233951053880e+000 1.0754472509655988e+000
        1.0753637294838820e+000 1.9142668935044953e+000
        2.0331789873912487e+000 1.0752790275711384e+000
        8.1601163286097300e-001 1.0754456243694694e+000
        2.5000000000000000e+000 8.1379640119204177e-001
        2.5000000000000000e+000 7.1862717754869077e-001
        1.7280689047251790e-001 7.3661805148278037e-001
        1.0754278753174535e+000 5.1624063074444770e-001
        1.9974121927283888e+000 1.0600690760450322e+000
        1.2505742845221646e+000 9.0672250162607670e-001
        1.0754337718445868e+000 1.0754173487958372e+000
        6.4074849312542193e-001 2.5000000000000000e+000
        1.3234757361026532e+000 1.0773866349738155e+000
        1.0753634449206206e+000 1.0867050359349171e+000
        1.0754496338712713e+000 2.5000000000000000e+000
        2.5000000000000000e+000 1.0754029862351564e+000
        2.5000000000000000e+000 1.0754113640589271e+000
        1.0754002922744783e+000 2.5000000000000000e+000
        1.0347783800850678e+000 1.0754102416452753e+000
        5.2405284253768347e-001 1.0278007020559086e+000
        1.0347906431845459e+000 1.0229363905985096e+000
        1.0734939095414084e+000 1.0754182842323137e+000
        1.3242476364951787e+000 6.4151325229280043e-001
        2.5000000000000000e+000 1.0754446106119828e+000
        1.0754090438987873e+000 9.2218714719481665e-001
        1.0747902946016303e+000 7.1852918353987560e-001
        1.0252827088715770e+000 1.0799216551881343e+000
        1.0754446605448948e+000 2.5000000000000000e+000
        8.0898478902026771e-001 1.0253122708712994e+000
        1.0754495559504029e+000 1.0754055129383897e+000
        1.0754199589216809e+000 1.0754300039371052e+000
        1.0753816547740760e+000 1.0754284651567494e+000
        1.0748175065805547e+000 6.3092669907495946e-001
        1.0555256541587090e+000 5.8791023260214903e-001
        1.0754002904388129e+000 1.0754011184978751e+000
        1.0754463428592247e+000 5.1453468500603783e-001
        1.0754445013197798e+000 1.0754164945109985e+000
        4.6043692741819831e-001 1.0754507991778179e+000
        1.0754026167966011e+000 -1.8930115125927232e+000
        -2.5000000000000000e+000 -9.2457871864281393e-001
        -9.2460006505764669e-001 -2.5000000000000000e+000
        -9.2680395185335662e-001 -9.2592055576124044e-001
        -9.2459772336169455e-001 -5.2324002215226750e-001
        -9.2457780513178867e-001 -1.1495608365881913e+000
        -9.2297512631234047e-001 -2.5000000000000000e+000
        -7.2165059663141040e-001 -9.2456219971316211e-001
        -9.2459844724931040e-001 -2.5000000000000000e+000
        -2.8493316497297250e-001 -4.7922712750613355e-001
        -7.7716963216856394e-001 -5.5029028509889588e-001
        -1.4659820364014697e+000 -2.5000000000000000e+000
        -9.2463303114978268e-001 -9.2456384911842682e-001
        -2.5000000000000000e+000 -9.2450614960263044e-001
        -2.5000000000000000e+000 -2.5000000000000000e+000
        -1.4670370566952891e+000 -9.2460152394557882e-001
        -9.2456783359403427e-001 -9.2456854672870381e-001
        -5.6188516985489445e-001 -2.5000000000000000e+000
        -9.2459014277328277e-001 -9.2461225795704316e-001
        -2.5000000000000000e+000 -9.2460981792742536e-001
        -5.1073850402438747e-001 -1.3312208166741477e+000
        -9.2456967617642516e-001 -9.2456998747682673e-001
        -1.1597664624166457e+000 -9.6347289474320097e-001
        -9.2438960467404541e-001 -9.3765434563241379e-001
        -9.2455055144813170e-001 -2.5000000000000000e+000
        -9.4242605732394880e-001 -2.5000000000000000e+000
        -9.2371573671819884e-001 -9.2459095610120667e-001
        -9.2457488907149266e-001 -4.2769365642218232e-001
        -1.3780503713404699e+000 -9.2456399185254790e-001
        -1.6059825468449234e+000 -2.4540852244029421e+000
        -5.6181688306873134e-001 -9.2459726867763969e-001
        -9.2457403958521234e-001 -9.2459628572804853e-001
        -9.2459940974843902e-001 -2.5000000000000000e+000
        -8.4055024948824386e-001 -9.2463516192507944e-001
        -9.2455459951742169e-001 -9.2463728229318420e-001
        -2.5000000000000000e+000 -7.5774916330099429e-001
        -9.2456016222186466e-001 -9.2455036612872854e-001
        -9.2458889692569823e-001 -9.2455830005907891e-001
        -9.2459713123646448e-001 -2.5000000000000000e+000
        -9.2452519708229131e-001 -9.2459756200698173e-001
        -7.9274265865336169e-001 -9.5359908396313819e-001
        -7.7719594352668819e-001 -1.0997681184722659e+000
        -9.2459398225071754e-001 -9.2456642547109325e-001
        -9.2337038100506552e-001 -9.2457210467078499e-001
        -1.5001567107137821e+000 -9.2458544297109857e-001
        -2.5000000000000000e+000 -9.2438295919323632e-001
        -9.2455033368034645e-001 -9.2455607846116428e-001
        -2.5000000000000000e+000 -9.2461905126038768e-001
        -9.2456406491730458e-001 -9.2461179186632103e-001
        -7.0338935180908546e-001 -9.2459717347660064e-001
        -1.4225773165093867e+000 -9.2454800120612579e-001
        -2.5000000000000000e+000 -2.5000000000000000e+000
        -9.2451523803536484e-001 -7.9274275746230316e-001
        -7.3156783391550684e-001 -9.2459931588445143e-001
        -2.5000000000000000e+000 -9.2459112502590068e-001
        -2.5000000000000000e+000 -1.1985297042452143e+000
        -9.3858467673634594e-002 -9.2456292425226183e-001
        -9.2459713123646448e-001 -9.2463578865420526e-001
        -2.5000000000000000e+000 -9.2455596809250806e-001
        -9.2459735407852162e-001 -9.2456064770688051e-001
        -6.8361629302923377e-001 -7.2168137663114107e-001
        -1.1329695190158120e+000 -3.7534718866524419e-001
        -9.2459460919684866e-001 -9.2458211512276300e-001
        -9.2460756544487477e-001 -4.3608730206861707e-001
        -9.2459738320339890e-001 -1.6616828284268277e+000
        -1.8355297559701647e+000 -9.3161679255253971e-001
        -9.2454770850995038e-001 -9.2459731304088033e-001
        -9.2455527390911807e-001 -9.2460644402909165e-001
        -9.2370354390376885e-001 -9.2456367929398531e-001
        -9.2458211512276300e-001 -2.5000000000000000e+000
        -9.2297453007311592e-001 -2.5000000000000000e+000
        -2.5000000000000000e+000 -9.2448963899498948e-001
        -2.5000000000000000e+000 -9.2455822102450747e-001
        -2.5000000000000000e+000</alpha>
      <index>
        105 90 78 102 94 86 88 72 92 80 100 96 104 76 87 77 89 69 91 93
        73 95 81 99 97 83 75 103 85 71 106 70 74 82 98 0 125 114 136 129
        121 123 109 127 116 135 131 119 138 112 122 113 124 107 126 128
        110 130 117 134 132 118 111 137 120 108 68 133 33 21 10 31 17 19
        4 23 12 30 26 16 8 18 9 20 1 22 11 24 5 25 13 29 27 15 7 32 3 34
        2 6 14 28 51 43 65 41 52 38 56 45 63 59 49 67 37 42 53 35 55 44
        57 39 58 62 60 48 64 40 66 50 36 47 61 381 382 384 383 376 380
        379 378 377 393 385 386 387 388 389 390 391 392 357 366 283 358
        359 360 361 362 363 364 365 375 367 368 369 370 371 372 373 374
        422 413 414 415 416 417 418 419 420 421 412 423 424 425 426 427
        428 429 403 395 396 397 398 399 400 401 402 394 404 405 406 407
        408 409 410 411 310 301 302 303 304 305 306 307 308 309 300 311
        312 313 314 315 316 317 318 291 356 284 285 286 287 288 289 290
        319 292 293 294 295 296 297 298 299 347 339 340 341 342 343 345
        346 338 348 349 350 351 352 353 354 355 329 320 321 322 323 324
        325 326 327 328 330 331 332 333 334 335 336 337</index></_>
    <_>
      <sv_count>283</sv_count>
      <rho>1.0658130919048431e-001</rho>
      <alpha>
        1.1065716212577561e+000 2.4097139325882169e+000
        2.5000000000000000e+000 7.3445370529743970e-001
        1.1065744932251069e+000 2.5000000000000000e+000
        1.1065715238144656e+000 1.1019409110566032e+000
        2.5000000000000000e+000 1.1066278683171689e+000
        2.5000000000000000e+000 6.4884211460496233e-001
        2.3933756979742737e+000 1.9854404850505571e+000
        1.1029926674961705e+000 9.8029529443448893e-001
        6.2379059205836218e-001 1.1065800153789718e+000
        1.1294396919133942e+000 2.5000000000000000e+000
        2.5000000000000000e+000 1.1066319233595165e+000
        2.5000000000000000e+000 6.4911731685539720e-001
        6.7244436315938694e-001 2.5000000000000000e+000
        2.5000000000000000e+000 4.3783388680319268e-001
        5.7019108186501599e-001 1.1064912039144774e+000
        1.1019246110974981e+000 2.5000000000000000e+000
        1.9783118230694627e+000 1.1063769258104548e+000
        1.1345819010015168e+000 1.1065905301055425e+000
        2.5000000000000000e+000 2.5000000000000000e+000
        3.0556404408376736e-001 1.1066260602413411e+000
        1.0765788097147508e+000 1.8936684197537856e-001
        1.1065837924656559e+000 1.1065690354385325e+000
        1.0772984855373682e+000 2.5000000000000000e+000
        9.0165551651514142e-001 2.5000000000000000e+000
        2.5000000000000000e+000 1.0767652998124779e+000
        6.9316541606583237e-001 1.1065789136010211e+000
        1.1045978149376685e+000 1.1451931150767138e+000
        1.1968664998326077e+000 9.7780980407203311e-001
        2.5000000000000000e+000 9.0417808218095863e-001
        1.1066030315792841e+000 1.1065728229420033e+000
        1.1065697574741793e+000 1.0683567114817036e+000
        2.3908099726414909e+000 2.5000000000000000e+000
        8.3793171694858815e-001 1.1065738361714723e+000
        5.3287456824904589e-001 8.3788470819798500e-001
        1.9926821354326214e+000 7.3942180712159367e-001
        7.1363889591071250e-001 2.5000000000000000e+000
        1.1065693966801562e+000 9.9492496748003312e-001
        1.0927502451929685e+000 1.0927981076999107e+000
        9.3429855180100396e-001 1.1065699259361168e+000
        2.3733221058177536e+000 5.3078701336355394e-001
        6.7240081480785696e-001 1.1161530991751034e+000
        1.1065696926477100e+000 1.1065788415541058e+000
        1.1065695331450738e+000 1.1066137305422308e+000
        1.1065715925542445e+000 1.2700578195299619e+000
        1.1066196711235741e+000 1.1179857532789756e+000
        1.1065962515043652e+000 1.1066278683171689e+000
        9.9495189549756713e-001 1.0647488195742254e+000
        1.1065911079976980e+000 7.3114530093240504e-001
        2.5000000000000000e+000 1.0647550982917926e+000
        1.0629048651639870e+000 1.1244293274858803e+000
        1.1065702689914119e+000 1.1067829664945636e+000
        6.5559598936873797e-001 8.2891528745161303e-001
        2.1374870990481196e+000 1.1065761549659503e+000
        1.1065748109320841e+000 1.0414466253426384e+000
        1.1060009711927512e+000 7.3937611664810421e-001
        1.0550408320464850e+000 1.1110226093263105e+000
        1.1065715078665552e+000 6.4637426860118885e-001
        6.4929489464255918e-001 1.0550181163780163e+000
        1.1065892807237496e+000 1.1065371358356659e+000
        1.1065704294702112e+000 1.1065817741260888e+000
        1.1066100285999354e+000 1.4983292277266296e+000
        1.1059830252066021e+000 6.4916045114160348e-001
        2.4712352522723244e+000 3.2036747880630478e-001
        2.5000000000000000e+000 1.1065707597618941e+000
        1.1065563577770450e+000 1.1065789931526666e+000
        1.5774003714852061e-001 1.1065810405825647e+000
        1.1065438822279992e+000 8.2895158842620198e-001
        1.1065716110921173e+000 1.1065703019117277e+000
        -8.9361410404413133e-001 -8.9342705329411087e-001
        -8.9341954066647189e-001 -8.9343030735218465e-001
        -1.3335609683471867e+000 -8.9342969808827233e-001
        -8.9341802353378152e-001 -8.9342905599309819e-001
        -9.0516677130855783e-001 -1.7897554533842568e+000
        -8.9342527764869473e-001 -8.9341950727972663e-001
        -2.5000000000000000e+000 -8.9340977779530373e-001
        -8.9342914841712162e-001 -8.9342914841712162e-001
        -8.9340744097060698e-001 -5.9682721244895642e-001
        -7.2855345882430467e-001 -9.4039877118712223e-001
        -8.9338974183450903e-001 -8.9296734877246919e-001
        -2.5000000000000000e+000 -2.5000000000000000e+000
        -8.9342913932807122e-001 -2.2371231443400936e+000
        -8.9341885802661758e-001 -8.9341950727972641e-001
        -8.9343881091164890e-001 -8.9331480054201484e-001
        -8.9342867166664663e-001 -8.9342899928312236e-001
        -8.9341510092626319e-001 -8.9341802353378152e-001
        -8.9342710227289368e-001 -8.9342809338370754e-001
        -8.9339869045460119e-001 -8.9338391200799794e-001
        -8.9337813892210471e-001 -8.9342366363949277e-001
        -8.9343007421764908e-001 -8.9343034542111865e-001
        -8.9342899928312236e-001 -8.9342754939854252e-001
        -1.8340181712451364e+000 -2.5000000000000000e+000
        -2.5000000000000000e+000 -8.9343040298282794e-001
        -8.9342911802543523e-001 -8.9342924023810588e-001
        -8.9336807664048357e-001 -1.5996152487959776e+000
        -2.5000000000000000e+000 -8.9338824740992928e-001
        -8.9343691301488282e-001 -2.5000000000000000e+000
        -8.9341536052395265e-001 -8.9340478673779333e-001
        -8.9343034540406396e-001 -8.9341406306399873e-001
        -8.9350310559495949e-001 -8.9346673934402765e-001
        -8.9342440461376327e-001 -8.9342139267104037e-001
        -2.5000000000000000e+000 -1.9404095119095996e+000
        -2.5000000000000000e+000 -8.9336807664048357e-001
        -8.9341911526842555e-001 -8.9342987990304090e-001
        -8.9342537910846564e-001 -1.8465307354808407e+000
        -1.9401940272158560e+000 -8.9338526856527345e-001
        -2.5000000000000000e+000 -5.1189023572024406e-001
        -9.2769125550616416e-001 -2.5000000000000000e+000
        -8.9342717617011125e-001 -8.9341703644162929e-001
        -8.9342222576600139e-001 -8.9342518906790969e-001
        -8.9342867166664663e-001 -9.0765187234819855e-001
        -8.9342978209470925e-001 -2.5000000000000000e+000
        -2.5000000000000000e+000 -2.5000000000000000e+000
        -8.9294048571899598e-001 -2.5000000000000000e+000
        -8.9338245047882603e-001 -8.9341802353378152e-001
        -8.9341962743060555e-001 -8.9342911802543479e-001
        -9.7448631579865597e-001 -8.9342103480956403e-001
        -8.9339822581833672e-001 -8.9342977705439042e-001
        -8.9342902355435660e-001 -2.1718021946021908e+000
        -8.9342931245700696e-001 -8.9341280555441649e-001
        -8.9345226514758203e-001 -8.9342191684235706e-001
        -8.9343040298282794e-001 -8.9342706611048728e-001
        -8.9346054168001843e-001 -8.9342388609750734e-001
        -8.9342119981569479e-001 -8.9342045703974504e-001
        -2.5000000000000000e+000 -8.9340889200230200e-001
        -8.9342121198005797e-001 -8.9336807664048357e-001
        -8.9338399542616997e-001 -8.9340017437282604e-001
        -2.5000000000000000e+000 -2.5000000000000000e+000
        -2.5000000000000000e+000 -8.9343837742890264e-001
        -8.9340498253224465e-001 -8.9337006713285216e-001
        -8.9342717705895336e-001 -8.9342706611048728e-001
        -8.9340409735576221e-001 -8.9343085411234835e-001
        -8.9341412381474428e-001 -8.9345226514758203e-001
        -8.9342809338370754e-001 -2.5000000000000000e+000
        -2.5000000000000000e+000 -8.9342222576600139e-001
        -8.9345497815381858e-001 -8.9337081993116463e-001
        -8.9342711272468134e-001 -8.9342466195923476e-001
        -7.2976127302724048e-001 -8.9216313173645123e-001
        -8.9341819998331207e-001 -8.9343204093238882e-001
        -2.5000000000000000e+000 -8.9337000631526942e-001
        -8.9342103511178628e-001 -8.9342711272468134e-001
        -8.9341954066647189e-001 -8.9342119474605097e-001
        -8.9338284113575361e-001</alpha>
      <index>
        105 90 78 102 94 86 88 72 92 80 100 96 84 104 76 87 77 89 69 91
        79 93 73 95 81 99 97 83 101 75 103 85 71 106 70 74 82 98 0 125
        114 136 129 121 123 109 127 116 135 131 119 138 122 113 124 126
        115 128 110 130 117 134 132 118 111 137 120 108 68 133 33 21 10
        17 19 4 23 12 30 26 16 8 18 9 20 1 22 11 24 5 25 13 29 27 15 7
        32 3 34 2 6 14 28 51 54 43 65 41 52 38 56 45 63 59 49 67 37 42
        53 35 55 44 57 39 58 46 62 60 48 64 40 66 50 36 47 61 530 531
        533 532 525 529 528 527 526 542 534 535 536 537 538 539 540 541
        506 515 580 507 508 509 511 512 513 514 524 516 517 518 519 520
        521 522 523 571 563 564 565 566 567 568 569 570 561 572 573 574
        575 576 577 578 579 552 544 545 546 547 548 549 550 551 543 553
        554 555 556 557 558 559 560 459 450 451 452 453 454 455 456 457
        458 449 460 461 462 463 465 466 467 440 431 432 433 434 435 436
        437 438 439 468 441 442 443 444 445 446 447 448 496 487 488 489
        490 491 492 493 494 495 486 497 498 499 500 501 502 503 504 477
        469 470 471 472 473 474 475 476 505 478 479 480 481 482 483 484
        485</index></_>
    <_>
      <sv_count>285</sv_count>
      <rho>8.0962875864896075e-003</rho>
      <alpha>
        1.0080470947919751e+000 1.5086305454099058e+000
        1.0080493859984794e+000 1.0080976441520013e+000
        1.0081477060094366e+000 1.8403538198348388e+000
        1.0080450421158214e+000 1.0080932358955637e+000
        1.0081316472083850e+000 1.0079260632682827e+000
        9.9544924840223203e-002 1.0081553169596129e+000
        1.5695760538819608e+000 1.0080820013631149e+000
        1.0080943676980127e+000 1.0080483326754484e+000
        1.0080450705279282e+000 7.6847702710630239e-001
        2.2794265183681910e+000 9.5001942165596975e-001
        1.9821655202344350e+000 1.0081196975871216e+000
        1.0080965433841316e+000 6.4073478309303356e-001
        1.5098483134275016e+000 1.0080935071194730e+000
        2.5000000000000000e+000 1.0080917759063692e+000
        1.0080793155638397e+000 1.0378167583610300e+000
        2.5000000000000000e+000 1.0470865462071881e+000
        1.0080443167618010e+000 9.7081593487304874e-001
        8.6575066330868655e-001 1.1786164456891870e+000
        1.0114297338325837e+000 1.0080934393347374e+000
        2.1536092238247040e-001 1.0081485678666611e+000
        1.0080476795763826e+000 1.4348287734005225e+000
        1.2197469811342980e+000 2.5000000000000000e+000
        1.7722721526060474e+000 1.0081209255593064e+000
        2.5000000000000000e+000 1.0080973013381755e+000
        1.1601166100412612e+000 2.5000000000000000e+000
        7.6742166513363053e-001 1.0081162585491479e+000
        1.0080987706409033e+000 2.5000000000000000e+000
        1.0081526274732262e+000 1.0820637716899710e+000
        1.0080893552404020e+000 1.0081509872983072e+000
        1.0080662449666042e+000 1.0080698620002615e+000
        1.0081104586978871e+000 1.0049245525963941e+000
        1.0080924946716965e+000 1.0081565076530761e+000
        2.4085006557296662e-001 1.0081442112779926e+000
        1.0079583203086531e+000 1.6783513900782596e+000
        1.0081523059395270e+000 1.0081437994758171e+000
        1.0080844612712454e+000 1.0069072727307298e+000
        2.5000000000000000e+000 1.0080930313337555e+000
        2.5000000000000000e+000 2.5000000000000000e+000
        2.5000000000000000e+000 1.0080939243672253e+000
        2.5000000000000000e+000 1.0140484634381259e+000
        1.0080461732649812e+000 1.5967123384912785e+000
        9.9014401517995942e-001 1.0084458616872514e+000
        1.0080446016096718e+000 1.0080893552404055e+000
        1.0081280382487865e+000 5.1410126350019925e-001
        1.0080507949087847e+000 2.2670785019343231e+000
        1.0067347136778761e+000 2.5000000000000000e+000
        1.0081085423107543e+000 2.5000000000000000e+000
        1.0080869751452337e+000 1.0080897739991439e+000
        2.5000000000000000e+000 8.2535417117044529e-001
        1.0081096167091121e+000 1.0081416581811564e+000
        1.0081390013112210e+000 1.0081189045446808e+000
        1.0081617488623258e+000 5.1423021357318244e-001
        1.0080757725701894e+000 1.3224073736364990e+000
        1.0081460857213955e+000 1.0485944432671563e+000
        1.0080845393231770e+000 8.6902309439382719e-001
        3.2860662524323608e-001 1.0081475950452028e+000
        4.6766796325980314e-001 1.0082347959838405e+000
        1.0081961825403998e+000 1.0080763832487207e+000
        1.0078615762691510e+000 2.5000000000000000e+000
        2.5000000000000000e+000 1.0081311024399280e+000
        1.2821144814163159e+000 1.0081193407723894e+000
        8.6871476031400185e-001 2.2083404834582709e+000
        2.8258491045785772e-001 1.6278438663636532e+000
        1.6923859764650044e+000 1.0080750687650630e+000
        2.5000000000000000e+000 1.0652403181689429e+000
        1.0080698814737468e+000 1.0080698620002615e+000
        2.5000000000000000e+000 1.0080974591452851e+000
        1.0080922252381366e+000 1.0080784223879842e+000
        1.0080964690249623e+000 2.5000000000000000e+000
        2.5000000000000000e+000 1.0080366579746214e+000
        -2.5000000000000000e+000 -9.9193367566625468e-001
        -9.9190378776645505e-001 -2.5000000000000000e+000
        -9.9192975013138973e-001 -9.9192413684254699e-001
        -9.9797416462212396e-001 -5.6139328156509061e-001
        -9.9184806758340693e-001 -9.9211124472431311e-001
        -1.9321265296377537e+000 -2.5000000000000000e+000
        -7.7413728342723565e-001 -9.9189968456757671e-001
        -9.9185457908725105e-001 -6.1683677341326537e-001
        -2.5000000000000000e+000 -5.5245012116748826e-001
        -8.3376257533047848e-001 -5.8985365658036881e-001
        -1.1306797607730164e+000 -2.3637718070043983e+000
        -9.9194099847222605e-001 -9.9183621476540051e-001
        -2.1396894847927133e+000 -9.9180852518009799e-001
        -8.5964680385766246e-001 -2.5000000000000000e+000
        -2.5000000000000000e+000 -9.9193011852625323e-001
        -9.9186313139688687e-001 -9.9190212591120530e-001
        -1.4823791647745599e-001 -1.0761999632815280e+000
        -9.9193888481938630e-001 -9.9191913341806592e-001
        -2.5000000000000000e+000 -9.9190136680627550e-001
        -8.2149191676545841e-001 -9.3958797523635240e-001
        -9.9184971966742352e-001 -9.9195360439772529e-001
        -1.2267076292279320e+000 -9.9190722258279329e-001
        -9.9170605651508359e-001 -1.4524281642431955e+000
        -9.9191932517273784e-001 -9.9178939452779569e-001
        -9.9190514460474799e-001 -2.5000000000000000e+000
        -9.9096639043057178e-001 -9.9194885352112150e-001
        -9.9184210879223333e-001 -1.0707634032761719e+000
        -2.1165453658426889e-001 -9.9186257458206795e-001
        -1.7487050214038387e+000 -5.5461418505819493e-001
        -1.6016608407835164e+000 -9.9192349621235687e-001
        -9.9192768179765334e-001 -9.9189334557656617e-001
        -9.9194896366425878e-001 -2.5000000000000000e+000
        -2.5000000000000000e+000 -9.9187615378504934e-001
        -9.9181957689384337e-001 -1.0669781793747646e+000
        -2.5000000000000000e+000 -1.0441369254524426e+000
        -9.9185391427859859e-001 -9.9185608248676138e-001
        -9.9191965227197110e-001 -9.9184717796312361e-001
        -9.9192014283636165e-001 -2.5000000000000000e+000
        -9.9188558226070767e-001 -9.9192618110144515e-001
        -1.3610312435369136e+000 -1.4938491952214286e+000
        -8.3378375600893506e-001 -1.1226009643134722e+000
        -9.9192758911831602e-001 -9.9197300258786458e-001
        -9.9063820815365689e-001 -9.9195444476126082e-001
        -5.2684009658840503e-001 -9.9192671940308130e-001
        -1.2493935181785847e+000 -1.0328849301958802e+000
        -9.9192118679038088e-001 -9.9187894459285408e-001
        -9.9193756568149161e-001 -9.9190474994133193e-001
        -9.9192051591342922e-001 -3.3231615621021213e-002
        -9.9192987642882013e-001 -6.7233421822031481e-001
        -9.9185851728635765e-001 -2.5000000000000000e+000
        -9.9917046329955495e-001 -9.9174605963126905e-001
        -9.4160780163402924e-001 -1.0912815680738785e+000
        -9.9190971375835635e-001 -2.3275953476757505e+000
        -9.9190805805341054e-001 -2.5000000000000000e+000
        -9.9185457908725105e-001 -6.6040028916606666e-002
        -9.9183682465957412e-001 -9.9196008594918639e-001
        -9.9185461820699194e-001 -2.5000000000000000e+000
        -9.9195372737755572e-001 -2.2351634508465068e+000
        -9.9192422533883473e-001 -9.9190393303601043e-001
        -7.3345632342837719e-001 -7.7426568231799286e-001
        -9.9221234548329917e-001 -2.5000000000000000e+000
        -9.9194577883510704e-001 -9.9194700746382747e-001
        -9.9196311489329658e-001 -4.6775011228440672e-001
        -9.9190354610046172e-001 -9.9203352001561196e-001
        -9.9188772127905023e-001 -9.9184210879222268e-001
        -9.9185395146263067e-001 -9.9186099868877897e-001
        -9.9192422542060710e-001 -9.9191823523033107e-001
        -9.9093196915076154e-001 -9.9193661641880271e-001
        -9.9195232042361736e-001 -2.5000000000000000e+000
        -1.0896977842004152e+000 -2.5000000000000000e+000
        -2.5000000000000000e+000 -1.8291625832377270e+000
        -2.5000000000000000e+000 -9.9191479263001803e-001
        -6.7231045790573840e-001</alpha>
      <index>
        237 238 240 239 232 236 235 234 249 241 242 243 244 245 246 247
        248 214 223 139 215 216 217 218 219 220 221 222 231 224 225 226
        227 228 229 230 275 267 268 269 270 271 272 273 274 266 276 277
        278 279 280 281 282 259 251 252 253 254 255 256 257 258 250 260
        261 262 263 264 265 168 159 160 162 163 164 165 166 167 158 169
        170 171 172 173 174 175 176 149 140 141 142 143 144 145 146 147
        148 213 150 151 152 153 154 155 156 157 204 195 196 198 199 200
        201 203 177 205 206 207 208 209 210 211 212 194 178 179 180 181
        182 183 184 185 186 187 188 189 190 191 192 193 382 384 383 376
        380 379 378 377 393 385 386 387 388 389 390 391 392 357 366 283
        358 359 360 361 362 363 364 365 375 367 368 369 370 371 372 373
        374 422 413 414 415 416 417 418 419 420 421 412 423 424 425 426
        427 428 429 403 395 396 397 398 399 400 401 402 394 404 405 406
        407 408 409 410 411 310 301 302 303 304 305 306 307 308 309 300
        311 312 313 314 315 316 317 318 356 284 285 286 287 288 289 290
        319 292 293 294 295 296 297 298 299 347 339 340 341 342 343 344
        345 346 338 348 349 350 351 352 353 354 355 329 320 321 322 323
        324 325 326 327 328 330 331 332 333 334 335 336 337</index></_>
    <_>
      <sv_count>290</sv_count>
      <rho>5.1875915228690422e-002</rho>
      <alpha>
        1.0518730970157488e+000 2.5000000000000000e+000
        1.2424298326414871e+000 1.0518767065919521e+000
        1.0518531887037050e+000 1.0518826699376602e+000
        1.0518801604277330e+000 1.0518755675675522e+000
        1.0518744013391403e+000 1.0516969054185146e+000
        1.8598235952750746e+000 1.0518882888057537e+000
        1.0518755672545383e+000 1.0518976903156554e+000
        1.0518749058052150e+000 1.0524581152960213e+000
        1.0518751210489039e+000 8.0200658502402722e-001
        1.0662718186106599e+000 1.0104282046944053e+000
        1.0518744148065915e+000 1.0518672615676379e+000
        1.0518752758515535e+000 6.6774208051285833e-001
        6.0316036061897849e-001 1.0518810017230931e+000
        2.5000000000000000e+000 1.0518734061422672e+000
        1.0518804790622962e+000 1.0518627560631890e+000
        5.3651565420570446e-001 1.0517403661413922e+000
        1.0518942565482485e+000 7.6668913527556826e-001
        6.7652833492223718e-001 1.0513799966485176e+000
        2.5000000000000000e+000 1.0518965237031048e+000
        2.9480105644719168e-001 1.1084903668057358e+000
        1.0518903970264921e+000 1.0104500557776701e+000
        7.8102917865523114e-001 2.4383251387808773e+000
        1.0159629392432643e+000 1.0518917138234956e+000
        1.8598944431150666e+000 1.0518759299026657e+000
        1.0517794972578345e+000 2.5000000000000000e+000
        7.9967329846739266e-001 1.0518942054162295e+000
        1.0518534223144140e+000 1.0471485037114738e+000
        1.0518755796110488e+000 2.5000000000000000e+000
        1.0518753529708755e+000 1.0518751276578899e+000
        1.0518947100892035e+000 1.0518836531864806e+000
        1.0518568413433838e+000 1.1037108117979411e+000
        1.0518753320011878e+000 1.0518915747175330e+000
        4.5638674623457998e-001 1.0518578202435507e+000
        1.0563542135911890e+000 8.5965288121254935e-001
        1.0518908609501643e+000 1.0518734058064394e+000
        1.0518977233521474e+000 1.2967315459102382e+000
        8.0140500688598026e-001 1.0518822431065840e+000
        2.5000000000000000e+000 2.5000000000000000e+000
        2.5000000000000000e+000 1.0518923049471991e+000
        2.5000000000000000e+000 1.0518832018851070e+000
        1.0518931036698884e+000 2.5000000000000000e+000
        1.1702560617243378e+000 1.0518897058069994e+000
        1.0518847541134608e+000 1.0518752291309579e+000
        1.0518482650377843e+000 1.9636364108269957e+000
        1.0518753849590661e+000 2.5575496708194961e-001
        1.0501490572988603e+000 2.5000000000000000e+000
        1.8821837552905243e+000 2.5000000000000000e+000
        1.2441920690724382e+000 1.0518942565482485e+000
        2.5000000000000000e+000 2.5000000000000000e+000
        1.0518763503799600e+000 1.0518746096897906e+000
        1.0518805125179889e+000 1.0518821430199838e+000
        1.0518754053036277e+000 7.0421305692264091e-001
        1.0518747219984632e+000 1.0517913548004350e+000
        1.0527484341179310e+000 1.0518729369483431e+000
        1.0518752273822281e+000 9.0673119129735369e-001
        3.4276575401752712e-001 1.0518655741372918e+000
        3.9936119924637825e-001 2.5000000000000000e+000
        1.0518374989847428e+000 1.3689545788883077e+000
        1.0518814616586267e+000 1.0632553840935439e+000
        2.5000000000000000e+000 8.6600200032221575e-001
        1.0518755796110488e+000 5.9696720023662775e-001
        1.0518755865778442e+000 1.0618473082852817e+000
        5.3563698214441580e-001 6.3028178699586135e-001
        2.1448329594720414e+000 1.0613862698317851e+000
        1.0518539691487707e+000 2.5000000000000000e+000
        2.5000000000000000e+000 1.0518753320011878e+000
        1.0518748424919544e+000 1.4583429270570403e+000
        1.0518864945565960e+000 1.0518752291309579e+000
        1.0518655473321885e+000 1.0518850906347428e+000
        2.5000000000000000e+000 1.1135503246945651e+000
        1.0518753694210123e+000 -2.5000000000000000e+000
        -9.4814673395804816e-001 -9.4812117812659924e-001
        -9.4812498055356875e-001 -9.4814481583471344e-001
        -9.4812552013264073e-001 -9.4810602718920955e-001
        -9.4812743348935913e-001 -9.4811535338374664e-001
        -7.4094758299160102e-001 -9.4812515750804538e-001
        -9.4812438960303247e-001 -2.5000000000000000e+000
        -9.4812364962008844e-001 -9.4811137012860736e-001
        -9.4812049632272954e-001 -9.4812458260369625e-001
        -5.7617555979220747e-001 -1.0813383860801635e+000
        -2.5000000000000000e+000 -9.4814854328409615e-001
        -9.4804428191487111e-001 -2.5000000000000000e+000
        -2.5000000000000000e+000 -2.5000000000000000e+000
        -9.4812313331795095e-001 -1.8043653713363519e+000
        -9.4811785704165086e-001 -9.4813260292884838e-001
        -9.4812350703489146e-001 -9.6614406169252665e-001
        -9.4811948748201114e-001 -9.4811403682895801e-001
        -9.4811671361811434e-001 -9.4812461479682286e-001
        -9.4814441488674972e-001 -9.4811282010863007e-001
        -9.4812407009737776e-001 -9.5839303457086000e-001
        -5.0116924743284741e-001 -9.4811787408729364e-001
        -9.4812549408031055e-001 -9.4813082786131542e-001
        -9.4812481570563301e-001 -9.4812446664457450e-001
        -9.4812364962004014e-001 -2.5000000000000000e+000
        -5.7309769221196616e-001 -9.4827798702807242e-001
        -9.4810446817164795e-001 -9.4813422055929919e-001
        -9.4811163235443963e-001 -9.4812254191785084e-001
        -2.5000000000000000e+000 -2.5000000000000000e+000
        -9.4814690726084672e-001 -9.4811899827690704e-001
        -2.3389409252372988e+000 -9.4812342546570827e-001
        -9.4814475150648236e-001 -1.2858795035884205e+000
        -9.4812393529747785e-001 -9.4908487178626366e-001
        -9.4814258475812185e-001 -9.4812486735952839e-001
        -9.4811327103915788e-001 -2.5000000000000000e+000
        -6.3351586474103283e-001 -2.5000000000000000e+000
        -9.4812558539556180e-001 -9.4810238038155481e-001
        -9.4812003604816208e-001 -9.4812428099137402e-001
        -2.5000000000000000e+000 -7.0022099125114023e-001
        -9.4813371238210920e-001 -9.4806502949072569e-001
        -5.7609731123686181e-001 -9.5320323137828922e-001
        -2.5000000000000000e+000 -9.4812364962004014e-001
        -9.4812392394621070e-001 -9.4814692802096112e-001
        -9.4812350061903805e-001 -9.4810497569984098e-001
        -9.4807958143712545e-001 -9.4812481581858576e-001
        -1.0302637504396617e+000 -8.8174236744594459e-001
        -2.5000000000000000e+000 -1.0093940274958608e+000
        -2.5000000000000000e+000 -9.4812473845910916e-001
        -9.4810366438345584e-001 -9.4812492653418989e-001
        -2.5000000000000000e+000 -2.5000000000000000e+000
        -9.4814217975644932e-001 -9.4812454493125475e-001
        -9.4811855906375819e-001 -9.4812669262017579e-001
        -8.0522704650412524e-001 -9.4812491199694016e-001
        -9.4813260292884838e-001 -9.4812486735952839e-001
        -9.4812487234210996e-001 -9.4813241759845002e-001
        -9.4811163235443963e-001 -9.4814022688601951e-001
        -9.4814334265486766e-001 -9.4811118099330027e-001
        -9.4812200180442785e-001 -2.3070266817759677e+000
        -9.4812463362520083e-001 -9.4810452921376664e-001
        -9.4812481570563301e-001 -9.4814119221521986e-001
        -9.4813841797034148e-001 -2.5000000000000000e+000
        -2.5000000000000000e+000 -4.4694400728197814e-001
        -9.4813191281424369e-001 -9.4812702547679162e-001
        -9.4814456937281111e-001 -9.4814119221521986e-001
        -9.4811350700181740e-001 -9.4811716017544712e-001
        -9.4812342550824447e-001 -9.4813343243538717e-001
        -9.4812577054723679e-001 -9.4814553593084072e-001
        -2.5000000000000000e+000 -2.5000000000000000e+000
        -9.4812492848137364e-001 -9.4812733128665916e-001
        -9.4812492848137364e-001 -9.4811785704165086e-001
        -9.4812445487075159e-001 -7.0719535587526738e-001
        -9.6042602009966871e-001 -9.4810452921376664e-001
        -9.4811685702985704e-001 -5.3329251885339313e-001
        -9.4812472414844662e-001 -9.4812450644721902e-001
        -9.4810602718920955e-001 -9.4812464630225290e-001
        -9.4811909920719661e-001 -9.4813335141006472e-001</alpha>
      <index>
        237 238 240 239 232 236 235 234 249 241 242 243 244 245 246 247
        248 214 223 139 215 216 217 218 219 220 221 222 231 224 225 226
        227 228 229 230 275 267 268 269 270 271 272 273 274 266 276 277
        278 279 280 281 282 259 251 252 253 254 255 256 257 258 250 260
        261 262 263 264 265 168 159 160 162 163 164 165 166 167 158 169
        170 171 172 173 174 175 176 149 140 141 142 143 144 145 146 147
        148 213 150 151 152 153 154 155 156 157 204 195 196 198 199 200
        201 202 203 177 205 206 207 208 209 210 211 212 194 178 179 180
        181 182 183 184 185 186 187 188 189 190 191 192 193 530 531 533
        532 525 529 528 527 526 542 534 535 536 537 538 539 540 541 506
        515 580 507 508 509 510 511 512 513 514 524 516 517 518 519 520
        521 522 523 571 562 563 564 565 566 567 568 569 570 561 572 573
        574 575 576 577 578 579 552 544 545 546 547 548 549 550 551 543
        553 554 555 556 557 558 559 560 459 450 451 452 453 454 455 456
        457 458 449 460 461 462 463 465 466 467 440 431 432 433 434 435
        436 437 438 439 468 441 442 443 444 445 446 447 448 496 487 488
        489 490 491 492 493 494 495 486 497 498 499 500 501 502 503 504
        477 469 470 471 472 473 474 475 476 505 478 479 480 481 482 483
        484 485</index></_>
    <_>
      <sv_count>294</sv_count>
      <rho>4.2439267957548224e-002</rho>
      <alpha>
        2.7896386640579646e-001 2.5000000000000000e+000
        1.0424452265932278e+000 1.0424549655700361e+000
        2.5000000000000000e+000 1.0424061804120739e+000
        1.1108734674351746e+000 1.0424157044216027e+000
        5.8990112912191939e-001 1.0424502613777153e+000
        2.5000000000000000e+000 1.0405812790052782e+000
        1.2500345830111836e+000 8.1366222078652761e-001
        1.0424461086765766e+000 1.0424336648442252e+000
        7.3573853551856538e-001 1.2060538617917824e+000
        6.2625901803686845e-001 8.7624941745151586e-001
        6.2216355464222795e-001 2.5000000000000000e+000
        9.0474307408523280e-001 1.0424378454361189e+000
        1.0424156305012440e+000 6.1482692389261651e-001
        1.2357821500719799e+000 8.7003788939508520e-001
        2.5000000000000000e+000 8.9080786577198923e-001
        1.0424097177076028e+000 1.0424107304385573e+000
        1.0437239688224942e+000 6.3792421884066763e-001
        1.0424439032706476e+000 1.0424071572815456e+000
        1.0424477945500550e+000 2.5000000000000000e+000
        1.0424105992709973e+000 8.6999359756927053e-001
        7.3575405502241153e-001 1.0424215528882537e+000
        1.0424677985686466e+000 5.3188477095998410e-001
        1.3899902428738886e+000 1.0422616871248069e+000
        1.0424283769798577e+000 1.0424090677234712e+000
        1.0652086752314338e+000 1.0424145808329133e+000
        2.5000000000000000e+000 1.0409386768209599e+000
        1.0424081510438705e+000 1.0424665818225258e+000
        5.3311609184399666e-001 3.0401726721494537e-001
        5.6145072928621850e-002 1.0425719482255513e+000
        2.5000000000000000e+000 5.6711950165273639e-001
        6.3578486494061204e-001 1.0424510724598752e+000
        1.0423765341190607e+000 1.0424500050425385e+000
        1.0662722228434445e+000 2.5000000000000000e+000
        9.9051205822786836e-001 1.0424596636155270e+000
        1.0423929323311443e+000 1.0564132496143659e+000
        2.5000000000000000e+000 8.9379083682038207e-001
        1.0424665818225258e+000 1.0424282596559309e+000
        1.0424223204335812e+000 1.0424134531502323e+000
        1.0424097177076028e+000 2.5000000000000000e+000
        1.0423895698568932e+000 1.0424175561064237e+000
        8.9379271417163786e-001 2.5000000000000000e+000
        8.7628713384677814e-001 8.9377403619527584e-001
        1.0424308290807482e+000 1.0504637697583508e+000
        1.0411345895157673e+000 1.0441090466807288e+000
        5.6622815876842025e-001 1.0424336066394837e+000
        9.5475494257569404e-001 1.0422489406043569e+000
        1.0424058309393118e+000 1.0424484270785777e+000
        1.0424569990519732e+000 1.0424338986568313e+000
        1.0424223204335812e+000 1.0424183675961509e+000
        7.0662585375954445e-001 1.0424515960334257e+000
        2.5000000000000000e+000 2.5000000000000000e+000
        1.0423820205995169e+000 8.9378718793844281e-001
        5.6694353008644405e-001 1.0424086413949500e+000
        1.4855796269244992e+000 1.0424268050057499e+000
        2.5000000000000000e+000 1.0484301883974552e+000
        2.7034716980036577e-002 1.0424701342602833e+000
        1.0424061268169829e+000 1.0424477867974917e+000
        2.5000000000000000e+000 1.0424265469443383e+000
        5.3332252775907918e-001 1.0424500909093033e+000
        1.0424331055279226e+000 7.7074941224846338e-001
        8.1367926426038661e-001 1.0423842257718614e+000
        2.0147772045606058e+000 1.0424478833511510e+000
        1.2078032043991409e+000 1.0424167568768743e+000
        4.9167614001633397e-001 1.0424153281098631e+000
        1.0424271140171395e+000 1.0768323585517132e+000
        1.0424608797738208e+000 1.0424558720240973e+000
        1.0424089514591302e+000 1.0424554738360010e+000
        1.0424519214772854e+000 1.8627392011657000e+000
        1.0424062899859938e+000 1.0424041351065469e+000
        2.5000000000000000e+000 1.0407613449457174e+000
        2.5000000000000000e+000 1.0559495790632656e+000
        1.0423320754593712e+000 1.0424451369968872e+000
        1.0424555554324553e+000 7.0655702143789167e-001
        -1.9580263231434119e+000 -1.1632029172559246e+000
        -9.5755194454658676e-001 -9.5754821852159822e-001
        -9.5768597587649040e-001 -9.5754843798356026e-001
        -9.5754406182046958e-001 -9.5758515006994771e-001
        -9.6409855544374590e-001 -9.9312275501173009e-001
        -9.8342389844322986e-001 -9.5758452680054429e-001
        -2.5000000000000000e+000 -9.5755431532164414e-001
        -9.5757928082459809e-001 -9.5759093227652936e-001
        -9.5754859320214292e-001 -5.8190652342120108e-001
        -7.7125619177376226e-001 -9.7273971051035413e-001
        -9.5757975053828059e-001 -9.5925169892174866e-001
        -2.5000000000000000e+000 -2.5000000000000000e+000
        -3.7213983506021175e-001 -9.5758483383568493e-001
        -9.5742929966737877e-001 -9.5754990909069670e-001
        -9.5755295219726266e-001 -9.5754973862228465e-001
        -9.5747489046411338e-001 -9.5753623254904441e-001
        -9.5758477499085581e-001 -1.0314481982339962e+000
        -9.5753220143135354e-001 -9.5754435546055539e-001
        -9.5942449844870659e-001 -9.5754924572130218e-001
        -9.6072604279964802e-001 -2.4977142079232619e+000
        -9.5770895798501443e-001 -9.5753220143135354e-001
        -9.5755116367546056e-001 -9.5754262251891742e-001
        -9.5754909197774229e-001 -9.5752949161248102e-001
        -2.5000000000000000e+000 -6.4016540776552189e-001
        -1.2710564080189830e+000 -9.5754605966717055e-001
        -9.5754932448503960e-001 -9.5755161163586255e-001
        -9.5759104854086996e-001 -2.2577424007525071e+000
        -2.5000000000000000e+000 -9.5754904427455989e-001
        -9.5758417858170386e-001 -9.5757210472824261e-001
        -9.5757288598286050e-001 -9.6178591121146551e-001
        -9.5755138729646549e-001 -9.5755012235965242e-001
        -9.5754816469288018e-001 -9.5759630735198786e-001
        -9.5754912073129339e-001 -2.5000000000000000e+000
        -1.1942133301337321e+000 -2.5000000000000000e+000
        -9.5754912073129339e-001 -9.5754889945693866e-001
        -9.5757162302014243e-001 -9.5755212994111671e-001
        -2.5000000000000000e+000 -2.3741480646831548e+000
        -9.5759420713417631e-001 -9.5746431724653602e-001
        -5.8184659387611637e-001 -9.5754849003342757e-001
        -2.5000000000000000e+000 -9.5754962181154868e-001
        -1.8051606538483027e+000 -9.5751687497755134e-001
        -9.5753308033124251e-001 -1.1337632358089558e+000
        -9.8227255606569619e-001 -9.5754358701717057e-001
        -1.1944841471795904e+000 -5.9689483806765331e-001
        -2.5000000000000000e+000 -8.5281922294561607e-001
        -9.6365562335476251e-001 -2.5000000000000000e+000
        -9.5755164000318027e-001 -9.5758508928354968e-001
        -9.5759232183740750e-001 -9.6784550344911680e-001
        -2.5000000000000000e+000 -9.5758536482294776e-001
        -9.5754351739635346e-001 -9.5758541916708662e-001
        -9.5759284271845435e-001 -5.3084732902456433e-001
        -9.5754924572130218e-001 -9.5758536482294776e-001
        -9.5755288395557148e-001 -9.5758440931044020e-001
        -9.5758940083492472e-001 -9.5759491851655854e-001
        -9.5755212993831884e-001 -9.5755904374307432e-001
        -9.5754033638447300e-001 -9.5754823917103471e-001
        -4.9010157772881724e-001 -9.5759550668116222e-001
        -9.5758417858170386e-001 -9.5757288598286050e-001
        -9.5759135860505007e-001 -9.5754515567700349e-001
        -9.7294952806460855e-001 -2.5000000000000000e+000
        -5.3103961411562195e-001 -9.5754870325679375e-001
        -9.5759076059669013e-001 -9.5755639046249486e-001
        -9.5754892754012477e-001 -9.5754440847273214e-001
        -9.5757001746025872e-001 -9.5756902044167347e-001
        -9.5755593746799494e-001 -9.5758429557839730e-001
        -9.5753346023139263e-001 -2.5000000000000000e+000
        -2.5000000000000000e+000 -9.5754932448503960e-001
        -9.5758483383568493e-001 -9.5756347971834399e-001
        -9.5753220143135354e-001 -9.5883224738211448e-001
        -8.2750456947894613e-001 -1.0377975625322846e+000
        -9.5754906747528423e-001 -9.5757288598286050e-001
        -9.5758440523037214e-001 -9.5754390290078262e-001
        -9.5754870325679375e-001 -9.5759184895612948e-001
        -9.5754362116623726e-001 -9.5755194454658676e-001</alpha>
      <index>
        381 382 384 383 376 380 379 378 377 393 385 386 387 388 389 390
        391 392 357 366 283 358 359 360 361 362 363 364 365 375 367 368
        369 370 371 372 373 374 422 413 414 415 416 417 418 419 420 421
        412 423 424 425 426 427 428 429 430 403 395 396 397 398 399 400
        401 402 394 404 405 406 407 408 409 410 411 310 301 302 303 304
        305 306 307 308 309 300 311 312 313 314 315 316 317 318 356 284
        285 287 288 289 290 319 292 293 294 295 296 297 298 299 347 339
        340 341 342 343 344 345 346 338 348 349 350 351 352 353 354 355
        329 320 321 322 323 324 325 326 327 328 330 331 332 333 334 335
        336 337 530 531 533 532 525 529 528 527 526 542 534 535 536 537
        538 539 540 541 506 515 580 507 508 509 510 511 512 513 514 524
        516 517 518 519 520 521 522 523 571 562 563 564 565 566 567 568
        569 570 561 572 573 574 575 576 577 578 579 544 545 546 547 548
        549 550 551 543 553 554 555 556 557 558 559 560 459 450 451 452
        453 454 455 456 457 458 449 460 461 462 463 464 465 466 467 440
        431 432 433 434 435 436 437 438 439 468 441 442 443 444 445 446
        447 448 496 487 488 489 490 491 492 493 494 495 486 497 498 499
        500 501 502 503 504 477 469 470 471 472 473 474 475 476 505 478
        480 481 482 483 484 485</index></_></decision_functions></opencv_ml_svm>
</opencv_storage>
