<?xml version="1.0"?>
<opencv_storage>
<opencv_ml_svm>
  <format>3</format>
  <svmType>C_SVC</svmType>
  <kernel>
    <type>RBF</type>
    <gamma>1.0000000000000001e-005</gamma></kernel>
  <C>2.5000000000000000e+000</C>
  <term_criteria><epsilon>1.1920928955078125e-007</epsilon>
    <iterations>1000</iterations></term_criteria>
  <var_count>3</var_count>
  <class_count>4</class_count>
  <class_labels type_id="opencv-matrix">
    <rows>4</rows>
    <cols>1</cols>
    <dt>i</dt>
    <data>
      0 1 2 3</data></class_labels>
  <sv_total>100</sv_total>
  <support_vectors>
    <_>
      398. 8. 4307.</_>
    <_>
      38. 1. 3068.</_>
    <_>
      32. 1. 1589.</_>
    <_>
      255. 3. 1003.</_>
    <_>
      0. 0. 334.</_>
    <_>
      0. 0. 350.</_>
    <_>
      0. 0. 202.</_>
    <_>
      0. 0. 2075.</_>
    <_>
      0. 0. 3944.</_>
    <_>
      172. 5. 2754.</_>
    <_>
      0. 0. 4538.</_>
    <_>
      0. 0. 1492.</_>
    <_>
      165. 2. 3111.</_>
    <_>
      0. 0. 294.</_>
    <_>
      0. 0. 7039.</_>
    <_>
      0. 0. 3676.</_>
    <_>
      666. 7. 18.</_>
    <_>
      1295. 10. 378.</_>
    <_>
      121. 2. 1252.</_>
    <_>
      30. 1. 936.</_>
    <_>
      0. 0. 3993.</_>
    <_>
      0. 0. 2783.</_>
    <_>
      516. 7. 2386.</_>
    <_>
      103. 2. 244.</_>
    <_>
      179. 2. 2035.</_>
    <_>
      31. 1. 4728.</_>
    <_>
      0. 0. 1106.</_>
    <_>
      126. 4. 5038.</_>
    <_>
      166. 3. 3040.</_>
    <_>
      247. 4. 1612.</_>
    <_>
      37. 1. 5289.</_>
    <_>
      944. 14. 1805.</_>
    <_>
      0. 0. 1255.</_>
    <_>
      1646. 12. 4730.</_>
    <_>
      337. 5. 1426.</_>
    <_>
      275. 5. 4900.</_>
    <_>
      0. 0. 5116.</_>
    <_>
      387. 7. 2754.</_>
    <_>
      0. 0. 3455.</_>
    <_>
      0. 0. 2648.</_>
    <_>
      328. 7. 1312.</_>
    <_>
      213. 4. 720.</_>
    <_>
      0. 0. 2201.</_>
    <_>
      0. 0. 4958.</_>
    <_>
      0. 0. 3029.</_>
    <_>
      64. 2. 4396.</_>
    <_>
      48. 1. 3799.</_>
    <_>
      171. 4. 166.</_>
    <_>
      0. 0. 4105.</_>
    <_>
      132. 2. 1211.</_>
    <_>
      0. 0. 5568.</_>
    <_>
      168. 2. 6132.</_>
    <_>
      233. 5. 4313.</_>
    <_>
      64. 1. 428.</_>
    <_>
      34. 1. 4332.</_>
    <_>
      0. 0. 5000.</_>
    <_>
      210. 3. 1739.</_>
    <_>
      140. 3. 2764.</_>
    <_>
      95. 3. 1705.</_>
    <_>
      230. 5. 164.</_>
    <_>
      120. 2. 532.</_>
    <_>
      259. 5. 3262.</_>
    <_>
      0. 0. 2252.</_>
    <_>
      0. 0. 2615.</_>
    <_>
      0. 0. 1655.</_>
    <_>
      243. 4. 2401.</_>
    <_>
      171. 3. 1648.</_>
    <_>
      244. 4. 1618.</_>
    <_>
      229. 6. 1327.</_>
    <_>
      0. 0. 1504.</_>
    <_>
      0. 0. 208.</_>
    <_>
      0. 0. 2567.</_>
    <_>
      65. 1. 833.</_>
    <_>
      0. 0. 3455.</_>
    <_>
      0. 0. 1374.</_>
    <_>
      269. 4. 6061.</_>
    <_>
      82. 1. 5536.</_>
    <_>
      762. 8. 210.</_>
    <_>
      55. 1. 500.</_>
    <_>
      353. 3. 2111.</_>
    <_>
      1436. 8. 2611.</_>
    <_>
      1796. 26. 5036.</_>
    <_>
      2946. 28. 1786.</_>
    <_>
      6120. 42. 3181.</_>
    <_>
      5234. 48. 6306.</_>
    <_>
      133. 3. 5391.</_>
    <_>
      782. 10. 5118.</_>
    <_>
      2042. 25. 11949.</_>
    <_>
      0. 0. 2493.</_>
    <_>
      3818. 38. 4933.</_>
    <_>
      3385. 33. 6334.</_>
    <_>
      89. 2. 5064.</_>
    <_>
      133. 2. 5929.</_>
    <_>
      471. 4. 70.</_>
    <_>
      291. 3. 985.</_>
    <_>
      911. 15. 5435.</_>
    <_>
      711. 10. 2618.</_>
    <_>
      463. 6. 417.</_>
    <_>
      984. 8. 2021.</_>
    <_>
      919. 7. 625.</_></support_vectors>
  <decision_functions>
    <_>
      <sv_count>50</sv_count>
      <rho>0.</rho>
      <alpha>
        1. 1. 1. 1. 1. 1. 1. 1. 1. 1. 1. 1. 1. 1. 1. 1. 1. 1. 1. 1. 1.
        1. 1. 1. 1. -1. -1. -1. -1. -1. -1. -1. -1. -1. -1. -1. -1. -1.
        -1. -1. -1. -1. -1. -1. -1. -1. -1. -1. -1. -1.</alpha>
      <index>
        13 0 24 23 22 21 20 19 18 17 16 15 14 12 11 10 9 8 7 6 5 4 3 2 1
        43 41 42 38 40 39 25 44 45 46 47 48 49 37 36 35 34 33 32 31 30
        29 28 27 26</index></_>
    <_>
      <sv_count>50</sv_count>
      <rho>1.4789921523637906e-018</rho>
      <alpha>
        1. 1. 1. 1. 1. 1. 1. 1. 1. 1. 1. 1. 1. 1. 1. 1. 1. 1. 1.
        1.0000000060806911e+000 1. 1. 1. 1. 1. -1. -1. -1. -1. -1. -1.
        -1. -1. -1. -1.0000000060806911e+000 -1. -1. -1. -1. -1. -1. -1.
        -1. -1. -1. -1. -1. -1. -1. -1.</alpha>
      <index>
        13 0 24 23 22 21 20 19 18 17 16 15 14 12 11 10 9 8 7 6 5 4 3 2 1
        68 66 67 63 65 64 50 69 70 71 72 73 74 61 60 59 58 57 56 55 54
        53 52 51 62</index></_>
    <_>
      <sv_count>50</sv_count>
      <rho>0.</rho>
      <alpha>
        1. 1. 1. 1. 1. 1. 1. 1. 1. 1. 1. 1. 1. 1. 1. 1. 1. 1. 1. 1. 1.
        1. 1. 1. 1. -1. -1. -1. -1. -1. -1. -1. -1. -1. -1. -1. -1. -1.
        -1. -1. -1. -1. -1. -1. -1. -1. -1. -1. -1. -1.</alpha>
      <index>
        13 0 24 23 22 21 20 19 18 17 16 15 14 12 11 10 9 8 7 6 5 4 3 2 1
        92 88 91 90 89 99 93 94 95 96 97 98 87 86 85 84 83 82 81 80 79
        78 77 76 75</index></_>
    <_>
      <sv_count>50</sv_count>
      <rho>-2.8895068203235154e-019</rho>
      <alpha>
        1. 1. 1. 2.5000000000000000e+000 1. 1. 1. 1. 1. 1. 1. 1. 1. 1.
        1. 1. 1. 1. 1. 1. 1. 1.0000000000638556e+000 1. 1. 1. -1. -1.
        -1. -1.0000000000638556e+000 -1. -1. -1. -1. -1. -1. -1.
        -2.5000000000000000e+000 -1. -1. -1. -1. -1. -1. -1. -1. -1. -1.
        -1. -1. -1.</alpha>
      <index>
        43 41 42 38 40 39 25 44 45 46 47 48 49 37 36 35 34 33 32 31 30
        29 28 27 26 68 66 67 63 65 64 50 69 70 71 72 73 74 61 60 59 58
        57 56 55 54 53 52 51 62</index></_>
    <_>
      <sv_count>50</sv_count>
      <rho>0.</rho>
      <alpha>
        1. 1. 1. 1. 1. 1. 1. 1. 1. 1. 1. 1. 1. 1. 1. 1. 1. 1. 1. 1. 1.
        1. 1. 1. 1. -1. -1. -1. -1. -1. -1. -1. -1. -1. -1. -1. -1. -1.
        -1. -1. -1. -1. -1. -1. -1. -1. -1. -1. -1. -1.</alpha>
      <index>
        43 41 42 38 40 39 25 44 45 46 47 48 49 37 36 35 34 33 32 31 30
        29 28 27 26 92 88 91 90 89 99 93 94 95 96 97 98 87 86 85 84 83
        82 81 80 79 78 77 76 75</index></_>
    <_>
      <sv_count>50</sv_count>
      <rho>0.</rho>
      <alpha>
        1. 1. 1. 1. 1. 1. 1. 1. 1. 1. 1. 1. 1. 1. 1. 1. 1. 1. 1. 1. 1.
        1. 1. 1. 1. -1. -1. -1. -1. -1. -1. -1. -1. -1. -1. -1. -1. -1.
        -1. -1. -1. -1. -1. -1. -1. -1. -1. -1. -1. -1.</alpha>
      <index>
        68 66 67 63 65 64 50 69 70 71 72 73 74 61 60 59 58 57 56 55 54
        53 52 51 62 92 88 91 90 89 99 93 94 95 96 97 98 87 86 85 84 83
        82 81 80 79 78 77 76 75</index></_></decision_functions></opencv_ml_svm>
</opencv_storage>
