<?xml version="1.0"?>
<opencv_storage>
<opencv_ml_svm>
  <format>3</format>
  <svmType>C_SVC</svmType>
  <kernel>
    <type>RBF</type>
    <gamma>1.0000000000000001e-005</gamma></kernel>
  <C>3.1250000000000000e+002</C>
  <term_criteria><epsilon>1.1920928955078125e-007</epsilon>
    <iterations>1000</iterations></term_criteria>
  <var_count>3</var_count>
  <class_count>4</class_count>
  <class_labels type_id="opencv-matrix">
    <rows>4</rows>
    <cols>1</cols>
    <dt>i</dt>
    <data>
      0 1 2 3</data></class_labels>
  <sv_total>595</sv_total>
  <support_vectors>
    <_>
      398. 8. 4307.</_>
    <_>
      38. 1. 3068.</_>
    <_>
      32. 1. 1589.</_>
    <_>
      255. 3. 1003.</_>
    <_>
      0. 0. 334.</_>
    <_>
      0. 0. 350.</_>
    <_>
      0. 0. 202.</_>
    <_>
      0. 0. 2075.</_>
    <_>
      0. 0. 3944.</_>
    <_>
      172. 5. 2754.</_>
    <_>
      0. 0. 4538.</_>
    <_>
      0. 0. 1492.</_>
    <_>
      165. 2. 3111.</_>
    <_>
      0. 0. 294.</_>
    <_>
      0. 0. 7039.</_>
    <_>
      0. 0. 3676.</_>
    <_>
      666. 7. 18.</_>
    <_>
      1295. 10. 378.</_>
    <_>
      30. 1. 936.</_>
    <_>
      0. 0. 3993.</_>
    <_>
      0. 0. 2783.</_>
    <_>
      516. 7. 2386.</_>
    <_>
      103. 2. 244.</_>
    <_>
      179. 2. 2035.</_>
    <_>
      144. 3. 799.</_>
    <_>
      0. 0. 5598.</_>
    <_>
      437. 7. 327.</_>
    <_>
      183. 3. 4052.</_>
    <_>
      107. 2. 2285.</_>
    <_>
      99. 2. 797.</_>
    <_>
      147. 4. 691.</_>
    <_>
      84. 2. 0.</_>
    <_>
      0. 0. 1770.</_>
    <_>
      259. 4. 10.</_>
    <_>
      578. 3. 582.</_>
    <_>
      0. 0. 198.</_>
    <_>
      0. 0. 38.</_>
    <_>
      0. 0. 266.</_>
    <_>
      245. 4. 1788.</_>
    <_>
      0. 0. 1541.</_>
    <_>
      122. 2. 988.</_>
    <_>
      53. 1. 2758.</_>
    <_>
      340. 4. 1862.</_>
    <_>
      0. 0. 4611.</_>
    <_>
      0. 0. 2817.</_>
    <_>
      0. 0. 1599.</_>
    <_>
      466. 9. 1615.</_>
    <_>
      78. 2. 3933.</_>
    <_>
      97. 2. 3505.</_>
    <_>
      0. 0. 2149.</_>
    <_>
      354. 4. 627.</_>
    <_>
      328. 3. 128.</_>
    <_>
      155. 3. 2059.</_>
    <_>
      90. 1. 1118.</_>
    <_>
      0. 0. 2105.</_>
    <_>
      0. 0. 811.</_>
    <_>
      69. 2. 3401.</_>
    <_>
      0. 0. 2217.</_>
    <_>
      0. 0. 3626.</_>
    <_>
      0. 0. 1173.</_>
    <_>
      0. 0. 75.</_>
    <_>
      0. 0. 5679.</_>
    <_>
      34. 1. 2060.</_>
    <_>
      0. 0. 1086.</_>
    <_>
      300. 3. 2087.</_>
    <_>
      54. 1. 445.</_>
    <_>
      0. 0. 658.</_>
    <_>
      0. 0. 3632.</_>
    <_>
      32. 1. 3331.</_>
    <_>
      0. 0. 134.</_>
    <_>
      0. 0. 6579.</_>
    <_>
      0. 0. 6317.</_>
    <_>
      0. 0. 5107.</_>
    <_>
      0. 0. 6310.</_>
    <_>
      0. 0. 3375.</_>
    <_>
      0. 0. 3123.</_>
    <_>
      0. 0. 312.</_>
    <_>
      0. 0. 467.</_>
    <_>
      0. 0. 3310.</_>
    <_>
      0. 0. 6330.</_>
    <_>
      0. 0. 2444.</_>
    <_>
      0. 0. 2412.</_>
    <_>
      0. 0. 2899.</_>
    <_>
      0. 0. 639.</_>
    <_>
      0. 0. 3988.</_>
    <_>
      145. 1. 1340.</_>
    <_>
      0. 0. 4489.</_>
    <_>
      0. 0. 5368.</_>
    <_>
      0. 0. 54.</_>
    <_>
      0. 0. 1412.</_>
    <_>
      0. 0. 1095.</_>
    <_>
      0. 0. 1277.</_>
    <_>
      0. 0. 470.</_>
    <_>
      0. 0. 928.</_>
    <_>
      0. 0. 1658.</_>
    <_>
      0. 0. 2799.</_>
    <_>
      104. 3. 3721.</_>
    <_>
      0. 0. 605.</_>
    <_>
      123. 3. 2624.</_>
    <_>
      31. 1. 2296.</_>
    <_>
      77. 2. 2168.</_>
    <_>
      0. 0. 1535.</_>
    <_>
      0. 0. 2608.</_>
    <_>
      0. 0. 186.</_>
    <_>
      0. 0. 1857.</_>
    <_>
      0. 0. 714.</_>
    <_>
      0. 0. 39.</_>
    <_>
      488. 7. 106.</_>
    <_>
      0. 0. 6381.</_>
    <_>
      0. 0. 3725.</_>
    <_>
      0. 0. 4235.</_>
    <_>
      0. 0. 5151.</_>
    <_>
      0. 0. 1314.</_>
    <_>
      0. 0. 423.</_>
    <_>
      32. 1. 3288.</_>
    <_>
      88. 2. 454.</_>
    <_>
      0. 0. 317.</_>
    <_>
      0. 0. 3093.</_>
    <_>
      0. 0. 3256.</_>
    <_>
      0. 0. 22.</_>
    <_>
      0. 0. 70.</_>
    <_>
      0. 0. 505.</_>
    <_>
      0. 0. 1210.</_>
    <_>
      0. 0. 2008.</_>
    <_>
      0. 0. 797.</_>
    <_>
      72. 2. 1198.</_>
    <_>
      0. 0. 1102.</_>
    <_>
      125. 3. 264.</_>
    <_>
      37. 1. 254.</_>
    <_>
      0. 0. 1222.</_>
    <_>
      0. 0. 1046.</_>
    <_>
      0. 0. 2619.</_>
    <_>
      0. 0. 2190.</_>
    <_>
      0. 0. 631.</_>
    <_>
      0. 0. 977.</_>
    <_>
      34. 1. 1149.</_>
    <_>
      0. 0. 1134.</_>
    <_>
      0. 0. 1536.</_>
    <_>
      233. 4. 1945.</_>
    <_>
      0. 0. 4574.</_>
    <_>
      0. 0. 4849.</_>
    <_>
      0. 0. 525.</_>
    <_>
      0. 0. 89.</_>
    <_>
      31. 1. 3470.</_>
    <_>
      0. 0. 1510.</_>
    <_>
      0. 0. 45.</_>
    <_>
      0. 0. 0.</_>
    <_>
      315. 6. 6289.</_>
    <_>
      0. 0. 2653.</_>
    <_>
      0. 0. 813.</_>
    <_>
      31. 1. 4728.</_>
    <_>
      0. 0. 1106.</_>
    <_>
      126. 4. 5038.</_>
    <_>
      166. 3. 3040.</_>
    <_>
      247. 4. 1612.</_>
    <_>
      37. 1. 5289.</_>
    <_>
      944. 14. 1805.</_>
    <_>
      0. 0. 1255.</_>
    <_>
      1646. 12. 4730.</_>
    <_>
      337. 5. 1426.</_>
    <_>
      275. 5. 4900.</_>
    <_>
      0. 0. 5116.</_>
    <_>
      387. 7. 2754.</_>
    <_>
      0. 0. 3455.</_>
    <_>
      0. 0. 2648.</_>
    <_>
      328. 7. 1312.</_>
    <_>
      213. 4. 720.</_>
    <_>
      0. 0. 2201.</_>
    <_>
      0. 0. 4958.</_>
    <_>
      0. 0. 3029.</_>
    <_>
      64. 2. 4396.</_>
    <_>
      48. 1. 3799.</_>
    <_>
      171. 4. 166.</_>
    <_>
      0. 0. 4105.</_>
    <_>
      132. 2. 1211.</_>
    <_>
      0. 0. 8.</_>
    <_>
      331. 6. 1253.</_>
    <_>
      101. 1. 290.</_>
    <_>
      112. 3. 3058.</_>
    <_>
      144. 2. 1453.</_>
    <_>
      0. 0. 2136.</_>
    <_>
      63. 2. 712.</_>
    <_>
      0. 0. 2341.</_>
    <_>
      0. 0. 1567.</_>
    <_>
      0. 0. 4494.</_>
    <_>
      0. 0. 4302.</_>
    <_>
      65. 2. 2978.</_>
    <_>
      0. 0. 4716.</_>
    <_>
      73. 1. 3100.</_>
    <_>
      0. 0. 3351.</_>
    <_>
      0. 0. 2848.</_>
    <_>
      0. 0. 5300.</_>
    <_>
      0. 0. 5110.</_>
    <_>
      0. 0. 3501.</_>
    <_>
      474. 5. 1369.</_>
    <_>
      203. 1. 4443.</_>
    <_>
      0. 0. 2295.</_>
    <_>
      0. 0. 10479.</_>
    <_>
      59. 1. 1368.</_>
    <_>
      0. 0. 120.</_>
    <_>
      224. 4. 5379.</_>
    <_>
      266. 3. 5540.</_>
    <_>
      0. 0. 7867.</_>
    <_>
      33. 1. 721.</_>
    <_>
      605. 9. 2071.</_>
    <_>
      130. 3. 1297.</_>
    <_>
      38. 1. 3876.</_>
    <_>
      64. 1. 7643.</_>
    <_>
      0. 0. 1989.</_>
    <_>
      0. 0. 929.</_>
    <_>
      0. 0. 2997.</_>
    <_>
      239. 3. 740.</_>
    <_>
      118. 3. 2658.</_>
    <_>
      0. 0. 52.</_>
    <_>
      0. 0. 1067.</_>
    <_>
      41. 1. 1115.</_>
    <_>
      0. 0. 366.</_>
    <_>
      55. 1. 1263.</_>
    <_>
      34. 1. 871.</_>
    <_>
      505. 4. 760.</_>
    <_>
      0. 0. 2968.</_>
    <_>
      85. 2. 74.</_>
    <_>
      567. 5. 285.</_>
    <_>
      173. 3. 1942.</_>
    <_>
      132. 2. 4191.</_>
    <_>
      0. 0. 1365.</_>
    <_>
      0. 0. 164.</_>
    <_>
      0. 0. 7530.</_>
    <_>
      101. 2. 0.</_>
    <_>
      0. 0. 2450.</_>
    <_>
      165. 3. 676.</_>
    <_>
      47. 1. 2073.</_>
    <_>
      73. 2. 1244.</_>
    <_>
      0. 0. 1717.</_>
    <_>
      91. 2. 4587.</_>
    <_>
      627. 8. 1275.</_>
    <_>
      148. 4. 2160.</_>
    <_>
      0. 0. 5979.</_>
    <_>
      0. 0. 7696.</_>
    <_>
      0. 0. 492.</_>
    <_>
      0. 0. 530.</_>
    <_>
      118. 3. 3037.</_>
    <_>
      0. 0. 5119.</_>
    <_>
      0. 0. 3175.</_>
    <_>
      0. 0. 4566.</_>
    <_>
      0. 0. 3464.</_>
    <_>
      0. 0. 3433.</_>
    <_>
      0. 0. 639.</_>
    <_>
      0. 0. 417.</_>
    <_>
      122. 3. 201.</_>
    <_>
      272. 6. 671.</_>
    <_>
      164. 2. 1168.</_>
    <_>
      389. 5. 574.</_>
    <_>
      48. 1. 5013.</_>
    <_>
      0. 0. 560.</_>
    <_>
      97. 2. 950.</_>
    <_>
      58. 1. 3043.</_>
    <_>
      55. 1. 1315.</_>
    <_>
      160. 3. 885.</_>
    <_>
      128. 3. 4359.</_>
    <_>
      441. 8. 1008.</_>
    <_>
      217. 5. 2193.</_>
    <_>
      212. 5. 468.</_>
    <_>
      146. 4. 2344.</_>
    <_>
      177. 5. 3588.</_>
    <_>
      143. 4. 1744.</_>
    <_>
      108. 2. 1173.</_>
    <_>
      65. 1. 1722.</_>
    <_>
      0. 0. 6162.</_>
    <_>
      0. 0. 1415.</_>
    <_>
      98. 3. 1774.</_>
    <_>
      560. 11. 902.</_>
    <_>
      303. 6. 5735.</_>
    <_>
      111. 1. 3100.</_>
    <_>
      206. 5. 1413.</_>
    <_>
      62. 1. 1877.</_>
    <_>
      405. 5. 844.</_>
    <_>
      275. 5. 345.</_>
    <_>
      444. 9. 1158.</_>
    <_>
      92. 2. 2133.</_>
    <_>
      326. 5. 2282.</_>
    <_>
      121. 2. 4629.</_>
    <_>
      83. 1. 2554.</_>
    <_>
      217. 3. 1538.</_>
    <_>
      210. 3. 1268.</_>
    <_>
      558. 6. 3143.</_>
    <_>
      36. 1. 0.</_>
    <_>
      342. 5. 1184.</_>
    <_>
      128. 2. 1331.</_>
    <_>
      268. 4. 1033.</_>
    <_>
      49. 1. 298.</_>
    <_>
      424. 7. 2366.</_>
    <_>
      424. 7. 2041.</_>
    <_>
      0. 0. 5360.</_>
    <_>
      0. 0. 4921.</_>
    <_>
      33. 1. 243.</_>
    <_>
      0. 0. 5568.</_>
    <_>
      168. 2. 6132.</_>
    <_>
      233. 5. 4313.</_>
    <_>
      64. 1. 428.</_>
    <_>
      34. 1. 4332.</_>
    <_>
      0. 0. 5000.</_>
    <_>
      210. 3. 1739.</_>
    <_>
      140. 3. 2764.</_>
    <_>
      95. 3. 1705.</_>
    <_>
      230. 5. 164.</_>
    <_>
      120. 2. 532.</_>
    <_>
      259. 5. 3262.</_>
    <_>
      0. 0. 2252.</_>
    <_>
      0. 0. 2615.</_>
    <_>
      0. 0. 1655.</_>
    <_>
      243. 4. 2401.</_>
    <_>
      171. 3. 1648.</_>
    <_>
      244. 4. 1618.</_>
    <_>
      229. 6. 1327.</_>
    <_>
      0. 0. 1504.</_>
    <_>
      0. 0. 208.</_>
    <_>
      0. 0. 2567.</_>
    <_>
      65. 1. 833.</_>
    <_>
      0. 0. 3455.</_>
    <_>
      0. 0. 1374.</_>
    <_>
      252. 3. 1664.</_>
    <_>
      0. 0. 2040.</_>
    <_>
      570. 3. 0.</_>
    <_>
      174. 3. 1716.</_>
    <_>
      87. 1. 457.</_>
    <_>
      384. 5. 1325.</_>
    <_>
      0. 0. 3286.</_>
    <_>
      0. 0. 4652.</_>
    <_>
      0. 0. 719.</_>
    <_>
      271. 5. 1634.</_>
    <_>
      207. 5. 4515.</_>
    <_>
      61. 1. 4037.</_>
    <_>
      214. 2. 1128.</_>
    <_>
      367. 6. 823.</_>
    <_>
      172. 2. 1818.</_>
    <_>
      721. 6. 1310.</_>
    <_>
      101. 1. 4816.</_>
    <_>
      319. 4. 3129.</_>
    <_>
      432. 7. 562.</_>
    <_>
      610. 9. 2085.</_>
    <_>
      1726. 9. 1765.</_>
    <_>
      652. 7. 3738.</_>
    <_>
      0. 0. 4360.</_>
    <_>
      83. 1. 519.</_>
    <_>
      104. 2. 1144.</_>
    <_>
      0. 0. 2527.</_>
    <_>
      1130. 5. 2244.</_>
    <_>
      100. 2. 387.</_>
    <_>
      0. 0. 82.</_>
    <_>
      152. 2. 2327.</_>
    <_>
      80. 1. 2590.</_>
    <_>
      0. 0. 2358.</_>
    <_>
      0. 0. 9075.</_>
    <_>
      0. 0. 5231.</_>
    <_>
      234. 3. 2304.</_>
    <_>
      0. 0. 3820.</_>
    <_>
      524. 9. 2467.</_>
    <_>
      0. 0. 487.</_>
    <_>
      0. 0. 647.</_>
    <_>
      0. 0. 4311.</_>
    <_>
      143. 2. 4684.</_>
    <_>
      0. 0. 2806.</_>
    <_>
      122. 2. 301.</_>
    <_>
      146. 4. 401.</_>
    <_>
      316. 4. 930.</_>
    <_>
      417. 9. 1517.</_>
    <_>
      999. 13. 626.</_>
    <_>
      531. 4. 2071.</_>
    <_>
      345. 5. 28.</_>
    <_>
      418. 7. 6621.</_>
    <_>
      275. 2. 5655.</_>
    <_>
      0. 0. 6720.</_>
    <_>
      590. 8. 2123.</_>
    <_>
      681. 12. 3745.</_>
    <_>
      134. 2. 3414.</_>
    <_>
      61. 2. 1585.</_>
    <_>
      0. 0. 373.</_>
    <_>
      0. 0. 1629.</_>
    <_>
      146. 3. 4409.</_>
    <_>
      96. 3. 4446.</_>
    <_>
      806. 16. 4349.</_>
    <_>
      849. 11. 890.</_>
    <_>
      117. 2. 1975.</_>
    <_>
      297. 3. 2672.</_>
    <_>
      30. 1. 655.</_>
    <_>
      171. 2. 2999.</_>
    <_>
      299. 2. 5189.</_>
    <_>
      841. 7. 753.</_>
    <_>
      39. 1. 0.</_>
    <_>
      310. 5. 365.</_>
    <_>
      0. 0. 408.</_>
    <_>
      0. 0. 2784.</_>
    <_>
      0. 0. 2379.</_>
    <_>
      0. 0. 1337.</_>
    <_>
      44. 1. 2251.</_>
    <_>
      207. 3. 3407.</_>
    <_>
      0. 0. 2571.</_>
    <_>
      0. 0. 2083.</_>
    <_>
      69. 1. 62.</_>
    <_>
      0. 0. 260.</_>
    <_>
      0. 0. 1175.</_>
    <_>
      0. 0. 761.</_>
    <_>
      943. 10. 7873.</_>
    <_>
      1478. 11. 6853.</_>
    <_>
      0. 0. 1211.</_>
    <_>
      0. 0. 1879.</_>
    <_>
      195. 4. 679.</_>
    <_>
      0. 0. 1751.</_>
    <_>
      322. 5. 1550.</_>
    <_>
      179. 3. 3877.</_>
    <_>
      0. 0. 1458.</_>
    <_>
      40. 1. 1302.</_>
    <_>
      0. 0. 2546.</_>
    <_>
      87. 2. 3154.</_>
    <_>
      640. 10. 7147.</_>
    <_>
      233. 5. 3233.</_>
    <_>
      297. 6. 5726.</_>
    <_>
      415. 5. 3062.</_>
    <_>
      0. 0. 6930.</_>
    <_>
      62. 2. 1106.</_>
    <_>
      534. 3. 650.</_>
    <_>
      0. 0. 282.</_>
    <_>
      261. 6. 3888.</_>
    <_>
      563. 9. 4639.</_>
    <_>
      0. 0. 2939.</_>
    <_>
      247. 2. 288.</_>
    <_>
      0. 0. 804.</_>
    <_>
      0. 0. 1346.</_>
    <_>
      225. 5. 463.</_>
    <_>
      609. 14. 1024.</_>
    <_>
      85. 2. 2857.</_>
    <_>
      184. 3. 732.</_>
    <_>
      0. 0. 823.</_>
    <_>
      231. 5. 1094.</_>
    <_>
      154. 2. 3338.</_>
    <_>
      782. 12. 765.</_>
    <_>
      514. 6. 4811.</_>
    <_>
      108. 2. 11.</_>
    <_>
      194. 3. 1432.</_>
    <_>
      235. 3. 3807.</_>
    <_>
      0. 0. 1003.</_>
    <_>
      0. 0. 1181.</_>
    <_>
      73. 1. 1099.</_>
    <_>
      46. 1. 1267.</_>
    <_>
      269. 4. 6061.</_>
    <_>
      82. 1. 5536.</_>
    <_>
      762. 8. 210.</_>
    <_>
      55. 1. 500.</_>
    <_>
      353. 3. 2111.</_>
    <_>
      1436. 8. 2611.</_>
    <_>
      1796. 26. 5036.</_>
    <_>
      2946. 28. 1786.</_>
    <_>
      6120. 42. 3181.</_>
    <_>
      5234. 48. 6306.</_>
    <_>
      133. 3. 5391.</_>
    <_>
      782. 10. 5118.</_>
    <_>
      2042. 25. 11949.</_>
    <_>
      0. 0. 2493.</_>
    <_>
      3818. 38. 4933.</_>
    <_>
      3385. 33. 6334.</_>
    <_>
      89. 2. 5064.</_>
    <_>
      133. 2. 5929.</_>
    <_>
      471. 4. 70.</_>
    <_>
      291. 3. 985.</_>
    <_>
      911. 15. 5435.</_>
    <_>
      711. 10. 2618.</_>
    <_>
      463. 6. 417.</_>
    <_>
      984. 8. 2021.</_>
    <_>
      919. 7. 625.</_>
    <_>
      1329. 15. 2686.</_>
    <_>
      1323. 8. 2970.</_>
    <_>
      121. 2. 1252.</_>
    <_>
      91. 1. 473.</_>
    <_>
      105. 3. 1679.</_>
    <_>
      240. 3. 1374.</_>
    <_>
      157. 3. 792.</_>
    <_>
      140. 1. 0.</_>
    <_>
      31. 1. 516.</_>
    <_>
      726. 9. 535.</_>
    <_>
      805. 5. 702.</_>
    <_>
      550. 7. 5869.</_>
    <_>
      1362. 14. 1173.</_>
    <_>
      1290. 8. 1013.</_>
    <_>
      599. 12. 4187.</_>
    <_>
      266. 6. 486.</_>
    <_>
      1287. 13. 3627.</_>
    <_>
      892. 16. 2545.</_>
    <_>
      123. 3. 1387.</_>
    <_>
      0. 0. 1955.</_>
    <_>
      433. 4. 847.</_>
    <_>
      171. 4. 1358.</_>
    <_>
      418. 6. 2728.</_>
    <_>
      2335. 12. 3048.</_>
    <_>
      2283. 24. 2147.</_>
    <_>
      948. 14. 2435.</_>
    <_>
      268. 4. 3566.</_>
    <_>
      1380. 14. 8616.</_>
    <_>
      1260. 12. 2867.</_>
    <_>
      2408. 21. 5569.</_>
    <_>
      690. 9. 11449.</_>
    <_>
      1442. 7. 10791.</_>
    <_>
      1036. 5. 842.</_>
    <_>
      2058. 19. 3208.</_>
    <_>
      679. 11. 3784.</_>
    <_>
      1971. 15. 156.</_>
    <_>
      460. 2. 6043.</_>
    <_>
      152. 1. 2134.</_>
    <_>
      817. 11. 1125.</_>
    <_>
      1485. 14. 1779.</_>
    <_>
      195. 4. 196.</_>
    <_>
      2276. 17. 911.</_>
    <_>
      1176. 16. 10813.</_>
    <_>
      4235. 37. 5065.</_>
    <_>
      2859. 24. 5317.</_>
    <_>
      424. 5. 1579.</_>
    <_>
      58. 1. 1947.</_>
    <_>
      293. 4. 4898.</_>
    <_>
      1990. 12. 9272.</_>
    <_>
      4639. 46. 1210.</_>
    <_>
      10050. 69. 1358.</_>
    <_>
      0. 0. 1961.</_>
    <_>
      1765. 10. 3789.</_>
    <_>
      123. 3. 20.</_>
    <_>
      0. 0. 185.</_>
    <_>
      756. 11. 1413.</_>
    <_>
      156. 3. 662.</_>
    <_>
      423. 8. 298.</_>
    <_>
      992. 12. 7655.</_>
    <_>
      72. 1. 3258.</_>
    <_>
      57. 1. 4231.</_>
    <_>
      1617. 17. 3591.</_>
    <_>
      5103. 46. 6124.</_>
    <_>
      2155. 17. 128.</_>
    <_>
      785. 7. 3565.</_>
    <_>
      386. 4. 4900.</_>
    <_>
      3156. 24. 1373.</_>
    <_>
      153. 3. 6728.</_>
    <_>
      540. 8. 8840.</_>
    <_>
      120. 3. 343.</_>
    <_>
      0. 0. 2822.</_>
    <_>
      1379. 13. 2378.</_>
    <_>
      3455. 32. 1033.</_>
    <_>
      4528. 29. 3832.</_>
    <_>
      1448. 18. 1490.</_>
    <_>
      0. 0. 2163.</_>
    <_>
      0. 0. 5696.</_>
    <_>
      0. 0. 11060.</_>
    <_>
      0. 0. 3227.</_>
    <_>
      0. 0. 1989.</_>
    <_>
      0. 0. 7373.</_>
    <_>
      315. 5. 3356.</_>
    <_>
      402. 5. 1035.</_>
    <_>
      444. 7. 4726.</_>
    <_>
      218. 3. 2549.</_>
    <_>
      69. 2. 1892.</_>
    <_>
      5873. 36. 119.</_>
    <_>
      7627. 40. 291.</_>
    <_>
      1050. 18. 2424.</_>
    <_>
      2771. 15. 7061.</_>
    <_>
      0. 0. 3669.</_>
    <_>
      0. 0. 2420.</_>
    <_>
      0. 0. 161.</_>
    <_>
      285. 5. 5477.</_>
    <_>
      241. 5. 3264.</_>
    <_>
      0. 0. 4442.</_>
    <_>
      0. 0. 3692.</_>
    <_>
      1457. 12. 1731.</_>
    <_>
      596. 5. 2867.</_>
    <_>
      3432. 22. 9278.</_>
    <_>
      2009. 16. 7882.</_>
    <_>
      1548. 9. 518.</_>
    <_>
      1405. 13. 2013.</_>
    <_>
      839. 14. 1895.</_>
    <_>
      951. 12. 4188.</_>
    <_>
      440. 7. 2132.</_>
    <_>
      652. 2. 761.</_>
    <_>
      3152. 24. 1400.</_>
    <_>
      0. 0. 1808.</_>
    <_>
      0. 0. 2441.</_>
    <_>
      1938. 8. 2851.</_>
    <_>
      293. 2. 1442.</_>
    <_>
      575. 2. 2999.</_>
    <_>
      0. 0. 820.</_>
    <_>
      898. 11. 3539.</_>
    <_>
      1663. 26. 8429.</_>
    <_>
      542. 8. 189.</_>
    <_>
      575. 9. 4150.</_>
    <_>
      225. 4. 4127.</_>
    <_>
      1790. 17. 2800.</_>
    <_>
      1890. 21. 305.</_>
    <_>
      4081. 40. 755.</_>
    <_>
      481. 10. 4431.</_>
    <_>
      622. 7. 3095.</_>
    <_>
      0. 0. 3517.</_></support_vectors>
  <decision_functions>
    <_>
      <sv_count>296</sv_count>
      <rho>-7.7675885441446085e-003</rho>
      <alpha>
        9.9224753342772387e-001 9.9224344924169361e-001
        9.9221751771312916e-001 9.9221751771312916e-001
        6.1910146262932231e-001 2.5124549264093523e+000
        9.9222272895002162e-001 9.9221922963367393e-001
        9.9222252241280995e-001 9.9223290769198880e-001
        9.9224452503609728e-001 9.9223043051418414e-001
        9.9222252241281728e-001 9.9222332036949135e-001
        3.1250000000000000e+002 9.9223025520964503e-001
        9.9224467140819306e-001 9.9223107001610378e-001
        9.9222791687859924e-001 9.9224531228065183e-001
        9.9223331272869297e-001 9.9224548430056614e-001
        9.9222332540113301e-001 9.9224776340579401e-001
        1.1452141425024214e+000 6.1905675908109259e-001
        9.9222331311041034e-001 9.9223048145499460e-001
        9.9223422545244111e-001 9.9222963243251705e-001
        9.9223106313047249e-001 9.8192541123993526e-001
        9.9221751744517883e-001 9.9224191295603226e-001
        9.8192266629788305e-001 9.9224344924169361e-001
        1.0029196373253830e+000 9.9223129529481946e-001
        9.9221557694491747e-001 9.9224531228065183e-001
        9.9222919234088636e-001 9.9224190029672699e-001
        9.9221922963368248e-001 9.9224325903677268e-001
        9.9223018149850306e-001 9.9224325903677268e-001
        6.1905726064477851e-001 9.9223106313047249e-001
        9.9223002619137579e-001 9.9222071857700056e-001
        9.9222422369762309e-001 8.7653166303627517e-001
        9.9224531247380177e-001 9.9224644002771412e-001
        9.9221753161220461e-001 9.9224474929857109e-001
        9.9224474929857109e-001 9.9222975365232946e-001
        9.9224474929857109e-001 9.9223018149096998e-001
        9.9224776340579401e-001 9.9223188053477818e-001
        9.9253624029422594e-001 9.9222332036949135e-001
        9.9223106313047249e-001 9.9222422369762309e-001
        9.9223822869131195e-001 9.9223873750610470e-001
        9.9224751639204534e-001 9.9221751744517883e-001
        9.9223873789867512e-001 9.9223010048669169e-001
        9.9224430518171736e-001 9.9224776340528775e-001
        9.9224190011835622e-001 9.9222748867155397e-001
        9.9224165113793461e-001 9.9221751744517883e-001
        9.9222075252412090e-001 9.9224804210255357e-001
        9.9224413248753940e-001 9.9223822869130340e-001
        9.9223107690165802e-001 9.9224785235636570e-001
        9.9222772065595732e-001 9.9221557694491747e-001
        9.9222919234088636e-001 9.9224325903677268e-001
        9.9221751772621269e-001 6.1910754453691719e-001
        9.9222487893128986e-001 9.9224136204061775e-001
        9.9223051189706213e-001 9.9223422545244111e-001
        9.9223018149096998e-001 9.9224430155681176e-001
        9.9224806118738473e-001 9.9223422545815765e-001
        9.9222874312104792e-001 9.9223010048669169e-001
        9.9221753161220461e-001 9.9223010048669169e-001
        9.9221921366435828e-001 9.9222223548651134e-001
        9.9222748876340350e-001 9.9224776340579401e-001
        9.9194695707176894e-001 9.9222963243251705e-001
        9.9221582316593637e-001 9.9222748870657940e-001
        9.9222963243251705e-001 9.9191543737083521e-001
        9.9224430418055021e-001 9.9223422545244122e-001
        9.9223618189237239e-001 9.9222455797991105e-001
        9.9222272895002162e-001 1.0029171955432599e+000
        9.9224806118628595e-001 9.9224548430056614e-001
        9.9222961984480806e-001 9.9221750678353959e-001
        9.9222075252412090e-001 9.9223970437989517e-001
        9.9224776340579401e-001 9.9221751772621269e-001
        9.9223062418337138e-001 9.9224531247380177e-001
        9.9222272895002162e-001 9.9223051189706213e-001
        9.9224776340579401e-001 9.9221751771312916e-001
        9.9222638641139282e-001 9.9221921371951938e-001
        9.9222252241280995e-001 9.9222874312104792e-001
        9.9222748876340361e-001 9.9223106313046139e-001
        9.9221582316593637e-001 9.9224325903677268e-001
        9.9224804911940223e-001 9.9222767172494775e-001
        9.9223822867464828e-001 9.9223822869137079e-001
        9.9222252239609110e-001 8.7653440364927460e-001
        9.9222252241284636e-001 9.9223422545244122e-001
        9.9224776340579401e-001 9.9222332036949135e-001
        -1.0077824825548212e+000 -1.0077824825548212e+000
        -1.0077824822737873e+000 -1.0077824822737873e+000
        -1.0077766868622471e+000 -1.0077703675674829e+000
        -1.0077824943882996e+000 -3.1250000000000000e+002
        -1.0077535599722860e+000 -1.0077697439015945e+000
        -1.0077608101066484e+000 -1.0077703675674829e+000
        -1.0077522365942060e+000 -1.0077757763023769e+000
        -1.0077725112365963e+000 -1.0077738868407113e+000
        -1.0077657740616093e+000 -1.0077655560349270e+000
        -1.0077698185014965e+000 -1.0077774775871537e+000
        -1.0077670923080198e+000 -1.0077655560349270e+000
        -1.0077558675124605e+000 -1.0077807984008338e+000
        -1.0077669525408532e+000 -1.0077638181076276e+000
        -1.0077657745475590e+000 -1.0077807703807675e+000
        -1.0077725112365963e+000 -1.0077725112930378e+000
        -1.0077708076591136e+000 -1.0077552507014289e+000
        -1.0077689362610209e+000 -1.0077807862804806e+000
        -1.0077744170969769e+000 -1.0077766868895899e+000
        -9.9729255452531396e-001 -1.0077546877193482e+000
        -1.0077657772962725e+000 -1.0077697439015945e+000
        -1.0077766868895897e+000 -1.0077608101066484e+000
        -1.0077725112930294e+000 -1.0077546875261982e+000
        -1.0077824823206571e+000 -1.0077777645134887e+000
        -1.0077695185282742e+000 -1.0077546875261982e+000
        -1.0077618411383413e+000 -1.0077698185014965e+000
        -1.0077580998816438e+000 -1.0077725112365963e+000
        -1.0077521657476287e+000 -1.0077824825548212e+000
        -1.0077824822868708e+000 -1.0077698185014965e+000
        -1.0077648564687789e+000 -1.0077556948182826e+000
        -1.0077766796305085e+000 -1.0077725112930285e+000
        -1.0077807862752104e+000 -1.0182985672701199e+000
        -1.0077870373932605e+000 -1.0077703675674829e+000
        -1.0077608101066484e+000 -1.0077669525408532e+000
        -1.0077520414045718e+000 -1.0077689368695386e+000
        -1.0077545156994339e+000 -1.0077689368695275e+000
        -1.0077725113284459e+000 -1.0077556961793037e+000
        -1.0077772710499784e+000 -1.0077693758166286e+000
        -1.0077608101066484e+000 -1.0077522365942060e+000
        -1.0077522365942060e+000 -1.0077524665722843e+000
        -1.0077556958194498e+000 -1.0077698185014965e+000
        -1.0077703680876122e+000 -1.0077689299839441e+000
        -1.0077522365942060e+000 -1.0077824825548212e+000
        -1.0077580998816438e+000 -1.0077725112930294e+000
        -1.0077754912900854e+000 -1.0077583488620654e+000
        -1.0077657740616093e+000 -1.0077670923495516e+000
        -1.0077524665722761e+000 -1.0080585700341484e+000
        -1.0077698995133084e+000 -1.0077695694858160e+000
        -1.0077607262205994e+000 -1.0077657745418422e+000
        -1.0077697447984972e+000 -1.0077834563896280e+000
        -1.0077725112934206e+000 -1.0077689230983420e+000
        -1.0077522365942060e+000 -9.9729913792785585e-001
        -1.0077647029987411e+000 -1.0077558666032145e+000
        -1.0077678660146225e+000 -1.0077725112930285e+000
        -1.0077792474758791e+000 -1.0077766868622471e+000
        -1.0077654127927915e+000 -1.0077702463476705e+000
        -1.0077524665722761e+000 -1.0077649580558261e+000
        -2.5221433636340120e+000 -1.0077522365942060e+000
        -1.0077580998816438e+000 -1.0077556959440437e+000
        -1.1589178741855193e+000 -1.0077824825548212e+000
        -1.0077792474758791e+000 -1.0077774775871537e+000
        -1.0077545156994339e+000 -1.0077766868895899e+000
        -1.0077655560349270e+000 -1.0077708076591136e+000
        -1.0077522365947122e+000 -1.0077689299838961e+000
        -1.0077725112365965e+000 -1.0077657745475590e+000
        -1.0077725112930294e+000 -1.0077636854413341e+000
        -1.0077807703807675e+000 -1.0077670923495516e+000
        -1.0182841342940858e+000 -1.0077807862752104e+000
        -1.0077648564687789e+000 -1.0077689299839441e+000
        -1.0077520414045718e+000 -1.0077697447984972e+000
        -1.0077774775871537e+000 -1.0077546877193482e+000
        -1.0077689362610209e+000 -1.0077766868548743e+000
        -1.0077698185014965e+000 -1.0077695185282742e+000
        -1.0077698996317024e+000 -1.0077689230984053e+000</alpha>
      <index>
        112 97 85 109 101 93 95 79 99 87 107 103 91 111 83 94 84 96 76
        98 86 100 80 102 88 106 104 90 108 82 110 92 78 113 77 81 89 105
        0 135 123 147 139 131 133 117 137 125 145 141 129 149 121 132
        122 134 114 136 124 138 118 140 126 144 142 128 146 120 148 130
        116 75 115 119 127 143 37 22 10 34 26 18 20 4 24 12 32 28 16 36
        8 19 9 21 1 23 11 25 5 27 13 31 29 15 33 7 35 17 3 38 2 6 14 30
        56 60 48 72 64 46 58 42 62 50 70 66 54 74 41 57 47 59 39 61 49
        63 43 65 51 69 67 53 71 45 73 55 40 44 52 68 250 251 253 252 245
        249 248 247 246 262 254 255 256 257 258 259 260 261 226 235 150
        227 228 229 230 231 232 233 234 244 236 237 238 239 240 241 242
        243 288 280 281 282 283 284 285 286 287 279 289 290 291 292 293
        294 295 272 264 265 266 267 268 269 270 271 263 273 274 275 276
        277 278 179 170 171 172 173 174 175 176 177 178 169 180 181 182
        183 184 185 186 187 160 151 152 153 154 155 156 157 158 159 225
        161 162 163 164 165 166 167 168 216 207 208 209 210 211 212 213
        214 215 188 217 218 219 220 221 222 223 224 206 189 190 191 192
        193 194 195 196 197 198 199 200 201 202 203 204 205</index></_>
    <_>
      <sv_count>299</sv_count>
      <rho>2.5664058636813390e-003</rho>
      <alpha>
        1.0025664473664728e+000 1.0025662760707557e+000
        1.0025664738433324e+000 1.0025664226814475e+000
        6.2553098392419693e-001 1.0025664478529257e+000
        1.0025663955197399e+000 1.0025663764944117e+000
        1.0025663720078284e+000 1.0025664738433324e+000
        1.0025664425752128e+000 1.0025664871064159e+000
        1.0025668363873228e+000 1.0025660421050897e+000
        1.0025664796942275e+000 1.0131526238278941e+000
        1.0025630470384981e+000 1.0025669039860321e+000
        1.0025630354599264e+000 1.0025669039860321e+000
        1.0025668992598296e+000 1.0025663844250596e+000
        1.0025663725586453e+000 1.0025667317762932e+000
        1.0025664739089810e+000 6.2552854494770105e-001
        1.0025665067132237e+000 1.0025661809365707e+000
        1.0025662465801095e+000 1.0025663844250596e+000
        1.0025663972205257e+000 9.9214756940872439e-001
        1.0025663905269961e+000 1.0025660701697552e+000
        9.9214749714519490e-001 1.0025664744755329e+000
        1.0025664738433324e+000 1.0025699016504885e+000
        1.0025662697650410e+000 1.0025667317594740e+000
        1.0025668365123090e+000 1.0025662465801095e+000
        1.0025663955029263e+000 1.0028697289553210e+000
        1.0025662303469072e+000 1.0025663955029263e+000
        6.2552375068109922e-001 1.0025664001573502e+000
        1.0025660979359403e+000 1.0025663745640148e+000
        1.0025662465801095e+000 8.8566464700523506e-001
        1.0025663768883781e+000 1.0025662896245189e+000
        2.5189179137672664e+000 1.0025663854709663e+000
        1.0025662312073860e+000 1.0025663725586453e+000
        1.0025662312085273e+000 1.0025663593101206e+000
        1.0025663854709663e+000 1.0025668618361483e+000
        1.0025664110666530e+000 1.0025664838877373e+000
        1.0025664208776786e+000 1.0025660463433754e+000
        1.0025662681899086e+000 1.0025630354492014e+000
        1.0025662303471761e+000 1.0025663955029263e+000
        1.0025630354492017e+000 1.0025660701697552e+000
        1.0063864661981163e+000 1.0025663745637445e+000
        1.0025661108728707e+000 1.0025668858451513e+000
        1.0025663666485123e+000 1.0025663025729228e+000
        1.0025660448702365e+000 1.0025660701697552e+000
        1.0025664208608647e+000 1.0025664754354942e+000
        2.5189175891858682e+000 1.0025664425752128e+000
        1.0025664931332905e+000 1.0025663955029263e+000
        1.0025665017703105e+000 1.0025663725586453e+000
        1.0025663025729230e+000 6.2552809730789039e-001
        1.0025668858444972e+000 1.0025631232499139e+000
        1.0025663844250596e+000 1.0025664110760797e+000
        1.0025663955029263e+000 1.0025661860549335e+000
        1.0025665653387912e+000 1.0025661338971805e+000
        1.0025665653387912e+000 1.0025664425752128e+000
        1.0025663844250596e+000 1.0025662303469158e+000
        1.0025664110835510e+000 1.0025663955029263e+000
        1.0025663768883781e+000 1.0025663616780052e+000
        1.0022620451962641e+000 1.0025660974460158e+000
        1.0025660974463428e+000 1.0025664208608647e+000
        1.0025662312073860e+000 1.0022620324685447e+000
        1.0025662312073860e+000 1.0025663854709663e+000
        1.0025664744755329e+000 1.0025630354764801e+000
        1.0025669101541095e+000 1.0025660448702365e+000
        1.0025669101543599e+000 1.0025664744755329e+000
        1.0025668618764629e+000 1.0025663122404329e+000
        1.0025663545183467e+000 1.0025660463433754e+000
        1.0025662311917132e+000 1.0025664931332905e+000
        1.0025663854709663e+000 1.0025660421050897e+000
        1.0025663862144631e+000 1.0025668858444972e+000
        1.0025662465801095e+000 1.1543327001095793e+000
        1.0025643871637340e+000 1.0025660604499389e+000
        1.0025668858444972e+000 1.0025662241176996e+000
        1.0025663593101204e+000 1.0025663593101206e+000
        1.0025661055537767e+000 1.0025669101543599e+000
        1.0025660383232926e+000 1.0025669101541095e+000
        1.0025661809365707e+000 1.0025663854709663e+000
        1.0025665017534102e+000 8.8566420641780463e-001
        1.0025664346004315e+000 1.0025663725586453e+000
        1.0025663720078284e+000 1.0025664359615629e+000
        -9.9743389444651620e-001 -9.9743381904652895e-001
        -9.9743361131675801e-001 -9.9713110147738271e-001
        -9.9743356539956851e-001 -9.9743381904652895e-001
        -9.9743357731855242e-001 -2.5157149667051271e+000
        -9.9743362543625547e-001 -9.9743375034177317e-001
        -9.9743375341989049e-001 -9.9743315035643665e-001
        -1.1497985663377033e+000 -9.9743368775956698e-001
        -9.9743352030577237e-001 -9.9743352824243814e-001
        -2.5157151892543563e+000 -9.9743375403168577e-001
        -9.9743350686670951e-001 -9.9743352552446718e-001
        -9.9743362311162187e-001 -9.9743312593092193e-001
        -9.9743327773894663e-001 -9.9743393955028448e-001
        -9.9743357913913533e-001 -9.9743357731855242e-001
        -9.9743350686670951e-001 -9.9743362543625547e-001
        -9.9743362543598524e-001 -9.9743362311162187e-001
        -9.9743377588230042e-001 -9.9743362543598524e-001
        -9.9743375341989049e-001 -9.9743310139228059e-001
        -9.9743369742707721e-001 -9.9743343699208842e-001
        -9.9743372218225046e-001 -9.9743394336292535e-001
        -9.9743360950483384e-001 -9.9743389444622343e-001
        -9.9743394339774949e-001 -9.9743385990755895e-001
        -9.9743390255365716e-001 -9.9743373023495896e-001
        -9.9743375726136740e-001 -9.9743363230320159e-001
        -9.9743362744135466e-001 -9.9743361557494026e-001
        -9.9743361557494026e-001 -9.9743351711690420e-001
        -9.9743351289358406e-001 -9.9743309601396790e-001
        -9.9743389497104307e-001 -9.9743361145285536e-001
        -9.9743351289358406e-001 -9.9743355263352718e-001
        -9.9743320771034161e-001 -9.9743353447366112e-001
        -9.9743357731855242e-001 -9.9743361557494026e-001
        -9.9743389441223518e-001 -9.9743394340505853e-001
        -9.9743392983024481e-001 -9.9743309601396790e-001
        -9.9743360277947435e-001 -9.9743352760895654e-001
        -9.9743360878135179e-001 -9.9743371037548112e-001
        -9.9743368775956698e-001 -9.9743371037548112e-001
        -9.9743351289358406e-001 -9.9743376879503476e-001
        -9.9743358891644662e-001 -9.9743390255398423e-001
        -9.9743356403843708e-001 -9.9743395174288396e-001
        -9.9743311432171311e-001 -9.9713105908514221e-001
        -9.9743389444651620e-001 -9.9743355742478712e-001
        -9.9743308984462475e-001 -9.9743372607126213e-001
        -9.9743386610281948e-001 -9.9743352529575413e-001
        -9.9743376879261414e-001 -1.0012732449935260e+000
        -9.9743358891644673e-001 -9.9743360951824778e-001
        -9.9743375341989049e-001 -9.9743713916493504e-001
        -9.9743360449707374e-001 -9.9743358891644673e-001
        -9.9743311415550284e-001 -9.9743312330219913e-001
        -9.9743389444622343e-001 -9.9743394340505853e-001
        -9.9743394336292535e-001 -9.9743394334491453e-001
        -9.9743355214707419e-001 -9.9743369742707721e-001
        -9.9743361378553685e-001 -9.9743362744135466e-001
        -9.9743362744135466e-001 -9.9743362744135466e-001
        -9.9743361662442209e-001 -9.9743316348769107e-001
        -9.9743308984564005e-001 -9.9773751187070125e-001
        -1.0080732260751546e+000 -9.9743352529575413e-001
        -9.9743312593086308e-001 -9.9743312593092193e-001
        -9.9743360948824211e-001 -9.9743368775956698e-001
        -9.9743393955006110e-001 -9.9743390983259328e-001
        -9.9743310139228059e-001 -9.9743361378553685e-001
        -9.9743360951824778e-001 -9.9743360878136034e-001
        -9.9743369742707721e-001 -9.9743352030577237e-001
        -9.9743389497104307e-001 -9.9743389441223518e-001
        -9.9743385990755895e-001 -9.9743312593092193e-001
        -9.9743375034177317e-001 -9.9743369742707688e-001
        -9.9743358891644884e-001 -9.9743361131674957e-001
        -9.9743361132268615e-001 -9.9743361378553685e-001
        -9.9743372218225046e-001 -9.9743308984462475e-001
        -9.9743361557494037e-001 -9.9743360947134163e-001
        -9.9743352760895654e-001 -9.9743376879477452e-001
        -9.9743361452903367e-001 -9.9743310213282144e-001
        -9.9743316361267720e-001 -9.9743361557494026e-001
        -9.9743361557494026e-001 -9.9743362543625547e-001
        -9.9743308984564005e-001 -9.9743312593086308e-001
        -9.9743394337871516e-001 -9.9743311415484870e-001
        -9.9743375341989049e-001</alpha>
      <index>
        112 97 85 109 101 93 95 79 99 87 107 103 91 111 83 94 84 96 76
        98 86 100 80 102 88 106 104 90 108 82 110 92 78 113 77 81 89 105
        0 135 123 147 139 131 133 117 137 125 145 141 129 149 121 132
        122 134 114 136 124 138 118 140 126 144 142 128 146 120 148 130
        116 75 115 119 127 143 37 22 10 34 26 18 20 4 24 12 32 28 16 36
        8 19 9 21 1 23 11 25 5 27 13 31 29 15 33 7 35 17 3 38 2 6 14 30
        56 60 48 72 64 46 58 42 62 50 70 66 54 74 41 57 47 59 39 61 49
        63 43 65 51 69 67 53 71 45 73 55 40 44 52 68 395 396 398 397 390
        394 393 392 391 407 399 400 401 402 403 404 405 406 372 380 296
        373 374 375 376 377 378 379 389 381 382 383 384 385 386 387 388
        436 427 428 429 430 431 432 433 434 435 426 437 438 439 440 441
        442 443 444 417 409 410 411 412 413 414 415 416 408 418 419 420
        421 422 423 424 425 324 315 316 317 318 319 320 321 322 323 314
        325 326 327 328 329 330 331 332 305 371 297 298 299 300 301 302
        303 304 333 306 307 308 309 310 311 312 313 362 353 354 355 356
        357 358 359 360 361 352 363 364 365 366 367 368 369 370 343 334
        335 336 337 338 339 340 341 342 344 345 346 347 348 349 350 351</index></_>
    <_>
      <sv_count>300</sv_count>
      <rho>5.9129434815737621e-003</rho>
      <alpha>
        1.0059128876257584e+000 1.0059128748869297e+000
        1.0059127868703159e+000 1.0059129289330693e+000
        6.2761953191816522e-001 1.0059129598985932e+000
        1.0059128805612341e+000 1.0059131427750239e+000
        1.0059129026192561e+000 1.0059129219628171e+000
        1.0059129159257398e+000 2.5210060674460655e+000
        1.0059129289330693e+000 1.0059129219628173e+000
        1.0059129275150462e+000 1.0059129219628173e+000
        1.0059095738662551e+000 1.0059129219628173e+000
        1.0059095738662551e+000 1.0059130118589887e+000
        1.0059127868703159e+000 1.0059129374480715e+000
        1.0164642544620390e+000 1.0059129219628171e+000
        1.0059129182064814e+000 6.2761573350751099e-001
        1.0059131779321238e+000 1.0059128148304686e+000
        1.0059128748869297e+000 1.0059128578542182e+000
        1.0059128060655973e+000 9.9545947759673481e-001
        1.0059128060655973e+000 1.0059129579744406e+000
        9.9545944487215365e-001 1.0059129076093187e+000
        1.0059129579744406e+000 1.0059128748869297e+000
        1.0059131779321238e+000 1.0059128713349321e+000
        1.0059129083621645e+000 1.0059129429383615e+000
        1.0059128932099246e+000 1.0059129289330693e+000
        1.0059127868703075e+000 1.0059131546822941e+000
        6.2761076301773877e-001 1.0059130445264661e+000
        1.0059129023436526e+000 1.0059130559094327e+000
        1.0059129102537692e+000 8.8862045512879551e-001
        1.0059131598194690e+000 1.0059128910644057e+000
        1.0059129102537692e+000 1.0059128805612341e+000
        1.0059128910644057e+000 1.0059128941091522e+000
        1.0059131650084923e+000 1.0059131650084923e+000
        1.0059131650102817e+000 1.0059131580384384e+000
        1.0059131517791475e+000 1.0059128894068392e+000
        1.0059129099869020e+000 1.0059128578542182e+000
        1.0059128941091522e+000 1.0059097365270286e+000
        1.0059131650102817e+000 1.0059128534929940e+000
        1.0059096476510474e+000 1.0059128748869297e+000
        1.0059128748869297e+000 1.0059129009984344e+000
        1.0059128534929940e+000 1.0059128540586195e+000
        1.0059128713349934e+000 1.0059128941091522e+000
        1.0059128941091522e+000 1.0059129025792690e+000
        1.0059130134134449e+000 1.0059130134134449e+000
        1.0059129025792690e+000 1.0059130559094327e+000
        1.0059130134134449e+000 1.0059128713349932e+000
        1.0059128761315450e+000 1.0059128713349934e+000
        1.0059130957773452e+000 6.2761648390168134e-001
        1.0059128894068392e+000 1.0059096476510474e+000
        1.0059128060655973e+000 1.0059128540636904e+000
        1.0059131531691441e+000 1.0059128192784796e+000
        1.0059128531256398e+000 1.0059128540886952e+000
        1.0059128540897644e+000 1.0059128540897644e+000
        1.0059129083621645e+000 1.0059128894068392e+000
        1.0059128894068392e+000 1.0059128879371515e+000
        1.0059129025792690e+000 1.0059128879203938e+000
        1.0056079169122658e+000 1.0059128879203938e+000
        1.0059128879203938e+000 1.0059128879203940e+000
        1.0059130134134449e+000 1.0056075666790871e+000
        1.0059128894068392e+000 1.0059128748869297e+000
        1.0059127955315741e+000 1.0059096476454583e+000
        1.0059127955315741e+000 1.0059130134134449e+000
        1.0059130134134449e+000 1.0059130134134449e+000
        1.0059128070451835e+000 1.0059130134134449e+000
        1.0059130134134449e+000 1.0059130134134449e+000
        1.0059130134134449e+000 1.0059130134134449e+000
        1.0059130134134449e+000 1.0059130134134449e+000
        1.0059130134134449e+000 1.0059130134134449e+000
        1.0059130134134449e+000 1.0059127802775882e+000
        1.0059108712955436e+000 1.0059128748869297e+000
        1.0059128713349934e+000 1.0059128713349934e+000
        1.0059131546822941e+000 1.0059129579744404e+000
        1.0059129579744404e+000 1.0059130134134449e+000
        1.0059128408923497e+000 1.0059130134134449e+000
        1.0059128148304686e+000 1.0059128531254782e+000
        1.0059129159122000e+000 8.8862039934238590e-001
        1.0059131650102817e+000 1.0059161267947503e+000
        1.0059128148474255e+000 1.0059127802365675e+000
        -9.9408683498971828e-001 -9.9408698658655514e-001
        -9.9408720446842591e-001 -9.9408712866430859e-001
        -9.9408704202555964e-001 -9.9408707106693073e-001
        -9.9408714591130487e-001 -9.9408712386845499e-001
        -9.9409016190706467e-001 -9.9408704202555964e-001
        -9.9408712866430859e-001 -9.9408709742073098e-001
        -9.9408714687452182e-001 -9.9408712511307029e-001
        -9.9408712221119955e-001 -9.9408712866500681e-001
        -9.9408704202555964e-001 -9.9408704202555964e-001
        -9.9408714591023561e-001 -9.9408712866500670e-001
        -9.9408714593630976e-001 -9.9408707198478730e-001
        -9.9408714650700603e-001 -9.9408709239068982e-001
        -2.5136274527674578e+000 -9.9408709001337336e-001
        -9.9408708974623072e-001 -9.9408707106693073e-001
        -9.9408698658655514e-001 -9.9408711024798213e-001
        -9.9408704202555964e-001 -9.9408719393440270e-001
        -9.9408709742073098e-001 -9.9408683498971828e-001
        -9.9408721976343251e-001 -9.9408721976343251e-001
        -9.9408712866506799e-001 -9.9408721976343251e-001
        -9.9408709742073098e-001 -9.9408707106693073e-001
        -9.9408711207960621e-001 -9.9408711207960621e-001
        -1.0047613303223271e+000 -9.9408712221119955e-001
        -9.9408712221119955e-001 -9.9408704010140680e-001
        -9.9408713895904266e-001 -9.9408721972241187e-001
        -9.9408704010140680e-001 -9.9408685722497603e-001
        -9.9408694409056719e-001 -9.9408690422265467e-001
        -9.9408690422265467e-001 -9.9408685722497603e-001
        -9.9408685722497603e-001 -9.9408683499150774e-001
        -9.9408683498971828e-001 -9.9408680802063953e-001
        -9.9408711237424163e-001 -9.9408710679007528e-001
        -9.9408704204252130e-001 -9.9408712866507642e-001
        -9.9408721976343251e-001 -9.9408720446842591e-001
        -9.9408721976343251e-001 -9.9408721976343251e-001
        -9.9408721976343251e-001 -9.9408707248494510e-001
        -9.9408707248494510e-001 -9.9408707248494521e-001
        -9.9408707248494521e-001 -9.9408708856611105e-001
        -9.9408704008089654e-001 -9.9408684196156172e-001
        -9.9408684196156172e-001 -9.9408690240509456e-001
        -9.9408701890629048e-001 -9.9408704010140680e-001
        -9.9408683499150774e-001 -9.9408709742073098e-001
        -9.9408684531770586e-001 -9.9408712221119955e-001
        -9.9408712055948678e-001 -9.9408688492728914e-001
        -9.9408714214578175e-001 -9.9408711356891599e-001
        -9.9408713894406309e-001 -9.9408704008089654e-001
        -9.9408683499150785e-001 -9.9408690422265467e-001
        -9.9408707803718266e-001 -9.9408707803718266e-001
        -9.9408692945987798e-001 -9.9408704010140680e-001
        -9.9408704010140680e-001 -9.9408712386845499e-001
        -9.9408712386845499e-001 -9.9408713478134358e-001
        -9.9408709834897968e-001 -9.9408711059316079e-001
        -9.9408683499150785e-001 -9.9408704202555964e-001
        -9.9408704202555964e-001 -9.9408712055948678e-001
        -9.9408712051508741e-001 -9.9408709001337336e-001
        -9.9408714650700603e-001 -9.9408692945987798e-001
        -9.9408707248494521e-001 -9.9408714591023561e-001
        -9.9408712866430859e-001 -9.9408709742073098e-001
        -9.9408684820389570e-001 -9.9408710893559415e-001
        -9.9408710893559415e-001 -9.9408712866506799e-001
        -9.9408684820389570e-001 -9.9408714214578175e-001
        -9.9408680802063953e-001 -9.9408698658655514e-001
        -9.9408684820389570e-001 -9.9408698658655514e-001
        -9.9408698658655514e-001 -9.9408698658655514e-001
        -9.9408698658655514e-001 -9.9408698658655514e-001
        -9.9408707248494510e-001 -9.9408712866430859e-001
        -9.9408708974623072e-001 -9.9408680802063953e-001
        -9.9408682833539497e-001 -9.9408682206787635e-001
        -9.9408682206787635e-001 -9.9408707248494510e-001
        -9.9408684531770586e-001 -9.9408709239052506e-001
        -9.9408711356891599e-001 -9.9408682833539497e-001
        -9.9408707803718266e-001 -9.9408708030105741e-001
        -9.9408712866500670e-001 -9.9408710051235638e-001
        -9.9408708407084323e-001 -9.9408704202555964e-001
        -9.9408704202555964e-001 -9.9408704202555964e-001
        -9.9408708856611105e-001 -9.9408711207960621e-001
        -9.9408708179351857e-001 -9.9408698658655514e-001</alpha>
      <index>
        112 97 85 109 101 93 95 79 99 87 107 103 91 111 83 94 84 96 76
        98 86 100 80 102 88 106 104 90 108 82 110 92 78 113 77 81 89 105
        0 135 123 147 139 131 133 117 137 125 145 141 129 149 121 132
        122 134 114 136 124 138 118 140 126 144 142 128 146 120 148 130
        116 75 115 119 127 143 37 22 10 34 26 18 20 4 24 12 32 28 16 36
        8 19 9 21 1 23 11 25 5 27 13 31 29 15 33 7 35 17 3 38 2 6 14 30
        56 60 48 72 64 46 58 42 62 50 70 66 54 74 41 57 47 59 39 61 49
        63 43 65 51 69 67 53 71 45 73 55 40 44 52 68 544 545 547 546 539
        543 542 541 540 556 548 549 550 551 552 553 554 555 520 529 594
        521 522 523 524 525 526 527 528 538 530 531 532 533 534 535 536
        537 585 576 577 578 579 580 581 582 583 584 575 586 587 588 589
        590 591 592 593 566 558 559 560 561 562 563 564 565 557 567 568
        569 570 571 572 573 574 473 464 465 466 467 468 469 470 471 472
        463 474 475 476 477 478 479 480 481 454 445 446 447 448 449 450
        451 452 453 482 455 456 457 458 459 460 461 462 510 501 502 503
        504 505 506 507 508 509 500 511 512 513 514 515 516 517 518 491
        483 484 485 486 487 488 489 490 519 492 493 494 495 496 497 498
        499</index></_>
    <_>
      <sv_count>295</sv_count>
      <rho>1.0309257454746675e-002</rho>
      <alpha>
        1.0103110064310281e+000 1.0103126777697542e+000
        1.0103121657650640e+000 1.0103110064310281e+000
        1.0103072804866680e+000 1.0103076124279202e+000
        1.0103142854492730e+000 1.0103142906072056e+000
        1.0103142876151328e+000 1.0103140090551950e+000
        1.0103053426237494e+000 1.0103077833885252e+000
        1.0103142947330044e+000 1.0103142947330044e+000
        1.0103142854492730e+000 1.0103140925481047e+000
        1.0103056216482886e+000 1.0103054226267358e+000
        1.0103023018717574e+000 1.0103006889775459e+000
        1.0103142876151330e+000 1.0103142876151330e+000
        1.0103078448853142e+000 1.0103142906071974e+000
        1.0103142906071971e+000 1.0103110064310281e+000
        1.0103121657663112e+000 1.0103084913965032e+000
        1.0103077833885252e+000 1.0103071592085233e+000
        1.0103077093802306e+000 1.0103009529033677e+000
        1.0103054228098243e+000 1.0103166243534694e+000
        1.0103140083358246e+000 1.0103009598780361e+000
        9.9981028156325158e-001 1.0103118778243685e+000
        1.0103121657663112e+000 1.0103129714719814e+000
        1.0103023021241484e+000 1.0103103795166222e+000
        1.0103132517660820e+000 1.0103132517660820e+000
        1.0103077027656862e+000 1.0208181747265637e+000
        1.0103077093802306e+000 1.0103129789260534e+000
        1.0103118509322651e+000 1.0103076130088993e+000
        1.0103076130092512e+000 1.0103072756465923e+000
        1.0103002626184916e+000 1.0103140131993054e+000
        1.0103140137277822e+000 1.0103118406551506e+000
        1.0103140137277822e+000 1.0103132517660820e+000
        1.0103142906071971e+000 1.0103142947330044e+000
        1.0103142876151328e+000 1.0103142876151330e+000
        1.0103140925679432e+000 1.0103140925679432e+000
        1.0103137400792721e+000 1.0103137400792721e+000
        1.0103055033638839e+000 1.0103009597409938e+000
        1.0103023021241484e+000 1.0103009598313895e+000
        1.0103007308902092e+000 1.0103009552242639e+000
        1.0103002626184916e+000 1.0103002625828470e+000
        1.0103142947330044e+000 1.0103143004206538e+000
        1.0103143004206538e+000 1.0103143082631068e+000
        1.0103140090551950e+000 1.0103108468179856e+000
        1.0103009529033677e+000 1.0103118406551506e+000
        1.0103140137277822e+000 1.0103118406551506e+000
        1.0103103795166222e+000 1.0103130896600354e+000
        1.0103002626184916e+000 1.0103113760265630e+000
        1.0103005833566496e+000 1.0103140137277822e+000
        1.0103132517660820e+000 1.0103009598313895e+000
        1.0103078371104202e+000 1.0103097113510693e+000
        1.0103029008742750e+000 1.0103140925679432e+000
        1.0103137400792721e+000 1.0103059901135054e+000
        1.0103056216482886e+000 1.0103056219640898e+000
        1.0103023021241484e+000 9.9980822819766202e-001
        1.0103009552242639e+000 3.1250000000000000e+002
        1.0103009529033677e+000 1.0103006890131907e+000
        1.0103078371107741e+000 1.0103140925481049e+000
        1.0103002626184916e+000 1.0103140925648302e+000
        1.0103059903424094e+000 1.0103002625828470e+000
        1.0103077863001024e+000 1.0103006900834015e+000
        1.0103009552242639e+000 1.0103142876151328e+000
        1.0103108468179856e+000 1.0103053426237494e+000
        1.0103142906071971e+000 1.0103108468179856e+000
        1.0103009597409938e+000 1.0103142947330044e+000
        1.0103074133295866e+000 1.0103129789260534e+000
        1.0103143004206538e+000 1.0103118509322651e+000
        1.0103059901139535e+000 1.0103140088782288e+000
        1.0103006890131907e+000 1.0103130689235251e+000
        1.0103129789260534e+000 1.0103137400792721e+000
        1.0103009477191440e+000 1.0103118509322651e+000
        1.0103074133295866e+000 1.0103127565835843e+000
        1.0103029007332991e+000 1.0103130896600354e+000
        1.0103118509322651e+000 1.0103108468179856e+000
        1.0103072255491905e+000 1.0103077833885252e+000
        1.0103130896600354e+000 1.0103140083358246e+000
        1.0103130689235251e+000 1.0103078371104202e+000
        -9.8968693107647476e-001 -9.8968812217563129e-001
        -9.8968815934484933e-001 -9.8939891484503506e-001
        -9.8968915318201456e-001 -9.8968783423493600e-001
        -9.8968915318201456e-001 -9.8969277445080961e-001
        -9.8968569957934616e-001 -9.8969272435340772e-001
        -9.8968598627221793e-001 -9.8968598681652975e-001
        -9.8969972385110516e-001 -9.8968691033996470e-001
        -9.8968691033996470e-001 -9.8969272435340772e-001
        -9.8968625992072790e-001 -9.8968590743205676e-001
        -9.8968590743205676e-001 -9.8969400988649459e-001
        -9.8969437803591020e-001 -9.8969931098680930e-001
        -9.8969769787585160e-001 -9.8968724341641567e-001
        -9.8968724341641567e-001 -9.8968571456784660e-001
        -9.8969400988652589e-001 -9.8968691033996470e-001
        -1.0004125701521651e+000 -9.8968693107647476e-001
        -9.8968653029645648e-001 -9.8968653029645648e-001
        -9.8969437835171148e-001 -9.8969457737326416e-001
        -9.8969931102245412e-001 -9.8969926910979078e-001
        -9.8968625992072790e-001 -9.8969258667041349e-001
        -9.8969258667041349e-001 -9.8968569957934616e-001
        -9.8968693107647476e-001 -9.8968693107647476e-001
        -9.8968724341641567e-001 -9.8969258667041349e-001
        -9.8969272435340772e-001 -9.8969221661147466e-001
        -9.8969238699074880e-001 -9.8968691033996470e-001
        -9.8969238699074880e-001 -9.8968570939280287e-001
        -9.8968653029645648e-001 -9.8968693107647476e-001
        -9.8968693107647476e-001 -9.8969215085346340e-001
        -9.8969973588782012e-001 -9.8968569957934616e-001
        -9.8968569957934616e-001 -9.8968598627221793e-001
        -9.8968862397343704e-001 -9.8968862397343693e-001
        -9.8968812217563140e-001 -9.8969400988652589e-001
        -9.8969437835171148e-001 -9.8969904477573611e-001
        -9.8969229061976938e-001 -9.8968590743205676e-001
        -9.8968590743205676e-001 -9.8969709925212002e-001
        -9.8968570939280287e-001 -9.8969465737625062e-001
        -9.8968691033996470e-001 -9.8968691033996470e-001
        -9.8969238699074880e-001 -9.8968724341641567e-001
        -9.8969467689958779e-001 -9.8969465737625062e-001
        -9.8969904709663237e-001 -9.8939417546808983e-001
        -9.8969904709663237e-001 -3.1250000000000000e+002
        -9.8968590745185137e-001 -9.8969271951333204e-001
        -9.8969467689958779e-001 -9.8968590745185137e-001
        -9.8969904709663237e-001 -9.8969769787585160e-001
        -9.8969904000134812e-001 -9.8969216288922590e-001
        -9.8968560938689221e-001 -9.8969465737625062e-001
        -9.8968702107394646e-001 -9.8969238699110063e-001
        -9.8968815934484933e-001 -9.8968674823391800e-001
        -9.8969216288957984e-001 -9.8969221369989757e-001
        -9.8969437835171148e-001 -9.8968590745185137e-001
        -9.8968569173689325e-001 -9.8969931098680930e-001
        -9.8969272435340772e-001 -9.8969284079147668e-001
        -9.8969457737326416e-001 -9.8969150860349675e-001
        -9.8969465737625062e-001 -9.8968812217563129e-001
        -9.8968724341641567e-001 -9.8969229723431384e-001
        -9.8968815934484933e-001 -9.8968812217563129e-001
        -9.8968702852801871e-001 -9.8969401001507884e-001
        -9.8969272435340772e-001 -9.8968598681652975e-001
        -9.8968569957934616e-001 -9.8968862397343704e-001
        -9.8968570526699562e-001 -9.8968570939280287e-001
        -9.8968921158221979e-001 -9.8968571238487557e-001
        -9.8969258667041349e-001 -9.8968571238486713e-001
        -9.8968571455081567e-001 -9.8968598680069464e-001
        -9.8969930991659860e-001 -9.8969926831757826e-001
        -9.8969709926670091e-001 -9.8969904000134812e-001
        -9.8969769787585160e-001 -9.8968899356897189e-001
        -9.8969400965759058e-001 -9.8969769812824260e-001
        -9.8969457737326416e-001 -9.8968821980524158e-001
        -9.8969437835171148e-001 -9.8968590745189533e-001
        -9.8968625992072778e-001 -9.8968625992072790e-001
        -9.8969229061976938e-001 -9.8968590743205676e-001
        -9.8969941664335026e-001 -9.8969215511468589e-001
        -9.8968590745189522e-001 -9.8968691033996470e-001
        -9.8969258667041338e-001 -9.8969457719017573e-001
        -9.8968812217563129e-001 -9.8968674823391800e-001
        -9.8968732223024580e-001</alpha>
      <index>
        250 251 253 252 245 249 248 247 246 262 254 255 256 257 258 259
        260 261 226 235 150 227 228 229 230 231 232 233 234 244 236 237
        238 239 240 241 242 243 288 280 281 282 283 284 285 286 287 279
        289 290 291 292 293 294 295 272 264 265 266 267 268 269 270 271
        263 273 274 275 276 277 278 179 170 171 172 173 174 175 176 177
        178 169 180 181 182 183 184 185 186 187 160 151 152 153 154 155
        156 157 158 159 225 161 162 163 164 165 166 167 168 216 207 208
        209 210 211 212 213 214 215 188 217 218 219 220 221 222 223 224
        206 189 190 191 192 193 194 195 196 197 198 199 200 201 202 203
        204 205 395 396 398 397 390 394 393 392 391 407 399 400 401 402
        403 404 405 406 372 380 296 373 374 375 376 377 378 379 389 381
        382 383 384 385 386 387 388 436 427 428 429 430 431 432 433 434
        435 426 437 438 439 440 441 442 443 444 417 409 410 411 412 413
        414 415 416 408 418 419 420 421 422 423 424 425 324 315 316 317
        318 319 320 321 322 323 314 325 326 327 328 329 330 331 332 305
        371 297 298 299 300 301 302 303 304 333 306 307 308 309 310 311
        312 313 362 353 354 355 356 357 358 359 360 361 352 363 364 365
        366 367 368 369 370 343 334 335 336 337 338 339 340 341 342 344
        345 346 347 348 349 350 351</index></_>
    <_>
      <sv_count>296</sv_count>
      <rho>1.3678044577215047e-002</rho>
      <alpha>
        1.0112853632834611e+000 1.0154690753027287e+000
        1.0153069150988672e+000 1.0150126042526106e+000
        1.0132396210170982e+000 1.0132396210170982e+000
        1.0133615027621310e+000 1.0133615027621310e+000
        1.0150231066213324e+000 1.0150231066213324e+000
        1.0132359144627237e+000 1.0132359144627237e+000
        1.0133921919925912e+000 1.0150126042526106e+000
        1.0154690753027287e+000 1.0115201607856275e+000
        1.0136537856186498e+000 1.0131857381389830e+000
        1.0258642505525501e+000 1.0112904958282984e+000
        1.0131848787011908e+000 1.0151507172648544e+000
        1.0154690753027289e+000 1.0131853395074464e+000
        1.0136532377604670e+000 1.0132102555257989e+000
        1.0151507172648544e+000 1.0154707019485689e+000
        1.0153069197982725e+000 1.0133921920066022e+000
        1.0136537856186498e+000 1.0150036590310814e+000
        1.0133921919925912e+000 1.0117404935525598e+000
        1.0136540911017793e+000 1.0131857381389830e+000
        1.0016387846662171e+000 1.0151507172648544e+000
        1.0150036590310814e+000 1.0132813501256510e+000
        1.0133921919925912e+000 1.0133076260660037e+000
        1.0132359144627237e+000 1.0132396210581525e+000
        1.0132359144627237e+000 1.0133921920066022e+000
        1.0136534773211583e+000 1.0136537856186498e+000
        1.0136532377604670e+000 1.0136540911017793e+000
        1.0136338319416280e+000 1.0136338319416280e+000
        1.0136343429171104e+000 1.0131848965378134e+000
        1.0131867935284495e+000 1.0131857381389830e+000
        1.0131867935284495e+000 1.0131848965378134e+000
        1.0117386686694190e+000 1.0117392507593863e+000
        1.0117404935525598e+000 1.0117386686694190e+000
        1.0117404935525598e+000 1.0112734975422177e+000
        1.0132396210581525e+000 1.0117428046650399e+000
        1.0132102555257989e+000 1.0131557157469402e+000
        1.0132813501256510e+000 1.0132884039236205e+000
        1.0150286003989177e+000 1.0154707019485689e+000
        1.0150036590310814e+000 1.0153602737913117e+000
        1.0133621457282695e+000 1.0154690753027289e+000
        1.0124357570697082e+000 1.0153064227261548e+000
        1.0119259678579076e+000 1.0115201607856275e+000
        1.0153069150988672e+000 1.0133615027621310e+000
        1.0154731954557188e+000 1.0153107616577111e+000
        1.0154690753027289e+000 1.0132806504414251e+000
        1.0153156317501946e+000 1.0153156317501946e+000
        1.0153107584893823e+000 1.0150036590310814e+000
        1.0153069150988672e+000 1.0153064227261548e+000
        1.0150126042526106e+000 1.0150277499932470e+000
        1.0150231066213324e+000 1.0150231066213324e+000
        1.0150126042526106e+000 1.0150036590310814e+000
        1.0150286003989177e+000 1.0132811875306031e+000
        1.0132813501256510e+000 1.0008452540822868e+000
        1.0132369270209554e+000 1.0132429600674193e+000
        1.0131848786104674e+000 1.0131557157516693e+000
        1.0131809736609219e+000 1.0131557157469402e+000
        1.0131809736609219e+000 1.0132102555257989e+000
        1.0131809736609219e+000 3.1250000000000000e+002
        1.0132429601383275e+000 1.0132359144627237e+000
        1.0132429601383275e+000 1.0132396210581525e+000
        1.0133076260660037e+000 1.0133621457282695e+000
        1.0133921920066022e+000 1.0112510960008203e+000
        1.0128693310246408e+000 1.0112853643285193e+000
        1.0115201607856275e+000 1.0137359912279755e+000
        1.0119259682112656e+000 1.0121236374382614e+000
        1.0154731954557188e+000 1.0124357575296392e+000
        1.0128693310246408e+000 1.0153069150988672e+000
        1.0134027136076682e+000 1.0143940904722513e+000
        1.0151507051513233e+000 1.0114915178572623e+000
        1.0138933443306613e+000 1.0153156317501946e+000
        1.0132369270209554e+000 1.0132813501256510e+000
        1.0150286003989177e+000 1.0132884039236205e+000
        1.0151507172648544e+000 1.0131809736609219e+000
        1.0136338319416280e+000 1.0132813501256510e+000
        1.0132102555257989e+000 1.0117428046650399e+000
        -9.8713066897535906e-001 -9.8787636256173861e-001
        -9.8452680454428132e-001 -9.8452929805143108e-001
        -9.8469357688400250e-001 -9.8468436824980554e-001
        -9.8497139960108238e-001 -9.8497689337866745e-001
        -9.8681902633907825e-001 -9.8684428425305992e-001
        -9.8669237393399623e-001 -3.1250000000000000e+002
        -9.8678974447420109e-001 -9.8674532584070540e-001
        -9.8671159607637948e-001 -9.8484928273514560e-001
        -9.8636565708288959e-001 -9.8671864987434899e-001
        -9.8610665566933875e-001 -9.8676037898290170e-001
        -9.8497139960108238e-001 -9.8469356488866566e-001
        -9.8826074924061369e-001 -9.8634590889822060e-001
        -9.8660780799339787e-001 -9.8499634096891853e-001
        -9.8468924151061776e-001 -9.8785097476677353e-001
        -9.8671159607637948e-001 -9.8681510346218659e-001
        -9.8681512138953265e-001 -9.8560590952774862e-001
        -9.8453092469727133e-001 -9.8634590889822060e-001
        -9.8634676223953310e-001 -9.8663849723786901e-001
        -9.8681902633907825e-001 -9.8468436824980554e-001
        -9.8872650049455790e-001 -9.8452680454428121e-001
        -9.8681902633907825e-001 -9.8874890399917958e-001
        -9.8807403178873432e-001 -9.8684428425305992e-001
        -9.8659728639233168e-001 -9.8452929805143108e-001
        -9.8671159607637948e-001 -9.8469357688400250e-001
        -9.8498739574738947e-001 -9.8497689337866745e-001
        -9.8671881246939674e-001 -9.8681512129880933e-001
        -9.8498739574738947e-001 -9.8681512138953265e-001
        -9.8675703993258079e-001 -9.8499634096891853e-001
        -9.8870950417170156e-001 -9.8826133133058103e-001
        -9.8468436824980554e-001 -9.8468924151061776e-001
        -9.8825719533496026e-001 -9.8469308490113294e-001
        -9.9574522416876621e-001 -9.8452680454428121e-001
        -9.8681320647155046e-001 -9.8452929805143108e-001
        -9.8671864987434899e-001 -9.8636565708288959e-001
        -9.8825719533496026e-001 -9.8825950644744032e-001
        -9.8634676223953310e-001 -9.8826133133058103e-001
        -9.8681320647155046e-001 -9.8669237393399623e-001
        -9.8681426186101695e-001 -9.8681510346218659e-001
        -9.8676408553727646e-001 -9.8636565708288959e-001
        -9.8636616805837196e-001 -9.8675703993258079e-001
        -9.8634621438135006e-001 -9.8634652267884193e-001
        -9.8684428424833071e-001 -9.8676408553727646e-001
        -9.8676037894184765e-001 -9.8497689337866745e-001
        -9.8669237393399623e-001 -9.8684428424833059e-001
        -9.8468924151061776e-001 -9.8681902633907825e-001
        -9.8681512129880933e-001 -9.8469357688400250e-001
        -9.8675703986167262e-001 -9.8671864987434899e-001
        -9.8452929805143108e-001 -9.8671159607637948e-001
        -9.8498739574738947e-001 -9.8756424247036079e-001
        -9.8497689337866745e-001 -9.8497139960108238e-001
        -9.8871463567148055e-001 -9.8469308020172763e-001
        -9.8468923834228905e-001 -9.8678974447420109e-001
        -9.8468436824980554e-001 -9.8560590952774862e-001
        -9.8674532584070540e-001 -9.8453092469727121e-001
        -9.8850848214273768e-001 -9.8498739574738947e-001
        -9.8469308490113294e-001 -9.8560590952774862e-001
        -9.8681466049255362e-001 -9.8634652267884182e-001
        -9.8671934955857477e-001 -9.8826074924061369e-001
        -9.8676037898290170e-001 -9.8713066897535906e-001
        -9.8499634096891853e-001 -9.8669237393399623e-001
        -9.8756424293029166e-001 -9.8468436824980554e-001
        -9.8468924151061776e-001 -9.8807403214209244e-001
        -9.8452929805143108e-001 -9.8484928267701521e-001
        -9.8847983921437244e-001 -9.8678974447420109e-001
        -9.8681466049255362e-001 -9.8871463671653881e-001
        -9.8453092469727133e-001 -9.8484928273514560e-001
        -9.8660780800740888e-001 -9.8681512138953265e-001
        -9.8872650049455790e-001 -9.8669237393399623e-001
        -9.8626400877202447e-001 -9.8681512129880933e-001
        -9.8676408553727646e-001 -9.8634651051812394e-001
        -9.8468924151061776e-001 -9.8684428424833071e-001
        -9.8675703993258079e-001 -9.8669237393399623e-001
        -9.8452929805143108e-001 -9.8678974447420109e-001
        -9.8874890399917958e-001 -9.8675703986167262e-001
        -9.8826074924061369e-001 -9.8681466049255362e-001</alpha>
      <index>
        250 251 253 252 245 249 248 247 246 262 254 255 256 257 258 259
        260 261 226 235 150 227 228 229 230 231 232 233 234 244 236 237
        238 239 240 241 242 243 288 280 281 282 283 284 285 286 287 279
        289 290 291 292 293 294 295 272 264 265 266 267 268 269 270 271
        263 273 274 275 276 277 278 179 170 171 172 173 174 175 176 177
        178 169 180 181 182 183 184 185 186 187 160 151 152 153 154 155
        156 157 158 159 225 161 162 163 164 165 166 167 168 216 207 208
        209 210 211 212 213 214 215 188 217 218 219 220 221 222 223 224
        206 189 190 191 192 193 194 195 196 197 198 199 200 201 202 203
        204 205 544 545 547 546 539 543 542 541 540 556 548 549 550 551
        552 553 554 555 520 529 594 521 522 523 524 525 526 527 528 538
        530 531 532 533 534 535 536 537 585 576 577 578 579 580 581 582
        583 584 575 586 587 588 589 590 591 592 593 566 558 559 560 561
        562 563 564 565 557 567 568 569 570 571 572 573 574 473 464 465
        466 467 468 469 470 471 472 463 474 475 476 477 478 479 480 481
        454 445 446 447 448 449 450 451 452 453 482 455 456 457 458 459
        460 461 462 510 501 502 503 504 505 506 507 508 509 500 511 512
        513 514 515 516 517 518 491 483 484 485 486 487 488 489 490 519
        492 493 494 495 496 497 498 499</index></_>
    <_>
      <sv_count>299</sv_count>
      <rho>3.3467506830549042e-003</rho>
      <alpha>
        1.0033516915569480e+000 1.0033516916391063e+000
        1.0033516916391063e+000 1.0030380933884773e+000
        1.0033401846122079e+000 1.0033401677260141e+000
        1.0033401677260141e+000 1.0033516916394736e+000
        1.0033516916396570e+000 1.0033401508459305e+000
        1.0033425303184409e+000 1.0033425303184409e+000
        1.0033516794321893e+000 1.0033516915889988e+000
        1.0033401677260141e+000 1.0033516916391063e+000
        1.0033425391214592e+000 1.0033425433362333e+000
        1.0033516915569480e+000 1.0033516915573153e+000
        1.0033516915946907e+000 1.0033516915946907e+000
        1.0033516915889991e+000 1.0033516915889991e+000
        1.0033516915889991e+000 1.0033516915889991e+000
        1.0033516915889988e+000 1.0033401508459305e+000
        1.0033401846122079e+000 1.0033401846122079e+000
        1.0033516916391063e+000 1.0033516916339651e+000
        1.0033516915895497e+000 1.0033516915895497e+000
        1.0033516916391063e+000 1.0033516916391063e+000
        1.0033516916391063e+000 1.0033516916391063e+000
        1.0033516916394736e+000 1.0033516916394736e+000
        1.0033516916396570e+000 1.0033420772166821e+000
        1.0033401508459305e+000 1.0033401508459305e+000
        1.0139269843054626e+000 1.0033477094860737e+000
        1.0033401508459305e+000 1.0033401508459305e+000
        1.0033401508459305e+000 1.0033401508459305e+000
        1.0033401508459305e+000 1.0033401508459305e+000
        1.0033401508459305e+000 1.0033516793562738e+000
        1.0033401508459305e+000 1.0033401508459305e+000
        1.0033516915889988e+000 1.0033516915895497e+000
        1.0033401923287268e+000 1.0033401923316647e+000
        1.0033402000469041e+000 1.0033420236524817e+000
        1.0033425303184407e+000 1.0033516916391063e+000
        1.0033516916391063e+000 1.0033516916391063e+000
        1.0033516916341489e+000 1.0033402000469041e+000
        1.0033402077637972e+000 1.0033401677289522e+000
        1.0033516915889991e+000 1.0033516915895497e+000
        1.0033516916391063e+000 1.0033419053357218e+000
        1.0033420236524817e+000 1.0033425303184409e+000
        1.0033401677260143e+000 1.0030357500664213e+000
        1.0033401846122079e+000 1.0033401923287268e+000
        1.0033425303184409e+000 1.0033516915895497e+000
        1.0033516915895497e+000 1.0033516915895497e+000
        1.0033516916391063e+000 1.0033516916391063e+000
        1.0033516916391063e+000 1.0033516916391063e+000
        1.0033516916391063e+000 1.0033516916391063e+000
        1.0033516916391063e+000 1.0033516916391063e+000
        1.0033516916394736e+000 1.0033516916394736e+000
        1.0033516916394736e+000 1.0033516916394736e+000
        1.0033516916396570e+000 1.0033425303184407e+000
        1.0033425303184407e+000 1.0033425303184409e+000
        1.0033425303184409e+000 1.0033425303184409e+000
        1.0033425303184409e+000 1.0033425303184409e+000
        1.0033425391214592e+000 1.0033425391214592e+000
        1.0033425433362333e+000 1.0033425475527733e+000
        1.0033477094860737e+000 1.0033516916396570e+000
        1.0033516916339651e+000 1.0033516916341489e+000
        1.0033425303184409e+000 1.0033425303184409e+000
        1.0033425303184409e+000 1.0033425303184409e+000
        1.0033425303184409e+000 1.0033425303184409e+000
        1.0033425303184409e+000 1.0033425303184409e+000
        1.0033425303184409e+000 1.0033425303184409e+000
        1.0033425391214592e+000 1.0033516916391063e+000
        1.0033516916391063e+000 1.0033516916394734e+000
        1.0033516916394736e+000 1.0033516916394736e+000
        1.0033516916343324e+000 1.0033401677260141e+000
        1.0033425303184409e+000 1.0033425303184409e+000
        1.0033425433362333e+000 1.0033425303184409e+000
        1.0033425303184409e+000 1.0033425433362333e+000
        1.0033425433362333e+000 1.0033425391185216e+000
        1.0033425391185216e+000 1.0033425391185216e+000
        1.0033425433362333e+000 1.0033425433362333e+000
        1.0033425475527733e+000 1.0033425517681400e+000
        1.0033432628056931e+000 1.0033432628041326e+000
        1.0033432628041326e+000 1.0033477094860737e+000
        1.0033477094860737e+000 -9.9665229051392645e-001
        -9.9665229051392645e-001 -9.9665229051392645e-001
        -9.9665229051392645e-001 -9.9665229051392645e-001
        -9.9665229051392645e-001 -9.9664830844305197e-001
        -9.9664830844305197e-001 -9.9664830844305197e-001
        -9.9664830844305197e-001 -9.9664830844268470e-001
        -9.9664830844268470e-001 -9.9664830844231744e-001
        -9.9664830844195029e-001 -9.9664830841100105e-001
        -9.9664830841100105e-001 -9.9664830841100105e-001
        -9.9664830841100105e-001 -9.9664830841100105e-001
        -9.9664830841118457e-001 -9.9664830841100094e-001
        -9.9664829628505569e-001 -9.9664830841100094e-001
        -9.9664830841100094e-001 -9.9664830841100094e-001
        -9.9664830841100094e-001 -9.9664830841100094e-001
        -9.9665150006855319e-001 -9.9664830841100105e-001
        -9.9664830841100105e-001 -9.9664830841045027e-001
        -9.9664830836089380e-001 -9.9664830836052665e-001
        -9.9665744613202123e-001 -9.9665673719586745e-001
        -9.9665122754568325e-001 -9.9665983227398569e-001
        -9.9665746968155922e-001 -9.9665746087854079e-001
        -9.9665229051392645e-001 -9.9665229051392645e-001
        -9.9665792278331788e-001 -9.9665792278331788e-001
        -9.9665150006855319e-001 -9.9665984915406935e-001
        -9.9665984915406935e-001 -1.0073057112453290e+000
        -9.9665984915406935e-001 -9.9665984915406935e-001
        -9.9665983227398569e-001 -9.9665229051392645e-001
        -9.9665229051392645e-001 -9.9665229051392645e-001
        -9.9664830844305197e-001 -9.9664830844305197e-001
        -9.9664830844268470e-001 -9.9664830844231744e-001
        -9.9664830840530916e-001 -9.9664830840530916e-001
        -9.9664830840530916e-001 -9.9664830840530916e-001
        -9.9664830841100094e-001 -9.9664830841100094e-001
        -9.9664830841100094e-001 -9.9664830841100094e-001
        -9.9664830841100094e-001 -9.9665984915406935e-001
        -9.9665984915406935e-001 -9.9665984915406935e-001
        -9.9665984915406935e-001 -9.9665984915406935e-001
        -9.9665984915406935e-001 -9.9665984915406935e-001
        -9.9665984915406935e-001 -9.9665746088147844e-001
        -9.9665746088147844e-001 -9.9665745244722659e-001
        -9.9665983227104804e-001 -9.9664830841100105e-001
        -9.9664830841045027e-001 -9.9664830841045027e-001
        -9.9664830841045027e-001 -9.9664830841045027e-001
        -9.9664830841045027e-001 -9.9664830841045027e-001
        -9.9664830841045027e-001 -9.9664830841045027e-001
        -9.9664830840530916e-001 -9.9664830840530916e-001
        -9.9664830840530916e-001 -9.9664830840530916e-001
        -9.9664830840530916e-001 -9.9664830840530916e-001
        -9.9664830840530916e-001 -9.9664830841100094e-001
        -9.9664830841100094e-001 -9.9664830841100094e-001
        -9.9664830841100094e-001 -9.9664830836089369e-001
        -9.9664830836089369e-001 -9.9664830836089369e-001
        -9.9664830836089369e-001 -9.9664830836089369e-001
        -9.9664830836089369e-001 -9.9665983227398580e-001
        -9.9665983227398580e-001 -9.9665983227398569e-001
        -9.9665983227398569e-001 -9.9665746968155911e-001
        -9.9665746968155911e-001 -9.9665746968155911e-001
        -9.9665745244722659e-001 -9.9665744823186009e-001
        -9.9664830841100105e-001 -9.9666753720647649e-001
        -9.9665229051392645e-001 -9.9664830836089369e-001
        -9.9664830836089369e-001 -9.9664830836089369e-001
        -9.9664830836052654e-001 -9.9664830836052654e-001
        -9.9664830836052654e-001 -9.9664830836052654e-001
        -9.9664830836052654e-001 -9.9664830836034302e-001
        -9.9664830836034302e-001 -9.9664830836034302e-001
        -9.9664830836034302e-001 -9.9665792278331788e-001
        -9.9665983227398569e-001 -9.9665983227104804e-001
        -9.9665983227104793e-001 -9.9665981538779225e-001
        -9.9665981538779225e-001 -9.9665981538779225e-001
        -9.9665981538779225e-001 -9.9665980766833528e-001
        -9.9665746968155911e-001 -9.9665746968155911e-001
        -9.9665672507524672e-001 -9.9665746087854079e-001
        -9.9665746087854079e-001 -9.9665746087854079e-001
        -9.9665746087854079e-001 -9.9665746088147844e-001
        -9.9665745666376671e-001 -9.9665746087854079e-001
        -9.9665673719430692e-001 -9.9664830841118457e-001
        -9.9665984915406935e-001</alpha>
      <index>
        395 396 398 397 390 394 393 392 391 407 399 400 401 402 403 404
        405 406 372 380 296 373 374 375 376 377 378 379 389 381 382 383
        384 385 386 387 388 436 427 428 429 430 431 432 433 434 435 426
        437 438 439 440 441 442 443 444 417 409 410 411 412 413 414 415
        416 408 418 419 420 421 422 423 424 425 324 315 316 317 318 319
        320 321 322 323 314 325 326 327 328 329 330 331 332 305 371 297
        298 299 300 301 302 303 304 333 306 307 308 309 310 311 312 313
        362 353 354 355 356 357 358 359 360 361 352 363 364 365 366 367
        368 369 370 343 334 335 336 337 338 339 340 341 342 344 345 346
        347 348 349 350 351 544 545 547 546 539 543 542 541 540 556 548
        549 550 551 552 553 554 555 520 529 594 521 522 523 524 525 526
        527 528 538 530 531 532 533 534 535 536 537 585 576 577 578 579
        580 581 582 583 584 575 586 587 588 589 590 591 592 593 566 558
        559 560 561 562 563 564 565 557 567 568 569 570 571 572 573 574
        473 464 465 466 467 468 469 470 471 472 463 474 475 476 477 478
        479 480 481 454 445 446 447 448 449 450 451 452 453 482 455 456
        457 458 459 460 461 462 510 501 502 503 504 505 506 507 508 509
        500 511 512 513 514 515 516 517 518 491 483 484 485 486 487 488
        489 490 519 492 493 494 495 496 497 498 499</index></_></decision_functions></opencv_ml_svm>
</opencv_storage>
