<?xml version="1.0"?>
<opencv_storage>
<opencv_ml_svm>
  <format>3</format>
  <svmType>C_SVC</svmType>
  <kernel>
    <type>RBF</type>
    <gamma>1.5000000000000001e-004</gamma></kernel>
  <C>5.0000000000000000e-001</C>
  <term_criteria><epsilon>1.1920928955078125e-007</epsilon>
    <iterations>1000</iterations></term_criteria>
  <var_count>4</var_count>
  <class_count>4</class_count>
  <class_labels type_id="opencv-matrix">
    <rows>4</rows>
    <cols>1</cols>
    <dt>i</dt>
    <data>
      0 1 2 3</data></class_labels>
  <sv_total>120</sv_total>
  <support_vectors>
    <_>
      0. 0. 402. 11.</_>
    <_>
      0. 0. 945. 28.</_>
    <_>
      0. 0. 887. 14.</_>
    <_>
      0. 0. 459. 11.</_>
    <_>
      0. 0. 86. 3.</_>
    <_>
      0. 0. 74. 2.</_>
    <_>
      0. 0. 127. 3.</_>
    <_>
      0. 0. 632. 12.</_>
    <_>
      0. 0. 794. 11.</_>
    <_>
      0. 0. 517. 12.</_>
    <_>
      0. 0. 593. 9.</_>
    <_>
      0. 0. 41. 2.</_>
    <_>
      0. 0. 1940. 20.</_>
    <_>
      0. 0. 192. 6.</_>
    <_>
      0. 0. 169. 4.</_>
    <_>
      0. 0. 155. 5.</_>
    <_>
      0. 0. 0. 0.</_>
    <_>
      0. 0. 310. 6.</_>
    <_>
      0. 0. 0. 0.</_>
    <_>
      0. 0. 25. 1.</_>
    <_>
      0. 0. 94. 3.</_>
    <_>
      0. 0. 597. 9.</_>
    <_>
      0. 0. 70. 3.</_>
    <_>
      0. 0. 820. 12.</_>
    <_>
      0. 0. 411. 13.</_>
    <_>
      0. 0. 825. 22.</_>
    <_>
      0. 0. 100. 2.</_>
    <_>
      0. 0. 790. 24.</_>
    <_>
      0. 0. 220. 8.</_>
    <_>
      0. 0. 434. 9.</_>
    <_>
      0. 0. 600. 12.</_>
    <_>
      0. 0. 195. 6.</_>
    <_>
      0. 0. 1089. 24.</_>
    <_>
      0. 0. 361. 10.</_>
    <_>
      0. 0. 0. 0.</_>
    <_>
      0. 0. 432. 6.</_>
    <_>
      0. 0. 1080. 11.</_>
    <_>
      0. 0. 78. 3.</_>
    <_>
      0. 0. 3456. 55.</_>
    <_>
      0. 0. 233. 5.</_>
    <_>
      0. 0. 1107. 5.</_>
    <_>
      0. 0. 1261. 24.</_>
    <_>
      0. 0. 2142. 35.</_>
    <_>
      0. 0. 619. 19.</_>
    <_>
      30. 1. 728. 20.</_>
    <_>
      0. 0. 1003. 14.</_>
    <_>
      0. 0. 110. 3.</_>
    <_>
      0. 0. 0. 0.</_>
    <_>
      48. 1. 1184. 28.</_>
    <_>
      0. 0. 565. 13.</_>
    <_>
      0. 0. 1392. 37.</_>
    <_>
      0. 0. 373. 7.</_>
    <_>
      0. 0. 0. 0.</_>
    <_>
      0. 0. 175. 4.</_>
    <_>
      0. 0. 208. 2.</_>
    <_>
      0. 0. 0. 0.</_>
    <_>
      0. 0. 609. 7.</_>
    <_>
      0. 0. 443. 3.</_>
    <_>
      86. 1. 415. 12.</_>
    <_>
      0. 0. 786. 21.</_>
    <_>
      128. 1. 0. 0.</_>
    <_>
      0. 0. 2954. 47.</_>
    <_>
      0. 0. 1772. 37.</_>
    <_>
      0. 0. 161. 4.</_>
    <_>
      0. 0. 1019. 11.</_>
    <_>
      0. 0. 817. 9.</_>
    <_>
      0. 0. 501. 17.</_>
    <_>
      0. 0. 1164. 14.</_>
    <_>
      0. 0. 221. 5.</_>
    <_>
      0. 0. 0. 0.</_>
    <_>
      0. 0. 228. 8.</_>
    <_>
      0. 0. 1368. 18.</_>
    <_>
      0. 0. 0. 0.</_>
    <_>
      0. 0. 187. 5.</_>
    <_>
      0. 0. 381. 3.</_>
    <_>
      0. 0. 307. 7.</_>
    <_>
      0. 0. 56. 3.</_>
    <_>
      0. 0. 1040. 24.</_>
    <_>
      0. 0. 421. 10.</_>
    <_>
      48. 1. 0. 0.</_>
    <_>
      0. 0. 0. 0.</_>
    <_>
      0. 0. 0. 0.</_>
    <_>
      0. 0. 155. 5.</_>
    <_>
      0. 0. 468. 8.</_>
    <_>
      0. 0. 233. 8.</_>
    <_>
      0. 0. 343. 5.</_>
    <_>
      0. 0. 0. 0.</_>
    <_>
      0. 0. 0. 0.</_>
    <_>
      0. 0. 368. 10.</_>
    <_>
      0. 0. 24. 1.</_>
    <_>
      0. 0. 424. 10.</_>
    <_>
      0. 0. 153. 4.</_>
    <_>
      0. 0. 212. 5.</_>
    <_>
      0. 0. 138. 2.</_>
    <_>
      0. 0. 1359. 13.</_>
    <_>
      0. 0. 890. 19.</_>
    <_>
      0. 0. 2161. 28.</_>
    <_>
      0. 0. 1589. 31.</_>
    <_>
      0. 0. 2758. 25.</_>
    <_>
      0. 0. 6147. 61.</_>
    <_>
      0. 0. 630. 14.</_>
    <_>
      0. 0. 4463. 81.</_>
    <_>
      0. 0. 10003. 105.</_>
    <_>
      0. 0. 2431. 33.</_>
    <_>
      0. 0. 3130. 55.</_>
    <_>
      0. 0. 3071. 35.</_>
    <_>
      0. 0. 3188. 56.</_>
    <_>
      0. 0. 5367. 75.</_>
    <_>
      0. 0. 68. 2.</_>
    <_>
      0. 0. 56. 2.</_>
    <_>
      0. 0. 2779. 51.</_>
    <_>
      0. 0. 798. 16.</_>
    <_>
      0. 0. 0. 0.</_>
    <_>
      0. 0. 898. 14.</_>
    <_>
      0. 0. 562. 9.</_>
    <_>
      0. 0. 1709. 17.</_>
    <_>
      0. 0. 829. 10.</_>
    <_>
      0. 0. 607. 12.</_>
    <_>
      0. 0. 170. 4.</_>
    <_>
      0. 0. 1144. 17.</_></support_vectors>
  <decision_functions>
    <_>
      <sv_count>60</sv_count>
      <rho>-2.4992411524731206e-001</rho>
      <alpha>
        5.0000000000000000e-001 5.0000000000000000e-001
        5.0000000000000000e-001 5.0000000000000000e-001
        5.0000000000000000e-001 5.0000000000000000e-001
        5.0000000000000000e-001 5.0000000000000000e-001
        5.0000000000000000e-001 5.0000000000000000e-001
        5.0000000000000000e-001 5.0000000000000000e-001
        5.0000000000000000e-001 5.0000000000000000e-001
        5.0000000000000000e-001 5.0000000000000000e-001
        5.0000000000000000e-001 5.0000000000000000e-001
        5.0000000000000000e-001 5.0000000000000000e-001
        5.0000000000000000e-001 5.0000000000000000e-001
        5.0000000000000000e-001 5.0000000000000000e-001
        5.0000000000000000e-001 5.0000000000000000e-001
        5.0000000000000000e-001 5.0000000000000000e-001
        5.0000000000000000e-001 5.0000000000000000e-001
        -5.0000000000000000e-001 -5.0000000000000000e-001
        -5.0000000000000000e-001 -5.0000000000000000e-001
        -5.0000000000000000e-001 -5.0000000000000000e-001
        -5.0000000000000000e-001 -5.0000000000000000e-001
        -5.0000000000000000e-001 -5.0000000000000000e-001
        -5.0000000000000000e-001 -5.0000000000000000e-001
        -5.0000000000000000e-001 -5.0000000000000000e-001
        -5.0000000000000000e-001 -5.0000000000000000e-001
        -5.0000000000000000e-001 -5.0000000000000000e-001
        -5.0000000000000000e-001 -5.0000000000000000e-001
        -5.0000000000000000e-001 -5.0000000000000000e-001
        -5.0000000000000000e-001 -5.0000000000000000e-001
        -5.0000000000000000e-001 -5.0000000000000000e-001
        -5.0000000000000000e-001 -5.0000000000000000e-001
        -5.0000000000000000e-001 -5.0000000000000000e-001</alpha>
      <index>
        15 0 29 28 27 26 25 24 23 22 21 20 19 18 17 16 14 13 12 11 10 9
        8 7 6 5 4 3 2 1 52 50 51 46 49 48 47 30 53 54 55 56 57 58 59 45
        44 43 42 41 40 39 38 37 36 35 34 33 32 31</index></_>
    <_>
      <sv_count>60</sv_count>
      <rho>-5.1873769114928936e-001</rho>
      <alpha>
        5.0000000000000000e-001 4.8126227751626638e-001
        4.8126228029466162e-001 4.8442719760345765e-001
        4.8126230910758733e-001 4.8126227447002601e-001
        4.8126232427754279e-001 4.8126234197818329e-001
        4.8131744843169144e-001 4.8117427901718302e-001
        4.8111630197167510e-001 4.8126232221919657e-001
        5.0000000000000000e-001 5.0000000000000000e-001
        4.8442719760345332e-001 5.0000000000000000e-001
        4.8126233953348391e-001 4.8126323753583389e-001
        4.8126227799782489e-001 4.8126227799781729e-001
        4.8111628669180312e-001 4.8126231405168118e-001
        4.8126227751626621e-001 4.8126234197818329e-001
        4.8126227799782478e-001 4.8117424528218300e-001
        4.8126231079479248e-001 4.8126231079479637e-001
        4.8126232574699229e-001 4.8126231079479637e-001
        -5.0000000000000000e-001 -4.9922437741627035e-001
        -5.0000000000000000e-001 -5.0000000000000000e-001
        -5.0000000000000000e-001 -5.0000000000000000e-001
        -5.0000000000000000e-001 -5.0000000000000000e-001
        -5.0000000000000000e-001 -5.0000000000000000e-001
        -5.0000000000000000e-001 -5.0000000000000000e-001
        -5.0000000000000000e-001 -5.0000000000000000e-001
        -5.0000000000000000e-001 -5.0000000000000000e-001
        -5.0000000000000000e-001 -5.0000000000000000e-001
        -5.0000000000000000e-001 -5.0000000000000000e-001
        -1.9513311788933230e-002 -5.0000000000000000e-001
        -5.0000000000000000e-001 -5.0000000000000000e-001
        -5.0000000000000000e-001 -5.0000000000000000e-001
        -5.0000000000000000e-001 -5.0000000000000000e-001
        -5.0000000000000000e-001 -5.0000000000000000e-001</alpha>
      <index>
        15 0 29 28 27 26 25 24 23 22 21 20 19 18 17 16 14 13 12 11 10 9
        8 7 6 5 4 3 2 1 82 80 81 76 79 78 77 60 83 84 85 86 87 88 89 74
        73 72 71 70 69 68 67 66 65 64 63 62 61 75</index></_>
    <_>
      <sv_count>60</sv_count>
      <rho>7.5884752732235938e-005</rho>
      <alpha>
        5.0000000000000000e-001 5.0000000000000000e-001
        5.0000000000000000e-001 5.0000000000000000e-001
        5.0000000000000000e-001 5.0000000000000000e-001
        5.0000000000000000e-001 5.0000000000000000e-001
        5.0000000000000000e-001 5.0000000000000000e-001
        5.0000000000000000e-001 5.0000000000000000e-001
        5.0000000000000000e-001 5.0000000000000000e-001
        5.0000000000000000e-001 5.0000000000000000e-001
        5.0000000000000000e-001 5.0000000000000000e-001
        5.0000000000000000e-001 5.0000000000000000e-001
        5.0000000000000000e-001 5.0000000000000000e-001
        5.0000000000000000e-001 5.0000000000000000e-001
        5.0000000000000000e-001 5.0000000000000000e-001
        5.0000000000000000e-001 5.0000000000000000e-001
        5.0000000000000000e-001 5.0000000000000000e-001
        -5.0000000000000000e-001 -5.0000000000000000e-001
        -5.0000000000000000e-001 -5.0000000000000000e-001
        -5.0000000000000000e-001 -5.0000000000000000e-001
        -5.0000000000000000e-001 -5.0000000000000000e-001
        -5.0000000000000000e-001 -5.0000000000000000e-001
        -5.0000000000000000e-001 -5.0000000000000000e-001
        -5.0000000000000000e-001 -5.0000000000000000e-001
        -5.0000000000000000e-001 -5.0000000000000000e-001
        -5.0000000000000000e-001 -5.0000000000000000e-001
        -5.0000000000000000e-001 -5.0000000000000000e-001
        -5.0000000000000000e-001 -5.0000000000000000e-001
        -5.0000000000000000e-001 -5.0000000000000000e-001
        -5.0000000000000000e-001 -5.0000000000000000e-001
        -5.0000000000000000e-001 -5.0000000000000000e-001
        -5.0000000000000000e-001 -5.0000000000000000e-001</alpha>
      <index>
        15 0 29 28 27 26 25 24 23 22 21 20 19 18 17 16 14 13 12 11 10 9
        8 7 6 5 4 3 2 1 111 109 110 105 108 107 106 119 112 113 114 115
        116 117 118 104 103 102 101 100 99 98 97 96 95 94 93 92 91 90</index></_>
    <_>
      <sv_count>60</sv_count>
      <rho>-2.5000000000000000e-001</rho>
      <alpha>
        5.0000000000000000e-001 5.0000000000000000e-001
        5.0000000000000000e-001 5.0000000000000000e-001
        5.0000000000000000e-001 5.0000000000000000e-001
        5.0000000000000000e-001 5.0000000000000000e-001
        5.0000000000000000e-001 5.0000000000000000e-001
        5.0000000000000000e-001 5.0000000000000000e-001
        5.0000000000000000e-001 5.0000000000000000e-001
        5.0000000000000000e-001 5.0000000000000000e-001
        5.0000000000000000e-001 5.0000000000000000e-001
        5.0000000000000000e-001 5.0000000000000000e-001
        5.0000000000000000e-001 5.0000000000000000e-001
        5.0000000000000000e-001 5.0000000000000000e-001
        5.0000000000000000e-001 5.0000000000000000e-001
        5.0000000000000000e-001 5.0000000000000000e-001
        5.0000000000000000e-001 5.0000000000000000e-001
        -5.0000000000000000e-001 -5.0000000000000000e-001
        -5.0000000000000000e-001 -5.0000000000000000e-001
        -5.0000000000000000e-001 -5.0000000000000000e-001
        -5.0000000000000000e-001 -5.0000000000000000e-001
        -5.0000000000000000e-001 -5.0000000000000000e-001
        -5.0000000000000000e-001 -5.0000000000000000e-001
        -5.0000000000000000e-001 -5.0000000000000000e-001
        -5.0000000000000000e-001 -5.0000000000000000e-001
        -5.0000000000000000e-001 -5.0000000000000000e-001
        -5.0000000000000000e-001 -5.0000000000000000e-001
        -5.0000000000000000e-001 -5.0000000000000000e-001
        -5.0000000000000000e-001 -5.0000000000000000e-001
        -5.0000000000000000e-001 -5.0000000000000000e-001
        -5.0000000000000000e-001 -5.0000000000000000e-001
        -5.0000000000000000e-001 -5.0000000000000000e-001</alpha>
      <index>
        52 50 51 46 49 48 47 30 53 54 55 56 57 58 59 45 44 43 42 41 40
        39 38 37 36 35 34 33 32 31 82 80 81 76 79 78 77 60 83 84 85 86
        87 88 89 74 73 72 71 70 69 68 67 66 65 64 63 62 61 75</index></_>
    <_>
      <sv_count>60</sv_count>
      <rho>5.0000000000000000e-001</rho>
      <alpha>
        5.0000000000000000e-001 5.0000000000000000e-001
        5.0000000000000000e-001 5.0000000000000000e-001
        5.0000000000000000e-001 5.0000000000000000e-001
        5.0000000000000000e-001 5.0000000000000000e-001
        5.0000000000000000e-001 5.0000000000000000e-001
        5.0000000000000000e-001 5.0000000000000000e-001
        5.0000000000000000e-001 5.0000000000000000e-001
        5.0000000000000000e-001 5.0000000000000000e-001
        5.0000000000000000e-001 5.0000000000000000e-001
        5.0000000000000000e-001 5.0000000000000000e-001
        5.0000000000000000e-001 5.0000000000000000e-001
        5.0000000000000000e-001 5.0000000000000000e-001
        5.0000000000000000e-001 5.0000000000000000e-001
        5.0000000000000000e-001 5.0000000000000000e-001
        5.0000000000000000e-001 5.0000000000000000e-001
        -5.0000000000000000e-001 -5.0000000000000000e-001
        -5.0000000000000000e-001 -5.0000000000000000e-001
        -5.0000000000000000e-001 -5.0000000000000000e-001
        -5.0000000000000000e-001 -5.0000000000000000e-001
        -5.0000000000000000e-001 -5.0000000000000000e-001
        -5.0000000000000000e-001 -5.0000000000000000e-001
        -5.0000000000000000e-001 -5.0000000000000000e-001
        -5.0000000000000000e-001 -5.0000000000000000e-001
        -5.0000000000000000e-001 -5.0000000000000000e-001
        -5.0000000000000000e-001 -5.0000000000000000e-001
        -5.0000000000000000e-001 -5.0000000000000000e-001
        -5.0000000000000000e-001 -5.0000000000000000e-001
        -5.0000000000000000e-001 -5.0000000000000000e-001
        -5.0000000000000000e-001 -5.0000000000000000e-001
        -5.0000000000000000e-001 -5.0000000000000000e-001</alpha>
      <index>
        52 50 51 46 49 48 47 30 53 54 55 56 57 58 59 45 44 43 42 41 40
        39 38 37 36 35 34 33 32 31 111 109 110 105 108 107 106 119 112
        113 114 115 116 117 118 104 103 102 101 100 99 98 97 96 95 94 93
        92 91 90</index></_>
    <_>
      <sv_count>59</sv_count>
      <rho>5.3590180976613644e-001</rho>
      <alpha>
        5.0000000000000000e-001 2.8590180109495122e-001
        5.0000000000000000e-001 5.0000000000000000e-001
        5.0000000000000000e-001 5.0000000000000000e-001
        5.0000000000000000e-001 5.0000000000000000e-001
        5.0000000000000000e-001 5.0000000000000000e-001
        5.0000000000000000e-001 5.0000000000000000e-001
        5.0000000000000000e-001 5.0000000000000000e-001
        5.0000000000000000e-001 5.0000000000000000e-001
        5.0000000000000000e-001 2.5000000000000000e-001
        5.0000000000000000e-001 5.0000000000000000e-001
        5.0000000000000000e-001 5.0000000000000000e-001
        5.0000000000000000e-001 5.0000000000000000e-001
        5.0000000000000000e-001 5.0000000000000000e-001
        5.0000000000000000e-001 5.0000000000000000e-001
        5.0000000000000000e-001 -4.6409819890504878e-001
        -5.0000000000000000e-001 -4.6409819890504878e-001
        -4.6409819890504878e-001 -4.6409812508329651e-001
        -4.6409812508329651e-001 -4.6409812508329651e-001
        -4.6409812508329651e-001 -5.0000000000000000e-001
        -4.6409822716418603e-001 -4.6409822716418603e-001
        -4.6409822716418603e-001 -4.6409822716418603e-001
        -4.6409822716418603e-001 -4.6409822716418603e-001
        -4.6409822716418603e-001 -4.6409822716418603e-001
        -4.6409812508329651e-001 -4.6409812508329651e-001
        -4.6409822716418603e-001 -4.6409822716418603e-001
        -4.6409822716418603e-001 -4.6409819890504878e-001
        -4.6409819890504878e-001 -4.6409819890504878e-001
        -4.6409819890504878e-001 -4.6409812508329651e-001
        -4.6409812508329651e-001 -5.0000000000000000e-001
        -4.6934890928719142e-001</alpha>
      <index>
        82 80 81 76 79 78 77 60 83 84 85 86 87 88 89 74 73 72 71 70 68
        67 66 65 64 63 62 61 75 111 109 110 105 108 107 106 119 112 113
        114 115 116 117 118 104 103 102 101 100 99 98 97 96 95 94 93 92
        91 90</index></_></decision_functions></opencv_ml_svm>
</opencv_storage>
